10 10
3 0.04121967 -0.008027737 0.033402912 -0.034711227 0.038573183 0.040276024 0.025790798 -0.0210347 0.02117812 0.0028189796
6 -0.00093224505 0.03636613 0.04937939 -0.0067531387 -0.035566874 -0.015392276 -0.0054085767 -0.021216987 0.005237337 -0.027591096
4 -0.031794198 -0.0018973545 0.008909469 0.018879715 0.019584235 0.030069636 -0.036185276 0.02633114 -0.048771497 0.033307657
5 0.018245107 0.018340353 0.03750016 -0.0125735905 -0.04206405 0.021872668 -0.003291617 0.035267472 -0.024855256 -0.044283543
7 -0.045030743 0.045577448 -0.04331816 0.024140017 0.03366879 0.015201366 0.026921455 -0.02731405 0.025266174 -0.043553386
0 0.044979684 0.0008084598 -0.019599633 0.0009209283 -0.003981572 0.03452241 0.043168798 0.031582262 -0.041711997 0.02777205
9 0.026596945 0.046896424 0.04374298 -0.0059156152 0.04705217 0.0011181817 -0.004131211 -0.0048518567 -0.02646066 0.03128472
1 0.030282898 0.035654142 0.039285 -0.045872323 0.028374577 -0.02905271 -0.020701969 0.04726447 0.016613174 -0.020470876
2 0.030598553 0.02967393 -0.023464229 -0.008361347 -0.04071856 -0.037884444 -0.019920485 -0.0342757 -0.048788823 0.020847168
8 0.049082637 0.032835815 0.014605254 -0.043317962 0.022439577 -0.04936528 0.00011994686 -0.025939617 0.01333772 -0.040564526
