10 10
2 0.015075084 0.021034481 0.036659665 0.00036666877 -0.045407735 0.022674961 -0.050086185 0.006674684 0.01600265 0.0044204183
6 0.014503931 0.014565103 -0.040665377 -0.0054958346 -0.017420772 -0.0016873085 -0.039642718 -0.0010610212 -0.010797781 -0.02170671
7 -0.016880129 -0.038265068 0.047123987 0.04891336 -0.035014372 -0.043124057 0.027814614 -0.01740202 -0.04604722 0.024520501
0 -0.0008350926 -0.030560171 0.03955452 -0.011213989 0.043341734 -0.034985524 -0.018529164 0.029252214 0.00063890335 -0.015404875
8 -0.021522595 -0.038352773 -0.01881867 0.00034542955 0.018795166 -0.032432973 -0.029218761 -0.035621066 -0.045409504 -0.02320886
4 0.011828769 0.016257228 0.039948057 0.0055489615 -0.008284126 0.009600079 0.006133175 0.035568826 -0.03309161 -0.0070108306
5 -0.0035020683 0.047803674 -0.0019149182 -0.0063299416 -0.041566618 0.038084865 0.019972457 -0.03049476 -0.016474457 0.02194399
1 0.03514302 0.009656545 0.0019743317 0.04982345 -0.017359877 0.042019483 0.040999703 0.012761974 -0.037269384 0.045041833
9 -0.046532582 -0.01796443 0.011842844 -0.0033230935 0.024876906 -0.016275238 -0.0076804585 -0.043891236 -0.017633077 0.02143131
3 -0.016356703 0.0058437022 0.021988567 -0.014965624 -0.048723754 -0.042024575 0.028178902 -0.046532832 -0.018200487 0.037017502
