1461 32
33.0 -0.78237003 -1.9263155 0.5072647 0.6418726 6.996613 -0.2147751 -2.5023568 1.8238277 -0.2749921 2.89252 -4.7519727 5.462461 8.007836 -0.17464885 -1.7045453 0.014042474 -1.2255906 5.100333 0.71096534 1.7179233 -11.232116 1.8116455 -0.06054685 5.2298374 1.5247941 0.6347173 -0.19596647 0.75851965 -2.2821462 -4.1158323 -4.8124022 -5.1948476
78.0 -6.1082144 0.13822529 -1.6994342 5.5441957 -4.216829 5.6931453 -1.2313542 1.2848395 1.0113978 -5.564438 -4.992432 1.8419712 -5.128705 -4.0689716 -1.3631746 1.5948341 -2.0787327 1.9573417 -2.5785148 0.20463309 2.939021 9.315121 -1.7353789 -5.4621453 -4.645379 -0.35499197 4.444452 1.27579 -4.1585307 -6.202884 -8.806582 -0.13708843
34.0 0.5828079 6.391551 1.1907436 3.464813 4.772492 -0.6045625 -6.392085 3.7229779 -1.2209249 0.18584134 -5.430492 6.9143186 5.98764 -5.6108594 -2.7948515 -6.0543876 2.132217 4.516724 4.432959 3.3407729 -8.5124445 1.7986327 -1.7079432 3.222085 1.1321831 -5.384212 1.3552852 -0.64920944 -6.80193 -6.086466 -7.320838 -0.75414747
150.0 5.1678786 9.867659 -2.6172066 5.0786037 -5.4776535 0.47032702 -0.34373018 6.1543255 -0.026926536 -3.3510768 3.0478752 -3.6583645 3.9085095 2.575078 3.2472172 8.637855 -3.733053 -1.3782846 -6.764967 -3.2035677 2.680622 5.232293 7.8757377 -3.0124173 -6.7693477 4.7597227 1.3344872 4.176928 -4.263699 0.61345226 -1.3722655 4.2719684
281.0 -3.323341 4.991412 -2.2899215 4.8751283 -2.9942455 2.4124453 5.325351 6.827795 2.5343857 -4.2773004 -0.7071758 -4.8330393 1.0656303 0.8386925 -4.5770707 5.7815747 -2.2518828 -3.8761537 -10.663022 -2.9196951 0.6223755 9.578654 4.669618 -0.9685277 -10.279055 4.257874 0.38863167 -0.9385815 -3.8882916 -3.259246 -4.7457595 -0.3567708
151.0 4.077719 9.259284 2.6147144 -0.062107705 -4.1690183 -4.4035687 4.406615 1.1744677 1.9351498 1.8304268 5.3768044 -3.1036026 2.5561366 -2.0664532 5.0672145 2.5188122 -2.2748601 1.9309602 -7.1226444 -0.5333729 -1.2044448 5.1904793 6.3012514 0.049826182 -10.882428 -0.55028486 -2.2064292 1.8867203 3.5831552 0.6260927 -3.9740436 -0.09445826
294.0 -4.776866 -1.4018154 4.716899 -5.9930363 -0.65555924 1.0811538 1.0167015 -1.4345196 5.96679 6.1849623 -0.114136025 2.307552 2.0940537 8.65263 -4.2663283 -1.2341014 6.4823284 -2.568167 3.3472245 -0.72352666 2.6628535 -2.891262 1.0417509 -5.2543254 -0.73009163 2.232461 2.515533 -2.6236005 -2.4815338 2.204278 -5.241156 2.2824275
516.0 8.872175 1.3822337 3.6001065 -5.4953456 -2.2913518 -2.5165925 0.2083209 4.9671283 4.9437766 1.57129 4.508849 -3.708946 0.35091954 -1.5734435 8.105717 9.009272 0.47870794 0.87978435 -7.3828964 -5.401599 2.7944188 5.9087234 6.3184056 2.0128565 -6.406735 1.7458948 -1.2074194 0.76457334 -0.52494484 -6.0325723 -1.4561908 0.4750031
216.0 10.005782 0.45025787 9.062781 -5.175947 -2.2578235 0.5283087 -2.7670956 3.3346913 -1.5477847 -0.1622649 4.552114 3.3188846 -3.4920096 -1.7496257 9.074643 4.1852455 2.1745322 -2.0278468 -0.02065629 -7.914363 8.091515 0.49305648 1.1742725 2.1293492 -5.857883 -2.9488704 -0.5076735 -3.2902207 -0.2819741 -7.6676126 -2.5838337 -0.66967
219.0 8.267894 -1.4137284 4.948858 -6.4371586 -3.0728364 0.1631338 -8.955316 -2.4468446 -0.54115987 0.71638066 2.4293828 2.7687283 -5.5311613 -1.9108267 4.638558 -2.7612574 -0.18636471 1.3910216 2.634691 -3.4288948 11.813327 -3.2003386 -2.9642305 -1.3837689 -4.066233 -2.2379317 0.14790581 -0.069188274 2.4319515 -3.8725455 4.2137094 -0.16721988
327.0 -2.2805514 -1.1359103 2.88447 -1.7677717 0.115476206 2.6573987 -1.6301618 1.1846457 -4.756325 -3.2322593 3.424377 4.2860174 4.7429075 -4.375553 -3.0264301 -5.023411 -9.44299 3.9247715 -1.3697584 0.84686387 -7.2322783 0.94307905 -5.1401544 -4.5195394 2.0983176 -4.211155 -2.8155324 5.614477 2.5038624 -4.0442934 2.7632084 -4.410452
62.0 3.2641778 -0.83486813 -1.2791809 -0.42326048 -2.9541605 0.9717873 -3.1297064 -0.4191304 -3.3040261 0.65230227 -0.5897894 5.7451134 -1.1834642 3.2139242 -1.9815037 -2.025446 -4.565988 -9.350249 -2.6534257 -5.098552 1.5813283 1.2901535 1.1101424 -3.0403266 9.235374 -6.816191 0.9660054 1.198427 -1.8750069 3.4479609 -1.0638756 7.0284142
742.0 -1.5608363 -5.1038675 4.0159054 -7.1013513 1.2821487 2.8878038 5.8396673 0.80144185 6.563382 2.3898494 -1.3976258 -3.3530667 2.9419925 6.9979715 -6.5956125 1.0030872 6.135025 3.7624416 2.9838536 -3.568244 0.78493184 -1.8975894 2.501282 -1.669608 -2.6474245 2.2073407 2.1144512 -4.911626 0.25517213 0.7616223 -3.973184 0.78618705
46.0 -10.492846 -0.15038787 -1.7052724 1.456837 -2.4925227 4.9526505 -0.0641249 -1.0081817 1.9205431 -5.731675 4.065976 -1.8838805 1.0764695 -3.627292 -5.6508 -12.240126 -4.570667 0.66731745 -3.2996633 0.21666194 3.1277902 11.002341 -4.70775 -9.327126 -5.5182605 -7.8687253 2.70559 -0.24319375 -5.102856 -3.3821638 -0.107255444 -0.9630752
96.0 -2.520984 6.546232 2.2696571 0.14759801 -1.9093127 -1.097762 -2.6938663 5.065834 0.23773332 -2.7730904 4.4508066 -8.635554 5.0404105 0.9040395 3.6379683 5.4777775 -0.077549726 -4.8115597 -2.305672 -1.0814592 -1.2082875 4.057342 7.4271455 -2.9493434 -9.329322 3.5585353 -4.1608915 2.0297015 2.4202387 5.7238283 0.04530565 1.7126063
517.0 5.6915317 9.258508 2.7116234 2.0607014 1.3477396 -4.636603 1.9827933 6.642633 3.7061107 0.25392076 5.164089 -1.6636261 -1.1718663 0.866968 2.6293662 3.0920002 2.9400373 -4.270704 -5.5890193 -1.7133702 2.3764338 3.278688 8.996175 -0.6245517 -6.5659595 -1.387159 0.46179688 -0.035025746 -3.476347 -1.6678212 -2.690973 3.1459284
69.0 -4.1122193 9.9068 4.7299285 0.8839991 -7.231786 -6.90428 -10.531202 1.9837295 1.6969502 -0.6754503 0.65308535 -2.9130445 4.028552 -2.6929433 1.3466058 2.4479537 2.7313087 -1.2992411 0.37081805 0.92305225 -2.6932058 6.4910893 4.210618 -0.72004277 -6.2629824 1.584044 -5.9991965 -3.6307266 1.6937224 6.5524087 -0.67103434 4.467705
654.0 3.6897492 6.543623 1.6511048 2.4420042 2.6582341 -2.072445 -3.7660725 3.8019626 0.5701286 0.21409625 -5.8758483 4.5080237 2.5309222 -2.0210724 -1.2615395 -1.9519715 3.0000923 4.7614717 7.5930657 -2.067358 -11.197136 -6.06055 -4.0307713 1.6564715 0.11473231 -0.61186165 3.014509 2.94628 -4.806112 -4.5451713 -6.975047 0.6070952
309.0 -11.205305 1.1215245 0.052018534 3.5886097 -0.8686595 3.1179926 -0.088487804 0.8154801 4.8071146 -5.1170945 -4.569392 -3.0175798 -5.535636 -1.882627 -1.3645682 2.6917737 1.934798 1.3425987 -0.13953379 -0.0072921347 2.3064644 5.3495164 -2.6388726 0.06062983 -2.1059418 -2.5149584 0.7163121 -2.1642694 -5.5656414 -5.1882925 -0.8049155 1.2777311
244.0 2.5968287 -0.6096783 1.9628435 -1.1684242 2.846904 -4.2332067 1.9351823 -4.272375 -0.9450779 3.0659325 5.5938063 -1.7833841 -3.0424156 -3.721343 -3.2213356 0.89036816 -0.7645271 -3.6304655 -0.54559207 1.4661399 -1.5410275 1.3177813 -4.212582 4.8951097 2.2498753 -4.461301 -2.0619957 1.0521469 2.9525645 3.3532069 -4.64268 -1.652439
97.0 4.338408 8.530194 1.5079663 -0.93242717 -5.931907 0.72827715 -4.833272 6.6643414 2.1918437 -3.782843 0.47155365 -1.859772 2.4176059 -0.093126595 0.82545793 1.4323529 0.34355095 -3.021399 4.0502744 -1.1891422 -3.6345062 4.1332335 4.531893 -3.8087938 -4.201813 3.6629388 -5.2215095 0.7867173 7.6992183 6.159134 3.3132906 6.1597495
54.0 1.0934396 -0.5911007 0.62725824 4.2419777 7.4232917 2.4001098 -4.923783 2.360258 -0.6605183 1.6854643 -2.9805982 4.4175386 8.764445 -0.6386736 -0.075032204 0.895342 -1.9333652 3.7627895 3.1880698 0.17595407 -7.5285053 1.9247736 -0.7440869 2.6370902 0.71134526 -0.7607841 2.4588737 1.4528141 -3.2981741 -4.634931 -0.58391094 -1.689955
631.0 0.4964493 -0.90173125 1.4816633 -1.5759376 2.4881132 -0.17948507 -2.4478126 -2.3265464 3.9587264 -3.2714453 -0.5014938 -2.345331 3.1090062 -0.9303254 9.78728 -3.93543 -0.37349188 -5.9101024 4.158048 0.035249624 -1.7281715 -0.79573876 0.60667664 1.8727782 3.0947728 1.6657794 2.7475417 -3.5746732 3.5288844 -0.4240545 -1.7727258 -1.6449958
71.0 7.0132947 9.381611 -2.2130544 1.1441976 -4.691516 -1.9165277 -3.5908093 1.1682792 6.9543266 -2.9586263 -1.6297065 -5.5323052 -0.53126764 0.30420506 1.1427035 5.250551 3.1216977 -5.001931 -1.6177387 -3.225163 -3.1753368 7.687528 14.250264 0.9995267 -6.788228 2.1772642 -3.949862 -5.015619 0.19059274 6.2770786 -4.8148537 4.149449
308.0 -4.724779 -2.3387413 -4.624175 3.6825926 -3.1277256 5.621228 4.329531 6.727011 0.19458699 -8.127807 -4.7833586 -2.4319208 -7.093978 0.17184977 -1.2550386 0.21621929 0.4192206 -2.9243047 3.418246 2.6438222 4.478645 6.4635167 -2.8996887 -1.1068342 -0.4696056 -1.6143509 5.4262586 -3.5495572 -4.36148 -3.871662 -3.1915784 0.045972742
53.0 4.3448515 -0.5229949 3.785653 3.8598099 8.17666 -0.46626982 -6.5719237 1.0632029 2.5267737 2.579717 -2.6551874 8.404467 5.3891797 1.643316 -6.0375614 3.3908591 3.1746042 1.9489152 0.9530156 2.9247386 -7.779271 -2.323555 -1.782928 6.1368394 3.2150173 1.7476249 -1.5767627 -0.72020274 -6.496715 -3.2401907 -0.6683548 -4.833561
756.0 -7.356715 5.502328 1.2091544 7.382823 -6.7856693 0.71462846 -13.327881 2.9206052 1.1155357 -4.8530006 -9.282804 6.7115464 0.27885225 -6.5459657 -3.2212074 -6.3043046 -0.62095475 -2.483662 3.8143017 5.8804235 -5.598108 6.49865 -1.0724036 -0.14594543 -6.465157 2.7420382 -3.056819 -3.8361366 -6.1868067 -3.8652904 -6.5207086 2.4667292
482.0 -4.1110907 -0.60986984 -2.35283 -4.4383445 -3.0712137 0.35536858 -0.46203265 4.165113 -2.360969 2.741549 -2.0766628 1.4087545 -6.4111485 5.4536486 3.9318042 0.97807634 -2.792249 0.091760814 -1.0644572 -3.0105414 -2.1230433 -2.2050974 1.5116521 -3.3078969 4.9213386 3.8354497 -5.513854 -1.27313 0.79406327 0.63016534 -5.44385 -4.9846444
301.0 9.740364 6.0417867 1.279304 -1.98981 -0.40143058 -4.391332 -3.5890174 0.14255825 2.0780413 6.0868506 2.1523309 2.30148 6.66789 0.59050816 -1.9179813 -0.6522511 -2.228895 -1.3743278 -8.307216 -1.6638744 -0.8681162 2.707058 10.358249 -3.2952905 -10.086824 5.39232 0.5704236 3.2461498 -2.2000272 1.9965398 -5.4517875 -3.928889
916.0 0.28689918 -0.9149516 -4.8125997 1.9396144 4.6582465 2.9114974 2.7335343 4.7114806 1.1774992 2.0340514 0.33151606 3.6508863 -1.5357164 4.4469695 3.936785 -3.7106013 -2.1681004 0.2575266 -5.3253093 -0.3460968 -1.0279219 0.019611321 -1.5073875 0.79139227 -0.26496226 -0.93783027 1.945929 -6.737904 3.470466 0.3696746 2.9071324 0.1270308
55.0 2.4306839 2.8462453 3.2534254 0.5965337 2.4371302 4.591687 1.8357186 6.030846 -2.8058589 -2.0978394 -1.3401337 5.885331 2.9643009 0.2025258 -0.6014465 -2.0035334 0.18829313 0.24928409 4.8440275 -1.5863777 -8.243419 -7.8612065 -6.9233932 2.9725792 1.9605815 1.9199032 1.6012838 2.5392299 -0.07529254 -2.9544544 -2.4888775 2.2362883
1018.0 -0.9220828 0.55823433 -0.6046107 -1.5181885 2.0664792 4.237347 3.6395676 0.109178305 -2.0038173 -0.49194244 -4.275235 -2.6477358 3.3148441 -1.4307358 1.6794068 -1.7506747 -5.5983667 -4.0290775 2.3540874 1.228627 2.2642274 -0.6878861 0.86438775 4.4742026 0.003632431 -3.2313914 -0.31511408 -2.8336415 4.0692396 -0.37716982 1.9320065 3.6680424
931.0 -3.0556445 -7.736011 6.2998548 -6.4309454 -1.0301899 1.3930609 2.6279657 -3.7796566 2.5768979 5.5784965 1.1146913 -2.3452144 0.15479767 8.947581 -6.366839 0.5615869 2.054821 -4.9298773 3.0407352 -0.74893636 -0.3322408 -2.4949005 2.566494 -0.83607584 -2.0357513 0.7597793 2.0810018 -7.5909395 1.603886 2.611285 -3.7476988 0.8608022
9.0 3.2452064 -2.943955 -0.7629968 0.78093415 1.6887434 3.058647 0.5422877 -2.9653113 1.3705698 -5.380659 4.2390475 -2.0022204 -0.7626147 1.033381 -0.33601636 1.5079114 -3.499379 2.9410465 4.48143 2.3761458 -0.37989876 -4.249476 2.0042973 2.159717 1.477191 -0.22010118 0.18471701 -0.07707223 -2.0670724 0.29935047 -1.6574702 -0.55500567
744.0 -1.8155086 -1.6295775 4.3547115 -6.2535686 -0.3444579 2.6240668 1.7154043 -2.5560215 4.1734085 1.204495 2.3820403 -2.719043 4.7192025 5.4500103 -5.434435 2.795939 3.1646395 -0.27222458 7.147709 -2.339096 1.6026499 -1.160722 2.970002 -1.2797911 1.5099345 -1.1560656 2.7633939 -5.180055 -4.050768 1.4571053 1.6484339 -0.34283862
30.0 -0.67296416 3.053402 7.237779 2.8377092 7.6646867 -2.0557337 -6.492902 -0.27165407 -3.0440526 -0.37960514 3.529868 5.268902 7.9882503 -1.9769456 0.04024954 -4.1723504 -5.2930884 7.821634 0.4975701 4.274406 -9.1343975 -2.9123576 -4.1945887 -3.4354892 -2.5678885 -0.9118908 -2.2066953 9.50573 -0.0920013 -5.530438 0.8496358 -4.4416447
522.0 -3.5161622 -2.7603266 3.7555778 -4.6252065 3.2274408 3.4760544 2.4292161 -0.9859591 5.33697 6.0134263 2.1406083 -0.7232203 -1.5955727 5.7031636 -5.384625 1.2031629 4.05407 1.4499122 -1.7995452 -4.427199 -3.2049012 -3.3769996 -0.8495489 -3.852481 -6.4686236 -3.5840428 0.805792 -3.959806 -0.44556454 4.395714 1.0407219 -0.25313073
88.0 -3.772898 -0.09228222 -0.28326648 -2.8999555 5.83081 -4.0069914 0.21364611 -0.18222612 -1.849603 -2.2298787 3.0607896 -1.6558101 -2.0764818 4.0934258 0.55574137 -5.4861608 -0.08732555 -2.4213016 0.87656206 2.779382 2.8102348 1.8077476 1.0458579 2.9663596 3.9151566 -1.6065849 -3.2601361 -4.265686 2.0905962 2.9608788 -1.5051612 -1.0219742
121.0 -6.881907 4.5839133 -4.901156 4.930712 -1.804485 2.8068318 -2.8782556 -0.69202614 0.14113134 -3.1534243 -5.567287 5.2633657 -9.895419 -1.5366447 -5.419362 -2.2932975 -1.7072518 -0.5718658 -2.2131808 4.7547483 0.38402665 2.135959 -4.5288057 -1.7796522 -5.482669 -3.0234487 2.6280262 -2.2449317 -4.8629317 -5.402662 -5.8382506 -1.7800717
194.0 -3.6181233 -6.5266314 -1.1107306 0.117816985 -0.68761957 4.1923594 -3.9188783 -1.6438111 0.96469235 0.25353736 -1.8136791 -4.868987 1.3083125 -1.7197874 -5.495196 -6.6859493 -3.4259691 1.8650156 1.945969 0.23852682 5.8767853 6.296677 0.24032126 -6.7505307 -1.3044485 -6.304946 -0.460583 2.3850346 -1.7967024 0.118464954 -0.7929701 1.931901
761.0 -0.31735206 7.262551 -1.8727239 5.363618 0.82947683 0.46628752 -5.0085826 0.83577174 1.0620824 -0.12002099 -4.970244 2.075474 -1.3001912 -4.3719325 -2.1787355 -1.1032479 1.6627591 5.1455016 2.6675277 6.17998 -6.3981867 2.0949767 -3.596635 -0.11232443 -2.1176317 -2.0554118 -0.65919495 -0.32131645 -2.2310464 -3.2189336 -7.4299483 -4.330388
94.0 1.1953111 5.275096 1.867786 2.278151 -1.6431338 -2.151919 -2.0253856 4.334667 2.2024667 -2.5708315 2.309021 -6.2155886 2.5024312 -0.42747942 2.91836 2.917682 1.8441546 -0.33956832 -1.4778957 -0.52519953 -1.1092188 3.73738 3.6659493 -1.8711045 -7.355859 2.5148048 -1.4052504 -0.28067288 2.3378005 5.3713517 0.018860282 2.231694
973.0 1.7544177 3.2512426 -6.1044936 -3.7697632 3.8872743 -0.5026822 1.3935087 -1.6216564 3.2495542 0.079216555 5.0736585 0.5865384 -2.303586 -0.9278364 -1.4447272 1.3154515 0.10426292 1.8396187 2.1493893 -4.4767027 0.47211176 -1.3526708 -0.7484755 -2.9623559 5.9951634 3.0389705 2.390669 -2.5742986 -2.2255082 0.48681244 -0.6864072 -6.922699
343.0 3.7592766 -3.3911138 8.598295 -2.8175218 -0.5025854 -1.3716031 -3.5648034 -1.1247007 -1.3149676 1.5347742 2.3926117 2.4048717 -7.3975916 -2.792154 9.338614 1.6186717 1.2791209 1.0259472 1.8094846 1.3428024 5.927021 -2.7731173 -2.3782563 0.81774145 -1.0682014 1.7775893 0.7371634 -2.938103 1.1777598 0.30658153 0.6360054 0.35615262
1145.0 6.1174765 -0.13257234 2.7581553 -4.0061464 -3.7817888 -0.5620654 -1.8645465 -2.3131006 0.635927 0.4414154 -1.9181349 1.6423634 -5.8405395 -0.25155035 8.255434 -1.1360351 1.4839356 1.0870675 3.0642357 -1.6769129 7.1182084 -3.787836 -2.9666302 0.05954613 -1.7312584 -2.3685098 3.115161 -3.303735 3.7368805 0.6789551 1.0029392 2.0559378
806.0 1.7986593 -0.7609194 -0.8883874 0.3732217 -0.65776783 0.6331418 -1.5465372 -1.7434773 -1.5028191 -0.34492123 1.4882206 1.6165437 -1.4860052 2.180721 -2.0813055 -2.0308053 -4.0837855 -5.01853 0.7195099 -2.862542 0.83483285 -1.9775497 3.7774384 -2.318333 7.5434117 -2.8627744 0.59697306 1.9820204 -2.7651048 2.008992 -1.3994596 3.6107156
56.0 1.5312048 4.281933 3.3771434 2.4157174 1.7483127 0.8557324 3.935905 4.800787 -2.8365402 -1.9849854 -3.1066034 4.9616923 2.118254 2.2305987 -1.0550742 1.9139149 0.7237509 3.9403772 4.9300647 0.32520753 -7.5232635 -6.9295225 -6.3833675 1.4903753 2.273511 -3.435182 1.8272755 1.426994 -1.1992537 -1.7273514 -1.5294914 1.7760266
1000.0 3.2077355 -2.1422386 -9.109907 -0.408382 1.0426408 0.8891096 -0.07986727 5.7632 0.5379961 3.57873 5.2875047 8.708148 0.86693317 1.5867904 2.6828694 -6.2659183 -2.5620737 -0.6035593 -6.341097 -1.1439421 -2.1996536 0.5255415 -3.3601978 5.2036734 -2.437338 0.32901803 3.1087599 -6.4383874 9.688804 2.1310515 2.6609175 1.9900875
984.0 0.9052993 -3.690998 5.041968 -2.259367 0.82610804 1.2160188 -4.929907 -2.5547745 -0.070202366 0.86291784 -2.0439827 -0.78281355 -4.6529193 0.18017812 3.82102 2.7633343 -1.773963 1.1459566 0.86218846 -0.40321323 6.4459286 -0.3758666 -3.8290327 1.081808 -0.31116098 2.2263846 -1.4509755 -0.092776276 4.055922 -1.568121 5.470801 -1.8810948
473.0 4.6602545 -4.571047 3.707479 -2.536293 -1.4952643 1.3584923 -6.6294127 -4.2573714 -0.47173107 1.3670746 0.40265122 0.8517899 -7.048956 -0.5188527 7.2851 5.18227 -0.8324517 1.8600824 0.7218357 -2.471306 8.783433 -1.6213789 -1.2599068 0.3265536 -4.6080713 -0.3767491 -1.0427084 -0.65840507 6.0728054 0.19781765 3.3423388 -0.9523079
496.0 -0.5915443 -2.035778 1.4783026 -0.24023795 -2.1942663 -5.0009294 1.083073 1.7814552 -0.7817447 -1.0544564 0.90674996 -3.5923564 -0.42634824 2.396734 -0.51535 -2.1425269 0.059964567 1.111163 0.58931863 -1.6602645 5.980945 -0.1471332 -2.3392892 0.9110945 6.7151375 3.5540042 2.7533321 -0.38771516 -3.8311772 3.951759 -2.0180907 -2.3609333
362.0 0.15421383 -3.4223442 -4.676068 -1.6526163 -1.2615696 -0.8220656 -3.1577175 -0.23414151 -1.4615706 -0.8226081 3.0244775 6.515943 -0.14533028 5.4474373 -0.68930537 -5.4483438 -6.123932 -6.8861265 -1.776292 -7.5220895 2.4514203 -1.4771814 4.637015 -1.5890255 8.718457 -1.0194349 -2.0449047 2.870193 -1.8055048 2.2172346 0.42803842 6.633755
239.0 -6.975247 -5.6233397 -0.35865775 1.0055486 3.0192127 0.0521847 2.1732585 5.6537104 -0.60849357 -1.8771251 3.175473 -1.0800362 3.266066 2.0838532 1.3672966 2.3905768 -1.122537 4.128996 0.27556998 0.43246648 5.989747 -0.8451777 1.2148192 0.82161546 4.572615 -1.1320355 0.9556469 -1.1489341 1.5768274 -2.7129447 0.7183704 1.2600385
377.0 -1.996653 -0.9039118 1.7745177 1.8947405 6.893084 -0.49416173 -2.835695 2.5350604 -0.2620834 1.9220093 1.9665091 1.1974268 4.018858 -2.1264756 0.8944504 -1.3933899 0.35516682 3.2228498 1.1989747 0.3517749 -6.902941 1.9746505 -1.5104744 4.1188254 0.9231133 0.65999156 1.3563502 -0.8767396 -2.645631 -2.2438972 -1.9987552 -4.8745427
402.0 -1.040974 0.15568039 3.5298553 -0.3113567 0.39705423 -0.40361068 -1.7781128 -2.4166193 -3.1096606 -0.92326975 5.2766886 4.119689 5.2618537 -3.3490574 -4.4035754 -5.3795805 -9.03596 8.835534 -0.5494525 0.83280724 -7.1312423 -0.834187 -3.337278 0.7907507 1.3529228 -2.2477834 -3.7909653 1.1279113 1.7538006 -7.4976745 0.20879158 -2.4458811
913.0 1.9180399 0.45235163 -5.0224648 2.1002932 3.3455358 0.18374786 1.962701 2.6999173 3.0401938 1.6038045 0.26991513 2.870659 -1.2294337 1.1280524 1.0856873 -5.578391 -1.5896934 0.28075072 -5.5585294 0.11129522 -0.3482177 -0.013007022 -1.8315477 3.1743498 0.19301356 0.30617562 0.24220957 -5.717713 3.718534 0.38584083 2.7820203 0.13161731
416.0 -3.347632 -0.3955673 3.586235 2.7287238 1.9203366 0.48631337 3.6289036 -1.9878653 -0.5729959 -2.4991314 4.703808 -0.32473814 4.335666 2.0062106 -2.9371438 -5.1990266 -6.216723 3.5771751 -2.4480948 1.2620248 -2.107922 0.5118651 -4.3152976 -2.941967 -0.90790075 -3.5036876 -0.6362957 4.6258955 -0.8332197 -3.0686777 0.7301724 0.114189975
415.0 2.6227036 -2.140248 -0.26515478 2.6818085 4.6263742 -4.183941 -1.0161078 -4.2564387 1.530083 2.0181983 3.0497105 -1.0172328 -4.9994826 -3.8219488 -2.8130796 2.8330245 -1.1068536 -1.8693143 -2.5582554 0.42683315 -2.7576263 3.174491 -3.0414855 6.622713 2.3781524 -6.908194 -1.1013088 2.9608977 3.9985445 1.1230471 -2.0530803 -1.9974852
1201.0 1.0062311 -0.46402782 -5.9057164 2.1330755 2.978015 1.1912525 1.5444385 6.022766 0.4806081 0.13177155 -0.23371169 2.7303324 0.102287985 1.2832977 4.057201 -3.912625 -2.212739 0.9941334 -3.3989038 -0.57684493 -0.44736585 1.1368885 0.1415049 1.8000416 0.93891484 0.32913208 2.5505583 -5.130271 4.163985 1.2262605 3.9617534 -1.8595731
136.0 8.186366 -5.0049524 5.9292307 -4.0645695 4.045231 0.46137688 1.8887376 0.7753925 -1.1609313 -1.5334766 4.2264996 -2.880649 -1.5241653 1.072336 5.2241535 3.0399222 -0.024771642 0.03923873 -2.1677284 -5.7384763 7.997971 -0.62951577 -2.62118 3.2277167 -2.1276302 -2.7065995 3.6693552 1.0345529 -0.7483989 -4.56575 3.2833326 -3.275526
662.0 0.46658617 -1.1208186 -0.59556764 -0.20331018 4.6598024 2.8004425 0.13911383 -2.8069825 2.7883117 -1.4187907 1.9046825 -0.822219 -0.7298958 0.4528912 0.4625004 -0.3657098 -1.8227309 -0.62451875 -0.3746486 1.4084042 -1.0539321 -2.7337883 -3.1640172 0.94632405 0.44493064 3.583578 -1.128164 -0.6298471 6.648565 0.015660245 -4.025685 4.1754174
293.0 -2.5948892 -2.9504492 3.46311 -4.012177 2.7792475 0.9551195 2.6229634 -2.3802068 3.7425563 2.263268 -2.3812664 -2.4727504 2.0317254 5.903663 -2.6783636 2.6931796 3.8983252 -1.7930604 3.6289248 0.27028427 2.9752278 -1.0530192 2.9221401 -0.36018717 1.0240903 1.3796024 0.5261156 -4.628949 -1.6611896 1.7383807 -1.0524358 0.30005226
481.0 -5.0147367 -1.979141 -0.7532393 -2.6338587 -2.9526615 -1.5565374 -0.79080534 4.3685207 -1.3707209 3.0868433 -2.36141 0.20980874 -3.9004881 6.0116673 0.6620959 -0.5151401 -3.0361967 -1.2681794 -4.1863503 -2.985131 -0.17945522 -1.2931851 -2.0878844 -3.8272934 3.5731356 1.9930815 -5.6602993 -2.757009 2.0696716 -0.72821295 -3.34047 -2.7412906
537.0 0.7110857 2.6465023 -1.0396992 -1.430633 1.2256851 -1.5755713 4.0987964 -1.9554362 2.502829 1.4324882 -1.0657009 -3.3971024 -4.7573276 1.367681 -1.6291419 -1.3014603 -2.3569076 -0.5442273 1.4083054 -0.8226173 0.9562273 0.8925257 -0.81366926 -1.4235461 4.6402864 -0.09198291 -0.5447357 1.7287899 7.9803157 0.70203686 -1.2848736 -1.7272952
82.0 -0.07895371 -0.73021626 0.46857777 0.092632584 -2.220672 2.8546185 0.19211039 4.448564 -1.2355824 9.513735 0.54877925 -0.36637226 -4.532441 -2.396192 -0.44229853 0.6056024 -3.297787 1.8393242 4.6108336 0.22324081 0.56548977 0.021725027 -0.7190362 4.5174017 -2.7175581 2.2839992 -4.2073574 0.6272715 2.9253054 2.1228614 2.1225495 1.2771395
843.0 -2.9659064 1.4371551 -2.067631 -4.9158273 -0.0010142535 -1.4745895 0.6375888 -0.6257154 0.03572463 -6.852586 -2.8329751 2.114586 -1.4051464 2.3829603 1.8539993 5.622591 1.0363473 3.5748246 2.1472151 0.20640339 2.378359 -0.3385806 0.095952906 4.4122276 3.6323564 -1.901452 -1.0029233 -2.9871416 1.5143888 2.3359632 0.50073415 -5.4863358
300.0 1.3475024 1.2516592 -5.7350235 -5.4688 4.6709423 0.06396509 -1.4170556 -1.109119 0.48665637 0.06570148 5.5414286 -0.29491395 -2.1662085 0.9732122 -0.35305476 0.95609766 -1.4268016 0.110163935 2.4366374 -3.412855 -1.2115097 -2.2126727 -0.4018746 -4.64336 4.129003 1.9290488 2.661766 -3.4337919 -2.8622825 0.77840453 -1.8868438 -5.746532
1356.0 -5.654736 -7.262725 3.3936727 -10.978447 -0.19866869 0.7726899 6.8314834 -1.8551372 6.098192 3.6906915 0.16033001 -1.3803256 3.4043245 3.099975 -2.0725722 -2.0593293 7.146454 -0.23831627 1.1375464 -4.146712 -1.2443999 -1.7427813 -0.41226703 -1.8929178 0.93509054 -1.8374053 2.1281974 -8.329896 -0.5750516 6.8424554 -2.875135 0.27418023
443.0 -1.820734 2.9653745 7.3091316 0.46082616 -5.554701 -3.6903284 -1.9889531 0.44539675 5.366607 -3.9634483 0.97364223 -3.9465697 2.9264872 -4.1067166 -5.759545 0.4724234 0.50631434 -0.01527014 2.3945704 -0.75654185 -5.154111 3.3756998 6.3064523 -1.6961398 0.0033717602 -0.436502 -9.042523 -1.2381521 -0.69874775 4.1959624 0.49596325 2.402966
243.0 -1.6867889 -1.2455221 0.8204013 1.5425546 1.90533 1.1972827 0.9547448 -1.3703398 0.9500527 1.7529173 -1.5145063 -4.1534166 -2.7182505 -1.5217963 1.1860781 4.6457963 -3.360794 1.3805542 1.5138141 4.81264 1.6092336 -2.4701602 1.5549606 0.36066332 -0.41346478 -3.1156185 -1.4674401 -0.77999455 -3.4524055 1.6628819 1.4593581 2.7508256
1225.0 -1.2646998 4.0098104 -2.42059 0.26159132 3.4120646 0.75226414 2.8067229 -5.57142 2.7238371 -1.6053461 -0.52092147 1.6932932 -0.45130453 1.0900975 4.043528 5.194194 -4.354114 3.48619 1.5707396 2.510144 -3.8880374 4.2190676 -4.5275407 0.3607621 2.7270012 3.0175555 -0.036812156 -3.9455318 3.5500727 2.7461154 2.697591 -0.5544636
807.0 2.010683 -0.2821958 -2.3645914 0.89333016 0.29298747 -0.9118434 0.13727815 -0.5173739 -1.6286883 -1.5023866 0.2915074 1.7976373 -0.38414812 2.648668 -2.001001 -2.059466 -4.0086274 -5.3831725 1.1364391 -3.4768934 0.36258623 1.2258921 2.515856 -0.21282086 8.3397455 -1.2910155 0.8191974 1.0530592 -0.2651717 1.226085 -0.90667176 3.2202232
805.0 1.135421 -0.41080418 -2.6673336 0.7533485 0.09916501 -1.6854494 -0.6367907 -1.774353 -1.2993797 -1.2975647 -0.5850579 0.9347558 -0.061927266 0.7941961 -1.1980687 -1.2040024 -4.5044904 -6.1522126 0.4298555 -2.71314 1.4437245 -1.7179492 2.2312672 0.91285294 6.9313593 -2.7018607 0.19172613 1.9209888 -1.9815211 0.6960686 0.16073124 3.2146442
218.0 7.151185 -2.9729967 5.856179 -3.5629408 -0.6848662 0.045288015 -2.13282 -0.25006756 0.58736634 -0.83642113 3.7237992 -0.2854629 -3.1951854 -1.4717547 5.1418614 0.5175376 0.3936015 1.461095 1.7699915 -4.1279697 6.227757 2.1003954 -1.4697194 3.4998035 -3.5901358 -1.7119515 -0.8865625 -2.0153353 0.573846 -2.9919107 1.8590513 2.3903522
245.0 0.47885168 0.65514404 0.6177798 -0.56047213 2.4404008 -2.769365 1.8940167 -2.8737009 -1.0036612 2.0853465 2.3571517 -1.3733279 -1.8524554 -1.9829159 -1.8151648 1.7471988 -2.048197 -1.641378 1.3410202 0.81495774 0.103963554 0.29223892 -2.1899188 3.7217505 1.6064465 -1.5320674 -1.3662866 0.83620316 1.6237717 1.1143525 -1.049141 -0.6620959
7.0 2.254084 -2.9666278 -0.17928636 -0.47498977 0.74896806 0.5063621 -0.49974805 -2.0545688 0.14439505 -3.4097543 3.0176692 -1.6186385 -0.93039584 0.9375485 0.1777256 1.6609569 -3.275007 0.11325928 4.5439477 0.8802452 -1.4454378 -2.3431425 0.018170288 1.2933568 1.0264153 0.88823175 1.6144135 1.9936904 -1.2533083 1.907378 -1.37235 -2.018394
72.0 1.5830934 8.274014 5.575195 0.13132681 -11.328122 -2.722979 -4.1259108 1.1404461 4.333867 -1.9885488 -1.6285468 -3.4336984 2.452275 -3.2755117 -3.5265477 2.2039022 -0.55572647 -3.6926634 2.820934 2.206315 -0.9834384 3.3961408 4.4267516 -4.123388 -3.859575 1.4268852 -10.621544 -1.6937366 1.7292519 2.5062172 0.22772221 4.1024237
375.0 -0.84453213 -1.3128375 1.4333606 1.3663032 5.4927974 -1.3834777 -1.1198794 2.304042 -0.8128166 2.1033726 1.4245661 1.9010777 3.7781506 -1.2578526 0.36471057 -1.4450593 -0.19225524 2.3095016 2.8753543 0.80890644 -5.4114447 0.3297169 -0.79851264 4.7084723 -0.08015123 1.3225247 1.164089 0.2891883 -2.4151237 -1.7919626 -2.0115738 -3.801516
320.0 1.2141236 -0.5590747 -1.9266263 2.7011204 -0.04708041 -0.57532734 0.23415498 0.48256832 -1.7616113 0.6134867 -1.4113293 -4.5911956 -3.1792014 -0.36612666 -0.16225182 2.6958084 -4.9032693 2.2101288 -1.3917538 1.8993185 0.47540542 -1.7720342 -2.6887803 1.8872045 -0.45487958 0.8728003 4.63859 0.696263 2.7412593 1.7307225 1.280907 1.0708838
266.0 -2.4248168 -2.186191 -1.5149752 -0.11500478 -3.386144 4.1191406 2.4830394 3.0599666 3.0508497 -1.9674035 -3.321112 1.5278866 -3.546827 0.58218265 -0.8478339 2.8162758 -0.16275541 0.61713004 -0.52223134 4.061525 2.355184 3.12944 -1.8312111 -0.10305596 1.4754498 -1.4881066 -1.5553217 -1.0529717 0.06617589 -1.6900332 -1.0512506 0.69652784
265.0 -3.3311915 -2.249518 -1.4564735 -0.66176164 -3.3175154 3.4247034 2.4189444 3.1072814 3.6669722 -2.596943 -3.7599256 1.133788 -2.9026816 0.7651426 0.042265456 2.9423075 -0.17727317 1.0431594 -0.9233682 3.4121516 2.6111984 3.004798 -1.7749153 -0.32932127 1.3612791 -1.9228483 -2.1039393 -1.2026358 0.27543458 -2.0336194 -0.28959987 1.3645657
132.0 0.64402694 0.34677422 -0.8949163 2.7217166 6.5738325 -1.9383886 -4.688706 2.1901724 -1.5928261 0.19239564 -1.9333688 3.5990913 5.697772 -2.3316588 -1.8486427 -0.48594126 -1.8332945 1.9593091 4.5291157 1.3315493 -5.009601 1.9231071 0.09764253 1.7237495 2.3621583 -0.18232659 -0.89328736 2.168694 -2.6010308 -2.861947 -0.69086486 -2.0045195
268.0 -2.7050912 -2.4307213 -1.683018 -0.80456346 -3.1899443 3.6703944 2.4619572 2.763415 3.261416 -2.1795235 -3.812305 1.6121587 -2.7591448 0.74077564 -0.0063137384 2.736309 -0.24235843 -0.0275669 -0.7007144 3.6495142 2.5737503 2.8358295 -2.0173087 -0.59255755 1.7051666 -1.3083237 -1.6885526 -0.90450484 0.35275134 -1.6320616 -0.84428656 1.1607435
371.0 -4.832403 1.3855573 2.3528695 1.4109471 -6.094176 4.115003 1.985282 -0.8090596 0.44552928 -5.446831 -4.928129 -0.6375704 -3.420908 -2.4980586 -3.546882 -1.836371 -2.6900933 -0.90594494 -0.3375552 3.0577943 3.1763797 3.565097 -4.0625587 -0.033201724 -4.0304503 -0.20890531 2.4089825 -2.2527163 -7.7788596 -5.8106604 -4.0806932 -0.80736756
25.0 -1.839139 -1.3464729 -2.5356936 -1.666785 4.092073 2.4252775 -0.48941615 1.8347089 -1.1332146 -0.13667415 0.71233326 -1.5197519 -2.0944855 0.20259778 -1.3734472 2.4063077 -2.0411797 2.5540655 -0.6862518 2.3072093 2.0523121 -0.08076126 1.0877379 3.1268935 1.0555891 3.2819521 -0.34285244 -2.2150555 -0.94531244 2.5570347 1.0285139 1.5484575
24.0 -1.6858426 -2.0129023 -2.5756607 -1.8499411 3.7617307 2.390658 -1.3487701 1.992632 -0.77804416 -0.44523883 1.5094285 -1.1082613 -1.7248896 0.0019963877 -2.2776415 2.489234 -2.047724 1.5929182 -1.2198715 2.527203 1.9540844 -1.2078125 0.34852678 3.3448293 0.39664865 2.2841694 -0.040386494 -2.4574757 -0.7023101 2.146842 1.0124525 2.2649748
283.0 -1.4344704 2.3721635 0.52568525 4.647445 -0.82380265 2.4094405 1.4127247 0.14488186 1.4967983 -1.5532783 3.0453734 -1.1102902 -1.5571834 1.9616492 0.39677712 6.184733 -3.1558983 -0.29041213 -2.617282 0.953066 3.0223124 5.516022 2.6703591 -1.401567 -4.4564376 3.444531 1.6052388 2.1089704 -2.4602075 -1.6646469 -0.68110037 0.050587866
590.0 -2.8999677 -1.131544 -2.382611 0.34390745 -1.0268081 4.0993104 2.060101 3.6921504 3.0070128 -3.5888233 -2.1413493 -1.1913267 -3.4893227 0.5635483 -1.7281508 3.6346042 -0.39089942 -0.931445 -3.3573537 7.244408 3.262913 1.985231 -3.4976158 -4.7622647 2.1805408 -0.7722646 2.7216308 2.1772702 -2.4542828 -2.5367274 -1.2887406 -1.1930585
500.0 1.6369407 7.2753468 0.4412669 0.78207165 -0.9272332 -1.557238 0.48979774 2.515578 2.9116485 -2.1264358 2.425621 -0.49319306 3.4877992 3.240312 3.0860941 3.5366704 -0.65339047 -2.1908367 -8.718785 -1.781307 -1.4295416 2.574751 6.000481 0.6857594 -5.8671174 2.7125063 3.670037 3.0547938 -0.5340459 2.0091734 -1.5276518 1.9310735
547.0 3.531318 4.1633143 4.013262 -0.30201462 -2.5905876 3.3647392 6.1398535 5.542606 -2.9697244 -2.1157222 2.0764794 5.581802 1.6681337 1.0708299 -3.804914 -3.42061 -4.0741425 1.7788026 1.9404899 -0.4795423 -7.074816 -9.696013 -7.085366 -3.4282136 1.6811813 -1.9994255 -0.21509565 4.0087185 0.76326066 -2.228639 0.80921394 2.0960605
652.0 2.0635319 2.227853 2.6978576 1.747678 2.3801718 0.10921631 -1.8814731 1.7300072 -0.16264705 -0.55848265 -5.3785043 1.9037263 3.267091 -3.5381067 -1.3942883 -2.6166084 1.6583507 2.6628644 4.4837284 1.54747 -5.4827147 -2.3843877 -4.578199 3.0779314 0.58079743 -3.344728 1.3003172 2.580499 -1.3243356 -0.6345872 -2.0745673 -0.16215827
1357.0 -4.4570804 -6.323697 2.4182913 -5.13329 -1.3763417 1.5588899 3.5582933 0.63370645 3.6275094 2.4786577 0.12352204 -2.1807246 -1.2348213 1.9637425 -1.3282146 -0.97610533 2.8786054 -2.2111788 2.7635894 -0.5897075 -1.1895863 -2.8890946 1.2880582 -0.49853534 1.4238398 -1.3444021 0.36898845 -4.209463 2.0282435 4.0545235 -0.39483333 1.0428503
1358.0 -3.9012425 -7.0680532 2.5597236 -5.281179 -1.1554446 0.8228489 4.2923098 -1.5351945 2.9387815 3.188951 -0.5892505 -2.649962 -1.222376 1.3181685 -1.5750921 -0.7348366 1.3395346 -1.17435 2.8193445 -1.7633947 -0.7773886 -3.3666236 0.10130351 -1.0902164 0.5796249 0.16820493 -1.1281307 -4.6100526 0.81586945 3.8752954 -1.1928929 0.75190806
655.0 1.8884788 2.393871 2.997011 1.6030319 2.953297 -0.50788057 -1.9554507 1.0460734 -0.3032836 -0.24174605 -4.280955 1.2262577 2.675042 -2.7972794 -1.5539845 -2.6596878 1.8031971 2.7378526 5.5271697 1.2585332 -5.392988 -2.637438 -3.983098 3.653317 0.076388836 -2.3107774 1.1430475 2.312271 -1.7864912 -0.5084129 -2.5190694 0.4593926
743.0 -3.3149443 -2.3735328 2.5069919 -3.057683 0.8514095 1.3837595 2.5858483 -1.7751086 4.6324444 3.1552227 0.11765499 -3.4347858 0.81749535 5.362816 -1.909734 1.6361159 4.102118 -2.1228256 2.9295385 0.103237376 0.5272059 -1.5515352 1.5016934 -0.45085564 1.3482221 1.5750245 0.39119065 -3.1587274 -1.7979863 2.5674798 -0.6951275 -1.7673436
189.0 -2.3505306 -2.2149968 -2.5282915 0.45176753 1.3832322 3.139919 0.043287527 4.513009 1.9827628 1.0816346 2.4823494 0.29767177 2.7022746 -0.45494917 0.37920386 2.2635193 1.100461 4.08927 1.7902626 2.260022 1.6587348 0.8399694 2.5849986 0.7081941 -0.6433952 0.21180084 -0.3694387 -1.8858253 2.9709463 3.3040023 2.2936647 -7.539235
1286.0 -0.7505185 -0.5465157 -1.3345482 -2.2258012 0.7755236 -0.26661485 -3.6746566 1.9373212 0.5623026 -0.0020252336 2.4469104 -1.4378948 -2.408089 -2.308685 -0.5695126 4.0152135 -0.82815874 -5.8776197 -2.9726024 1.041608 -2.4573834 -2.5300937 -7.4429107 2.0754461 1.8845637 3.8502564 0.93252593 -2.3632896 2.8052917 3.3385959 3.5538023 -2.8314898
721.0 -2.7799916 3.801831 -1.9057627 4.7831616 0.27781647 2.2605307 -1.5300107 0.5263305 0.9926204 3.1312888 -2.8997724 1.164468 1.4530077 5.038459 2.8440695 -0.9129652 -1.3680897 -1.8449267 3.1321313 -5.549762 4.278459 0.49748144 -2.209594 5.258467 -3.2030187 -1.6743591 -1.9357009 4.389067 -0.2411338 0.11035559 4.1149545 -2.5307913
1060.0 1.3234338 -0.45487794 2.9511244 1.7821386 2.102743 1.128987 2.4627666 1.80508 3.5206847 -0.19420663 2.4041839 0.5507347 2.5510936 -0.050040126 3.62967 -3.9695265 1.317128 0.40512884 0.32482785 6.426604 3.3519573 2.0001104 -2.6703942 1.6225594 0.52801275 2.9082818 3.678507 0.48618585 -2.3672588 3.8631346 1.2259809 0.7699967
1.0 -2.597531 -2.2089736 2.018635 2.5612628 1.8555388 -1.0823343 -1.0699532 1.0643193 1.8581425 3.0674083 3.3267386 -3.0240154 -0.9770272 5.8958826 3.4748394 0.28241584 -2.3255918 1.2787699 1.7915286 -3.4533062 -0.14400779 -0.6990146 -3.6069112 -1.9388155 2.219624 0.45942968 5.9967265 3.1405845 1.8662863 -0.5391105 3.5025012 -1.6013893
350.0 -1.6356997 -1.7389643 0.21970356 -1.985458 1.7236599 3.3781385 -1.2016597 3.1278272 -3.447782 2.0570645 -2.0052466 -5.314195 -0.8215173 3.225798 -1.0834928 2.145962 -1.387191 -0.95518047 3.2035594 -0.1575681 2.4753132 1.6765318 0.46168965 4.1108136 3.202657 -1.493973 2.868407 1.4742837 0.30167013 1.4245825 -0.14385714 -0.61771786
12.0 -2.7656903 -2.3917716 -3.243009 0.47949088 2.4450016 0.8062941 0.8136651 0.09470096 0.2562302 1.1860839 -1.9509398 0.44631517 1.8067582 -5.2790575 1.5912571 2.7899148 -1.2841083 -2.8847208 -0.4704793 1.6666297 0.21844128 -2.735435 0.041725524 4.723835 -1.1621858 -2.7282004 -2.2219281 3.4506102 0.8829952 5.064769 -2.0317035 0.6715115
1120.0 -1.4062796 -2.7584596 -0.14229745 1.2541336 -1.6777755 3.2677026 -0.22855182 -0.84542704 2.7822673 0.54039866 4.034843 4.475454 -0.54987794 -1.6847185 4.100321 2.2562907 -1.0619987 1.736413 2.0983782 -4.7599206 -3.0258307 -2.532748 0.58796173 2.6429284 2.5773978 1.2313464 1.4399323 -0.13460624 -0.28745842 5.1916785 1.7345321 -1.237831
1431.0 -2.4919455 0.04134451 -0.0103178155 -0.7706939 0.43374798 -2.8214102 -0.64741623 2.5702298 1.8234618 1.6530902 3.067135 0.66605616 0.7969776 -1.2425328 -1.750186 0.33726025 0.049179018 0.72619647 0.70539194 -1.9497383 1.7507027 -1.8443714 -0.99360555 1.1934863 -0.21588475 1.0921696 0.6580286 2.7218747 -0.8145054 0.758024 1.9073287 0.71702516
1429.0 -2.3508658 0.4279983 0.510503 -1.2861019 1.0259078 -2.3735988 -0.7368959 1.8603525 2.0220227 1.7280856 3.0583928 1.2004113 -0.15053053 -1.8977243 -1.7393363 -0.1111813 -0.07644665 0.36120754 0.6563147 -1.5016985 1.4149822 -1.235197 -0.8555484 1.1206926 0.1905525 1.8428483 1.1963087 2.609696 -1.2010639 1.1337137 2.1827765 1.0729556
872.0 0.9701492 -2.5379834 3.6103158 1.3766239 4.6635933 -1.155756 2.2449203 1.4460018 -2.0116353 1.7369001 -1.673818 -2.9545279 -2.5898137 -0.52101606 -1.5827466 -1.424248 -2.3293355 -2.2163684 2.2969093 3.2520392 2.2119477 0.78498983 -0.68401307 0.049216926 1.8419226 2.2467604 2.5290487 2.484522 -3.0047946 2.7510633 -0.02149466 -1.3097225
1430.0 -1.3764632 0.19979057 0.021627126 -0.60054654 0.9913563 -1.9684498 0.050493583 1.773406 2.3645685 1.4879117 3.396116 0.4229167 0.36273304 -2.0909803 -1.5839725 -0.122354634 -0.15935019 -0.06873833 0.83559173 -1.9897746 1.1034179 -1.4114922 -0.9429185 1.8806891 0.23025112 0.8062515 0.69849306 2.639161 -1.6423973 1.1057839 3.1300745 0.79262763
117.0 1.6719353 -3.4832594 -3.410534 -2.6943674 0.98288625 -0.64549065 0.040227253 -1.7883345 0.2989776 -0.722565 -2.4102228 -3.7333438 1.0149392 2.6015708 0.8262449 -0.06280201 -3.5076156 1.6449401 1.8457916 -5.4115663 -0.84004754 -0.36846003 -2.9784968 0.8150592 3.1122613 2.4662154 -0.08408361 -0.46566534 1.9903998 4.2060075 3.1156547 -2.0786128
275.0 -2.9986293 0.22076447 3.2645576 -1.9225173 0.3911814 -0.110127665 1.5629038 -0.1627804 1.7502508 -0.09791071 -1.4196904 0.73354286 -3.6283224 2.4700093 1.0094582 -1.6609671 -2.9501562 3.1266232 3.3115947 1.3343041 1.0016254 0.14709537 3.3654335 3.5501962 -1.174018 -0.19200161 2.7841673 -0.61894745 4.6419287 -0.59576523 3.0532835 -2.233742
128.0 3.6754525 1.4170554 2.5791848 2.112963 -0.7386416 -2.0814488 2.6363301 1.3644159 3.9166694 3.0983386 4.0740666 -3.0215664 3.1577713 0.8082145 2.9284825 -0.25182128 -1.0916983 -2.7030795 -2.1679888 -1.098038 -1.8736234 -0.103902735 4.02276 1.2973351 -2.5789557 -2.546241 -0.8436784 1.4052826 -1.803273 1.2074741 -0.9302098 3.2607465
127.0 5.575265 4.0585785 2.4036005 1.8451723 -3.9049351 -1.1715951 3.6317682 4.092868 5.516795 4.5604563 4.8885493 -3.4468627 3.0279276 0.89591974 4.688192 0.67809623 -0.19377458 -3.630722 -6.3982644 -3.0389056 -1.339743 3.5773392 7.814256 -1.1200802 -6.0369554 -2.966224 0.3272348 1.7520058 -3.6611946 -0.42222664 -3.4016368 3.8415854
302.0 9.1199045 5.6027656 -0.7929757 1.0454568 3.5643704 0.49085462 -1.6543331 -2.1500933 -1.4485656 3.3357172 -0.041535657 2.3627331 6.126602 3.4991212 2.0687866 0.18332753 -2.7978194 0.7932486 -3.2882967 2.6213465 1.5745748 0.20331474 1.538857 1.1255413 -3.3708916 3.66674 1.7496617 0.20184037 -0.5821969 0.052835766 -3.5776255 -1.6064008
719.0 -4.553652 -0.6963892 3.795635 0.15943193 0.4256094 -0.34745032 -0.13107768 -3.6895027 0.7963055 0.22556253 2.7622433 -2.4909103 0.9751742 -0.6302943 -1.948303 4.182632 -0.67253894 1.0286931 -1.3065815 3.0913436 7.8727736 -2.835205 0.5169279 2.4140897 4.516402 -1.2184246 0.59252775 1.0481397 -1.1947737 1.6755183 2.5433264 -4.3988705
207.0 -1.5037084 -1.5879751 -1.6363401 3.638743 3.1307209 1.673743 3.7187715 -1.279579 1.3537694 -2.5759027 -1.0895468 1.937502 0.930632 3.0346856 2.8865952 1.2297063 -1.9734746 -0.39033806 4.8929276 3.5341258 3.3722808 -1.3843973 -1.0098614 0.3651936 -1.8884596 -3.462054 -0.011875059 -1.6324546 -0.33303353 3.1796238 0.51352876 -2.9199386
1336.0 -0.7291796 0.3061644 -3.4729257 1.0079327 0.19776516 0.64142495 0.93029636 -1.626599 1.880597 -3.939853 4.419825 -2.57778 -5.226961 1.3022325 -0.98387796 1.1340085 -0.038619056 2.190754 -1.5649583 -1.842676 0.2888361 -1.8113276 -4.0817637 3.4686224 5.136509 -1.8207234 0.38310003 1.4682618 -1.288725 4.5233927 0.28760627 -0.35716596
51.0 2.5286732 1.6498364 5.3444896 2.9531693 4.874713 0.4594248 -0.57920784 7.7223296 -5.8449173 1.3142418 -3.2151635 8.459472 6.9921155 1.2318577 -3.5848403 2.1520126 -0.29675445 1.211784 5.3529954 -1.7665137 -11.697083 -8.340523 -1.0574143 1.682006 2.540901 0.7865862 -1.0683017 0.8387464 -2.6674788 -3.6835608 -4.7640424 -2.994914
1294.0 0.33602414 -3.017947 -1.1265239 -0.4219209 2.6381342 2.4479897 1.5862477 -2.9737022 1.5677214 1.4601786 -1.3850411 -2.033631 -0.00025294753 -3.345937 -3.2120013 1.0281423 -0.5193827 1.6442062 6.1531954 -2.4101512 2.554519 -2.1968892 -2.638422 5.2545915 0.88309014 3.2685497 -0.04925938 0.5206336 3.0553901 1.6470312 -1.5995083 -2.3494081
1054.0 2.5263617 -3.320891 2.7586498 -1.9482578 2.376658 0.14486769 1.2793164 -0.5806326 3.5425735 1.2466308 -2.158522 -2.9337387 1.6723385 -4.4404626 -1.7254511 2.3869662 -0.6314576 0.22736718 0.9299086 3.0488966 1.9751998 -2.224344 2.833196 3.3973992 3.3605719 -0.8214903 0.7213853 0.39694402 4.153302 2.3656044 3.3709817 -1.4490433
1162.0 1.5180092 5.856952 1.8148327 5.104272 2.2221382 3.4613824 3.2782037 1.6245649 1.6047131 -2.7053509 -0.86434656 0.13880642 -3.5425272 2.4608 0.61044574 2.240294 1.5088128 -0.13263531 1.9391661 1.5016766 -0.78697306 -7.813468 -3.5562034 2.0764961 0.79486233 0.17305902 -1.3998609 2.3963366 0.54545176 0.86332244 1.7232771 1.9284004
76.0 -0.8290868 -1.7866814 1.7452782 -1.409067 4.611991 1.3893179 3.2215314 0.95591843 3.7907028 -1.1176565 1.0120262 -0.39722368 -2.8344398 2.7820642 -3.5531259 1.902329 1.5766441 1.3453137 -0.80057955 -5.278805 -2.298202 -1.6821303 1.0609119 -3.1869333 -2.6243591 -3.797887 -1.0859727 -0.10437145 -0.1766487 3.0268157 3.0777273 -3.7590961
376.0 -0.43853188 -1.6882112 1.1786605 1.4215215 5.3227773 -0.8470312 -0.92095304 2.5416894 -0.6052573 1.6520425 1.7559512 1.4369584 3.5725603 -1.2319442 0.3559046 -1.5314579 -0.36028847 1.9288545 1.9858214 1.052661 -5.471453 0.6241064 -0.79141814 4.7342677 -0.0013230424 1.3408883 1.2498997 0.1601027 -2.7161973 -1.5353705 -1.9981086 -3.8924062
296.0 1.2930697 0.91171736 -4.512529 -3.1316237 3.159566 -0.8470947 -0.24123275 0.26208776 1.0629551 -0.111334056 3.0841968 -1.1080644 -1.6546177 1.0297054 -0.829999 -0.2796315 -0.031079229 1.4352466 1.2224662 -2.571527 -0.55106235 -2.853032 0.075904764 -3.2746913 4.4844155 -0.45806366 4.007089 -2.4123409 -1.1144298 1.6847155 -0.17427436 -6.0044866
697.0 4.841853 -1.5269921 1.6114466 -6.527802 -5.353895 2.5868711 -5.241949 -2.565734 -2.0118594 1.1529212 1.5156703 2.7190473 -5.772313 -1.0297306 8.375143 -2.301738 -0.58692104 3.4727533 3.6820743 -0.6509417 9.945332 -3.2419565 -2.9249163 -0.22182937 0.7086825 0.8671268 4.1220226 -1.9654332 4.9565134 1.3959457 1.8787124 3.0141246
1142.0 0.38558078 0.591442 -3.0668526 4.7360225 6.5316386 2.2701583 2.9146025 0.8778063 -1.901235 4.826133 0.28465447 -1.8887808 -0.4035471 4.7726984 -0.21015744 2.2045655 -4.2569027 -0.70914465 2.1582851 4.787072 2.0874178 -1.7913806 -0.1755105 -1.509585 1.364165 -1.6385578 0.3132051 0.31359252 4.1985135 0.7913236 0.4678399 -0.12998931
106.0 -0.19370489 1.9421502 1.2135546 0.13490789 5.1961346 3.419658 4.512035 0.030320575 -0.56201774 3.2461631 -2.830915 -0.086971395 -2.0322208 -3.107593 3.347237 -0.86529475 -1.4372361 0.88733315 -0.21192466 1.3061343 3.0404434 0.12640713 0.8174358 0.1892918 2.2577085 -0.2658105 -3.2234511 -2.1876893 2.6083632 3.9648182 0.47202724 -3.1289878
314.0 -1.1506974 -4.3777723 -0.7809742 1.1755512 -0.33079296 -0.6093934 -0.4422608 0.9471459 2.0149229 -0.82965106 -1.020977 -4.706151 0.34509894 -3.9216864 2.545033 2.814322 -3.1936426 5.7199926 4.2736406 0.21475658 0.9174277 -3.3893094 -1.5456179 -0.40007925 -1.053577 4.511929 0.7050033 -1.424291 -1.2466586 -1.7206143 -0.20315897 -1.1279321
171.0 -1.0219883 -2.7614276 -2.790298 2.5339482 -2.6480644 1.0176796 2.3096206 -0.14932196 4.388636 -1.2645532 -1.3050991 -3.312072 2.112739 0.2711251 -0.3203536 3.9411407 -2.57285 1.3629488 -1.7483078 -1.737996 -0.435873 -5.610951 -2.8887155 3.4775019 3.4373627 0.06901326 0.73880756 0.83553195 5.582372 -0.4063912 0.50290614 -0.35450846
642.0 -3.0210273 -4.702567 2.7948542 -0.24639885 5.3607492 -1.1846095 3.7579463 -0.6358753 1.5321419 -2.6955507 1.5326688 1.1219143 1.315824 -2.268138 1.6342967 1.8764077 -3.1191247 0.8615398 0.13278401 3.9087722 2.2360091 -0.50563055 0.9485645 1.3871119 2.9090366 3.0097234 -1.406988 -4.874563 0.6118951 0.09696453 3.682649 -4.120212
177.0 0.24265541 -0.43291038 -1.1925794 3.6379132 3.5604503 2.403781 -2.821214 2.4031572 1.3262131 -1.3418661 -2.6886108 -3.1188917 -4.828215 -1.1741232 1.8482723 4.289312 -0.57796365 1.7080269 4.0930715 1.5287927 -1.6219752 -0.9904817 3.6343265 0.9284469 3.753702 0.07248301 3.5196664 2.020935 0.45835808 4.154823 3.9019186 -1.8793439
203.0 0.9619035 2.9538639 1.5044329 -0.21852519 5.7716837 -3.2796686 -2.868122 2.1705136 -2.5926402 5.226291 -3.512454 5.1983395 9.36338 2.5203462 0.08805247 -1.8163238 -1.5330354 8.493767 -3.0336716 1.0298681 -3.7643974 -1.2429585 2.5446653 2.6201663 -6.645999 1.412906 -2.3299952 2.7083764 -4.114402 -2.9148374 -5.837371 -4.390842
900.0 2.3917878 -3.765552 -4.735796 3.6209986 4.408251 -2.5672696 1.3405277 1.9588436 -0.6182048 0.12371888 -3.5159507 -3.444409 -2.5048125 -0.72708815 3.4935467 -0.40692845 0.4650456 1.3254485 2.2215655 -1.1773447 4.5586176 0.56065756 -2.1597285 3.08769 1.8558133 -0.21648158 -1.9227706 2.9685595 -0.281935 3.827524 -2.287485 -4.546155
1035.0 1.6489377 1.2292558 -3.152711 2.1270962 1.443887 -2.3700333 3.5443628 -2.041353 -0.40662253 -1.9751557 1.0260925 0.88342816 -1.3236512 5.589683 -3.3931277 1.5179576 -1.9703783 1.5812082 1.2970316 1.9315997 6.148943 -1.2659094 -2.7974296 1.6416115 3.9742918 -1.5512531 1.3738433 -5.5693517 2.2243903 1.0518593 0.31311494 0.81014585
1493.0 -0.6495039 -1.0208862 1.3234502 -3.219651 2.135366 -3.6404102 5.1611 -0.6784892 -0.5693661 -4.480748 -2.8912425 1.2734342 -1.5984088 0.67189527 2.2758741 0.990934 -3.5767362 -0.032417107 1.4288865 0.6202667 3.4918735 -1.238049 1.6150033 -1.4827187 0.6944143 1.6354599 -0.67156386 2.5813677 1.9222014 1.4494299 -1.8907182 0.542065
186.0 1.2587657 5.2747045 1.9144968 3.0807636 2.0679429 4.418226 4.1310506 4.6063066 -0.22532727 -3.6001892 -1.7383373 2.1821067 -1.9807181 2.3882113 0.55768 1.8365697 1.8263597 1.2047732 3.0684054 -0.49761426 -2.4219592 -9.406717 -3.2732122 2.2257004 1.8022823 0.24108756 -1.0823296 2.880115 -0.25283694 0.048178416 -0.33149573 3.020929
947.0 -3.6859488 1.4833211 -3.3764179 -3.5238554 0.08531825 0.19902007 0.907172 1.1265141 -0.1470897 -2.0800643 -1.7667222 -7.210772 0.27877608 0.297043 -1.8256731 -0.87065196 -1.0633461 3.2697682 4.1882286 5.3115726 0.8732689 -5.0518174 1.8359658 0.79099804 3.295137 -0.24805023 3.2306902 -1.1403261 2.5040329 4.403629 0.21627037 -0.65820104
45.0 -6.611009 -2.98269 -3.936844 0.7297368 -3.8245034 -0.93572104 -0.37721556 -0.13623984 2.2164452 0.7449735 -1.9025826 -2.345018 -0.19784124 -2.5503013 -1.5522417 -7.784521 -4.7258964 3.5271757 2.806122 0.05783944 0.99667686 8.585263 -2.3396344 -4.5721226 0.06565311 -5.3814745 -0.27968234 4.1524634 -0.59672135 -0.96055585 -0.36242712 0.6074511
956.0 -2.2208164 -4.6768417 -2.2745297 1.3088983 0.9598107 3.1312459 -1.7376742 -0.9082429 0.9082297 -0.0037117223 -0.10346165 -3.9172513 3.2364063 -0.933897 -3.1941078 -4.245289 -3.4215524 1.4318221 2.1530616 -0.23673254 2.6652875 2.658169 -0.5369667 -2.3918166 -0.028513405 -2.4030826 0.23905689 1.6349914 -1.3312806 1.5925277 1.6092968 0.69428045
1491.0 0.4087631 -1.0300535 1.6979854 0.3186722 2.113162 -1.9120519 3.704982 -0.26649994 -1.6256679 -5.3222394 -2.897396 -1.2758001 0.4426969 1.7322426 2.7246072 1.6426954 -3.83055 -0.01699824 1.2970475 2.715481 5.26207 -1.6502899 2.6766553 -1.6386018 2.2265298 0.03891019 -1.7968224 1.0661241 -1.260173 0.98834944 -1.4049275 1.7610369
746.0 -5.364804 -2.9250462 4.6870217 -4.7630143 1.1139449 1.342655 4.688984 -4.141982 4.662603 2.7610357 2.2962508 0.17652038 -1.3631904 5.356548 -4.3593836 2.1143513 3.6087968 -3.707105 0.9317823 1.9300212 -0.6733745 -3.944616 2.731057 -2.7505584 1.8416123 -2.0727553 -0.037173606 -2.3562605 -3.7781072 3.5930777 -1.8870507 -2.2973416
166.0 0.9730182 -0.40037173 0.7194218 1.4260451 2.890865 3.0198638 -0.24371362 -0.06953785 -0.9711604 1.3877581 4.0028872 -4.5181894 -3.113694 1.6294237 5.341726 -1.2417375 -3.7019315 3.5358877 -2.78114 4.792639 3.3290293 1.4959936 2.6969252 -0.10959031 3.4516606 2.235046 -3.6326842 2.8371215 3.2278454 2.3341386 -2.6251636 -0.289958
1010.0 -2.8602717 -0.6912367 1.1681497 1.3426968 4.1959496 0.4745673 2.2105227 -2.5722978 -0.26960853 3.2608128 1.8443453 0.29210413 1.2749308 -3.4195342 -1.558695 2.041614 -4.1252112 1.2541943 3.399364 -2.5880299 4.0588098 -3.2259572 7.8313417 3.3960135 1.4733332 2.9677382 3.6729198 -2.227243 1.5040206 2.0706265 2.114269 -1.2852622
430.0 -0.5147987 2.536209 -4.2146125 -1.2295964 2.177479 -0.87897176 -0.06764712 -2.1818686 -1.0558666 3.6675386 -0.29911593 -2.9716399 1.508711 -1.2939647 -4.4955792 6.1831074 -5.3224983 2.8574886 3.6864262 0.6318865 -1.830689 -0.91825724 0.9908444 1.9822704 3.8526182 -4.1221623 -1.387235 2.603583 2.2601914 3.045407 5.2594023 -1.1838795
445.0 -2.9320138 -1.2696265 -2.612695 1.7034698 2.965263 2.9403634 7.235241 -0.36898106 0.24870205 -0.64864516 -1.5360483 -5.172284 -3.435374 -2.0629878 1.6463082 3.3610728 -3.9654078 0.46874028 2.874366 3.3234792 -3.8451755 -2.5591962 -1.3941422 2.912033 -2.5776806 -1.3951657 0.9829114 1.8130716 1.3947717 -1.133464 -1.1752448 -6.72458
930.0 -1.0149387 -0.4401031 2.5351427 1.6609524 4.595806 2.0914898 5.6777573 3.3366644 -0.06520916 -2.8192143 3.1390145 1.391961 -0.7936392 0.7364975 -0.37599173 3.8837848 0.7180436 -0.20562512 -0.08207885 1.2617868 -1.402554 2.5117745 -2.1231298 4.1245375 2.0765145 -3.6634974 -4.4177046 -1.2329109 -2.383568 5.7743154 1.5066687 0.96022254
1585.0 0.7040417 0.2122657 -0.15900174 -3.0283158 -0.8320068 -1.0808315 2.4272768 -3.0274184 2.3388634 -2.0344172 -0.5045282 0.1450293 -0.5131585 -4.0181 4.249002 -0.118878976 -2.9915428 -2.8718996 -1.8067497 5.0436172 3.7931774 2.228081 -0.75070614 3.1720777 4.586032 0.5589745 -1.6058484 1.5782528 -0.78324974 4.4416213 3.5475287 -4.4565716
820.0 -1.6859668 2.567854 -0.888576 -1.6558146 4.7196527 -0.1929001 -0.3006916 0.9447545 -0.46366096 3.5416577 1.3213216 0.22985424 -0.37495488 -3.7744045 4.784908 3.5956569 -1.8931798 -1.6556126 4.933521 5.2480273 -0.48391584 0.93614876 -2.5697353 1.9627131 -3.5152192 1.1390498 5.358329 -0.12216522 0.12674302 2.3801506 2.6597207 0.23068482
319.0 -3.3380063 4.235684 -1.6703595 -4.781217 2.7600281 2.2728755 0.91126007 3.0924923 -0.112009674 1.8312731 -1.6579529 -3.4214284 -3.3294294 2.5663085 -3.8942788 0.70067513 -2.6965308 3.7197306 -0.7761857 -3.230347 4.0775604 -1.2602793 -0.4543972 2.0073838 1.9949279 1.9580325 -0.9923923 -1.061199 1.8347294 -2.3699424 5.038211 -2.2426133
227.0 -0.10965187 -2.4926047 -2.6267707 1.2798728 0.019281529 0.41455212 2.182664 -4.3047433 -0.0196639 -2.1526942 1.0981548 -5.475644 0.86844456 2.8185217 2.5514922 2.5341203 -4.952997 1.251153 2.2277102 2.0423388 5.712881 -0.7955653 -6.2260494 -2.439653 4.9949837 2.5079927 -2.7353303 0.67018795 -2.5130076 -0.6925827 -1.7802643 -0.916792
597.0 -4.430217 -2.6345246 0.56976914 2.3489807 -2.7845612 -2.2405345 0.2003023 1.6928957 0.142149 2.807599 5.0245433 -1.5894264 -3.4556835 3.6703327 -0.39834943 3.3721485 -4.6428246 -0.953249 0.75441545 2.4477077 2.5383441 -0.50836986 -1.5760012 2.0370135 1.6911213 -1.3505421 -0.99969625 -0.75650185 -0.59157854 -1.4578003 3.9110627 -0.57937986
490.0 -8.375437 -1.7434939 -0.5391751 4.5521874 -1.6137382 2.4429812 2.7640176 2.2824001 0.5637066 -3.9179978 -2.9005861 -3.6034222 -5.2278543 -2.2344985 1.5592906 2.2188303 -0.36191028 -2.6840954 -0.4066883 0.07914414 2.5727885 4.9685607 -3.6968906 -0.737291 -0.8015354 -2.8384638 2.492792 -2.6095777 -4.229377 -4.035422 -2.5912244 -0.8909986
663.0 -0.20434213 -1.3029478 -0.16155958 0.08713893 4.622039 0.16512804 0.5879496 -1.4596233 1.8742299 -0.74653125 0.65756965 -1.2444879 -0.19610196 -0.8924055 -0.13546482 0.40450752 -1.487745 0.13732554 -0.26747265 2.4862077 -0.044426415 -1.8543072 -1.8648489 0.7596436 0.084216505 1.7534215 -1.4156733 -0.9738417 4.779564 0.42943135 -2.0650444 3.450755
1071.0 1.1704822 -0.9237585 -1.476038 -0.06330982 -0.38773128 -0.25727293 -0.8611116 -1.3633951 -1.7078043 -0.6285431 -0.9807834 -0.047199354 -0.7199979 2.047035 -0.5497955 -1.8281611 -3.2626054 -4.45157 0.1287932 -2.828968 1.3040751 -0.5189831 1.3649801 -0.51936877 8.232246 -2.271286 -0.003756877 1.4197698 -1.4648386 1.9208595 -0.7120819 3.8042488
329.0 1.8319514 1.0496932 4.6646485 0.068358324 -1.8061442 1.7735094 5.3903184 2.313119 -2.0875423 -1.1940237 5.376945 3.99785 2.2710917 -0.09532901 -3.9680784 -3.1619258 -6.5763726 4.113299 -0.20255099 2.1238725 -5.3758626 -4.822141 -5.9045362 -4.0032554 1.8600928 -2.0472188 -1.000221 4.9337935 2.1014514 -3.4569595 0.97217345 2.4516664
303.0 8.222348 3.9899275 -0.33407718 -1.1969631 0.58627707 1.1554523 1.0637811 -1.3697834 1.1206801 6.122115 -2.990788 4.4004297 5.1396384 1.6604471 -1.0894401 -1.097453 -2.469879 2.9819221 -1.8357198 4.3985057 2.1158361 -2.8235247 2.9409642 -1.8491647 -6.7739954 5.9649487 -0.13947026 0.0067094844 -0.88836294 1.2715954 -3.3810809 -2.1174595
932.0 -5.2329917 -3.29407 1.9341753 -4.8995886 2.3449535 0.06989936 2.8721635 -3.618981 4.782843 2.6191041 -0.027856344 -2.2959597 3.8294697 4.848256 0.02144015 1.8333111 2.7540596 -0.24658178 -0.12246414 -1.0556848 1.9023812 -1.2126174 1.4177386 -1.8865039 2.4602616 1.6236264 2.635502 -3.4173198 -1.6690265 2.596071 0.034078367 -0.7338798
459.0 0.09358159 -0.67618287 -1.8136764 -0.30158758 2.438672 -1.1973345 0.642377 -1.35543 3.4963944 -1.3342296 -2.6751864 -1.4078765 -0.83311784 1.297922 -0.09721663 -0.7247006 -3.4213557 2.3301237 -0.35459322 2.6419382 1.1352255 -0.44265264 2.2654586 0.5133149 1.460317 -1.5839382 -0.22466548 0.345103 1.5140923 -1.94862 1.7924474 0.56469
563.0 2.2616293 -3.3975825 -0.19902524 1.6006927 0.46413517 -0.45835742 -0.959522 3.572855 -1.9532537 6.0926905 1.160003 -1.3339914 -3.716981 -0.696695 -2.3996246 0.9747598 -2.6512814 1.6329377 3.469028 -2.2616575 1.8345876 1.7114053 -2.558027 1.8713411 -0.7282276 0.6961819 -1.9287131 -1.6157905 1.0588771 2.3601897 1.641131 3.0805101
458.0 -0.21392527 -0.45777866 -1.9086542 -0.24521002 2.5201385 -1.4997077 1.1851268 -1.1347979 3.588128 -0.8833268 -2.8848448 -1.3445206 -0.2449817 0.78524643 -0.15522476 -0.41867787 -3.322237 2.556426 -0.08312193 2.844844 1.538652 -0.4993301 1.867253 0.68578327 1.3394675 -1.8626885 0.16168372 0.5433893 1.7281703 -1.9379464 2.1225882 0.64847904
357.0 2.5527527 -3.2814124 -2.4672313 -1.9884387 -0.088009335 0.26220053 2.9317367 -1.2136632 1.0731621 -0.714789 -2.0487306 0.8760477 -3.4073772 0.5718689 -0.80149305 2.534649 -4.8496504 1.9832982 0.49668902 1.2464653 -0.20374398 -1.1095761 -3.1339874 3.7953758 -1.786821 0.38412127 1.377311 3.2146497 -1.8174901 2.154709 2.2212167 -0.27715728
574.0 -0.20356542 2.9298766 -0.47645232 4.235518 -0.47046885 1.4334059 -0.37069154 0.97060245 1.9396628 -1.8062476 1.9940609 -0.17431875 -1.6135764 2.0084255 -0.8383957 5.077827 -0.8749162 0.19758773 -2.1270344 -0.33237424 3.8599017 6.0651727 2.3964927 -0.4496264 -4.1722064 2.3965049 0.08815471 2.8239655 -3.1381173 -1.1341217 -2.631544 -0.15873052
118.0 -0.81006026 -2.678198 -1.4131536 -4.1257567 3.9503632 -0.62018085 1.6233602 -1.97944 1.5146314 -1.6777937 -4.643517 -1.3546002 -0.5926632 3.34547 3.0946236 -1.5200558 -2.0330377 -3.03931 -2.5530586 -1.1537848 1.5685812 -4.6140027 -3.1237102 0.19652127 0.63350034 -1.9457766 -2.274569 0.9344778 1.8107116 1.1085427 0.5322516 0.85467654
278.0 -3.2582157 1.469751 2.694385 -1.123304 1.0719384 0.46561414 1.2123967 -3.88396 -0.6295495 -0.48811868 4.7656364 -0.3634225 1.4074343 -1.4101646 0.10620495 -3.3099608 -6.62203 5.312098 -0.93536097 2.4439592 -2.4267187 -3.008074 -3.0822284 -0.18485405 0.5284696 -0.5315654 -3.4904041 1.0927896 2.8636193 -2.389608 3.8804016 -3.115506
478.0 -0.74791324 -0.29243514 -2.430322 -3.0095878 2.4877167 -1.088631 0.96993923 0.26866156 0.94070816 2.958147 -2.9755065 -3.614851 3.7523458 0.5358293 -1.8411511 3.1498437 -0.19510576 -0.16389789 -0.98086375 -1.0557401 4.0743294 0.9367703 -5.5547957 1.6599289 4.275633 -0.30023307 -2.252738 3.360731 2.9922285 0.9118947 0.5486262 -0.12531836
453.0 -0.09664692 -0.6820193 -2.039781 -0.37793037 2.9681773 -1.2853 1.0877928 -1.3980799 3.4729006 -0.85444134 -3.0473034 -1.4874341 -0.6190686 0.9520153 0.16416198 -0.49985826 -3.4737828 2.5496213 -0.121996 2.8409028 1.28653 -0.1827521 2.1033998 0.5845588 1.3679371 -1.7924495 -0.3895002 0.55444497 1.4235768 -2.0222955 1.9594868 0.5356283
195.0 -0.7883795 -0.68157107 -0.36453533 -0.83475006 0.6178803 0.73793596 0.2615103 -3.084252 4.427018 1.7487445 2.6887088 -2.4934466 -0.08387459 -1.9573376 -0.95668733 3.308529 -1.4361912 1.4260565 2.2028797 0.76332295 1.2613555 -0.24365798 -4.919809 0.82011145 2.7056053 -1.1540792 -0.09443017 2.2688184 -0.102736905 -0.23179853 1.5823762 3.3814275
277.0 -2.9244554 1.0561574 2.4894538 -1.0325061 0.69211257 0.5880727 1.603643 -3.498208 -0.47001007 -0.26238692 4.6301622 -0.49885732 0.60773706 -1.6616566 0.028363582 -2.9902277 -6.621601 5.0702953 -0.6045871 2.488673 -2.1677222 -3.0031085 -2.9516923 0.08038601 0.9253801 -0.5619324 -3.0670955 1.0523524 2.916918 -2.2397234 4.199382 -2.856412
539.0 -0.41175961 2.2169538 -0.8451308 -1.2924236 1.3741155 -1.6894283 3.4509664 -1.1386076 1.3362263 0.5853123 -1.3448406 -3.0332937 -3.88161 0.5915463 -1.3122772 -1.6789907 -1.345822 0.28856638 1.1628542 -1.1744319 1.704009 0.18082304 0.10084167 -0.97877806 3.0492592 -0.06943736 -0.17113435 1.5259446 5.506506 1.7479124 -0.89611435 -0.81310946
263.0 -2.0265975 -2.2123768 -0.5973765 -0.36830226 -3.1792712 3.6387334 2.0922546 3.4699292 3.175675 -1.4849198 -3.8830132 0.8854332 -1.0538728 1.4756529 1.208499 2.174246 -0.38187346 1.4829711 -0.39004266 2.3976808 2.18507 1.9417042 -1.1968523 0.4077717 1.6604011 -0.8216278 -1.9899484 -0.15167384 0.6946273 -1.0455482 0.44768125 1.3898672
591.0 -3.7475994 0.91015106 -1.4152211 -0.4813584 -0.44532523 5.0859528 1.6471484 4.096838 2.3470576 -1.1591947 -3.3549824 -0.40405273 -1.4593127 0.48341432 0.25755912 1.8395156 0.46572223 0.99811286 -1.7630947 3.111209 3.3235369 0.5866302 -2.6087303 -2.156781 0.8543869 -0.69057655 1.7637595 1.3427873 0.13282348 -2.2971618 0.69255346 -0.42883593
196.0 -0.7065837 -0.8565534 -0.44495022 -0.40097517 0.6772136 0.39980364 0.3286452 -3.1303635 4.0293355 1.6042479 2.6144178 -2.4965408 -0.06673873 -1.9176849 -0.8457923 3.3104305 -1.7802321 1.4193296 2.2874248 0.52179074 1.2258674 -0.15678267 -4.672579 0.869136 2.6022167 -1.1187782 -0.0957115 2.0747643 0.13490605 -0.23046613 1.4586546 3.3632743
475.0 -1.6668825 -1.877926 -1.8972875 -3.8616414 2.4668026 -1.8449553 1.4149551 1.0613158 -0.10795395 1.8984967 -3.414154 -2.4404647 3.2647042 -1.0888199 -1.9178162 2.9446878 -0.020109536 1.9350471 -1.8218575 -1.4553173 4.3629284 0.30486727 -3.8803017 2.2814183 3.69856 -0.73628306 -2.0740163 3.448684 2.472957 2.259638 0.31074548 0.39662024
439.0 -0.8693397 -3.1101983 -0.2831558 -3.4705515 4.2379704 1.0976657 -0.020119159 -1.4910971 1.8505862 -0.4529957 -3.6646516 -2.5569475 0.21256077 2.879754 3.0006204 -2.452525 -2.0616622 -3.554795 -2.2961147 -0.1843145 2.7677488 -5.589652 -2.7224147 -1.077273 1.3710736 -1.4601278 -2.82882 1.1777381 -0.19130033 -0.12549646 0.5554498 1.5788496
358.0 2.6460264 -3.3716297 -2.446959 -1.9033177 0.06252356 0.20144886 2.9706886 -1.1453257 1.0135723 -0.6856119 -2.1331573 0.81799936 -3.420327 0.5935317 -0.7668114 2.7282636 -4.9925194 1.9729425 0.5676631 1.1509643 -0.18854801 -1.1974636 -3.2486727 3.9455166 -1.6367353 0.4075157 1.409571 3.264769 -1.7671945 2.157468 2.2157722 -0.5195434
531.0 -0.8484881 1.6283369 -1.7808836 3.2437527 2.1897295 -2.801932 -0.9796215 0.07951437 -1.4652928 -4.3508644 0.93263096 -1.0748612 -1.7241309 -0.9347886 2.4169455 0.28383684 -3.2551937 -0.26026276 0.613748 -0.5745921 2.3170803 -1.643593 -1.6004783 2.1957257 1.9615006 -0.45178473 -0.5390282 -0.2582032 -0.34589177 1.1385549 3.6760345 0.49917367
976.0 -1.1378813 -0.33093628 0.3102784 -3.418268 4.573949 -3.4233403 -3.0381963 -1.7471412 0.7712968 -3.6579318 3.5284057 -4.0073967 -1.7908231 3.6315706 1.4477532 -8.459389 -0.048550002 1.169668 0.2677076 2.28227 3.054102 -0.3831707 1.0954249 4.7338967 1.8109843 -0.8791338 -0.39182478 -1.2939007 -0.7007191 3.4969776 0.9927239 0.32241115
638.0 3.1312578 3.2162611 -2.6912446 -0.17124836 1.3356768 -4.7467866 -1.5382646 -3.713009 -1.334762 3.898422 0.5793283 1.0983858 2.9928172 2.7282157 -1.422246 -0.026442626 -4.0460396 2.9029622 -6.5735054 -0.38259897 2.158785 -2.2653658 1.781222 -2.914619 -4.9610558 3.5034914 0.66892415 1.5597689 0.2605526 3.4490018 -3.072544 -1.607699
530.0 -0.8350454 1.5450095 -1.5567987 3.1436589 2.2677865 -3.0266652 -0.6676673 0.35916513 -1.6268147 -4.360521 0.8365713 -1.0682936 -1.5429983 -1.0813589 2.485749 0.50500596 -3.2598033 -0.1396918 0.8235536 -0.3283852 2.3773675 -1.7985233 -1.1022259 2.283409 1.9016795 -0.3968982 -0.087308146 -0.32793063 -0.22135256 1.1736642 3.6550913 0.47375512
1017.0 -0.2023236 -0.08335821 -0.21414474 -0.63832945 1.9214512 0.45561832 2.3196325 0.0881902 -1.1969271 0.36862633 -0.9341329 -3.0476346 -0.3399408 -1.02928 0.5013465 -2.0881124 -4.013508 -1.5895215 2.7156835 0.37710875 0.5944798 -0.44269165 0.65406734 3.0914533 0.19710326 -0.6685287 1.1720151 -1.4163662 2.0743644 -0.039604247 1.131023 2.18829
532.0 -0.8188067 1.4835061 -1.7843688 3.1395931 1.9927005 -2.8913732 -0.6732262 0.116256446 -1.3500929 -4.1596904 0.9091357 -0.99918115 -1.6094295 -0.94120526 2.3444054 0.7033079 -3.0348787 -0.05500091 0.75458556 -0.32035324 2.267678 -1.6319736 -1.4420598 2.1417863 1.8861451 -0.4908932 -0.19276023 -0.17533697 -0.3236223 1.2339659 3.6538045 0.5541988
567.0 -1.9715908 -1.4746864 -1.3760574 0.38680935 1.4893441 1.9511888 0.25149304 3.178967 1.3740445 0.55627203 1.4797164 -0.16448896 1.7039129 -0.5815779 0.03030067 1.5313592 0.10062323 3.1264274 1.1490425 1.3046993 2.0297847 0.070714176 1.8075489 1.2168136 0.99076086 0.29218337 -0.034930512 -0.5959482 2.2252555 3.0726614 2.0214958 -5.5374293
1504.0 4.261221 0.80289835 -8.375062 -0.06921149 5.8962927 1.3768584 3.2944875 2.7998893 0.6388221 1.242609 4.9870267 1.3543781 1.2634847 2.6780424 0.9608551 -2.5794168 -2.2490845 4.4798293 -1.5182526 -1.1040456 -0.85877365 1.8352635 -0.9092361 4.2601037 -0.5911753 -1.7138727 2.338103 -2.1193073 5.524561 2.2173066 4.1689115 0.61986053
764.0 -3.8856533 6.5429344 -3.0996878 4.6857085 0.7383782 0.1637647 -6.0003414 0.70643157 -2.5279927 0.3830754 -6.5212317 2.4200487 -4.5030384 -2.4262395 -2.7943926 -2.2214208 0.6574003 1.0078245 1.7283884 4.8356347 -0.85151994 1.9890538 -3.9099 -0.37290692 -1.587764 0.73115045 1.3888748 -0.592098 -1.8476033 0.2869981 -5.6205835 -1.036641
337.0 -1.1820958 -2.941034 0.6358786 -1.0077667 1.6881297 -0.7859368 -3.3946621 -2.6288037 2.1032555 -5.468908 -0.10966002 -0.07379692 2.6091435 -1.5797004 7.279764 -1.9712489 -0.6635005 -3.7458758 3.1041207 1.5036491 -0.5730341 -1.5105625 0.017226137 1.5197322 2.6681697 -1.3583122 1.9453336 -1.5361388 3.6267066 0.32593182 -1.6684955 0.31728634
587.0 4.2051873 -3.5896754 2.8693726 -1.3757201 2.6718938 0.6396099 2.0751023 0.03797623 -0.4940803 -1.3226727 2.4545705 -1.6815915 -0.28160724 0.7669507 2.9675405 2.0603225 -0.69767994 -0.07703898 0.32192516 -2.7643442 5.346334 -0.80737686 -1.8880161 3.1351907 -0.2069738 -1.0810796 1.3447322 0.9061818 0.100802384 -1.9138318 1.9768472 -2.3797185
288.0 3.1813703 -1.555503 1.0943779 1.2097306 0.07352079 3.4173684 0.94820553 2.1432595 1.9069729 2.3564777 -1.2454816 -2.1091375 -0.43712232 1.5440528 0.05728798 0.68897045 -1.0787565 -0.9277267 0.48291552 -1.2548761 -0.023928504 0.54505813 -0.8465136 4.9067717 5.969637 3.3624458 1.9551766 -0.8437357 2.9108336 3.924163 2.5940511 -0.2614945
153.0 0.012313607 -3.4679205 -1.4940789 -0.57460505 3.1378899 0.45363194 0.02307091 -0.093909346 -0.049471192 -0.17030035 1.1041173 -3.1826386 -2.2187788 1.6259786 1.2308433 0.86570066 -0.7254383 1.3452938 1.7699227 4.291811 1.7067052 -1.0381451 -4.6521573 1.694299 1.3608075 -0.7575583 -0.6874824 2.365095 -0.5990485 3.9767036 0.37873968 1.0445921
927.0 -1.5762004 -0.8111851 0.38012642 1.4121253 1.9073316 0.64798164 1.0998164 -1.4410416 0.72086924 1.7546144 -0.97971594 -3.2503772 -2.2849236 -1.4208672 1.3434539 3.3544097 -2.5250273 1.341532 1.3759828 2.7176123 1.4949286 -1.7591032 0.68416876 0.5905496 0.47328374 -1.7993923 -1.1252867 -0.38957942 -2.176292 1.5681164 1.0832007 1.7402433
410.0 0.067011975 -0.8810715 -0.7298734 0.81482816 3.5924625 -3.2686882 2.7866564 -2.8714774 1.4414381 1.3804474 -0.40485418 0.57736933 -2.124818 -0.49032205 -0.25960085 -0.46195033 -4.0392194 -1.3263025 1.5577236 -1.1772085 1.3347769 -2.39171 -0.5678451 1.8210299 -1.1007562 0.6919604 -1.9870795 0.27135652 0.38167658 -0.7686325 1.1659421 -0.0840707
408.0 0.1115253 -0.89234483 -0.88999087 0.8911878 4.007112 -3.5609868 3.2456937 -3.0705647 1.5478575 1.3307425 -0.48532778 0.45564538 -2.2852185 -0.5024667 -0.19329529 -0.28575426 -4.2711806 -1.2445474 1.6725652 -1.011342 1.6440557 -2.4968145 -0.5652572 2.1236436 -1.1023968 0.64024496 -2.1191928 0.3293106 0.30466175 -0.8050063 1.2809372 -0.25396886
412.0 0.016347596 -0.9660486 -0.7312935 0.845557 3.6769676 -3.1861231 2.70408 -2.9546986 1.4896936 1.1292349 -0.35670245 0.5641839 -1.9822091 -0.5329155 -0.19682352 -0.45800003 -3.8880298 -1.4401827 1.6898721 -0.9794047 1.4660345 -2.4186542 -0.36247092 1.7718674 -1.1409405 0.5847981 -2.0918374 0.31596664 0.34866276 -0.8185791 1.0272174 -0.12698622
259.0 -2.660344 -1.9957132 1.2839798 3.3336856 -0.68572503 0.32693902 2.574298 -1.201721 2.7512562 0.979013 -4.265595 0.7580849 -1.7188922 -1.5216838 2.8431785 -0.12347594 -3.9644737 -1.183848 1.2775477 -0.73591375 2.1583283 -4.055148 2.09004 0.8101024 -0.75745904 -0.09530561 1.9730327 4.1075773 0.5023635 1.6530956 2.801194 -1.9179991
258.0 -2.5699291 -2.1042063 0.9634642 3.1918244 -0.28296357 0.13900162 2.7160833 -1.1387058 2.4388933 0.9898548 -3.7833056 0.22666845 -1.751086 -1.4140575 2.585799 0.06873231 -3.7840464 -1.0098816 1.285739 -0.52577215 2.2937596 -3.853071 1.8266042 1.0211416 -0.35582766 0.17038998 1.7622653 3.8032703 0.66997445 1.5087298 2.7370965 -2.0224853
229.0 -0.7406519 -3.2978382 2.7110317 -0.5427913 3.3833046 -1.2724898 0.5049634 -0.5665897 -1.4809138 -0.96612346 -0.9729716 -0.07063182 0.5008329 2.2010646 0.16441344 3.5003622 -0.6502944 1.0084845 1.7574478 4.1924586 3.4226925 1.7964659 0.42944312 4.153431 0.8653948 -0.7012048 2.4797819 -0.553958 2.6037505 3.6983325 0.52556765 -0.20118953
339.0 2.5622218 -2.0138788 2.8039267 2.8819559 1.455204 0.4640797 -0.69422144 -2.9566946 0.3445468 0.060404927 -2.2794104 -2.4709918 -3.8936384 4.2339993 0.3505949 0.8155469 -2.0918224 3.7236164 1.2753363 -0.48077616 2.9202507 -0.98814774 -0.4555214 2.7378173 4.2927175 1.1959269 3.003061 3.159191 0.07782606 -0.022524595 -1.7083457 -2.7603707
341.0 2.5407522 -2.0407846 2.9108198 2.8647766 0.9759948 0.5148271 -0.6713493 -2.7969124 0.34322762 0.10047269 -2.021752 -2.3900707 -3.8493335 4.000242 0.541414 0.87430406 -2.0115485 3.7567437 1.2698143 -0.48603007 2.742732 -0.9224071 -0.29915693 2.6134048 4.0991945 1.2273262 3.0432732 3.1652105 0.00013184869 0.08893024 -1.9943364 -2.6661413
154.0 0.18562593 -3.6402826 -1.4874022 -0.95446473 3.2982786 0.52735084 -0.39047444 0.042954996 -0.035345804 -0.3883427 1.4453709 -3.1305902 -2.2897706 1.8898045 1.309088 0.51694626 -0.5719413 1.2332302 1.650923 4.933576 1.760998 -0.79049927 -5.4935803 1.5807987 0.94005764 -0.9911705 -0.89113927 2.5568311 -1.090761 4.4752483 -0.047546793 1.4898111
1589.0 -2.021008 -1.7338629 0.80545026 1.6557379 1.9591254 -0.879298 -0.13105573 0.46220732 1.3052804 1.8313531 2.1629808 -2.5291514 -0.7781635 3.6832442 2.4378967 0.6122976 -2.0973632 1.1146692 1.5754219 -1.7755749 0.7105671 -0.8972142 -2.478331 -0.49023184 2.017884 0.28657946 3.7663167 2.195648 1.4268845 0.13239661 2.7752936 -1.2806379
307.0 -8.833883 1.4874495 -0.08580336 -1.2293496 -6.258279 11.337729 2.8092499 8.289747 4.3123245 -5.0331383 -8.163988 2.2917411 -4.054917 0.40509 0.33745453 2.7899096 2.7446258 1.9476594 -1.850086 3.1319892 5.55849 5.681525 -4.935849 -4.000623 -2.5344112 -2.9089985 1.9072896 -1.1150674 -2.2813594 -7.5712795 -0.2884819 1.9224612
149.0 0.9935461 8.67435 0.7567232 1.894409 -0.9071424 -4.818378 -1.8615295 4.5031986 5.676093 2.5334349 2.2821074 0.6974559 1.0688068 -0.6225568 1.8316224 4.528425 2.954494 -5.0711913 -4.933183 -0.5060171 3.0766413 1.767636 7.6615195 -0.37593696 -4.6291633 2.622848 -3.2839186 -2.850177 -1.8251357 1.0239415 2.0964847 1.4929389
228.0 -0.7783374 -3.3735025 3.0102782 -0.77576005 3.419983 -1.3378499 0.25503394 -0.23531023 -1.4054145 -1.0273374 -0.9384974 0.009195918 0.51475304 2.3262172 -0.0213385 3.554904 -0.98664075 0.76467294 1.8710235 4.282812 3.467663 1.7586738 0.18696631 4.3271904 0.7949539 -0.79876757 2.44988 -0.67133945 2.6981966 3.970619 0.08974766 -0.06890418
286.0 3.1162047 -1.511137 1.1709652 1.0893605 -0.009477199 3.4228115 0.8952869 2.099357 1.855824 2.355174 -1.3225166 -1.9475703 -0.39033848 1.4022633 0.036479462 0.62710726 -0.91397226 -0.93916434 0.46412244 -1.3008604 -0.031849567 0.6115164 -0.9584556 4.736633 5.847412 3.2370229 1.9086307 -0.825816 2.8126006 3.7777994 2.4337726 -0.26959825
225.0 2.9787264 4.604552 0.17189433 -0.74219805 0.36616746 -3.0116866 -0.15736513 4.491013 2.97533 -0.3603083 1.4936842 -5.375211 1.2218705 -1.1781135 4.1270866 2.3812146 0.6648431 -2.3293054 -3.906504 -1.1125847 1.7244402 5.3593807 7.7138853 -0.33139673 -6.8014903 3.8259718 -1.1633201 2.050089 1.9480982 1.4911491 -0.97543377 0.026311042
87.0 -2.2612898 -0.327616 -0.5779604 -0.918004 3.742465 -1.867709 0.18145797 -0.048593443 -0.18971169 -1.0016294 1.2811334 -1.70389 -1.6365708 1.526876 0.3255558 -2.0280702 -0.44479516 -0.2580615 0.9343625 1.4624132 2.1047773 0.096138656 0.9762612 1.8002603 2.2238705 -0.8534413 -1.0877165 -1.3776433 0.7144464 2.3840148 0.35094646 -1.0292591
1087.0 5.516647 4.667094 1.5867486 -0.4495087 -2.0042439 -1.6540639 4.2113543 4.402198 -0.22360961 -0.095659405 5.4770813 -2.1598048 -0.97305286 -0.56259763 2.1915045 3.4113967 -0.21228999 0.7090247 -2.779866 -0.3236568 3.093242 -0.9025357 6.1705294 2.6385667 -4.2631054 -0.66648996 0.31996068 0.15303701 1.1449646 -0.8209857 -2.5950131 1.0760276
428.0 -5.459872 -4.135685 -0.94441146 -2.05974 0.16083454 0.10602974 0.61083686 -1.0685712 -0.7316084 -0.6721022 -0.02482162 -4.2724314 -1.3620994 -1.9408778 -1.6317242 -2.7426407 -3.9856718 2.4544218 2.3969276 -0.999287 2.9499066 2.8880587 0.3939003 -3.067031 -2.1033165 -2.645603 0.8606894 4.8570414 -2.948355 -4.272127 -4.949406 -0.41153485
783.0 1.4177873 0.4199091 -0.11351164 -1.8964125 1.2972682 -0.84583634 -0.3937302 -1.3242534 1.6289171 -0.93879825 -0.42494342 -1.9846278 0.6030065 0.71124434 5.2043667 -2.4619665 -0.42506957 -3.536325 2.777543 1.3308957 0.10270411 -0.66038096 -0.31336927 0.90491337 2.6781187 1.3093257 0.23339264 -1.268703 1.5708106 0.0556622 -1.9803891 -2.5499985
695.0 3.4327843 -1.8518524 0.20472355 -6.862221 -2.705081 3.0528312 -1.3536611 -1.4319254 1.1103714 0.76664674 2.4139597 1.7544408 -1.210002 -3.236523 7.456072 -0.81304675 0.3424281 2.564547 5.16381 0.42916793 7.28351 -3.2584488 0.09831669 -1.5259143 4.363906 0.050385788 1.5144722 -1.0590932 3.3794603 1.6930177 1.4030346 2.5150263
515.0 4.5961695 6.060118 2.799187 -1.9079225 -0.24356446 -1.9882035 3.3897195 3.0001183 -0.373401 -0.32762566 6.1462817 -2.9151201 0.01427236 -0.160756 2.4941185 3.1550393 -0.7026929 -0.23762523 -3.082238 -1.6070813 1.540118 1.6699293 5.4861703 0.039944384 -1.5788517 -1.4949889 1.7698722 -0.5659772 -0.7464919 -0.56322455 -1.7614757 2.4185188
630.0 -1.2868751 -0.15288836 0.96672785 0.7774032 2.2606525 0.096314386 -1.678928 -1.1418017 1.9813073 -1.5905915 -0.8703998 -2.1340296 1.4437301 -0.54378355 5.3641667 -0.67585737 -0.044515572 -2.5238225 3.4238281 -0.9719795 -0.5502311 -1.1289647 0.1385606 2.7896063 2.0695734 1.5807117 1.603599 -2.4052687 2.3667932 -0.11922077 1.0766208 -1.3328737
321.0 1.0297647 0.15297127 -1.8308002 1.9208403 0.06215151 -0.5294925 0.27472258 0.59254336 -1.306343 0.06801507 -1.5609998 -3.9326742 -2.5950031 -0.22697583 -0.52323216 2.3891714 -4.1590242 1.886342 -1.2028624 1.9638971 0.8550545 -1.5950958 -2.0012348 2.0431647 -0.07500004 1.3115987 3.5694551 0.3079536 2.3052108 0.8975198 1.6451612 0.85705435
323.0 0.88566875 -0.86023235 -1.3286763 2.2235317 -0.5793347 -0.37249583 -0.25859398 0.6853941 -1.4712915 0.89953685 -1.3565409 -3.690684 -2.5270393 0.062314652 0.019622052 2.1003828 -4.3323946 1.7512821 -1.243886 1.540836 0.09090354 -1.5408099 -2.2056742 1.1793282 -0.53384113 0.4553904 4.1184893 0.2319192 2.3742704 1.5735258 0.89258075 1.0711393
1023.0 3.337175 1.0393611 2.043244 1.6067967 -0.36637995 -1.6345087 1.8237503 1.4304056 3.4076226 2.8345153 4.0248084 -2.9486778 2.6365204 0.50602126 3.039073 -0.63443387 -0.6187415 -2.846609 -1.5579754 -0.5449195 -1.4355302 -0.48577654 3.1985877 0.9491648 -1.5553716 -1.8890578 -1.0890166 1.0005196 -1.6986823 1.3688644 -0.49440747 2.532265
133.0 0.21554118 0.39996186 -0.63609093 2.2671044 5.683986 -1.1274409 -4.102224 1.1953415 0.049956847 -0.93099356 -3.2673419 4.127247 4.9219036 -0.7985031 -2.267832 -0.9549737 -0.50592893 2.6710691 3.3991253 1.9697222 -5.238733 0.77502877 -1.986975 1.2760552 1.2332478 1.6321306 0.14735682 1.7110499 -2.0747902 -2.0298176 -0.9937184 -3.2069523
64.0 2.526737 -1.9786177 -1.876749 3.3174317 2.7857242 -2.611065 -5.648224 -2.9243 -2.5254915 -0.16979611 -2.7891889 2.8863618 -2.0979474 6.233116 -3.612057 0.54448014 -2.6443498 -6.1394906 1.5895286 -3.010505 2.4395447 -2.8545606 0.28770733 -0.3281361 6.8453603 -2.5663662 2.789932 3.6721303 -0.14175606 3.904965 0.96807843 6.751078
775.0 -1.3393612 4.4313393 -2.4384456 4.423759 -1.2504084 -0.47631696 -4.8632083 0.43198985 0.23288487 -0.49463114 -4.224157 1.8842387 -2.320813 -2.0541356 -0.7045906 -2.5165365 0.26868618 2.322423 3.305294 4.7517133 -3.5705068 -0.011787714 -3.1177619 1.1243367 -0.40537247 0.5728008 0.61276317 -0.011410579 -1.5102654 -0.9773679 -5.105939 -0.3858784
774.0 0.48918667 6.0974402 -2.707012 4.733434 -1.3518488 -0.7809496 -5.802998 2.0266197 -1.4955953 0.6000911 -6.707039 2.4487963 -0.5846148 -4.7325726 -0.7257408 -6.424145 1.2283714 2.6718543 4.736289 3.6812305 -2.6304805 -1.8520079 -5.4932094 3.4611073 1.0659407 -2.570368 1.4705122 -0.65363526 -2.3606749 -1.812705 -5.167649 3.5346568
502.0 -0.11780349 3.4970322 -0.42918062 1.0748359 -0.07213926 -1.4938478 1.1108795 1.6598418 1.6078458 -0.9218764 0.8098766 -1.0165788 1.5054085 2.1526542 2.6467512 2.9722347 -1.2528409 -0.4186377 -4.6898503 -0.62187463 -0.24072117 0.61116564 2.9755104 1.1380932 -1.6428043 1.7056425 2.3170147 2.248426 -0.30697808 1.4399236 -0.5236972 0.28161213
669.0 -3.3413444 3.8181517 -1.6818333 3.9650595 1.6193228 1.9757379 -2.6856124 4.395916 0.51824284 2.2955983 -0.4535586 -0.11083122 0.03398708 3.4359465 2.1424084 -1.6279992 1.3748612 1.252677 -0.20990276 -4.1517367 3.8335202 1.0835155 -1.044258 5.1551127 -0.59414893 -2.691903 -1.4865631 3.365298 1.1905199 0.8562601 3.1591587 -2.9601462
174.0 -4.2060394 -1.5718929 -0.09541186 -1.4797838 0.050334044 -0.5886298 3.624067 -0.06153504 -1.9420327 0.9450466 -0.90626603 -1.3149352 -1.1728997 2.5420923 3.0662556 -4.102406 -4.5060744 0.64861065 1.410688 -1.0906533 2.6315596 1.0397711 0.19071236 1.4274714 -1.7708298 4.4365716 0.20763932 -0.95273113 1.0122992 4.650844 2.535406 -3.7107482
217.0 5.110197 -2.6533763 4.035861 -3.774581 0.54680973 -1.0180068 -0.66390646 1.3992105 0.75312954 -2.2256668 0.92690694 -0.10004736 -0.6693107 -1.7518995 2.512769 0.5395419 -0.5243712 2.5139282 1.6995928 -2.0766795 5.9377937 2.5616663 0.5064131 3.2085378 -1.3534749 -1.3084836 -1.0159845 -1.4653413 0.11350515 -3.7425513 3.5611582 -0.6256224
172.0 -4.02881 -1.5825307 -0.15801106 -1.4355145 0.088961035 -0.48630235 3.3965037 0.049401734 -1.6040668 1.0585581 -0.7529809 -1.16543 -1.1349554 2.369117 2.8148372 -3.990524 -4.7734656 0.4478614 1.348362 -0.98374236 2.7715633 0.80947256 -0.0075299763 1.4599719 -1.6164659 4.148772 0.25027966 -0.8953053 1.1416618 4.8815336 2.2755136 -3.4937944
1107.0 -5.8753777 -8.075481 2.8439271 -6.6968355 -2.5544505 2.3618186 4.319031 0.13278238 3.658828 2.7286365 -1.3155097 -3.149724 -1.2774718 0.5321549 0.6120479 -3.2040393 2.9149618 -0.72235954 0.43865025 -1.2948332 -2.67422 -4.1593027 -0.42981237 0.58820707 -0.16119982 -0.26256216 -1.1867704 -5.8763824 1.2417966 6.7337446 -0.7529946 1.1543323
1252.0 -2.898709 -1.8587724 0.1097188 2.2655602 -0.6927511 -1.8168317 -1.451903 -2.0237405 -2.8738184 -2.7020876 -1.0483854 -1.5201198 0.91438925 0.35550338 -0.46470013 0.02224252 -2.507185 -1.6623054 1.1638356 -0.06809567 3.188518 -3.5062153 -2.6229808 3.7839308 2.7879882 2.1021242 -1.8035309 4.1297355 2.5694866 3.9587414 -0.9566719 -2.851929
255.0 4.1547937 -3.5363967 -5.6372714 1.5596405 2.7841957 -0.064684644 2.4323235 1.1889056 0.85583127 2.1912656 3.0596268 1.4189428 1.6606086 -0.10319857 2.0784569 -0.5598158 -3.9712405 1.4099668 -2.338568 0.89046013 0.77564746 0.46254194 -1.0203412 1.6985043 1.5931935 0.98718774 -0.21638146 -2.8657181 4.640922 2.4107141 3.9554355 -0.3503112
1254.0 -2.7059922 -1.8531145 -0.10620287 2.1529078 0.05871194 -1.7440194 -1.0154291 -1.8402817 -2.3316836 -2.3003104 -0.9284544 -1.7795103 0.5527596 0.36417535 -0.21849504 0.30378616 -2.539897 -1.208339 1.3076924 0.19598898 3.1801577 -3.286114 -2.406633 3.6585436 3.0173235 1.8524019 -1.507694 3.6003277 2.4201078 3.8943908 -0.35148638 -2.783621
222.0 5.199334 -2.497229 6.4686213 -0.36928937 -0.38493142 0.5301792 -0.8022542 -2.5446541 -0.15156466 0.724891 -1.2288342 -0.37983555 -4.9488306 -0.7570345 8.373428 5.223925 -0.034792826 1.1519783 0.71182704 -2.5565038 5.914552 -0.40471408 0.04303527 2.417313 -2.551093 -0.040116 0.7640972 -2.550531 2.6205404 -0.36822498 2.1005077 0.13766839
676.0 1.2497071 2.8315818 5.774737 0.23026899 -3.0552359 -3.3779156 -0.49952614 -1.2500465 1.5954229 0.009052502 -2.3146014 -3.2751074 -1.2955408 -1.5150415 -1.5959983 0.21339335 -1.440612 -0.4747833 3.1183643 0.09979429 -2.2996225 0.3660444 3.1139305 3.2872555 1.0094427 -0.48937693 -9.966568 0.017385855 1.2895448 2.5302048 2.110338 -1.2539158
220.0 7.354994 -2.6008174 5.042239 -3.2020464 -0.11943055 -1.3198408 -2.1557927 -1.483651 1.7700099 -0.8522806 1.3899488 -0.4973676 -4.357513 -1.9125774 3.8747823 2.9194946 0.67891717 2.4371803 1.6359135 -2.2317297 7.671999 0.8215135 -0.5287581 2.7294807 -2.732201 -1.3888949 1.2661197 -0.22280042 0.8762439 -1.9067072 4.0498557 1.4522765
670.0 -1.9435171 1.4182162 -1.396395 2.6348696 1.4841107 0.66264 -0.6210607 1.1234016 0.55607504 1.279423 -0.8927973 -0.54710716 -0.14050871 2.1445675 1.667128 -0.12129392 -0.95098805 0.11945384 1.4779899 -2.05127 2.8933034 -0.23371097 -0.9844827 3.3633692 0.05172856 -0.930708 -0.5994564 2.2509263 0.6458957 0.9788448 2.4500701 -2.0088289
254.0 4.141713 -3.4734616 -5.8144603 1.3506076 2.913641 -0.014088678 2.4298236 1.4184506 0.6740941 2.0585124 3.2112498 1.4244769 1.9113066 -0.33496782 1.8826797 -0.45792666 -3.8383098 1.359639 -2.2675366 0.895631 0.798738 0.5125801 -0.8226723 2.091361 1.4565889 0.89435804 -0.030917991 -2.5397842 4.804408 2.7766294 3.835283 -0.24738304
914.0 0.17932832 -1.3607451 -3.6066368 2.1349878 3.0201325 0.49759108 1.7322336 2.9071774 2.3698716 2.0774145 0.54634154 1.5620279 -2.009466 1.8907032 1.7086606 -4.379246 -1.4594675 0.2429255 -3.8796165 0.5329582 0.45202646 -1.536842 -0.5077013 2.6503994 0.9002322 0.5782565 1.6560708 -3.2554204 2.9219806 -0.27712816 2.894189 -0.8015887
915.0 0.23063664 -1.7623838 -3.3940945 2.1794226 3.5976322 0.15939118 2.0789773 2.820492 2.176315 2.5346227 0.53002876 1.6546355 -1.8458593 1.7720695 1.7710817 -4.042247 -1.5588422 0.19087662 -3.4033802 1.0310022 0.48805583 -1.2529688 -0.77647686 1.8675348 0.83710474 0.58027524 1.7568889 -3.5337539 2.9846683 -0.33036497 3.0892432 -0.6366371
550.0 -5.568949 1.8353026 -2.051117 2.83106 0.42625272 1.3658271 -0.52721757 -1.5756109 -1.4742129 -0.9022392 -2.4747407 2.174685 -3.1460097 -1.3754612 -0.6236228 -0.8418933 -1.5101304 0.6641101 -0.12613906 2.1848204 1.8465345 0.39726207 -2.0611737 0.05450279 -0.12191449 0.90126306 3.1852496 -1.6798013 -0.20571594 -0.079339266 -3.0803325 -1.424234
63.0 2.3673224 -0.15192848 -2.8576787 0.5379183 0.30395737 -0.26807782 -3.7371488 -1.9131094 -0.69876367 2.0707111 -1.0584481 3.9149244 -0.5736865 4.798257 -0.7322258 0.040787265 -3.9941475 -5.2558403 0.31174543 -2.2051513 0.8893239 0.18492308 1.1000243 -1.6141611 7.311338 -2.645955 2.6051667 1.6016601 -0.38048083 2.4071488 2.2948766 5.9848375
693.0 2.3899527 -0.6189071 0.5306733 -3.2477064 -0.697426 1.0803814 -0.9224933 -1.7012476 -1.4838395 -0.39208412 0.5842911 0.6432034 -2.7815166 -1.9249803 4.136647 0.3164186 -0.520911 0.7063073 2.7890432 1.0183325 6.709824 -2.296372 -2.0171947 0.7782281 2.1890488 0.64019525 1.8531722 -0.31590164 2.664656 2.0274217 1.4177735 -0.14831102
346.0 7.1080523 0.7442112 4.101439 -3.5575984 -1.2369868 -4.447019 -2.4968655 1.9226706 -0.6743099 -0.15092447 2.369195 -2.5659332 -1.4570359 -1.6385672 6.264754 3.5878968 -0.19646248 0.0581671 -0.37408134 -3.8647404 6.7987 3.994907 3.2962887 3.3495824 -1.9142052 -3.1442034 0.30291727 -0.3135985 -1.3432784 -5.761306 -0.60125077 0.9498455
114.0 1.5024785 4.799883 1.2133693 5.5293655 3.024782 3.9880142 1.1789236 0.38726318 3.5102808 -2.4024613 0.7427443 -0.085458525 -4.084462 3.6084445 0.99521846 1.3332046 0.3349603 -0.6215843 0.8332269 2.3316276 -0.5513576 -5.042445 -3.5957232 1.9107255 0.097498834 0.32753655 -2.733755 1.1106551 0.2785289 0.13386667 4.1030912 1.5674679
646.0 -6.045452 -0.5692195 -0.29247078 2.1000454 -1.3749754 0.4805901 0.59419775 0.13238928 0.70444256 -3.4850996 -2.8891814 -1.396608 -1.9259768 -0.46445805 -3.452752 -0.9687853 -1.458905 1.8096192 -2.3245733 2.8777218 4.35742 4.501596 -3.121118 -1.0627223 -7.2616014 -1.6275517 1.3850435 -3.0758533 -4.697992 -3.3798316 -1.7543414 -2.339345
328.0 0.72976744 0.0069836294 2.7955384 -0.6521975 0.9026753 0.1971236 1.9162967 1.5810536 -2.093858 -2.322702 3.9505298 1.7206736 0.2616261 -1.3151395 -1.489154 -4.256756 -6.628248 2.870144 -1.1324383 3.0815778 -4.8428197 -1.1705989 -3.069957 -2.2338417 1.2987641 -2.3137763 -1.2571312 4.530685 1.2292062 -2.7393718 2.5300648 -0.18035638
720.0 -2.7968123 -0.8682367 1.851458 0.14718765 1.055249 -0.4823616 0.33149967 -2.1717126 0.74765784 0.080514535 1.4101 -2.1777077 0.14307825 -0.45676726 -0.85714805 2.6926887 -0.9832648 0.9826184 -0.23679121 1.8114133 4.900774 -1.7904207 0.03024328 1.929294 3.099921 -0.3651964 0.33790037 0.58953947 -0.16930309 1.4833363 1.8802323 -2.6260505
953.0 -1.0960433 1.2247385 -1.8883021 0.23493966 0.95444447 -1.2149718 0.8463605 -1.1357225 -1.0568509 -1.9352633 -0.55107236 -3.7971582 2.2192905 -0.029482085 1.3878698 -1.6725655 -3.0272894 2.251565 2.7139683 -3.461639 3.8248098 -3.1390188 1.162334 0.97277963 3.388657 -0.23498291 -0.11677507 0.12696654 0.9390416 0.21405405 0.036132768 -2.3262274
952.0 -1.1504625 1.4624125 -1.9087174 0.102637894 0.8681305 -1.1493272 0.73674893 -0.95614433 -1.0743088 -2.0245297 -0.5169602 -3.748995 2.4245253 -0.07511055 1.3556592 -1.7503375 -3.2114286 2.2410996 2.7560089 -3.6256258 3.9608278 -2.9872382 1.27464 0.9935072 3.4240804 -0.27612832 -0.09326671 0.12889026 0.95880145 0.26692167 -0.14000499 -2.241085
841.0 -1.7616705 1.3251469 -2.2152479 -2.2011664 0.9638743 -0.72036153 -0.9564225 -1.3347822 0.117585175 -4.60693 -1.5594996 1.118883 -1.1375993 0.81105125 1.3000779 4.224731 -0.51422715 2.5168452 1.8602043 1.6775893 3.0882342 0.6505446 1.1495328 3.975057 3.389436 -1.2704412 -0.6490866 -1.2982181 0.44747663 0.6385221 1.5982466 -3.5494266
951.0 -1.1151005 1.4435353 -1.8847158 0.163707 0.90883833 -1.2303766 0.73544085 -1.0767883 -1.1153283 -1.9784713 -0.5924216 -3.864128 2.4179738 -0.12945847 1.3633388 -1.6858106 -3.1427765 2.3311267 2.7938282 -3.6097555 3.8957908 -3.0882924 1.3626252 1.1519791 3.3401358 -0.27320018 -0.070473075 0.089599356 0.9527172 0.17431484 -0.06411626 -2.3717594
842.0 -1.8328112 1.8217893 -2.284107 -2.7436962 1.2870871 -0.487651 -0.5245316 -1.4665512 0.4164355 -4.520004 -2.0428383 1.0897712 -0.76027155 0.61746836 1.1658744 4.025764 -0.43398538 2.3276026 1.506187 2.3010716 3.3440497 0.22857217 1.0869446 4.0601106 3.7506225 -1.6022731 -0.7413612 -1.6637111 0.7733896 0.62460977 1.4085183 -3.5126743
1026.0 3.6367264 1.8212558 -0.9816261 -0.82671225 0.9157188 0.27833542 1.7212292 -1.9675244 1.3108655 3.8012161 -4.0481315 1.1029935 1.8113875 1.0747174 -0.78764135 -1.7692003 -2.0346704 2.3358505 0.30232954 5.32658 3.4317594 -3.1708903 2.5786896 -0.29764453 -3.7447538 4.747849 -0.49817163 0.23589294 0.17852363 3.2400396 -0.6580533 -3.1994584
609.0 -4.5300555 -2.1432583 -2.9635515 0.76891637 -1.2757274 -0.49654943 0.34971473 -0.6074147 1.4289911 0.42148462 -0.6045628 -2.0536609 -0.017519029 -1.6259563 -0.95423186 -5.0868497 -3.2174582 1.7692013 2.0932024 0.7063804 0.9804902 5.137737 -1.679018 -2.570617 1.2571223 -3.622136 -0.05526359 2.3756318 -0.3902777 0.78100187 0.26023233 -0.4384242
57.0 0.88313293 -1.4088664 2.9251683 2.1169486 3.6692832 1.4126682 -0.93872863 2.744494 -2.4647868 0.1369925 -2.2722738 3.180426 4.9486156 0.5520712 -1.1865406 2.6147625 0.37178087 0.8642779 2.1874945 1.2184285 -5.5922456 -4.0130005 -1.2152963 1.9374868 2.0452688 1.3899629 0.51020646 -0.05633361 -0.82924473 1.1659517 -3.2704153 -1.6653883
1274.0 -1.9379957 -0.111646816 -1.0837452 -3.064831 0.1349991 -0.98755026 1.5020667 0.23957753 0.045250166 -3.5667794 -2.0099885 -0.07250249 -1.4836892 0.9010262 1.1721783 3.1014285 1.1033177 2.3174407 1.7873946 -0.45769817 0.8253587 -0.7530577 -1.3354383 2.218669 1.9494585 -0.40195587 -0.40466473 -1.065301 2.185 2.9702275 -0.31848755 -3.7922528
1135.0 -1.9440914 -4.784673 -2.6746747 1.4018513 0.88934875 2.5780475 -1.7543195 -0.8426196 1.1043315 -0.204691 -0.4848836 -3.7459528 2.3347254 -0.95419955 -2.6936183 -3.1885748 -2.6967037 1.3348137 2.3189898 0.2588199 2.7205856 2.4055693 0.06757874 -1.6942655 0.46882784 -1.9266778 0.60732263 0.9237081 -1.1886964 1.7401886 1.3673184 0.37984756
1273.0 -1.9588321 -0.46845692 -1.2904919 -2.9853117 -0.2403166 -1.0743618 1.4550732 0.62772673 0.15213688 -3.5164616 -2.139802 -0.1360827 -1.4075859 1.0762907 1.2807002 3.1327105 1.309087 2.3348646 2.0403647 -0.79192466 0.86672753 -0.7814554 -1.239309 2.007948 1.9954288 -0.5853895 -0.30796394 -0.82773745 2.0910914 3.0854783 -0.49808756 -3.9101253
524.0 -1.9891526 -2.4810865 0.44816196 -3.6534293 4.250031 1.9649849 2.7654557 -2.7443693 6.261964 3.4725912 1.2187215 -1.0543156 -1.8933816 2.1780558 -4.728808 0.36201802 4.25934 2.4348683 0.5354467 1.1895235 -1.589415 -4.2857714 -0.8626229 -2.3049192 -1.5972551 -1.6733687 1.9533716 -2.3231122 0.99967146 5.2998095 1.1423402 -0.3803533
464.0 1.2206831 -1.5924972 1.9334631 2.2960732 6.9370623 -4.50068 -4.432747 -1.8370552 -1.2597398 3.0647287 -2.064502 6.3409514 3.6628299 0.83971155 -0.026551051 -3.7446525 -0.9934171 1.0588067 3.7819343 1.9970407 -8.85725 -1.5072522 3.0623915 1.3719746 1.6560053 -3.2385092 1.0588316 -0.87688065 -3.810663 2.5945377 -1.761174 -4.2530713
1315.0 3.7056777 -1.6943463 0.39709798 0.8941316 3.9445136 1.2017328 -6.3055806 1.9576418 -0.3577852 4.0579867 -3.5948799 6.438785 2.469449 -2.6227472 -1.360569 1.1234226 -1.1213613 4.591715 2.8288093 1.6633885 -4.786726 -2.456949 -2.241835 2.2871377 6.6642327 0.39322415 -3.0155337 0.5270848 -5.601818 -2.8335793 1.207904 -4.165122
860.0 -4.985532 -1.7035714 0.7251815 -4.7368736 0.4346296 1.1783184 4.394052 -2.2285311 5.6839514 4.879713 0.6333056 0.07245034 -0.17573383 7.2697396 -1.765719 -0.71552587 2.5993204 0.58308285 3.7822154 1.0984665 1.2222253 -1.6939813 2.2805667 0.25330257 -0.30273718 1.5982138 2.185661 -3.9592838 -3.7743032 1.2428471 -2.219947 3.3354323
757.0 -0.9899134 6.688638 1.8332504 1.4473522 -4.9326577 -0.0029291224 -6.899154 1.6325192 1.2495618 -1.8225496 -2.4036026 -0.8734712 -1.2969238 -3.5375004 -2.9476576 1.1135089 1.4387387 -0.49069697 3.9676816 0.3968876 -4.8597803 5.0247836 2.2797918 -2.6794038 -3.2428646 -0.17887357 -2.825324 -3.7458827 -0.16809331 1.6271899 -2.7799382 -1.2932281
386.0 -1.3313634 -0.38929826 -0.5462159 0.24107596 0.9552423 -2.188369 1.4872885 -0.44466949 2.7526753 -2.1931708 0.049839932 -1.5181977 -0.60108864 1.8510412 -0.12518895 -0.24715494 -0.814194 -0.4564633 0.6537074 0.4599282 1.4971533 0.4189548 -3.418348 3.2065837 1.368352 2.2991877 -1.2181997 0.24555139 1.1617818 -0.33708796 1.6853347 -0.98295677
527.0 -1.0579056 -1.2011142 0.9430864 -0.059459236 3.1870651 -0.88271725 2.4982002 -1.5177917 1.7510803 0.20611343 1.4906797 -2.055791 -1.0587665 1.172503 -0.66325796 1.8224293 0.009376606 0.74784285 1.9886879 -2.2432666 -0.40894267 -0.044319805 0.17059009 -0.63820493 -0.22999571 -0.26311544 -0.6781595 0.08411849 -0.30507344 2.1512527 0.5733127 -1.8743023
507.0 1.0684097 -3.807213 2.3290615 -0.04861884 7.366952 0.6177313 -3.7813556 -1.3708344 -1.1508629 3.5471585 -2.4020154 6.309113 1.4977679 -0.037925746 -0.8852313 -3.2086387 0.28667703 4.3323326 4.2801375 -0.05842261 -3.8761275 -0.9983118 -2.3293881 2.9939687 2.7099137 -0.90474826 -0.18313558 1.1464186 0.7128021 -0.8684594 -1.3558176 -2.6623206
833.0 -1.2248176 -0.54056144 0.61580914 1.3695709 2.4020255 0.57525766 -1.3529212 0.47743323 0.65572166 0.48098075 0.018503886 -1.033859 -0.8572409 -0.8003916 0.29103252 0.42918137 -0.7546438 1.8715138 -0.3911122 -1.3455946 1.1570181 -2.2253754 0.11023565 -0.6767564 3.6529815 1.8792555 0.22203182 -0.68915015 1.2078512 1.8141583 0.7179515 0.21835889
826.0 -1.3601577 -0.6361055 0.43148464 1.413499 2.557388 0.48682287 -1.2090484 0.2596461 0.6761983 0.6211378 -0.08263624 -1.1231817 -0.9976274 -0.7738519 0.38694248 0.4127093 -0.73498476 2.103301 -0.35130212 -1.303344 1.2269086 -2.3360627 0.18240857 -0.5305303 3.825617 1.7754225 0.025308702 -0.6524277 1.2906089 1.8225813 0.67147 0.35501897
131.0 9.969632 3.5933373 2.1771245 0.3902211 4.701848 -2.2920284 -4.6088996 -4.1599607 -2.1922803 5.492426 0.51501787 7.468823 12.030068 -0.7628969 -3.412314 -4.1626806 -4.725027 1.0052176 -1.2158768 0.86118466 -4.2203903 0.5925134 3.0887523 -0.4459172 -1.7782449 4.6014423 2.4164045 2.9241679 -2.9245174 -0.912444 -4.7060127 -5.5859623
1003.0 0.09436732 1.1385324 -3.3442938 -1.7383465 3.3319812 -0.6405212 1.4706435 -1.8688873 2.360622 -0.20507844 2.105879 -0.8827022 -0.87132585 -0.34681335 -0.016197542 1.6273416 -0.36923152 1.3264711 0.83570486 -1.6021819 1.6004422 -0.88120806 -0.68740356 -0.29919326 3.0315716 2.0635722 0.043207724 -0.8499105 -2.3664296 0.2807693 0.35979775 -4.2536244
895.0 -2.0962908 0.9123034 -3.1913073 1.7863361 2.0627854 -0.14307834 2.8776915 -0.05952393 0.9551044 2.6890202 -0.9860034 -3.1346173 0.537778 -0.24508667 -0.9793474 0.36108005 -2.6961873 -0.9619155 -0.904195 0.78374195 -0.38715893 -2.5891383 -1.228217 0.32145035 2.2217033 2.1026676 1.1162238 0.66289437 -1.6580312 1.7239692 0.48809084 1.1969929
1211.0 -2.2684572 -0.5088617 0.6269455 1.1693976 0.8285401 0.91761446 2.2365887 -0.6584759 1.9216971 -0.9981623 0.95631146 -3.3612866 1.6933203 -1.1179101 1.6994394 3.577373 0.53437877 0.47451064 4.940037 1.9641482 1.8603532 -0.028920794 -1.0620841 1.8581307 2.6589842 -0.4611362 -2.7204716 2.7121663 0.44226822 2.3898818 0.019490397 -2.0141592
508.0 1.0858601 -3.7721686 2.166908 0.15233286 7.5792904 0.54584 -3.6402383 -0.7709667 -0.99671924 3.763561 -1.5848045 6.4606686 1.2081674 0.05834489 -0.38014972 -2.7636867 0.2712261 3.6826909 4.4176555 0.31141025 -4.031843 -0.9671048 -1.802245 2.4611864 3.1300402 -0.34845078 -0.5462872 1.6186733 0.71066165 -0.8924241 -2.0496936 -2.9309747
143.0 -1.7969972 -0.11382087 -0.57396835 0.19358343 1.809295 -2.5062535 0.15405469 -0.49035615 1.0969518 -1.4760314 0.8067821 -3.382359 -1.3770037 1.4860189 -0.40597922 1.777945 -0.9045527 -0.9610841 1.5120283 1.393265 0.5891483 -3.0804605 -0.9699935 0.08438322 1.4813874 -1.5246488 -0.49796656 -0.23888898 1.3030283 -1.3661876 -0.518243 -1.5415953
967.0 0.31429806 0.43971118 -2.819965 -1.8410387 -0.6569959 0.45240816 0.68612075 1.2146885 1.446687 -0.29062226 0.13398162 -2.167199 -0.690489 1.7144893 0.84354484 -1.1001629 -1.8703928 0.502837 2.7946088 1.256192 1.626736 -2.0103552 -0.15754749 2.9623306 3.050475 -1.9349786 -2.018069 0.94095415 -1.0141104 -0.6565581 2.3067029 -1.2783482
334.0 1.9869251 -1.1253054 0.6190133 3.0887134 2.8745701 0.3399214 3.4376564 0.10176227 -1.3798376 -1.3311255 -0.76185817 -2.158603 -0.015176997 0.7419777 -0.71616316 0.58289003 -1.8097795 2.2683926 3.447614 -1.9075844 2.4480743 0.99109274 2.7527218 2.2585373 1.402333 -0.41176933 0.041423958 -0.24522173 3.2332609 3.4810956 -1.3142371 0.021072729
1002.0 0.15769115 0.9613683 -3.716368 -1.8278532 3.4842663 -0.46517092 1.6956011 -1.7720298 2.3499868 -0.0013908719 1.9857713 -0.86929995 -0.9099174 -0.21167079 0.017986163 1.7488937 -0.42372972 1.2229351 1.0014791 -1.4699433 1.6042501 -1.1587023 -0.42387325 -0.069302045 2.990424 1.9877843 0.32787234 -0.78602535 -2.6401026 0.25362444 0.24960884 -4.366665
706.0 -0.14268371 -1.7273221 -3.194579 2.3737366 4.2709303 1.673221 0.111814216 1.2898107 -0.116240315 -2.7880883 0.21006806 -3.5738328 -1.2297406 0.6054404 0.25654832 0.5303233 -2.615463 -1.9688592 -0.63569564 1.6338583 -1.6389631 -1.6889803 0.57693386 -1.9874265 2.0363908 -0.3684386 -3.9472332 -0.35902992 -0.006193627 3.898538 -0.39571878 -1.9738991
391.0 -1.3257523 -0.41604784 -0.7026449 0.28416777 1.004254 -2.2772484 1.503636 -0.32328716 2.7502518 -2.1324186 0.023690185 -1.6284682 -0.57425004 1.7920938 -0.2235306 -0.35101414 -0.8257772 -0.5753461 0.7633185 0.4678426 1.3992738 0.4079029 -3.4220986 3.199428 1.3371521 2.2041202 -1.261255 0.3476797 1.0919416 -0.3189747 1.719908 -0.95426667
1150.0 0.12378367 -1.137859 0.16927445 -0.17378439 2.0234807 -0.7238779 0.70758456 -1.563531 2.8699565 -0.4908326 0.6371735 -2.9488716 -3.0039365 -0.74983543 -0.2772509 -1.2984943 -2.5082128 1.0306242 -0.854319 1.4620574 0.3873597 -2.062641 -0.26694515 -0.3216418 1.7714186 3.6465213 0.967323 3.563121 -0.9135179 -0.009038636 -0.2564297 -0.35976472
61.0 -0.6332824 -1.0782839 -5.107072 -1.2330316 0.2144157 0.832161 0.03971478 -2.45227 0.4594935 3.749812 1.5384568 -3.1867526 -0.06962327 1.2750145 0.3503905 -0.16235106 -2.5787563 -1.603061 1.8999723 -1.3173052 0.18910004 -2.8785892 -3.857306 2.1969981 2.1984909 -2.1122425 2.224526 2.1426556 0.9560509 1.7873759 -1.1518841 -2.1132717
942.0 -2.2006934 -2.071541 0.7211269 0.12805623 2.8602874 -1.3437796 0.68062586 3.6646569 2.744324 0.34149042 -1.7825288 -0.32435 -4.187058 3.7269773 -0.8233206 -0.9504822 -0.59612143 1.7321622 1.2850425 2.5724802 -0.5732231 -2.584745 1.6721953 -1.0424211 0.6819414 -0.50585645 -1.5542072 3.0846174 0.76855576 2.6581695 2.2271466 0.72292936
1101.0 0.5566357 -1.9116502 -0.79448414 0.73284 2.8835132 -3.6649697 -0.5884826 -1.5172707 -1.4803137 0.3503745 0.18165241 -1.3615608 -0.54402983 2.1310081 1.0038689 0.912047 -4.107038 1.0686585 6.077303 3.4932842 2.8987036 -1.1001816 -0.6833914 3.7988913 -0.8574182 -1.1035088 3.043733 1.2393168 -0.36229318 -1.2631032 1.8589792 -0.3814901
758.0 -0.7454067 6.0781665 1.9509307 0.9667384 -5.571834 -0.09171465 -7.1998453 1.3770491 1.4733641 -2.5024476 -3.0508704 -0.14580938 -0.74157023 -3.2544634 -2.2165956 0.1809744 1.2370918 -1.2528213 3.4201665 1.4393827 -4.4362288 5.0337625 2.4353974 -2.1018164 -2.5946503 -0.34748527 -2.1884656 -4.3731623 0.31072274 1.4938031 -2.7846866 -1.1733087
1575.0 -1.2296963 -3.8837376 1.4137887 1.5863444 0.13391939 2.3691726 -0.053400617 1.6359065 -0.14499469 -2.722638 0.8292419 1.0801201 -1.6142462 -1.3433669 0.7940923 2.1850488 -3.1951485 0.37756556 0.03649665 1.5448574 0.75490737 -2.505474 -0.4197865 4.890979 0.08843301 -2.8521767 1.5320901 0.3669433 1.0687964 -0.7515623 3.074963 0.87999207
1332.0 -2.6226532 -1.4357314 -2.3551283 1.7726192 4.8787274 1.5026805 2.8768194 2.4180326 3.958972 -0.0626673 -4.051181 -2.2118194 0.21910945 0.25093699 2.2065468 -1.9753553 -1.4274976 0.53050226 1.3915957 -2.9111412 -1.4520652 -2.2881649 2.364145 0.16567445 1.8385363 1.8341559 -3.1705 1.4875858 0.9430205 0.5605213 1.1497439 -2.3170788
148.0 -1.6491902 0.008311382 -0.5322344 0.121295445 1.6617904 -2.4642966 -0.07800365 -0.5868777 1.1402606 -1.4170098 0.7986032 -3.243635 -1.308116 1.4740553 -0.48015764 1.7454306 -0.84091103 -1.0495859 1.5222994 1.3272865 0.55024815 -3.045608 -0.9116602 -0.043288313 1.4240154 -1.5151753 -0.40420377 -0.15176432 1.3282546 -1.4215219 -0.59179515 -1.4888041
1222.0 1.4271048 0.7478132 2.6154923 -0.3127802 4.1047387 -0.21449696 2.8590627 1.0956666 0.54087466 -0.8678562 1.6110965 -3.3893807 -0.6389045 -0.6030142 -1.8034253 2.6391428 0.23690577 4.1953773 -0.11290999 1.3460113 1.6860365 -1.2222229 -1.9297078 2.6992419 1.1967719 4.115058 -0.25353274 2.9215136 3.0203288 2.8040946 1.9980229 -2.5597863
6.0 0.28193954 -2.3375213 -2.713138 2.7698288 -1.7850318 -1.9186782 2.3330848 0.34342098 1.4441895 -0.62504584 0.7836865 -1.7728059 -2.1595123 0.91162217 -1.2921078 -0.18952812 -2.0909846 -0.6512317 3.1465328 -0.0046338607 0.88543326 -2.908122 -1.4244845 1.9888116 -0.9311638 -2.0553424 -1.4293755 1.2704407 1.6618124 3.0753684 1.6613517 -0.81762373
468.0 0.19188678 -1.2747103 -1.1488252 -1.6256988 1.7580272 2.2013078 1.3277663 -2.8920438 2.543085 0.110826895 -1.0469275 1.7029916 0.4282864 0.0389269 -0.76180834 2.5735943 -1.1108986 -2.2985244 1.8213428 0.5555584 0.21388648 -0.9204222 -1.3053939 1.6223587 2.3920312 -1.8753383 1.2001892 0.670771 2.292637 1.4152712 1.529916 -3.0689573
215.0 0.25527552 0.98096055 -2.2773073 0.7495221 1.3271405 -3.9096825 2.4513288 1.0050555 1.8509874 -2.1924748 0.24853215 0.09862038 -0.31160662 -1.6213032 0.17275938 4.0930085 1.1720333 -3.6561048 3.3283415 3.6082304 -0.017741617 -2.7491505 0.6373632 0.055283368 2.1270235 2.624829 0.24226081 0.9529326 0.22852102 4.2200017 -1.7985959 -3.0323386
637.0 -1.195291 -0.18710215 1.7480264 1.9531095 3.4273982 -1.2385657 2.4823887 1.8155284 2.2093434 2.8349373 0.5156932 -3.2862887 1.7416514 -2.3030896 1.160709 1.2217449 0.34906468 0.3706588 5.504879 -0.8507892 3.157677 -0.7268801 -0.27069068 -0.29625225 -1.5635561 0.8900407 0.2436627 -0.5194686 2.136604 0.27103493 1.8838887 -1.2723728
27.0 -1.4144908 -0.2598304 0.26986274 2.4827883 -0.56240606 1.1297433 -0.1571587 -0.965941 0.9437427 -0.5637006 0.6766917 -2.5981636 -0.91290617 0.5730531 -0.9135466 -1.4423465 -1.1363289 2.8951738 3.915498 -0.6959978 2.281733 -2.92116 -1.1952895 -0.6761002 0.08220907 3.1300662 2.2028477 2.5029354 0.1628603 4.774703 2.935666 -4.1555514
970.0 0.17518485 0.42224732 -2.826829 -1.730955 -0.61959064 0.4263455 0.7650765 1.2102545 1.3846498 -0.21786524 0.08044818 -2.278183 -0.8442015 1.668329 0.8013248 -1.0491428 -1.7589018 0.4138952 2.8382838 1.2010926 1.7049943 -2.0595596 -0.11587375 3.0105066 2.9528198 -1.7707119 -1.959754 1.032789 -0.9003803 -0.75677556 2.399796 -1.2381699
84.0 -1.7681175 -0.026990632 -3.6259031 -2.3821876 1.4562751 2.3031967 1.681716 0.5235756 2.054709 -0.26828957 2.7242496 -0.53440344 -2.1535985 4.16168 -0.5564601 0.10141815 0.07546024 -1.4642537 -0.42623192 2.9915848 2.469647 -2.4549 -1.4063096 2.9740944 1.3008624 3.5143554 -1.7460836 2.5911872 1.8943259 1.9593383 -2.7361114 -1.7944602
732.0 -1.7667824 -1.9632825 -2.25718 2.3558145 1.7303967 0.010699838 1.3029265 1.4725844 0.4482557 -0.47526717 0.57022387 0.30184117 -1.7636459 1.2257369 1.739377 1.2137188 -3.1817248 3.702411 1.1004403 0.38130787 2.8831983 -2.6701443 -0.082068875 -1.6725665 -1.1468034 0.9687369 -3.6398335 -1.8449184 0.20092613 2.610699 2.7263958 1.7732302
804.0 0.471658 -1.3389071 0.62823445 0.29796627 0.47662157 0.19415553 2.1430852 1.115253 -0.14157908 -0.19913302 -1.3423377 -1.8861581 0.5340571 -3.6728036 0.9992614 1.7683077 -1.025699 0.6092488 2.394521 -1.2309052 1.468349 -0.8705028 0.16711284 1.6541386 0.6782034 -1.277789 0.8333709 -0.8124162 -3.3876479 1.9031245 0.8423493 -3.1968853
40.0 -0.92311186 0.8992828 0.37952614 0.32961085 1.734402 -1.3651721 0.14167511 -0.36412328 -0.052473195 1.1352973 -2.7339666 -0.66498184 -0.935706 0.620041 0.03189598 1.7623812 -2.2873044 -1.7097502 1.0149087 -0.86394656 3.0675125 -0.32874128 0.8255156 -2.59325 3.2712352 -0.545483 0.39356652 1.1135327 -0.47595885 1.1882901 2.2552369 -3.3926356
145.0 -1.7244785 -0.06658605 -0.56799555 0.13876781 1.5862616 -2.4326637 0.035862084 -0.45592427 1.1641662 -1.4090351 0.78735685 -3.0847194 -1.3065277 1.451994 -0.4335961 1.8086977 -0.81542325 -1.1620221 1.4863491 1.2566377 0.47146028 -3.069978 -0.92723835 -0.079058096 1.4328761 -1.5162419 -0.41177472 -0.24207014 1.3385735 -1.3765455 -0.53677166 -1.4724425
