1222 32
12 2.1185372 -4.324263 -2.1842356 -1.1340913 1.4673191 5.559605 -2.335457 -1.5202205 -1.0004047 -3.4963677 3.6464345 -2.667791 1.3706878 0.70123374 -4.861242 -1.2885079 1.491207 4.0894065 -3.9930835 -2.8827338 -4.187951 -0.03438023 -1.6194705 1.5704279 2.134996 -1.1384596 0.8672871 -1.9350517 3.8757496 1.6864862 -1.4314564 1.56577
304 -9.374837 -0.04865494 4.926429 -0.98311555 -3.6189291 -1.5246035 0.8921899 1.4566518 0.07331276 8.583627 0.22815925 -2.270385 2.7673423 -0.785782 6.5125794 0.6173585 2.0131745 -0.72421837 9.712209 3.1816206 -1.2351407 -0.60411716 0.6942895 -0.5775266 3.9996054 -0.110250846 -0.449315 0.25071397 -0.51505286 -1.5354925 -0.8076555 -2.3224642
28 -3.475782 1.2356901 0.8393015 -0.91757506 -1.4363685 0.058872588 0.13166782 -1.6170024 -0.743578 0.70693386 1.9754282 -0.23232806 -2.5905328 2.554816 0.6489966 0.28211182 0.06726975 -1.6551656 5.03292 0.32468268 2.1124716 0.40772012 2.5892947 -2.862965 3.376022 -3.4358363 2.9994142 0.8505503 1.4343112 -0.43018296 -1.7841333 -1.3201699
14 3.0263598 -2.2244864 -1.0594724 -1.2070354 2.0081892 6.824206 -0.9933389 1.2120388 -0.3867292 -3.556192 2.2489345 -1.2480433 0.28301778 -2.3268652 -4.1260633 -2.2446496 -0.70120126 4.9370713 -2.4810927 -4.4799995 -4.3121133 -0.3740678 -1.004559 0.35407567 3.226699 0.97420317 -0.70224476 -1.5173324 2.2553911 0.39064494 0.19759928 1.4272367
16 2.0454736 -0.06940623 -1.1564832 -1.3159881 2.2385278 5.515996 -3.2819748 -2.5233567 0.82582533 -3.8954573 4.156205 -1.7819035 1.0547942 -1.2241114 -3.4976196 -3.4389772 -0.041108422 4.957286 -4.915624 -2.8666139 -2.908517 0.6197354 2.0983899 2.472791 4.1437006 -1.1867627 2.7745996 -0.54062074 1.8388497 1.7771806 -0.91857934 2.7842696
94 -4.2032824 1.3715336 -0.20443238 1.433183 -4.3338923 0.5131862 2.6196692 -1.7584726 -0.63336897 3.5675642 9.78207 -0.51300836 -1.3281817 3.0037136 2.9838996 2.7160916 1.9267583 -0.53657407 6.476698 1.7631783 -2.590138 1.5156425 1.1698747 -5.2834616 4.9180827 -4.175615 -0.93668735 -3.534141 -1.1578121 1.3291621 -2.757565 -4.7200685
6 -4.8549275 -0.8716781 -1.0559088 0.7509712 -0.9814524 -4.13401 0.49610597 -0.05402237 1.6574008 0.7535837 2.493892 -0.7582787 -0.8305736 4.1109447 0.7323098 -1.5319859 1.3393278 -2.0394504 7.608463 0.11629761 3.0388649 -0.63478976 2.7041588 -1.7302715 5.107712 -4.8970094 1.3765732 -1.0782301 2.7435474 0.16644132 -2.1315937 -1.1983004
67 2.950848 -1.1735399 0.3336782 -1.5727922 4.260323 3.32283 -2.0879881 -2.4260154 2.5771463 -2.23659 -1.1963011 -1.2679 -2.0449483 -1.495157 -3.9486306 -1.5550689 -1.3054143 3.5711572 -2.2764335 -2.8114567 -1.0326886 -2.1211042 2.3929005 0.81154966 3.6446846 0.9830006 2.3605459 2.1878192 1.1857398 2.4259884 -0.84852403 3.2640395
35 -4.494128 -0.29351148 2.7212708 1.4286038 -2.7872396 -1.5993707 3.5255065 -0.03102602 2.1171205 -0.706787 -0.0011470645 -2.1026132 -1.7895516 3.286089 1.3292605 -1.6511351 -0.56583095 -2.3619993 7.594307 1.0110338 0.52385414 1.4435587 3.2065792 -3.0372548 3.4548392 -5.2977595 -2.1827147 -0.92550045 2.998199 -0.7521072 -0.86912775 -1.8116882
145 -3.1396692 -2.052744 3.1010742 3.2659466 -3.208354 -3.7290387 1.166521 0.3717597 -1.1039972 -0.09009457 0.018674523 -1.5782312 0.5391264 1.9852839 -3.5625844 2.737658 3.0979927 -3.487259 2.3657327 4.649099 1.9250373 -0.25708508 0.7928504 -3.8381672 4.86547 -2.5053988 1.3203295 -4.327263 -0.855176 0.997466 1.5095804 -1.5791457
36 -4.0117717 0.28914815 0.5168073 0.8505783 -3.449824 -2.2819648 0.8404783 0.8918482 1.4013942 -2.6483252 2.4997144 -1.9879019 -0.8439303 4.889421 1.260823 -0.17386064 1.751108 -4.8031983 6.580029 -1.0682639 2.1434681 0.56018114 0.58848965 -1.035367 1.7373037 -4.1962047 3.469789 -2.3001842 1.2973218 1.000231 -1.1874125 -1.9969596
21 -3.8483317 -1.1485007 1.6513917 -0.4415673 -0.7318765 -3.1511962 1.0893536 -0.8625062 5.0624022 -0.16092789 2.3308911 -1.9912807 -0.9960868 2.2214422 1.4967695 -1.2350003 1.6604925 -3.712081 4.379564 0.036851183 1.7522271 0.5688731 2.843544 -2.369073 2.9809659 -2.9915295 3.7392228 -0.44062048 4.229998 -0.7454813 -3.3773675 -1.179414
31 -5.0062504 -2.1626725 2.909526 2.036121 -1.5030888 -4.6995487 1.5747797 1.5832946 -0.15955278 -2.066369 0.8142397 1.3451924 -0.07624623 2.84836 0.72835195 1.4368045 -3.2358668 -1.5152332 7.337386 2.0796134 0.4243713 0.069584645 1.0409896 -0.23215455 5.81399 0.2719944 1.4686501 0.46384606 3.6258461 -0.53359807 0.27112973 0.81508374
39 -6.1723843 1.34566 2.888313 1.1894685 -2.2276378 -0.39637238 3.6992812 2.7742808 2.5637116 1.5616076 -2.2424047 -0.35886115 0.37566227 0.98689485 4.2355084 0.7992837 0.62125105 -2.7392728 1.6619767 5.5236254 1.254645 0.99043065 1.3153838 -3.187598 1.090718 1.3002036 -0.7427175 -0.06170808 4.780621 1.6472851 -4.5350165 -0.34819135
52 6.599113 -5.7106214 -2.872811 -2.8896556 -0.8313003 2.2703676 0.66834027 -0.026579544 -1.3062607 0.3555311 1.0642959 -1.4345802 -1.1983094 -4.145223 -4.745423 -0.7156473 -0.049001437 1.6572608 -3.8520536 -3.171568 -1.4678161 1.5945394 -3.440462 3.4663732 1.5484821 2.9300716 -0.30320087 -3.8622544 -0.5171106 0.2580534 -2.1824584 0.89783967
13 2.8114886 -3.5734317 -4.641048 -1.3009361 2.0328622 6.4964023 -3.0528622 -1.0199566 -0.6958615 -3.471951 2.1240628 -0.29290363 -2.4164586 -2.4298635 -2.4506643 -1.0975846 -0.83604527 3.8541296 -2.3847303 -2.281478 -1.9586563 1.7560372 0.32628292 -2.2726398 3.9742339 -1.0043478 0.046103742 -0.64933336 3.5811987 6.628206 2.1202245 1.5514916
163 2.4787164 -4.246675 -2.8696318 0.21405369 4.13061 1.2106167 -3.2576895 5.064413 -3.7621608 -0.16686724 -3.035952 -2.9841301 -0.030989673 -1.5799781 -7.9187145 -0.43034396 -1.9395703 3.8256805 -3.1024563 -2.649373 4.4672885 -1.492903 -3.157088 -0.3421908 1.4077299 1.072744 -4.002045 -1.7235568 -2.66486 -0.36817807 -2.7400627 3.4497738
9 4.9713554 -0.24496745 0.60628885 -1.7226646 3.1278894 2.3239923 -2.4014137 -0.661408 -3.0008678 -2.72066 -0.6169341 -3.1123586 0.59521025 -3.0698628 -2.7976077 -0.107617415 -2.19026 2.8970122 -1.1432316 -3.2454233 -5.5561023 -1.750161 -0.91646254 2.1974688 3.2877784 0.46166083 2.735672 -0.04387472 -2.323035 2.4947095 1.167559 3.659079
18 5.7613845 -2.413174 -2.0115502 -1.7480783 2.6180425 2.2571433 -0.45773453 1.3691478 -2.0633135 -0.8161531 -0.19521293 -0.9676568 0.01876026 -4.249064 -3.4185135 0.32697558 -0.45858946 5.35715 -0.62475795 -2.6231122 -1.5587542 -0.012020991 -0.2146154 -0.18269731 2.2602303 2.2228074 0.4650833 -1.7814897 -0.0060251947 0.8996928 1.0590763 2.4762857
33 -2.754543 1.2435435 -2.0634332 1.6456921 1.2859373 1.7420388 -2.5538197 -3.9898899 -0.4840509 -6.916855 7.994881 0.39352182 -1.6791916 1.3162036 -3.7127483 1.4954897 1.0516206 0.31989485 0.9957428 -0.09273867 -1.805313 0.94603443 6.402826 -3.9473512 4.993181 -2.6615644 4.884054 0.9647273 -0.9347699 -0.8980562 -1.150696 -0.56337726
73 4.947935 1.6980234 -4.412629 -0.3705301 4.557614 5.822109 -0.07057662 -0.7079491 0.032394502 -1.7006068 -1.4941316 -2.3757424 -0.6158237 -3.6379287 -1.8913959 0.6952378 -1.4188412 4.960322 -1.5444131 -3.7853913 -3.2610335 -1.1541103 0.07571495 -0.26281708 3.4895074 1.5204864 -0.49780515 -0.39573067 -1.9920021 -0.81369 -0.005540831 1.2173021
32 -2.481347 -0.8845912 -0.11802256 -1.9762725 -0.9345582 1.6433634 0.70272666 -3.102246 2.072692 -3.3981647 0.40101126 -0.056981504 -0.3942215 2.9259923 -2.2196066 -2.537422 -0.3519474 -0.48951018 5.3085103 -0.76496506 3.6035094 3.2184274 3.2052674 -4.8432646 7.49583 -4.0626464 1.5948285 -0.08506484 -1.5980308 1.4146091 -1.7188653 -0.7416717
8 6.46223 -6.027731 -1.9860084 -3.8927727 0.808633 8.350248 -3.7790508 0.47267014 -2.1503923 -2.3597574 1.743033 -1.3596642 3.4970055 -0.60800004 -2.444204 1.6154591 1.6796802 1.2483008 -4.4348044 -0.86101246 -3.510501 -2.2837527 0.14258865 3.634426 6.0405784 1.6553528 -0.5020709 -0.07015774 2.15225 0.10026921 -2.5173101 1.2423376
176 4.9257445 -4.597169 -2.049776 0.22058931 0.99434286 2.4327714 1.7319527 3.6866145 -2.9479294 0.8534028 0.69483584 -0.83845854 -4.1975627 -4.363576 -2.2060776 -3.9183145 -1.535159 1.3660383 -5.15166 -2.698784 2.763898 0.01963933 -0.7155514 2.5225344 -0.703868 -1.3155235 -4.03862 -3.5796456 -2.1402402 -1.9198993 1.8716366 -1.5620304
148 -3.7293215 0.9781446 2.5246992 -2.132919 -0.75958633 -1.9145138 3.2753637 -0.9613026 -0.062900834 -1.9914422 0.4608041 1.2788959 -1.2075533 1.825518 1.776288 -1.4903544 -0.77995193 -4.232696 2.0398104 -0.37472555 3.3808174 -1.1772413 2.9968324 -3.7554128 1.2295861 -2.84278 2.7436523 4.56094 0.15728639 0.79028636 -1.290405 2.4595277
161 7.180653 -1.3362184 -0.5572426 -4.0556655 1.9275806 -0.020146903 1.0662931 1.7676923 -1.8139265 0.1699718 -0.20784603 1.0357285 -0.063489065 -1.4320637 -5.378777 -1.7556379 -0.23118775 1.1876714 -2.2520413 0.9269522 -0.8923325 -0.7219647 0.7932404 0.41589066 0.17736416 1.2300742 -5.147448 -3.730192 -3.1026692 -0.7502986 1.077533 -2.0897005
540 -8.039875 0.09736739 5.0033627 -0.26342052 1.8295588 0.4470632 1.4871074 -0.058117602 -1.1693742 1.4165463 -0.14941001 1.1499451 -0.69339323 0.39278933 3.2798045 3.7319753 -5.100392 -0.7604922 2.0940986 3.8976562 -0.2207399 -3.743445 -4.209476 -0.72538745 -0.90691257 4.7208905 -2.3514132 3.3123589 4.54826 -0.5151781 -4.110745 -0.20245083
563 -7.4234324 -2.8720658 5.226218 3.9987254 -5.105726 -3.2606819 4.124211 1.7793803 -1.903856 7.3866696 0.16764975 0.73708636 0.9088419 0.56149036 -4.2543697 1.1197664 4.2832785 -3.1288192 7.775415 8.824031 -0.35947794 0.47000778 0.34764713 -2.538578 3.7888908 -0.91926175 1.2370107 -2.4539225 -0.927312 -0.31607538 -2.8820374 -5.368517
26 -6.7880464 -0.5347022 4.1729684 0.91701895 -3.0828247 -2.7847946 3.3984275 0.10025938 1.4550008 -2.0265133 1.5197182 -1.2192314 -0.35842955 4.145314 0.9077002 0.008301026 1.475498 -1.8036116 3.0029764 -0.17040795 0.8246017 -0.7125078 3.7028215 -1.5245383 3.116257 -7.024588 2.5270846 -0.78978777 5.1528687 -2.6061914 -1.1462364 -0.6891085
47 6.5651865 -2.3013134 -2.3137069 0.6724339 1.450007 3.0927584 -1.042624 -0.8280369 -1.950673 0.59841365 -1.1880956 -1.5968457 -0.53595847 -4.084801 -4.9958014 -3.7997718 -0.19831964 1.6093313 -0.92500323 -2.262485 0.33379346 -2.1384697 -1.6171639 0.71423995 0.22217064 1.3363976 -3.0472836 -3.779476 -1.4112486 1.1686943 0.48869127 2.7157013
160 2.6964254 -0.40607467 -1.5598329 0.72578275 3.8855867 3.683738 -3.9866428 -0.1364079 3.5329049 -3.2447047 0.23993239 -1.5656501 -2.4265804 -4.2391505 -2.2482986 -2.0605483 -0.6944035 1.7765698 -3.721751 -2.2443821 -0.49182358 -0.72206575 4.8828154 -2.1108754 3.920169 1.4526466 3.6550667 -0.552155 1.7885796 0.5655139 -0.9235176 3.1429496
62 4.617026 -2.4504414 3.4681733 2.1110291 4.286563 2.7646332 1.0505689 -6.150606 2.100205 -5.337132 5.7065883 -0.27788612 -1.6612071 -1.2595117 -1.6848073 1.178056 3.2545326 2.0829282 -1.8044242 -5.805509 -1.991232 -1.6279666 1.4421669 0.300956 2.2317393 -1.2287713 3.8823197 1.3855349 -1.4384956 -2.159684 0.35789928 -2.839263
48 4.3759084 -2.3427114 -1.6699903 -3.2176147 1.6402754 2.7425478 1.9552966 1.8365887 -1.6353672 -1.1801853 1.7694021 -2.5236034 -0.46887556 -5.9053817 -4.2189755 -1.7909575 0.25950694 4.997693 -2.4912608 -2.6832917 -1.7175244 -1.5533233 1.3128387 -1.0990511 0.10406379 0.90172315 -2.587103 -3.5703363 -2.240653 -0.64488816 0.7274224 2.2033422
111 5.944117 1.0525395 -3.1672473 -0.956454 3.1911979 2.5953274 -0.49975738 -1.6141299 2.0201273 -1.8070631 1.7621223 0.29151312 -2.0689423 -1.6518476 -3.3195188 -2.9260998 0.006532627 1.977678 -3.2508461 -4.4818053 -0.9551535 -0.8355159 3.3058207 -1.102212 4.639413 -0.5265199 1.3369952 -2.412399 -3.357449 1.4260784 -1.2992599 1.5127771
81 6.0968885 -1.8343028 -3.6984663 -0.81429255 1.6519147 4.32156 -3.0756621 -3.0473247 -1.4554143 0.6482985 -1.6641173 -2.734639 -0.124752074 -3.7640758 -3.8479092 0.26145893 -1.6647274 5.3569646 -0.17883992 -1.6746511 -2.8373408 -1.0199466 0.77044725 -0.5377153 0.8812281 0.45718667 0.48146558 -1.1916256 -0.26546893 0.4959511 0.011976982 3.955424
38 -6.286781 2.650143 5.953274 -1.6774858 -0.36037955 0.6925994 0.7503519 1.1560491 2.1320739 2.1479824 3.6353197 0.90321904 -0.89094645 2.9533074 -1.0964369 1.7759409 -1.3672249 -3.9209743 6.169308 -0.8528021 3.1732638 1.3135478 1.0612588 -3.1142058 4.012186 -3.2809784 3.530135 -0.08934997 1.156305 2.7796628 -0.48481905 0.438451
119 -5.796966 -1.0570643 -0.85155475 -2.4551766 -0.16777594 -0.57884216 -0.93176293 -6.158012 6.115086 0.44568187 5.2553277 -0.5391487 -2.133728 2.436763 0.81600523 4.477233 1.5195699 -4.5971847 1.988435 1.8900605 3.1775327 -2.0416882 5.1205125 -0.22475365 4.634273 -6.180661 0.09631167 -2.7160482 0.39055935 0.8855013 -1.8281753 -4.412081
34 -2.7369006 1.2283149 1.6996375 1.8101134 0.011820518 -0.44300368 -0.8195483 1.2759957 -0.20082669 -1.1458571 -0.87299675 3.0089447 0.28957838 -0.9864568 2.376507 -1.9761066 -3.790935 -3.7128549 1.5031825 2.6885002 -0.62837034 -2.4615614 -0.6472166 -1.8891652 3.7380848 1.9211403 6.506403 2.74443 2.454994 -0.8990459 -2.125836 -0.35739425
7 4.805416 -0.85241485 -1.4561507 1.196189 1.8933312 6.4251347 0.08157199 2.6685584 -0.4128689 -3.9303012 1.1774272 -3.2874618 -0.44019756 -2.1223576 -1.8663365 5.314671 -2.6313915 4.277544 0.52458024 -1.2867736 -3.3366895 -4.323161 1.5055574 0.6737483 3.2678933 -1.5119649 -1.1452883 2.9220257 4.913282 2.4909582 1.955179 4.1299276
4 8.279578 -2.1031342 -1.595989 0.9070224 2.7854133 1.3281845 -1.3994172 0.3991825 -1.8152466 -0.73003864 -0.9700258 -1.2950467 0.7271482 -3.5156064 -0.9815288 -0.8969912 0.1938461 3.8545542 -0.35501617 -3.2264547 -0.9670734 1.7795454 0.22297938 -0.64066505 -0.45881099 0.90325963 -1.2910895 -2.8605797 -0.9141086 0.3461497 1.2859045 2.378008
149 -3.4132302 1.6772826 1.4597727 0.6205989 2.1045754 0.9259686 1.7364278 -5.388664 2.6712654 -2.3216653 2.0438995 0.083162 -4.073912 0.95934373 -2.0517108 -1.5822304 -1.9063756 -1.9966012 1.3206829 0.2161174 3.06693 -2.2710314 4.019941 -3.7439303 5.1921954 -1.3535563 5.3483944 -0.041021764 -1.9163048 0.95048887 -3.5186327 1.3236154
120 -3.0832844 0.50848377 3.929831 -0.8059818 -5.2625027 0.8258212 -0.6239201 -3.81256 2.669303 0.36679482 3.099314 0.5167121 -0.9399191 2.7308729 -1.1483963 3.019466 -2.5311422 -2.9598718 6.0259795 2.4149349 2.6705897 -0.8083191 1.1401325 -4.0975494 8.245945 -3.3135269 7.2504554 -3.4938097 -0.05724131 2.8457665 -0.37980515 -0.96371806
64 3.8229165 -1.9879947 -3.7806404 0.22964582 3.8751419 3.6551635 -0.968192 -0.2225798 -0.5331412 -0.9547326 -0.4917172 0.08712468 0.40208334 -6.0734253 -3.167327 -2.5947187 -0.24049449 2.540642 -1.7782755 -3.1991034 -0.4236654 -0.20432773 -0.34669858 0.9791124 0.37283993 1.7255737 -0.055187784 -4.0793195 -0.93028873 0.73871166 2.674341 2.4727008
46 4.4923263 -0.73489845 -2.336465 -1.2372235 4.175648 3.715266 -2.1708019 -2.6695113 -1.7436483 -3.4889882 -3.2589753 -2.2019644 0.49855626 -5.912349 -2.0116487 -0.56452054 0.8855938 -0.84768236 -1.7300718 -4.002576 -1.170919 -1.4502128 -1.0048101 0.14258055 0.67757815 -2.8127491 0.15126508 -2.5372126 -1.1450068 0.90590525 2.6995652 0.33176953
66 3.8961957 2.8412209 -2.3860867 2.1704445 4.782958 1.444173 -2.2594967 -3.4702477 -0.69818544 -1.9147152 0.60810167 -0.27209863 -2.6207635 -3.6156888 -0.7822818 -0.66822505 -2.1152775 0.60094494 -2.8118036 -0.25668815 0.7280437 -0.18041214 1.9050846 -1.3900433 4.0744557 3.3945131 4.149858 -1.444108 -0.3670957 3.503086 0.29864043 4.9281607
454 -2.7167468 -2.1309514 5.007389 4.022439 -2.7466972 1.1074852 0.79666674 0.054243103 2.5933092 -3.3584783 -1.6962397 1.4731371 -1.4391998 1.3085839 5.2579126 4.543042 -3.2233121 -5.74725 2.2888813 -0.6882088 1.0841157 -0.807909 -2.3986273 -2.9040926 1.9187169 -1.6721323 1.8543875 3.001586 0.8463644 -1.3298419 -3.1632586 -4.2319107
15 4.88159 -3.5825808 -4.865342 -1.8271877 2.8892179 2.5719452 -3.7287695 1.0994605 -0.40105563 1.6857275 -1.8436295 -0.5347495 -2.0805905 -2.7033951 -0.3168953 -1.1896214 1.4280795 4.9229407 -0.31307793 -5.2676287 -0.1942662 -4.8400884 -0.9837088 4.0873604 2.170468 2.194047 -2.225275 -0.053877905 3.2607265 2.9113348 1.7139404 1.4989169
204 7.5725117 -1.5210801 -0.6668042 -5.446264 1.8531471 1.3595148 1.0849173 3.203458 -0.88239396 -1.0271198 1.2586647 0.022002434 1.7302294 -2.6854215 -5.311317 -2.8573666 -0.72795737 0.2978165 -1.8834721 0.32061362 -0.14445612 -1.2677459 -0.17184992 0.45092702 0.90494925 1.3420779 -5.850281 -3.5505195 -2.7203994 -0.20472263 1.4381533 -1.11758
27 -3.366108 4.20616 5.7805867 1.8780855 1.3965564 -3.8414874 2.1229978 -1.738203 2.0995903 4.9612026 1.5665016 -1.9014045 2.1417732 0.34065637 0.5549737 -2.15555 2.282092 -3.4052382 5.1187496 6.313947 -0.31635872 -1.5150746 -0.8658565 -1.2333091 0.98738474 2.086514 1.5537101 -3.4334798 8.024919 -3.9030073 -5.1508913 -2.4165423
449 -2.9744337 4.630214 3.4047558 -0.4800636 -1.2435037 -1.6505096 6.4332786 2.2870908 0.6168204 -0.63249576 0.7996688 2.3298056 -0.20056243 0.07239535 3.0124443 -2.4340453 -1.8718995 -1.6967647 2.1138449 -1.1065984 4.314032 1.8399847 -2.2693684 4.195463 -2.463723 -0.80461884 2.4811144 1.8692131 -0.09224224 0.8110254 -1.869351 -1.1126434
680 -6.407201 3.996224 3.92045 -1.798283 -3.0030677 3.7877645 2.9467568 4.30854 -0.3310311 -1.1764034 -2.9415398 -2.0034177 -1.8661948 0.5280529 5.6508594 1.5858532 -1.5816565 -1.4113363 3.6991057 4.581125 1.3222297 0.02691468 -4.48177 -3.3152523 0.0816501 4.7926636 1.6265062 3.0737798 2.26906 1.8051283 -0.96257836 -5.3574405
150 3.43149 0.8551021 -2.6729858 1.972976 3.0814407 4.8271174 -3.7161233 -5.048078 0.41263384 0.17677085 0.70561665 -0.6948191 -0.4911747 -1.797838 -3.2832532 -0.10434634 -2.4773142 0.9129668 -2.3075304 -0.8005633 -2.7081516 -0.079965234 4.2130194 -2.69482 4.1218233 2.6699767 2.6914327 -2.2099771 -1.3091564 0.7953426 2.8762472 7.548729
122 -5.9890394 0.44531837 0.6634452 -2.2994525 -1.6059537 -4.2080245 2.1451101 0.05961464 4.166877 -2.2503445 4.1210814 0.10474138 -2.7100499 2.1014178 -1.8620479 -0.32198265 -0.4475846 -8.377476 3.3795574 0.093897276 3.5026228 1.968929 3.3654306 -1.5397941 1.4962507 -4.780015 4.733277 1.1203485 0.9030091 -0.311682 0.3485716 -1.612021
452 -2.7946641 -1.0945848 3.8271127 -3.4214368 4.2610316 1.1099454 0.24660802 1.4304957 -0.7849937 -2.1332352 -2.0979452 2.157756 1.1707293 -1.0540367 6.39753 0.88540244 -1.8300314 -3.40754 -1.8330089 2.7884736 4.433765 -1.7965462 -2.1272206 1.0231658 -2.026528 3.7671788 0.38735002 3.3582635 2.406891 -0.46324643 -4.2110686 -2.2951581
451 -5.8484473 3.119452 0.20282795 1.9415458 -6.413459 2.1641774 2.8313668 0.579146 2.572756 -0.35708803 3.0659063 1.9239206 2.093892 3.298884 -0.47176647 -0.23185179 -1.5770673 -6.0787616 6.2355833 4.9079747 0.51980436 -2.0189283 1.4663275 0.03130679 -1.3899683 -5.3678946 0.52977216 0.95480216 1.7491989 -0.26065293 -0.34777927 -2.894408
59 8.16193 1.5618136 0.6855111 3.0931869 2.4108737 1.3678279 -3.0556896 -0.90432507 -1.7482826 -6.0144925 0.2594292 -3.3125217 1.732264 -4.057076 -4.786186 0.45735255 -1.054766 2.9809308 -4.5455604 -3.1406143 -2.960192 0.5534111 -1.6856486 0.16432959 -0.6348431 -3.1798127 0.48101804 -3.2894814 0.27640158 7.075209 -0.52886033 5.4550653
128 4.7177067 1.7476437 -2.8936675 -1.458166 1.9636152 4.545582 -0.7843827 -2.9217355 0.16454738 -4.102642 1.1420712 0.9436833 0.3522529 1.515352 -3.650043 2.2206922 1.7454516 1.8866669 -3.3148963 -1.9195398 -2.143864 -4.8668756 0.55395055 4.2872314 9.823905 -3.2262697 3.036817 -2.8099296 0.44980547 1.800865 0.66117305 -3.2350793
129 -0.42196724 3.0099595 -3.426961 0.34180424 -3.8335552 -1.4228313 -0.9467518 0.42138496 -1.1797535 -4.569944 -0.28409958 -2.6766717 -0.36958522 -1.0228821 1.3549329 -1.4858881 2.5572588 -4.695912 1.1886272 -1.7033029 0.95159656 -5.787665 0.5894374 -0.7266272 1.4001752 -2.2839558 5.0910497 5.232056 -2.6490805 2.6476855 -3.3499405 1.9162434
446 -3.0014434 0.055604152 4.717891 -0.66260356 -5.7658186 1.0735029 3.4360669 -0.6023678 1.6445599 0.865854 -1.4152136 3.618776 -2.3846104 -0.083574064 -1.0337828 2.1652305 0.35249996 -3.2409384 6.623998 -0.036507867 3.1293485 0.494692 0.73905957 -3.7054038 -0.41829774 0.31051296 3.1024168 4.5105686 1.2654507 2.7555833 -0.769416 0.19200972
74 5.196362 -2.2389348 -3.855164 -0.20010294 -1.5663941 3.1515546 0.47235107 -2.0833673 -3.5340261 4.456811 -0.19712602 0.20550162 -1.060304 -4.0305505 -5.6461196 -1.5582105 1.6197505 1.4275 -2.3604789 -3.5208986 0.49044192 -3.6507974 -0.8203404 1.232648 1.3841066 0.7347935 -3.1788552 -2.126847 -1.3343588 -0.09847409 0.742361 4.9412837
57 5.1380525 -2.5372856 -1.1668828 -2.9997618 1.681349 0.17758426 1.1065344 0.11403264 -1.8463485 -1.100105 -3.4876935 -1.8414235 1.2461233 -4.733293 -2.5700583 2.4022784 -1.3150877 1.4799292 -3.025634 -1.899524 -0.73592395 0.050922435 -2.9011922 -1.4963892 -3.3397226 2.6225662 -2.1274483 -2.7243018 -2.8850584 -0.26333773 1.6030949 3.0115616
97 0.00905984 -4.5385737 5.1423326 0.27138704 0.5794924 2.4845576 0.062929 1.2879704 -2.942586 -0.94960314 12.291941 -3.0547318 -1.415204 -0.7996207 -1.4220157 5.348546 2.1982722 3.4013155 -0.80819434 -2.3213599 -1.2407808 -0.7412012 -3.609758 0.6448538 -0.32045078 -5.3792176 -2.970506 -5.0223765 7.5892525 5.0306554 0.10584612 -1.7029663
123 -5.833656 0.039339624 0.6997863 2.1216886 -2.1419327 -4.146432 2.5400383 -0.9247849 -1.9416305 3.097557 -0.088382296 -1.879474 -4.903117 7.341729 4.518167 -1.9089757 -0.773804 -3.3520293 3.0184314 0.70971286 3.3679545 3.6249356 -1.7436645 4.390011 -1.408436 -3.7782817 2.8540695 3.1466084 2.405869 2.5234377 -3.6031272 -1.4355441
146 0.24333288 2.9099805 3.6625776 -1.8527044 -0.2084316 -0.25135025 1.3347795 -2.9114678 -1.586419 -1.1631234 -0.1569522 4.2821856 2.535958 -0.03394516 0.18720835 -2.7581992 1.0799553 -3.2034502 4.3076386 -0.33020297 3.742476 -3.133244 2.436745 0.6306935 -1.261777 -0.8539272 1.3549592 5.038919 1.6227604 0.8035207 -0.5521855 3.5957694
139 7.251738 -2.1789176 -1.6038091 -3.0996845 -0.6371812 5.919384 1.701204 1.1236806 -2.0428438 1.4749362 -1.454234 2.2154393 3.665766 -4.393366 -2.0591676 -2.9863915 2.3877153 1.8882103 -3.612261 -1.3097538 -0.6470292 -3.5696623 -0.24353208 2.3366435 1.0817046 2.3065333 0.789378 -4.8610897 -3.9695752 -1.4802945 -0.17573595 0.26509342
118 -6.84779 -1.372927 -1.2315847 1.9839998 0.713673 -2.3413696 0.412319 -0.7071259 1.6677984 -3.9296532 1.1082386 0.07315509 0.6564058 1.911077 0.40687966 -0.09143879 -1.0125775 -5.008456 1.580918 0.19541213 4.3293996 1.732341 1.5289552 -1.6080018 1.3492941 -4.92599 4.017384 2.6744554 0.51659286 -0.1208468 -1.5038031 0.80567455
361 -11.853953 3.143485 2.9685857 3.634446 2.6328206 5.381557 2.057028 6.6720076 -0.4646942 2.5842478 4.4894557 -1.3516804 0.17467521 -6.9692845 3.4953945 6.965893 2.3001187 3.2088635 5.623723 0.92270356 -0.69136405 -5.6590133 5.687843 1.5340652 1.2696532 -4.9333634 1.5815054 -1.9896934 -2.142538 -0.120192036 -1.461789 -2.9113243
274 -3.558933 1.2679969 0.7730865 -0.9039518 -1.3304733 -1.9224236 0.4561321 -0.8473779 4.163921 -2.1163833 4.010288 0.11807763 -1.746973 0.5952917 -2.1394696 -2.5362337 -2.8997767 -6.9675827 -0.0869434 -0.4608247 1.196238 0.16679478 -0.63885814 -1.9633986 0.8271511 -1.6252784 5.742799 3.3640394 -0.5908316 3.3680923 -0.40670148 1.4450179
206 4.4912286 -3.8496106 -3.4332874 -2.8162787 -0.06962357 1.1738619 2.3690548 -1.4181685 -2.2958145 2.719374 -4.038505 0.11903561 0.6449038 -4.097414 -4.9865656 -0.87653077 3.3173525 2.3777573 -5.290494 -0.32191166 3.6260831 -3.859782 -1.9820385 -0.02393852 -0.32923985 2.7972941 -3.657176 -2.7466357 -0.41779914 -3.1521432 3.559787 1.0532025
244 -6.2967534 2.048601 -0.38565603 1.4172083 -1.991829 -2.3140044 2.5053833 -4.4445624 -2.005756 -1.1415128 2.3151076 -1.2014546 -1.554733 2.9956083 2.7837605 -2.9987986 1.085226 -3.0716307 3.1340714 2.1594965 7.7268515 -1.683904 -2.8080354 -0.9469669 0.18010458 -6.296921 3.578169 -0.3722669 0.75067925 1.3748554 6.0561295 -4.1986914
87 4.166965 -2.8069024 -2.6480417 -2.192425 -0.6717328 -0.9688494 1.612641 -0.14202014 -2.153855 0.55111825 1.7976032 -0.10555259 -0.80863804 -5.863194 -5.9269667 -3.9958072 0.38914648 2.3249252 -2.0223765 -2.6557944 2.1221232 -0.740977 -0.16683793 -1.8482594 -0.80857104 -0.96626437 -5.336251 -3.3319085 -2.7349598 -1.1694613 2.6703138 1.544375
53 4.939013 -0.8312492 -2.5964775 -0.85617876 6.8531256 2.5071032 -2.5446358 2.0778494 -4.6871185 -0.570474 -0.26963648 -3.0122607 -2.877578 -0.7638126 0.7126347 -2.6608026 0.17421865 2.9266632 -0.8490481 -1.7892843 0.99287343 3.1436858 1.3521281 -0.22401936 -1.1658471 3.6309586 -0.02612907 1.3484622 0.0682355 -0.8750046 0.8189736 1.5299562
578 -2.0254784 8.21192 0.46646643 -0.35860118 -2.7031095 1.0422564 2.7916126 -0.64736855 -2.200867 0.9144209 -2.149332 2.8844626 -3.1728637 -0.32323346 2.7577643 0.11439529 -0.15515892 -4.92975 5.2153234 1.9071517 1.9846689 -2.5590143 -2.1863127 -0.07692375 -3.6979651 2.6376712 -0.9818535 2.462051 2.8238566 -0.21186125 -4.236267 -3.300705
130 -2.2889261 1.1040572 1.9420997 2.3605843 -1.9534068 -0.7913696 3.0254595 0.6565686 2.131169 -3.3246422 -2.5721662 1.5086106 -0.21513878 4.687256 4.3421097 4.7007446 -2.7595868 -2.7534487 2.6361763 -1.0930732 -0.24326792 -0.40480977 2.4919562 0.90400106 4.6704535 -3.6706822 4.4711175 3.9493706 3.220091 -3.557036 1.8433162 -0.5800727
24 6.1744823 -3.660955 -1.3689668 -0.28643835 3.6601589 0.9482468 -0.47645262 0.22983626 -3.3837068 0.81723166 -1.1289802 -0.8402565 -0.1623236 -5.808504 -3.6133063 -3.6288998 1.273365 3.4750643 -0.8528889 -1.1615103 -0.22235528 0.5365151 3.0368967 0.7906191 0.78262985 0.90219444 -0.7713181 -1.9521872 -2.1243677 -0.23996064 0.37254736 2.8106055
439 -2.8298929 6.0826507 3.452728 -0.6085911 -3.351411 -0.2945614 -2.723764 2.0469794 1.1322378 -1.8228059 1.987336 0.55180824 1.2843559 2.550737 3.0979848 -2.2707279 -3.1453478 -5.46969 2.057427 1.6698605 5.6393776 0.5646624 1.8844249 0.3387527 0.46702966 -0.7021195 1.726268 2.915868 3.7682366 -3.7985792 -3.1107457 0.52204335
246 -6.180378 2.5924494 0.7557287 1.9797883 -5.5001984 -0.69770455 -2.5509858 0.26754376 3.7223327 -1.654492 -0.9365658 2.5744336 -2.7199762 1.5729536 -1.5775758 1.8495592 -2.638143 -3.0300052 1.0490183 -0.9404043 -0.5735666 -0.1466012 0.6721216 -0.7863955 5.412406 -2.9497252 5.392891 7.350217 4.021089 3.523894 1.363619 0.46504384
300 -4.6720667 3.138101 3.5195954 -1.7581422 -4.297477 -2.803879 -3.2051668 -4.970259 2.9616504 3.5949237 0.9706383 -1.1636542 -4.1810985 5.947838 -11.097076 0.38836777 -1.9238666 3.7182605 8.123206 -3.1413376 -2.5470781 -5.7603908 -2.5738513 2.0492651 -1.0374964 0.6915428 -2.4672146 -0.8102617 -1.5012531 -2.7022834 2.1016052 -2.9875104
332 7.104475 -4.7774158 -4.1556897 -3.3261876 0.03176283 2.394806 2.0382974 2.1445737 -1.8898458 3.8981748 0.84857 -0.9019394 -2.422811 -4.7449436 -1.5242187 -6.114711 -0.5679567 1.5538583 -2.7667162 -2.287287 2.511941 -1.9575344 -0.2414715 0.48096293 -0.14478555 0.6770779 -0.8879091 -3.5419862 -1.9658364 -1.8585273 0.6351758 0.76127523
77 5.8734217 -0.22607483 -3.390326 -2.4468286 1.000146 2.5114248 -0.5768249 -0.6548503 -1.3043253 -0.7783876 0.0045598308 -3.1798105 0.4761297 -6.029729 -3.8527668 1.1232961 0.38224244 4.730412 -1.8156105 -0.20806308 0.2609952 0.83344233 0.41289902 2.9187124 0.27455062 4.212491 -1.8544587 -1.2116396 -1.7937447 1.484227 2.3076794 3.4774997
70 6.764766 -3.8583229 -2.2796245 -1.8489995 2.6937249 2.2869942 0.73772883 0.4817254 -2.7019513 0.066805705 -0.19715804 -2.2822855 -1.6775895 -6.0263357 -2.3244047 -3.9289012 -0.2286765 3.3632505 0.783795 -3.5596569 1.382967 -0.7479691 -1.729947 -0.20231494 -1.2518473 2.710081 -1.2520509 -2.8980508 -1.7615944 1.2277366 -0.2994836 2.4301949
622 -3.2728372 3.8117087 5.158848 -2.3730156 3.7629993 -1.6005743 3.317705 4.004413 -1.370432 -3.542511 -2.0089757 0.44325554 0.6050536 1.6280769 5.1330605 0.7755155 -2.0327783 -7.649961 1.7254125 5.144111 -2.2133596 -1.193962 -1.2020057 -1.1280493 -3.5121696 3.3449664 0.8656123 2.3532786 -1.6684918 3.053972 -2.053149 -3.0833385
72 6.4852614 2.5607765 -1.9980856 1.7211306 3.5730705 1.7077905 -4.717792 -3.6933293 -0.45561033 -0.15759279 -1.0054047 -2.8874395 -1.6278489 -3.0782776 -3.6904268 0.41789606 2.5527644 0.99284625 -0.4737129 -1.3483016 -2.7376263 -0.1638855 2.8982112 -0.21801977 2.680391 1.2199554 1.8754376 -2.5840304 -0.58807236 5.2526574 2.40217 3.8928013
880 -3.131375 2.959606 1.772208 3.4361582 3.15161 -2.7204535 -0.8432251 2.6251729 3.214704 -0.97850996 -2.8279018 -0.9499075 -1.8445332 0.85902023 3.2345767 3.1814606 -6.0292845 -2.2816758 -0.4052071 5.7477665 -0.14022863 -0.2541629 -4.18577 -4.172337 -3.7907908 1.8004159 1.2335794 4.5300283 4.5707564 1.4321014 -3.8397682 -3.7091014
51 7.938891 1.9556334 -1.3442495 -0.4316109 -1.0170386 6.2238975 -0.14706412 0.87139416 0.086707324 -0.746077 -2.4186058 -2.680353 -0.21142596 -0.58357114 -1.934893 -3.010197 1.2377329 3.5980945 -3.982824 -3.6161304 0.51252586 -3.1067405 0.70563126 4.837896 -1.6980306 -1.8273855 2.8073237 -4.977225 -0.7660318 2.259421 1.4564043 2.2876167
335 4.9570913 -8.21971 -2.822245 -5.29008 2.2076485 7.1934943 -0.75200015 -1.1152099 -1.7398214 -2.3598425 1.5731002 0.06648164 1.2805007 3.0382512 -9.640433 -2.3338547 0.83767605 -3.613711 -1.6661171 -0.029163975 -7.272756 1.7482054 -1.9520836 1.8464046 -4.8862047 5.5637364 -8.270304 -5.2344494 4.569188 -0.13571985 -1.3308161 1.58667
5 5.2819605 -4.0525985 -1.0642092 -4.466037 -0.2672518 0.8503267 2.682676 1.2012874 -1.7099568 -1.9930142 4.1320295 -1.5291368 -2.1349328 -1.5294895 -1.854174 1.0642587 -1.8799752 6.5892134 -3.8109019 -1.8421813 -6.59928 4.5473423 0.5199472 -0.3155073 3.667598 4.3265214 -1.7090122 0.25694028 2.8746831 -3.4896162 2.043709 0.296456
388 -1.7803556 3.7906837 0.6030319 -0.42535886 3.127441 -2.5786881 -0.51739645 -1.3199359 -0.53305143 -2.221008 0.26918036 4.785974 -1.6639527 2.9778798 1.5217826 -3.2657094 -3.0737073 -4.042104 2.4577215 1.6334157 4.531967 -0.71630824 2.991772 -3.0225337 -2.3760936 -1.4679704 3.0044584 4.286019 1.4932189 2.2923841 -1.9644575 1.196353
543 -2.9864905 2.4292154 4.219434 -0.85689247 -1.9950334 -3.640577 0.5560581 0.35965005 -1.2553377 -1.3916849 -1.1782858 -0.30961436 -0.095468976 3.4756036 8.794225 -0.16144809 -2.0358505 -3.2515273 -1.2654184 5.476324 4.5596404 0.17295453 -1.7351311 2.1296458 0.24938469 3.1860294 0.23604426 5.378557 1.7383782 -1.0804938 -0.51147187 -3.3216183
124 -2.845134 -0.16719468 4.3854737 -2.1461685 -3.235093 -3.24318 1.3814535 -0.12193894 3.4588296 0.8461901 1.1493344 -1.3916684 -0.745114 7.40987 4.833755 2.1025028 0.7898351 -2.5049174 2.273615 -0.036879413 3.1382592 -5.5043445 4.088865 0.21792619 4.23079 -6.989461 1.0160252 -0.4699041 0.027639976 4.2935677 -2.7426898 0.06009653
479 -2.6375606 3.0257277 0.87112695 2.8346267 -0.12705508 1.3272444 0.592979 2.7060537 0.18443555 2.3894787 -0.45601377 3.5350666 0.32489026 -0.7020087 3.46012 -0.2447752 -3.9431314 -2.2962406 1.7046434 -0.5045925 3.2758205 -0.46973464 -1.5537878 -1.7911379 -3.4596267 4.3715115 2.390141 4.192825 -2.123708 -2.4674063 -2.2611678 2.318466
69 7.6594114 -1.8188994 -1.5201288 -0.5764556 2.2833686 2.5777013 -0.00012929938 0.3364735 -1.5116293 -0.5068845 -0.6424083 -4.948787 0.81902945 -5.952317 -0.21456502 -0.05474479 -1.3632379 7.073973 -1.5339825 -0.9112841 0.9510924 0.4572071 -1.3716922 0.16460438 0.68635035 1.4877707 -0.39008114 -1.8935272 -2.4305108 0.77211493 -0.6005822 2.019375
60 6.726252 -6.867311 -2.8333113 -5.570183 1.5517588 0.52947235 1.2058021 0.4855059 -1.5574204 2.432705 -2.692863 2.548721 -1.6935152 -1.9236922 -3.9879248 -4.307735 -0.670254 1.5664161 -3.2287836 -0.8493353 0.67330146 3.658204 1.4431871 -1.2728726 1.1255491 3.846671 -3.9162185 -1.3427032 -1.8838845 -0.40446877 5.2002697 1.2952337
98 2.7326236 -0.80831546 4.736021 1.2932742 -4.9769325 -4.0362296 -0.43083245 0.05555264 1.9596262 1.2420313 8.027289 -6.746606 -6.4487853 1.7059232 4.3960714 -3.031057 -3.622876 -2.5096414 6.144848 2.429401 -4.4986453 -0.55433595 2.7426953 -1.2030941 2.8069923 -3.053586 0.8824913 -9.247547 2.3815708 -1.4711922 1.6335137 -4.941012
620 7.702609 -5.071318 -2.3357131 -1.0179129 0.29806283 2.1288655 2.4361036 2.6827893 -3.4099753 1.8257666 0.8677237 -0.2054291 -1.3867065 -4.609647 -2.1870239 -3.9322078 0.16369978 1.7052121 -2.0719707 -2.1931798 1.2173284 0.2743795 1.7308882 -0.7945959 0.10665517 0.8107046 -1.8509983 -4.4972024 -1.614942 -1.0782737 0.29025492 3.1539814
133 2.2788775 -1.2999743 -3.908233 1.8132862 2.2390547 6.33997 -5.6413507 -3.1815856 2.0533872 -0.80445755 1.0832809 2.514818 -1.2474202 -5.1161027 -4.8743973 3.4525833 2.5681775 6.1170716 -7.9881325 -0.248189 -2.1919715 -1.0306557 3.5867712 4.67082 1.9196138 -1.1199958 -0.6127625 0.43557915 0.055948026 2.75324 -0.13899554 -3.0303848
40 -4.861484 1.0211028 3.2754343 -0.77128035 -3.217621 -2.3146071 5.095983 -2.7382238 3.97319 2.4726472 -1.2862138 5.17847 2.7949293 1.4316967 -4.556878 3.2722647 1.0015976 -3.6109676 9.653864 2.0528257 2.5974715 0.21518981 2.324191 -4.130782 1.3393538 -4.2353525 3.9647028 -1.8766352 -1.7069472 2.6217904 -0.85541344 -0.27784044
86 5.484386 -2.9313924 -3.7653265 -0.6645291 2.1759298 3.0744658 0.9722456 -0.91769814 -3.7361162 -1.3916451 -0.9864363 0.7434505 0.28946453 -3.567703 -3.053888 -4.7562423 -1.4641162 3.08438 0.79596937 1.1736388 1.7477049 -2.1968176 1.2235414 -0.5321387 0.73393613 0.4682817 -4.0036697 -0.9633492 -1.5690752 -0.9641714 2.020789 0.79517573
252 -0.60964024 1.3878202 3.0480003 -1.7752784 -0.61170167 0.61607426 0.6681012 4.712254 2.4473233 4.7023215 -2.0774064 -1.2944694 -3.8787138 4.6288214 1.4844793 3.7149546 -2.7417407 -6.2836485 5.1275687 1.9897206 1.2456423 4.7661877 -0.41926503 -0.5030243 1.3296015 5.799253 2.065677 4.97351 2.4575393 1.4377192 0.45065865 0.4814278
653 -1.7471768 -0.73602057 7.852769 6.86088 -1.2333488 -0.8403363 0.039515376 3.5543795 -2.4918318 5.899109 3.6529763 3.7534807 2.4430227 -1.0999116 2.973887 -2.721205 0.6646652 -4.813799 9.299746 6.2098093 -0.6827045 3.00255 -1.353609 5.243056 -2.4364562 0.78492665 0.97568095 -0.12122587 2.4571743 0.3395702 -1.8082199 -5.6901665
95 6.7374997 3.388534 -2.4276278 -1.4740111 -0.8363774 2.3758173 -2.5653713 1.6053908 -1.1852561 0.4468784 -1.0032406 0.5968795 0.0067658606 -6.798679 -0.056993116 -0.20892209 -0.8747738 3.3747673 0.45054844 -1.1673826 4.977953 -0.9380799 1.3867735 -0.51498723 -2.3673077 1.3637705 -3.4451842 0.36628658 1.9926168 -3.2364392 1.9732052 0.8337051
203 -4.7069974 3.9588044 4.2600613 -1.7750221 -0.3231313 -3.015365 2.9645696 0.22296533 -1.7341558 0.8942075 -0.14923103 0.41374227 -0.22928216 0.29496533 4.6052012 -3.9557004 -4.8621287 -1.0380014 3.146575 2.8671424 1.322957 -4.6740294 -4.259685 -2.7131186 4.871533 7.5761814 -0.7418287 1.1475848 4.979652 2.6577573 -1.0489677 4.9522877
250 -1.2766532 0.06377711 -1.331739 -0.6393226 0.02939554 -3.2765944 1.1715082 3.2632892 0.68624467 1.8485868 -0.94652486 8.205861 -1.6236991 1.614908 -0.07564183 -1.8240714 -1.0297441 -4.670229 1.35536 -0.97128665 -1.3892183 -0.85028625 5.904451 -2.3593347 2.3692238 -2.4759424 3.0186038 1.5102497 2.849649 0.19287984 2.5668013 1.6080629
65 6.065961 -1.5573434 -5.4907045 1.2199963 1.7201122 1.272753 -0.22966114 -0.92136383 3.9026425 -5.0015965 -0.041464616 -2.3113263 0.16499609 -2.5256608 -4.9359403 -1.2439555 4.0404425 4.948949 1.7835323 -2.4973257 -2.4059842 4.7340393 1.7937971 -0.6557301 5.0743937 1.3313701 -0.60460246 0.85773355 -0.49059996 5.264106 0.26025245 -0.31888047
19 3.5317411 -3.4487095 -3.2458863 0.8185116 3.6710525 1.1298239 -0.58877164 -2.6715539 -2.527198 -7.441451 0.67020774 -5.9021688 -0.7927468 -3.3511846 -2.2797754 0.96940976 0.34509096 4.7674584 -0.91964185 -0.6964587 -1.4601203 0.18872243 3.4375327 3.3719604 -1.5823084 0.8609008 1.077969 -5.5223236 1.7047136 -1.6227531 7.165916 3.513947
396 -4.6139426 0.8336186 4.5407205 1.2665378 0.08750331 -3.1031866 0.54835296 -4.2131777 1.9355925 -0.8219967 -0.35981724 0.057597075 2.996842 -3.9537811 3.5153403 1.6237141 0.9650042 -1.4853898 6.8436728 3.7117643 3.24842 0.9502155 -0.14203548 3.6436198 -0.23135795 -4.594895 7.5290546 -0.96251214 6.245309 1.4966731 -0.15429008 -2.817299
168 2.5620067 -2.9949102 -4.009293 -1.4040939 -1.7174013 0.786829 5.3634534 -1.0620974 -1.9211926 0.66731006 -0.35070547 -1.4217123 3.9291813 -3.6619775 -1.5016811 -2.262103 0.51957315 7.234735 -2.9319003 -0.2619485 2.3051758 -3.6325612 -2.6168423 0.43644708 1.0569915 1.5948752 -3.4452364 0.401103 -1.8081826 -1.1004428 6.0514417 4.2795935
78 6.456325 -0.816404 -4.359723 -1.5328994 2.0021276 0.99627125 0.65093005 -0.42854673 -0.99845785 2.0969245 1.8093325 0.018069865 -1.9213736 -4.5141525 -2.704523 -1.9537532 1.6347625 0.48784757 -1.5107892 -3.4110777 2.791296 -0.27670887 2.3048263 2.1441507 1.2949448 1.8628014 -0.18015967 -0.6033223 -2.5191844 -0.45204645 1.7335218 3.1022213
285 -3.6194305 1.7934535 3.833012 -1.162741 -5.5502324 -2.4850607 -3.3171744 -1.6098832 2.831203 -0.07644721 1.3000885 -2.3989058 -0.61362946 3.0191836 2.0043669 -1.7296283 -2.4277658 -4.160538 2.4565308 -0.07273912 2.3439333 -1.1879323 4.988317 -1.3100965 7.771359 -3.701728 -0.6102172 3.756513 1.3649803 -3.2307823 -0.51790005 2.0360172
127 3.1716754 -0.38866833 -4.0538106 -1.4494227 2.8835087 5.7148123 -3.603376 -0.065369874 -4.1662097 0.259691 -0.41804323 -0.7311103 -2.7560353 -0.15034163 -4.348624 0.149708 3.1472945 6.3204265 -2.4367988 -6.102338 -3.438506 2.2066443 2.312771 -1.3839072 0.045364067 -2.840983 2.8911102 0.61111015 -0.93364125 1.8055372 -0.72687435 1.064946
49 5.8680882 0.29223204 0.8958687 -0.6490623 6.8638787 0.02561973 -4.9068956 -1.248159 -2.1738303 -2.735321 0.9986577 -2.2457185 -0.78747857 -3.4972057 -3.3400514 1.3710495 -3.1099355 5.993787 -2.9313965 -3.4468813 -5.119693 1.692488 -0.10235079 1.8348573 1.9142686 -1.1806446 3.0431123 -5.23759 1.9950144 3.7985978 0.33025047 2.8722486
104 6.386716 -4.1088214 -5.398512 1.1482815 1.1673319 1.5597781 1.4485862 1.2993464 0.76328176 -0.1375118 0.79646844 0.29010716 0.38297084 -5.6857915 0.48256257 0.06305859 2.0072858 -0.70542777 -2.7920175 -2.5658245 1.313965 -0.10559238 3.927682 4.265458 -0.8589 2.3104105 -2.0365958 -3.21169 -0.082393646 -3.9235246 0.15462804 3.070332
61 6.150442 2.185674 -5.8766026 0.108592056 2.9417424 0.20871043 -2.9436057 0.7420174 -0.047798175 -3.5835931 -1.1372395 -1.467258 3.6900222 -5.5871434 -3.096409 3.1952646 1.0045456 1.3316952 -1.8215488 -1.1581643 -2.9596725 -0.15660322 -0.5919417 -0.23635799 2.5815687 2.6925993 0.044525035 -3.894755 -2.1862352 3.828103 3.3472145 3.3793466
174 1.4251794 -4.809712 -5.395355 -0.56401396 -1.7479085 3.0341818 -8.8231735 -0.878102 1.2300016 -8.824249 2.9481132 -2.1096725 -1.7279084 -2.1322331 -5.7968907 -3.128556 -3.8693995 2.528092 -0.53007686 -1.142977 -5.9346395 -4.561053 0.053351294 -1.9542176 -7.8115926 3.694752 0.43230224 -3.3414502 1.8897225 2.9491742 4.981181 2.6927798
278 -2.1492271 3.4861588 -0.02701165 0.8755473 4.364684 1.0470047 -3.414279 -5.6377916 2.394505 -2.8612435 2.575188 0.92019457 -2.7412465 -0.26889327 -1.4977846 -1.5508422 -2.9653 -3.7568357 -0.4838143 -0.42085195 2.0165038 -1.9777939 5.446038 -2.4846413 2.853547 -1.364564 4.5155516 2.3310084 -1.591406 1.4477031 -1.7648987 3.5454967
93 3.3130524 1.8292155 -5.464757 -3.2038221 1.1076254 2.1754405 3.8013887 0.5004715 -3.9397514 0.9127355 -1.2318903 2.4920833 -1.0831212 -0.97008145 -1.2419742 0.52403927 4.080721 4.390269 -3.2668588 -3.4151115 4.341957 -0.10965054 1.5360473 0.34592962 -1.4822756 3.8591106 -3.0823777 -3.0427547 -2.6213713 -2.117144 1.6456401 1.9643595
357 0.39058068 1.6532704 1.0169636 -0.8787649 1.0653808 -4.8795366 -0.7252121 0.2283436 2.1465209 -2.3008637 -4.067525 0.7329643 0.44179955 0.9152252 6.8725452 -0.3085556 -2.2255728 -3.4011428 -1.0219828 4.3153977 3.688848 -1.6688551 -0.68853253 -0.8290172 -4.577587 0.92074466 0.35731238 4.727437 2.5927563 -0.53055704 -3.7055664 -3.1942854
376 -4.92331 3.1580021 5.79281 5.518661 -3.0581956 -1.4520725 1.2194505 -3.1130512 2.8309348 -7.0133796 -2.1480243 -0.81911117 1.6420219 -1.1879367 -1.6686945 0.97852457 0.44998893 -2.4947724 5.93664 -1.994746 0.45497409 -1.6810386 -0.15610175 -1.252807 2.0019722 -3.7777483 2.3798137 6.2700944 0.3915337 2.3081048 1.6870608 1.2588679
241 -0.56724185 1.9911178 -3.2752905 -2.94777 1.0198337 0.068253696 -2.243017 -4.307113 1.3024696 -2.7681422 2.0814126 0.5379905 -0.6256942 2.3101013 0.6703741 -2.4219937 -0.90344447 -6.4006753 -0.6413644 -1.4913516 -1.0551714 -2.530889 1.7066628 -2.6675704 2.9895525 -1.5903015 8.10566 1.3058729 -4.034388 2.4413116 -1.588554 1.5306479
214 -3.9720423 -3.8421264 7.310214 1.6009772 -7.165582 3.6019318 0.94015026 2.5179834 -4.477747 9.36843 -0.06738338 -1.1670926 -1.0220908 2.8060637 5.014235 -5.9443502 -0.23235703 -4.039056 4.7235694 0.82531196 -0.0697517 -0.54829174 -1.1298363 -4.4707265 6.4971795 -8.086598 0.010336269 -0.26656944 1.5936623 -2.2885232 -3.2020094 -3.6385782
55 9.062024 -2.509193 -1.0110711 1.0601208 3.480603 2.1617255 -1.0846874 -1.1424131 0.031485707 -1.5959034 1.3455414 -2.2467172 0.23575568 -3.133479 -4.8743453 0.8620526 -1.4964596 1.813487 -0.1526294 -2.223191 0.60863775 2.2740335 -0.87015635 -1.4088881 1.276803 1.27739 0.28496748 -2.290878 -0.994892 1.1775296 2.9335842 3.1075757
11 6.5403104 1.2484667 -4.0900106 0.6885719 -0.6842466 10.110705 1.1025333 0.9159137 -2.0864162 -4.2023463 -2.5668647 -5.6983237 2.6743016 0.0686671 -3.0145123 0.6211211 2.4516516 1.4308403 -12.098235 -0.99909747 -3.8249888 -0.07212176 -0.093965985 1.2204897 -1.0128917 -2.613888 2.3561635 1.8168255 -0.5134412 -0.02703671 1.4157684 3.6440034
273 1.4998472 1.5131596 2.6993895 -0.0960614 1.5628182 -1.5127078 -1.6138066 -3.10241 -1.6886958 -0.85200673 1.5605074 2.0088274 -2.9766681 -1.5752966 -0.028631907 -1.7409356 -1.661641 -7.193073 1.1153489 0.9779466 3.415113 -0.6321594 3.3861895 -3.0745127 -2.6113162 0.5985919 3.9824064 4.4576426 0.7331138 0.5570184 -0.6775513 3.785656
931 1.4476508 0.4300901 1.5343769 -2.10973 5.0796647 -4.669517 -0.31271502 0.5103074 1.4867542 -1.2561611 -1.5562465 1.7080666 0.12561847 -0.54414 7.1468883 0.2387784 -2.6176064 -2.4141433 -2.5265238 2.2420566 3.2258158 -0.98863274 -1.9735023 -2.934891 -5.8499546 3.0204186 0.5174226 4.069447 1.8980544 -0.8369219 -3.612272 -2.4663274
690 -5.7718344 1.8461804 4.991884 0.016860321 -6.818863 -0.06113267 4.115944 0.54231197 2.3244798 0.66005754 -2.772557 2.9788864 -0.44635022 1.014754 2.9444616 -0.7808037 4.058878 0.49934372 3.5890617 4.426545 3.3511064 2.7242103 0.61015964 4.1789913 -4.897581 4.73698 2.150937 0.06329514 0.9571759 0.26225677 -3.3623688 -5.8374286
565 -7.2488503 -0.34038797 3.9851294 6.7034035 -3.5631237 3.114881 -0.8319312 0.73737276 2.5125034 -1.3834236 0.5432619 2.553052 5.4058394 -0.046053935 3.5535629 0.5170339 1.3695967 -2.71048 5.131468 4.067539 0.8723308 0.12867033 -1.831925 -0.6397154 0.64659125 4.180158 -1.3440307 1.2626724 0.6442422 -0.69707257 -3.3577504 -2.8598287
30 -0.27714196 1.401414 5.6148233 2.4816213 0.58881927 -2.7741768 5.1421943 -2.0623581 1.3428777 -5.9143333 -2.1724715 0.016137395 2.1278527 0.7872848 1.7001402 1.0816252 0.5599115 -6.0822186 5.525838 -0.03255214 -3.828652 -0.7825014 2.5581415 -2.1336749 4.1635194 -2.4976292 0.84372747 4.862132 0.48510516 0.74405205 1.913597 1.1268691
201 4.2372355 -2.9274209 -4.018636 0.9201892 -3.1058836 -0.14408474 0.6759033 -3.0024283 -4.7209654 -4.725439 -6.052172 -2.4468827 -0.9460157 -5.705217 -4.2130294 -4.701546 -0.16055134 3.4739985 -1.1530174 2.6785576 -1.2095106 0.89018255 0.8578789 -1.1229141 -0.43909988 0.41786918 -4.283275 -0.5677286 -0.6951983 -1.122834 2.657854 0.68708813
106 7.6638694 -1.9489607 -3.1705046 -1.8863634 1.3736886 -0.95906085 -0.8025636 3.3094916 0.34617487 2.5487158 -1.680952 -0.309512 -0.28904638 -4.204566 1.4739659 -3.21799 -0.12729743 3.9723077 -0.72310245 -4.043205 1.9226311 2.391357 1.4963778 1.4420303 0.70903784 1.3042998 -1.2870134 -1.5365326 -0.820538 -2.4129872 2.1914127 0.7372618
247 -0.40556583 -2.4557676 4.461173 5.7974167 -1.3182194 -0.8231601 1.3469307 0.42038986 3.1789038 -0.97713685 0.024267917 0.52579445 0.37833685 2.112275 4.096091 -1.6081527 1.9424326 -2.4421458 1.1235406 2.9716272 1.802993 -2.3054206 -1.5626746 -3.844032 0.03690692 4.3735 1.4537592 8.96276 -1.0257764 0.7995423 -1.1333272 -2.9680824
76 5.9354043 -0.07255014 -0.5839377 -2.2330015 -0.009743253 0.6498964 -0.511042 1.0741981 -3.0299277 1.9140332 1.9672248 0.8315544 -1.1777718 -4.4026823 -0.41806036 0.10714975 -2.122322 -0.7975222 -0.7912143 -0.30008173 6.2027316 1.0069568 1.1163638 -0.5459743 -2.08918 2.7532504 1.5876126 1.7163854 -4.8329425 -1.1105279 -0.55529654 3.2849066
255 7.0394273 -3.4143558 -2.9831574 -2.1508667 0.5007878 -1.7028939 4.318325 -2.3865433 -1.237783 -0.2216926 -0.26760617 0.7369748 -1.6343876 -2.8390217 -2.8230832 -0.8031584 0.65703374 1.6973808 -3.4681134 -1.8319138 3.4097471 -1.3864033 1.9122189 3.371391 -1.3184086 1.708853 -4.0033083 -5.9163556 0.06667615 -4.9691253 -1.3722295 1.9207535
975 3.247544 -7.539581 -2.693595 -4.4440346 5.954329 8.148653 1.260236 0.13729958 -2.1090162 -1.9348043 1.909193 -0.59302205 1.137324 4.259767 -9.983802 -2.6328475 1.6123204 -3.3708167 -3.6483693 -1.3980105 -4.6553593 2.5447972 -1.9923084 1.4058816 -6.454702 2.1605718 -7.9563 -3.8261847 5.4776177 1.1559765 0.13738067 2.9771147
79 5.1845913 1.4682304 -0.16361305 -0.5262962 3.4461794 2.3746786 -0.80154973 -3.390161 0.39942947 -1.5188161 0.4152222 -0.0046261484 -0.06761176 -5.771499 -1.7659832 -0.62645966 -1.0042362 0.87145525 -1.668745 -1.2643824 -0.07964647 0.43222985 2.6840408 -1.2554622 -0.25899738 4.559095 2.7344792 -0.1288645 -1.4478025 -0.46213052 1.0373505 5.0628004
387 1.3849697 2.9408407 1.7189908 -2.252594 0.63386667 -2.0422428 1.0425856 0.5589344 -0.03852834 -1.7697321 3.1268833 1.5021805 -0.03123571 0.32652962 -0.8317482 0.69416887 -0.29896456 -6.058948 2.1998289 2.5885983 4.1916876 0.12020813 1.2182896 -3.7322688 -0.65127796 3.0469162 4.521078 5.331652 1.596097 2.5057187 1.4220898 3.3271797
458 -5.3363943 0.17050347 4.1350656 7.006906 -1.996354 -1.9584978 5.000371 0.02756824 0.90453434 0.7343568 -3.7775533 2.152545 -2.2550533 -1.5995119 3.2678442 2.814613 -4.0952935 -1.7661482 3.9433024 -0.689119 -1.9086386 0.21619667 -3.3613255 -1.5618345 2.8886075 -1.2556055 0.58860254 4.501705 0.3929713 -2.1952267 -0.7704224 -2.8774202
662 -2.9966533 3.0771728 2.6270096 0.09342671 1.7923077 -0.5878747 1.5050178 0.43941212 4.0225687 -0.14990452 -3.473514 -0.32978562 1.8383868 3.1992893 5.2472215 3.134638 -4.5398803 -1.9037931 0.6778466 4.0604153 2.3497977 2.1221454 -4.7850394 -0.8792228 -5.4699354 1.6989847 1.911882 1.8969275 0.8791385 1.35365 -1.8078489 -3.1623824
103 4.579452 0.186288 -3.768004 -1.2984455 -2.7545722 1.6385611 0.7754513 -1.1857694 -1.2354428 1.3310429 0.51106143 0.6436575 -0.105070025 -5.4696975 -3.6243873 -1.8697394 3.6248596 3.7911441 -2.8325598 -3.7327738 3.8269656 -1.5644697 0.54802823 0.18372591 0.83359736 0.38685048 -0.7269909 -7.064153 -1.063246 -0.83379114 1.6220062 2.2611637
626 -2.1471014 4.738301 -0.4233783 0.9237839 2.2668893 -2.3820868 1.9858598 0.032856748 1.8725104 -0.06628063 -0.38952824 -0.15589009 -0.90147096 0.52322817 5.3368115 -1.9653361 -5.6386347 -0.6500939 -3.0075686 2.8770854 2.382994 -0.7377 -0.62208176 -1.7545799 -5.219897 1.8007013 1.7039856 3.7326696 -2.487502 -2.199346 -1.5497385 -0.15395075
58 6.460772 -3.7963443 -1.6541133 0.7262088 1.7593417 1.5969952 -2.8874516 -0.026644956 -1.0457641 -1.2859677 2.7181158 -0.9547004 1.7802973 -5.3566713 -0.2934936 -1.148103 1.3372742 4.064787 -2.7036314 -2.0624993 -4.973436 -0.5890659 -2.9465427 -0.6532278 1.7317221 3.9907296 -1.4126946 0.58035785 -0.40544683 3.7806206 5.056625 0.78118604
170 7.259021 -2.8237438 -1.1848981 -1.7590433 1.5113522 -0.50740623 1.2055151 5.3214607 -1.0505915 2.601305 1.9493096 0.17510119 -1.2352506 -3.6291692 0.7213263 -0.9999606 -2.5668828 4.1097074 -5.4620233 -3.6466491 0.49957302 -0.09611371 1.631172 -0.8022347 0.16769242 0.9540998 -0.35280213 -4.418628 -1.4505899 -2.5336785 0.32002094 3.0800538
56 7.62146 -1.0327635 -3.7033596 0.6156206 1.392325 -0.89831877 0.7233648 -0.24847084 -2.0689914 1.9985726 0.17604698 0.74553543 -3.334985 -3.965525 -3.625146 -1.6585451 1.171232 -0.7011844 -1.6058407 -3.6454782 3.7406752 0.399646 0.63774484 1.2999538 -1.0519876 1.549594 -0.95299155 0.35377985 -1.5053667 1.6608781 2.9260488 4.1125994
209 -2.3525062 0.47940686 -1.4839 0.25084978 -0.34014678 -2.1215222 0.5362488 -1.9397955 -1.8130465 -4.1465163 0.6780898 -0.38184777 -2.5702734 0.7057929 0.6368055 -2.732733 1.6073872 -7.420258 -0.082882375 -0.6561947 5.725215 0.97147715 0.88555783 0.0003573568 -0.929252 -0.7132111 3.1920843 5.575704 -1.1468017 0.91304576 -3.5399485 1.3669432
555 -5.823939 1.5035838 5.6533437 0.9259921 2.9638765 -2.851293 0.92038953 -0.3205991 2.7926364 1.2460492 -1.9998392 2.8186116 -0.15563823 0.6952344 2.5350165 2.0972703 -1.6389114 -3.2201145 0.8363554 2.6516333 0.90540624 -1.0228057 -4.007295 -1.9301609 -1.2141334 1.4455799 -1.8683364 2.3580306 -0.78676015 3.3366916 -2.4400232 -4.9862456
126 -3.0108888 0.45887884 3.596939 -3.2458978 0.4280607 0.94938225 2.949832 2.052501 -2.1359704 -3.1014414 -1.3087616 -1.7352358 -2.0789487 4.877962 -0.014161813 0.43114874 0.00029392383 -4.960345 1.9235733 0.87510765 3.2514591 3.3446949 -0.54218966 -2.972008 3.6422546 0.23509939 3.8535175 7.7112317 1.3998516 -0.09347796 -1.8056253 -1.0719982
43 -2.094954 2.9190238 5.9899025 4.5885825 5.311754 -1.2187867 3.1857898 -0.572539 2.9589915 -0.4635018 -3.7606504 -1.0570524 0.9753512 5.308929 4.4035416 -0.56521815 0.044908337 -5.3497105 1.4511198 3.986185 4.6114454 -1.7437689 1.1287107 0.23297885 -4.5950794 1.55183 1.2445954 0.8209869 1.4056362 -1.7830474 0.047654968 -0.33425492
80 6.6167936 0.22019483 -3.71054 3.2382197 2.7242432 0.8919207 -0.27188 -0.7441458 -0.0736691 0.77214414 -0.36291942 -2.47752 -0.05503227 -3.1690414 -2.82131 1.9060084 0.2507976 1.0631315 -2.643209 -2.5836802 0.71004874 -2.0894136 -0.6601922 -0.55145586 1.4436696 2.9695787 -0.21041122 -4.6570888 -1.1838118 1.3527355 1.0619582 6.2446265
175 4.738124 -1.3185095 -5.50169 -2.2218287 1.707336 -1.4644296 0.47089323 -0.6322663 -0.092587225 0.43746358 -2.4249315 -0.5281496 -0.34391 -5.3659754 -4.0958304 -1.2576249 3.3293457 4.9792356 -1.7669039 -4.3078375 -0.8417011 -0.7371012 -0.919739 0.03147869 2.329877 -0.1848778 0.31482673 -0.7068754 2.4858017 -0.5935458 3.7798157 0.36095643
50 7.9676385 -0.58861184 -1.8958123 -0.9997282 -0.8078917 -0.59915483 -4.1279273 0.99635607 -1.4577583 -1.6511494 -1.2855211 0.22538142 -2.3751235 -1.9664407 -4.6458173 5.5987625 0.41915938 4.3500295 -3.2999701 -6.583842 -2.2021637 -2.9351444 -0.43192282 -2.3117583 -1.5018823 1.9827524 -0.16825491 -2.9213881 -1.6706662 1.3207191 0.49089915 3.1061552
20 7.4235625 -4.111324 -1.4724151 -0.32787782 2.851021 0.78794676 -2.9047096 -1.909561 1.0503056 -3.0626774 -2.0352194 -1.3786116 1.6761827 -4.1581683 -4.1495857 3.20225 0.6632625 3.8083944 -0.47190648 -1.7587565 -1.4780064 -0.04832243 2.6655185 -0.1732642 1.5505527 -0.39271176 -0.8588155 -2.2284706 -0.86723125 1.7096922 4.269445 2.3757982
71 4.6798005 1.8656641 -4.391699 -1.1364985 -0.70193875 1.7107031 -2.1539073 -1.2647442 -2.8395689 1.9636995 1.7674978 0.7354924 -1.080945 -4.3363695 -2.0494568 1.335004 0.9196422 1.4255089 -0.44852266 -3.7903013 3.0965426 -0.45217624 0.10447021 0.5504543 1.3428667 2.242973 -1.862166 -1.0997938 -0.3359842 -0.41371247 -0.52474415 3.9249516
142 6.6481967 1.121246 -6.9419684 -1.9616501 1.7938813 2.8843045 2.8352537 -0.4468708 0.4566797 0.98620594 -1.9126897 0.61225206 0.8626441 -2.1611366 -1.0336415 -2.3777728 -0.7264267 0.85070777 -5.5956173 0.22120541 3.4965835 -2.3759353 -0.27802742 3.6299548 0.13139307 1.5593712 2.3594527 -3.0678174 -2.6444578 -1.9015074 0.36513728 0.9455073
441 -1.7462159 3.5712864 2.3572261 -1.4748011 0.5411412 -3.681615 -2.3607025 0.832081 2.3770392 -0.025775973 -0.08700506 4.7979426 -2.0241628 -0.6888082 6.1245003 0.26375574 -2.0875573 -3.8987134 1.3046173 0.09340871 4.1322565 -2.2809124 0.84932923 -2.796788 1.1384037 1.1655334 -1.2008971 4.833522 1.8739865 1.0061058 -2.3342907 -2.9543383
448 -1.0075804 -0.24270596 2.4308136 -1.8244135 0.8147306 -0.33226365 0.37659508 -0.48947814 -0.5649177 -3.2465937 -1.0090481 1.4524921 -0.71641374 1.9102387 4.831912 1.301603 -5.6710386 -3.2040048 0.28523532 2.845898 4.9951553 -2.719502 -0.12564178 0.47135815 -1.7343872 0.88192964 2.694198 4.2400503 1.110125 -1.9276321 -4.368249 -0.24207923
166 3.7836206 -2.32004 -3.2024245 1.6744106 7.211413 -0.5836628 -1.5857404 -3.7058284 -1.7151241 -1.2458459 0.34043285 -1.4600413 0.49092692 -3.222475 -0.9816717 -3.5863502 0.4974114 2.9707541 -2.3978007 2.4497166 0.24992839 0.09029114 2.3833287 0.67446005 1.6877006 4.6254582 -1.020153 0.35033962 -4.0358906 2.1673725 1.7553799 2.8415074
528 -7.6798215 -0.020277955 5.661419 5.2918015 -1.5843294 -0.33065504 0.686419 4.534803 3.95738 1.9841198 -3.9196987 0.3870256 -2.4004178 1.4620898 0.5685468 1.4726381 -0.7734268 -3.5893612 0.12363957 -0.80173755 -1.723986 -0.22275762 1.8631356 -5.122196 -0.39962006 -0.9733187 2.6758828 3.1318755 2.819918 -1.5676806 -1.5054293 0.74654955
597 -3.1883845 2.566581 6.87647 5.045315 -6.3821325 -1.2747431 -0.42064387 -0.7004058 -4.920654 1.253965 -1.8844218 -3.0945368 -3.7872672 -0.64945173 6.4809947 7.5826435 0.091800794 -2.1323762 2.9129136 4.568427 -1.4552128 5.771453 4.612865 0.52024263 1.7608743 3.3465314 -0.87680256 0.68406093 1.4801121 -1.4295706 -2.1910179 1.9501876
186 0.78257716 3.266928 -2.9537182 -2.298698 5.527426 -2.5673623 -1.6198974 -1.953857 -1.7566034 -1.3320997 -0.18227638 0.8646656 -2.0952466 -2.3924856 1.6155484 -4.961091 -0.31477728 -0.8502815 -2.2641995 1.3735281 2.2979655 -0.18064219 0.69495785 0.062114954 -3.0193336 8.7280245 -1.1304706 4.8876357 -1.1404986 0.32696396 1.2179134 2.2638462
68 5.5305576 -1.4300499 -2.4574237 -3.3191142 1.819119 -0.37768987 0.9113778 1.4041737 -4.874686 -0.5629239 -1.173839 0.35501224 -0.7352286 -4.2154546 0.13509175 0.024220744 -1.3340212 0.08141696 0.09734726 -1.3313671 5.3599153 0.3691186 0.6090748 0.26966432 -2.7202597 1.1170796 0.2818201 3.7661104 -2.8813267 -0.6500025 -2.1739051 3.4370294
473 -1.533362 0.4570915 3.2100527 5.718725 0.44424066 -0.044436406 2.2308073 3.8354645 -0.24752475 2.1797624 -4.1337643 3.6610405 -1.2570214 -0.10354124 3.1964457 -1.6642274 -2.2585464 -3.260846 5.302826 2.3697937 -4.9800577 -0.7964507 -1.0637405 3.953501 1.8853369 -1.7088071 2.375139 0.18739495 3.0943837 0.4197697 1.0046192 -5.9669714
96 6.3471785 1.9130414 -4.9403844 0.37846714 0.917554 1.1911476 -3.6501858 -4.7772574 -1.2482806 -1.7261629 -1.7537192 -5.653499 -0.7704864 -1.9722079 -0.2151399 -0.3599279 2.6384294 4.4719687 -4.4950185 -1.7274519 -7.571116 -2.8083081 -2.440801 1.6433347 6.566803 3.7072432 -2.3059678 0.95479226 0.69519603 1.0898272 3.6596608 -0.4442347
440 -5.942681 3.3780463 2.7627485 2.3150811 -3.7095795 -2.764755 0.44561148 1.4322336 0.55835897 -2.7726412 -0.22922327 4.7477627 0.9006057 0.7432984 2.4000533 -0.21898186 -4.4215326 -1.3803289 4.870931 -1.7581351 -0.84330237 -2.5239632 -0.49812657 -3.3126304 5.984996 -1.95345 3.9114487 -0.6600203 0.17877936 1.1662686 -4.413003 0.5991012
280 -3.6872313 5.7552204 4.914635 -0.46689856 3.90083 -1.9058847 0.78599113 -3.7868626 0.7859175 1.4448441 -0.5562744 -0.31448448 -2.623605 2.7665489 1.0318133 -2.099977 -1.7770978 -2.6928365 0.9495655 1.0018604 2.688261 -4.8937235 2.5006852 -4.2745266 3.3672 -0.24583453 1.7983111 -0.11638751 -0.5835503 2.4878814 -3.385269 3.2214339
298 0.14844029 3.408363 3.5540495 -0.17111173 3.4147115 0.39114693 0.99692696 -0.34194073 -1.5322889 -5.744306 -0.5596964 0.12280458 -1.5125699 5.5303288 -2.0934412 -0.3589324 -0.053978268 -5.084896 3.2124465 -2.0328996 2.48759 1.9211226 -1.4324235 -0.6215431 -0.19543281 0.07152787 3.8791323 4.1590257 -0.6572754 3.0617235 -1.4915955 -0.07407175
85 5.5810223 2.2251165 1.2546707 2.3619506 1.9112107 0.64879876 1.5884787 -2.718823 -3.5467553 -1.516635 -2.2448206 -2.8503518 -3.6491797 -4.9094825 -2.5646677 -1.5518472 -0.7464733 0.05363189 -3.2430017 -0.09068361 1.0018175 -0.03781848 -0.9509777 -1.6525794 -3.880712 5.2657294 -3.9162197 -0.76539576 -2.1538832 -0.77466494 -2.5777879 3.5606298
54 5.0742545 -4.961795 -4.028716 0.29563123 3.6667 -0.19423829 0.5430345 0.30908477 -2.6067877 0.3578301 1.8753258 0.37332946 -1.0967584 -2.9606404 1.1561706 -0.6083662 -1.138975 6.529436 -0.4898711 -1.7098095 0.9588412 0.8012114 -0.27369115 0.65414536 0.570093 1.8974241 -1.5903741 0.9387919 0.3141846 1.1669192 4.1630855 1.5677916
208 3.0939484 -3.1674995 -5.1246624 -2.2024722 1.6437706 -1.248139 2.8601377 -2.3541071 0.919797 -5.3629847 -4.711475 -4.4681187 4.0291443 0.86434597 -0.5794463 1.3623716 2.4757583 -0.27130225 -5.129699 2.466203 1.6207608 -5.1295004 -5.5157933 -3.46074 -0.07443241 0.43558148 -4.0266466 -4.052003 -0.06366886 2.5446937 2.9031284 -0.4524833
395 -2.7051017 2.6739163 2.341734 3.3053102 1.8001411 -3.2677314 -1.1435624 -0.7353298 -0.26189795 -2.270968 -4.0727935 -0.42403045 -3.311799 4.017517 3.8673205 2.8516943 -3.4194987 -4.17857 0.4717421 0.3969648 3.8648403 -1.6299021 -0.8549018 -2.018319 -0.39679745 -3.1118774 1.6897447 4.68652 2.6710424 0.48293823 -0.86514026 -0.69662875
284 4.6351323 -1.7456967 -4.656837 -1.7986903 5.0445232 0.9521274 0.5809246 2.5164309 -4.034353 2.5042906 -1.6795238 5.7581034 1.7182975 -2.4387298 -1.850887 -2.9333847 -1.485909 1.1853827 -1.8585085 0.15707682 2.3271873 -1.6663779 2.9653478 0.1329534 -0.5821245 -0.317899 -1.9941204 -2.8165393 -0.9598817 -5.1728234 1.4147882 0.4039088
230 5.595428 -1.8919609 -2.4477081 -1.7773219 0.05857469 -0.8785093 3.481742 0.5888909 -5.257797 1.467019 1.9470567 1.488395 0.1154447 -4.225769 1.5199844 -2.2738922 3.2604494 2.2061658 -2.455529 -2.4186633 2.154679 -2.1267126 -0.75045407 1.9066926 -3.4869568 4.070728 0.6724987 -5.124931 1.9986283 -2.121768 -1.0599194 3.6395097
191 4.0179405 -6.189708 -3.8968105 -4.452706 -2.050771 0.87145925 -2.175516 1.4560238 -2.8172123 1.7106313 0.46374798 3.8919387 -1.8058642 -5.1685185 -0.051737692 -2.2306666 -3.183584 2.976556 -4.1163673 -5.294077 1.925127 -1.9040736 -2.4026458 -0.10893707 -2.19332 2.3809688 -4.585369 -3.1703382 -2.6493394 -0.26268327 0.6248117 1.7270561
627 -7.9586525 1.9833237 3.4874628 2.6223383 0.11467102 1.352081 1.0473695 4.0023036 -1.2874742 1.4846709 -2.1357298 0.91085416 -2.3350482 10.351826 4.4950366 -1.6213993 2.429283 -3.6994545 0.11044045 -0.62045676 0.2981182 -1.0010444 -2.6921585 -0.80105793 -0.099058665 5.7544827 1.9579232 -2.9616337 2.9010413 -2.8798013 0.8840789 -2.9596536
135 7.3383975 4.617323 -5.4017653 1.0989441 -1.9983784 3.6400957 -0.3931444 -4.4682965 2.105768 -3.8534834 0.61704725 0.6924926 2.3242233 3.266584 -2.4418142 0.176832 -2.7868474 3.1915183 -3.873192 -1.2393972 1.0009131 -2.6314445 -3.493513 4.0848637 4.0078716 1.4718763 -0.8446905 -2.7378101 1.2597952 0.7275078 -0.1921408 1.5259337
189 0.0032821696 -2.5339897 -5.323734 -5.3415637 -4.0556383 1.7950307 -0.6867458 0.075596094 -5.6698103 0.03817605 -1.4828981 4.063414 -3.2968836 -1.3981836 -1.8030449 -1.1973174 -0.86935765 5.6797075 -5.4519677 -7.1784863 -1.575574 -0.04276225 -1.4188296 2.4934585 -0.6914631 2.317861 -3.3536165 -3.3192108 -2.4426036 -0.47076464 3.21621 2.1996179
283 -5.421323 0.48642126 3.4049144 0.6016154 2.0553672 -0.7282338 -5.940868 2.096398 2.0454144 -4.155259 0.2038488 4.868644 0.07265954 -0.39768016 3.3512993 3.6396682 -1.3870796 -3.7742727 1.9821324 1.599439 3.9700778 -3.1206822 2.3133678 5.249075 -0.7730506 5.1891975 0.9462992 -1.8071594 3.0850728 -1.8311993 -2.4705524 -3.0085547
242 -6.081493 5.7266474 3.1239834 2.5327873 -4.0722547 0.37291685 -1.2215403 -3.7230537 3.030087 -2.2452826 3.6733837 3.1991625 0.4228296 0.59311765 -2.5297048 2.085908 -0.19630161 -3.892641 2.3783045 -1.8197349 0.12608019 -1.2767924 3.0011833 -4.3616543 0.7305205 -7.3642793 5.294501 0.5998694 4.9561086 -0.47056088 2.7317042 1.2662883
523 -1.5577561 1.4439136 1.7458831 2.3907087 0.26375496 -2.0170074 -0.15182841 -0.15639386 4.685392 0.39567944 -0.6852357 3.8302765 -1.7362467 2.2057376 4.189988 -5.296569 -1.7865317 -1.132485 -0.11055577 2.5065806 2.6403067 0.6633125 5.0713882 -5.5040703 1.9917604 2.1926236 2.352018 -3.1322775 -1.1591095 -0.91821986 -1.8747474 -1.5609717
92 6.0934033 -1.9371494 -3.4445884 -0.7240898 4.7789884 -0.33321354 -2.4566016 0.8137643 0.85129493 -2.428441 -1.3256339 -7.15765 1.5638994 -3.7544878 -0.10433503 1.9666326 0.10136406 5.932276 0.21013819 -0.8618571 0.046092115 1.3606377 -0.35362962 -2.3370035 -0.7434245 0.6616689 -0.24340717 1.3267395 0.4010066 -4.534113 2.6483207 -1.0510635
305 -6.7906194 1.0573252 6.6074944 4.4399714 -0.30565503 -0.1132467 8.44569 -1.615201 2.6449769 -1.5189371 0.7991822 2.2831597 0.060005806 1.8704878 -1.2359536 1.7645408 -0.43612003 -3.8640022 0.20768093 -2.7862606 -1.2624289 0.82842255 -2.1088402 -1.6742917 2.9209862 -0.86597985 -0.592204 -0.414608 2.4528248 -1.9100193 3.6247709 1.2247542
281 -7.303993 5.7139125 1.4445528 -4.1723013 -1.6951343 0.84143245 -0.046312176 -1.4074755 4.5737395 -2.6251066 4.4073844 1.6366894 -0.14031932 -0.12446406 -4.518658 -1.2737745 -1.7631073 -6.001801 0.96857643 -0.06268943 -1.343284 -2.2823648 3.9710717 -4.485014 1.7375926 -6.1788096 2.1053069 0.42743936 2.7574928 -0.8309286 -1.9084196 -0.60122234
211 1.3373967 -3.9107955 -6.345651 -3.5711963 1.9349257 2.688924 6.843295 -1.5211153 -0.6257199 1.0630666 -5.4471064 1.8679202 2.2034655 -2.57642 -2.6934173 -1.2385386 0.5582942 0.09116301 -6.660187 0.5197359 2.149921 -1.0694073 -2.6006432 1.3060553 1.9184887 1.2520051 -0.4233783 -7.350296 0.56317174 -1.1894612 3.7581968 2.0175376
22 3.648106 -0.44485685 0.47058934 -2.476476 0.37418532 -2.4245112 -1.2275723 4.864216 -5.7420063 -5.5760813 4.201583 -2.3436105 -1.3758831 -5.3784313 -2.8518639 4.754394 3.7781196 5.7019424 -3.017972 -1.3369782 -5.5009108 -5.5625863 1.3102274 1.0564766 4.411413 2.4286273 0.73642915 -3.1616747 2.1148338 4.920379 2.2711046 1.6148107
1213 -1.2329298 4.545222 -0.49502617 -5.517075 -0.8076894 1.1046711 -0.01767762 0.39959335 0.5065757 -0.118325986 -1.3652817 1.573346 0.29505563 3.0251422 5.531869 1.9334469 -4.1624146 1.5511878 0.42548898 7.0998907 6.0247717 -2.2895446 -2.475425 0.08343183 -2.8238826 5.110222 5.1274753 5.2013483 4.3168526 2.295353 -1.5354156 -1.7671138
539 -1.1633043 5.005988 6.1086755 1.4299635 -0.0059654936 -3.6706939 7.5471883 -0.94450283 -1.0844723 4.8619466 -0.15638806 -4.757252 2.5199406 3.664718 1.2045076 -3.8021314 3.2863224 -3.0077887 0.3251228 8.167823 -2.6954374 0.5447484 0.92305475 2.4242346 3.3101187 -1.6067575 4.491755 -2.1994581 2.264722 -5.34676 -5.7119346 -3.5893629
155 2.8967912 2.1013818 -1.736401 4.2350616 4.2929997 1.8669163 -1.4195846 -1.6560392 -0.16664103 -1.5136985 5.7059555 0.72729796 0.57376856 -4.2502284 -5.951478 -0.5018334 -2.3612723 0.12930837 -1.5525578 -3.2513742 -0.86551934 -0.19058518 -4.145508 1.7461112 0.6999516 3.3416102 -1.0702826 -0.7003794 -0.9068812 3.5107572 6.7190166 4.3616443
172 4.926276 -1.775752 -2.0479136 1.3198603 1.4379001 2.901607 -4.0570717 -6.5057487 0.47893068 0.46226355 -1.7869587 -0.56814134 -1.3406496 -3.9702473 0.9448312 1.5080788 -0.19051814 3.9129472 -2.970896 -0.2955879 1.4019152 0.087034434 5.8756223 0.47247767 0.6925905 1.3220131 -0.41953883 -4.0880527 -2.2891874 0.64792186 4.0536723 4.166228
134 7.9948034 3.2131886 -3.1919334 3.4244459 0.69784445 1.4447345 -2.4418693 -3.4164064 1.1121297 -1.8437772 0.80851084 2.522783 1.0823071 -0.22701973 -4.189707 2.209683 -2.503164 -0.6093876 -3.936417 0.012389141 3.8858573 -0.2841981 0.29435888 4.340959 1.4367437 0.5632714 -0.51105696 -4.275834 -1.7671502 1.9744886 0.6434588 3.0773156
101 5.9834886 -0.5802518 -1.8765208 2.7107954 3.7195017 2.4363794 -1.7109256 1.1837081 2.1738834 -5.5460286 -1.5165982 0.63309455 2.661056 -6.43114 -1.9788913 2.346364 0.22974576 1.3637683 -2.2259254 -2.6780307 -1.837514 -0.12453731 1.3797638 -0.1754569 -0.5992229 2.4220803 1.5776798 -4.671922 -1.9338946 1.0792942 3.5784419 2.1105678
650 -2.3563921 0.8940605 2.8387628 -1.8526117 5.2043653 -3.3583884 2.0457745 1.2790314 -0.22402455 -0.3574702 -1.113598 3.6862414 1.075253 0.9317454 6.046796 -0.014925429 -6.5619607 -1.6516544 -0.5138828 3.6780612 2.291327 -2.0493398 -3.2441552 -1.2506014 -4.244981 1.6114076 1.2650361 4.098314 0.38965452 -1.1773846 -1.0187591 -2.7630386
468 -4.9559283 -0.1464743 1.8464345 -0.8339257 -1.3440316 -3.66179 -0.42458487 0.13261461 2.5553117 -0.05611678 -1.0428765 2.5904155 0.35491264 2.2518668 3.526469 -2.104004 -2.5269947 -1.258173 1.571452 0.5683005 3.5459602 -2.323233 0.48762646 -3.352304 1.4983678 -3.9368312 0.2849555 5.4840193 2.8454163 0.4829543 -4.364098 -1.0705867
655 0.7217795 0.45898554 1.7294227 -0.9119513 -1.0745077 -1.868523 0.19279237 1.2434357 -1.990549 -3.3421674 -0.30781674 2.5879803 1.7803382 2.1801004 5.8097706 -0.48586285 -2.881472 -1.8523797 -2.4155936 1.1050739 2.9373047 0.6667203 -4.0619726 -1.6063643 -5.7204485 2.486269 1.6664792 5.3087926 -3.3815882 -1.3569937 -2.0358973 -2.6875408
462 -6.15379 -0.14159153 1.3632884 0.9161368 -1.1881669 -6.316648 4.479806 1.3538247 4.3714113 1.317028 2.7333715 2.3267074 -4.9626966 2.8234034 -1.9943553 2.7756674 0.25093058 -3.424819 2.7108266 -1.511773 5.4396477 0.7055677 2.4598885 -2.245511 5.9699492 -7.5875087 5.111561 -0.9123705 4.42638 4.8241515 1.061648 -0.39574987
156 5.9037504 2.139438 -3.498365 -1.1748782 2.8651931 3.4065049 -1.317062 -1.3487676 3.207378 0.18295358 0.23752783 -4.1554413 -4.516628 -4.6553483 -6.960315 4.8522973 -2.4230351 5.06069 -5.5507817 -0.046185873 -6.283259 -1.4118083 -0.7163945 5.129716 -1.1653779 -1.5605547 0.11002472 -2.2945354 3.1355827 4.034033 -1.8523002 -1.6329316
222 4.002735 -1.7318039 -4.4732227 -4.491745 1.6026777 0.84034383 1.5508026 1.6724797 -8.13455 3.812131 0.2776757 0.7359527 -3.421528 1.1351991 -1.1513308 -0.08920582 -3.9132755 0.36207733 -5.778117 -1.8128611 0.77792484 0.4720688 -1.5742186 5.68512 0.14430612 1.6344693 -6.0763717 -4.5922627 -2.1103964 -2.4452689 -1.4489202 2.5867329
654 -5.1193156 1.3949009 5.7648096 -1.4020143 0.122014135 1.7076825 3.071949 3.8672144 2.7164445 -2.4572434 -3.7048488 -0.2833292 0.66006476 0.48729196 4.4304237 0.71366096 -4.6556077 -0.086708315 -1.2506667 4.670114 2.6338403 2.1877668 -3.3596535 -0.46297082 -3.793974 4.4566603 2.5791361 5.858433 -1.4689685 0.03780212 -1.9753116 -4.0389194
901 4.519538 -5.4466877 -4.233256 -0.6196827 4.5505276 -2.9928937 1.8596364 -0.55213475 -1.4905359 2.8463993 0.21143672 2.0317402 -0.06178186 -4.7242346 -1.0838699 -6.038942 1.3450704 -0.3950518 -2.7458105 0.7377919 0.1584143 1.6877142 6.0359454 3.8684678 -0.2903781 0.36649948 -3.3533611 -3.9547222 -2.997507 -2.7953746 0.9490233 1.5496038
2 4.6933713 0.43315342 0.11835456 -4.0882945 1.7821072 -0.59573424 -2.5003433 -0.16959935 -0.13669384 -6.856321 -0.9004684 -5.5799036 3.0636947 0.064138666 0.0008634757 -1.8742449 1.4836891 11.158653 -0.99394155 0.08540168 -3.1335733 -0.6090275 2.0109699 2.0326185 -1.6813786 6.701276 -0.064169236 -0.28980336 6.5731483 -0.37088463 1.4055591 4.5671797
37 -2.4846823 0.76295114 -0.36450803 0.5716698 2.3660362 0.4714382 -1.053964 -1.2679912 -0.016701704 -1.6732812 1.6512673 0.40622416 -3.2389805 0.012124928 -0.5840711 -3.3681087 -3.0520155 -4.775086 1.326904 1.734793 6.748077 -1.8176394 1.59866 -3.4270177 0.21754867 1.7275091 4.3960414 1.6929194 -2.3057916 -0.8178353 -3.2262874 1.0452878
173 5.6231384 -3.4111052 -3.6676676 0.8859102 3.6854718 -0.7424488 -4.76507 -1.3501934 3.2849104 -0.031413168 1.0935559 -2.4153197 -2.9973903 -5.376305 -1.9211807 -2.619503 -2.7230139 2.2604105 -1.8048774 0.9388382 2.0010521 -1.8182887 1.286263 5.510331 -2.6470973 0.17003971 -0.6039482 3.5102 -1.1221379 3.5934088 -0.14218865 -0.4557817
212 -8.83256 1.875175 1.0080432 -2.9892857 -3.2860246 3.462427 0.9263399 -2.3155427 -1.2830198 -2.377293 2.4011028 0.12158267 -4.5319076 -3.200376 -1.9976295 2.7898507 -4.421533 -5.837525 1.5307673 -1.7769344 1.8097464 0.8649261 0.96749234 -5.467473 0.90605736 -2.7585933 4.0093884 3.2854083 0.64626056 -4.5976915 1.7308073 0.6168007
88 7.309823 -0.3538361 -4.600842 1.9767442 3.796452 -0.114242926 -1.5751745 0.3113172 -1.4957125 -1.9619936 -0.008832604 -7.597621 1.3899179 -2.1607249 0.21608976 -2.715671 -0.49805138 6.2860847 2.074228 0.63881606 0.7142914 1.2659799 -0.17784542 1.2268349 3.920844 0.19983484 0.009528444 -1.8808049 -1.3474529 2.6181881 4.4365554 2.294883
25 4.877024 -0.6994385 -0.26225412 -0.91914797 -1.2476414 -4.740019 -1.1870139 -0.021260714 0.11800024 -5.676028 0.16325389 -1.3085939 4.4269643 -3.766034 -3.0237398 1.7010837 1.4143419 4.16023 -4.2028737 -2.6332958 -0.08066856 -1.3057749 0.6780441 -3.4291215 -2.3065643 -0.83488387 -5.2940226 -6.0402284 -0.4409069 -2.9441998 2.684842 2.630934
315 4.633674 -6.0952096 -2.5175042 3.1225834 1.0846353 -2.7325566 5.312237 4.067018 -5.9205065 2.904183 -1.5422006 4.386853 -4.359373 2.4408605 -0.8643827 -0.17348312 0.7520828 2.6194232 -7.487934 1.6157305 -0.23354928 -1.8068753 1.6840285 4.6481986 -3.1487634 2.0704417 -1.6170458 -1.7461231 0.66725713 -1.4701154 2.8628469 0.37237942
63 7.9131975 1.5669414 -6.0937104 1.5611027 1.1826719 2.6589928 -0.32797778 -0.36662892 0.6056657 1.516755 -0.8944497 -0.59788686 0.35292554 -2.3992481 0.19295321 -1.3014752 0.40591344 2.3257709 -3.786575 -1.3973938 3.3915732 -2.6097152 -0.7553458 0.6670555 -0.46552297 2.080453 3.3278728 -1.2903851 -1.051658 -0.23714423 -0.47902688 2.5744443
17 6.7153673 -6.7278533 -1.6785116 -1.0786253 1.6251825 2.5808547 -0.081108175 -0.31243178 -3.406812 0.08991687 5.929263 -3.888785 -0.79928935 -2.37401 2.0019455 1.5663497 2.8331394 4.498334 -4.5566006 -0.84169155 -3.2748022 0.4419629 1.5347159 -0.32538784 0.71409315 0.4417515 -1.8896976 0.0740242 2.0810924 -3.6933188 2.8974242 -1.1442201
460 -3.4480095 -0.9142984 1.755507 -0.82714146 -1.365388 -1.265607 5.8245797 1.5144601 -1.1456088 -1.8766433 -1.8322932 3.622932 1.8175868 0.9020109 3.8624485 1.0934452 -3.0863037 -1.9751346 -0.0882081 3.7379997 -1.3936387 3.3645504 -1.6390535 -1.8057406 -3.4767008 3.6910675 0.34981924 6.850866 1.3167713 -2.0055397 -1.0858698 -0.27667037
164 2.7303722 -1.5372913 -3.9867017 -0.1551023 3.9564621 -0.63991016 -0.67913944 -2.8755484 0.63858354 1.3597062 -0.114734225 1.5620506 -3.5708761 -3.5609682 1.0900483 -3.4175942 1.2393926 -0.32589626 -1.331892 -4.7375884 0.070961066 0.1000062 4.980503 2.4702709 0.5163091 4.241923 -1.9042566 0.81730425 -2.6780512 0.34664306 -0.14862008 4.7648892
185 5.8877087 -5.401635 -5.208897 -6.0422015 0.44612014 -3.7041552 2.37696 -0.92427975 -4.703815 1.8100344 -3.2208595 3.2026732 -1.3766497 -2.751603 0.37434432 -3.5289273 5.3107595 -1.0698372 -3.21888 -3.6637187 1.5470284 -1.1188072 0.43276644 -0.034778524 -3.2824311 -2.1644123 -1.7525829 -1.2754229 -0.6066237 1.200528 0.87793016 -0.3265625
29 -2.1209424 -1.0880411 2.149679 -2.8804643 3.1770341 1.399389 -2.2850137 -2.5935564 2.5841703 -4.7329173 5.29158 0.6218512 1.6800523 3.5427132 -1.6439644 1.2814428 0.68558884 -4.183124 1.1216161 -0.6584615 3.5243785 -2.4456613 4.2536244 -2.931452 4.9883695 -2.0583596 3.585575 2.1622334 -4.675608 3.2136822 -3.4905295 1.3533269
100 5.8949766 -0.74976856 -4.1042175 -0.1759259 2.6136286 -0.8444931 -1.2872368 0.5770755 2.8333857 0.16601889 -2.2809522 1.1113344 -0.94003844 -1.1983286 1.8319185 0.8748946 -1.1923691 5.595305 -2.0740893 -5.382225 1.4027905 -0.0020767837 2.690236 -2.773657 1.5180357 1.7308717 -2.3020766 -1.9575236 -6.610892 -1.2127557 0.78483284 0.805645
469 -4.3465877 0.9617577 -0.36667964 4.5215797 -2.479687 -6.5858026 6.460307 0.96658164 4.926379 3.1644638 3.2789013 -3.1905842 -0.08386233 1.1786866 1.4138572 -3.5135944 -1.184322 -8.412468 8.901116 -0.14267227 3.8861337 1.3184007 0.16198882 0.3625662 1.5650506 -6.7359548 -0.77335674 -5.365036 1.1554016 1.9094069 0.029346315 2.3831306
217 0.24417394 -2.1028414 0.15781449 1.0788988 -2.8863626 -0.14240618 1.3982452 -1.0213406 -3.5055604 -5.8121552 -3.1989453 -5.2049103 -5.9335003 -4.5153184 -1.7076061 -5.769408 0.2985453 2.2546098 -6.749366 -2.9288926 -1.1214155 -2.9483855 -0.12683803 3.219206 1.6232445 -1.7455214 -11.384365 0.6880728 0.6348258 -0.4380893 3.8151221 -0.5640605
656 -5.256338 0.8838224 1.7789592 1.4300444 -0.41677985 -3.4992857 -0.8711087 -1.217135 0.6987295 0.46020275 -3.498479 0.4416202 -0.96894056 4.178817 4.546598 -0.82619894 -5.003047 -1.7255795 -0.17134777 1.1853426 2.0488405 2.7042625 -3.0374212 -1.1915429 -3.1658487 1.5097882 5.8097982 0.71997696 -3.8095374 -2.8547688 -2.6095548 -2.4359415
275 -9.667337 1.1540986 0.24256879 2.3059947 -2.852405 0.0018765817 -3.8771255 -1.4763896 -0.21866068 -6.936267 4.08358 0.80591077 -5.0413175 1.6670929 -3.8746662 -3.6434054 1.526334 -2.7982464 0.42327294 -0.7689241 -0.73834455 1.4568158 4.098445 1.890333 -2.040106 -3.9652987 5.159306 -3.1304655 -1.9583412 5.737083 6.109043 -2.317135
696 -5.393116 -0.79301846 -0.19656073 5.4765196 3.363207 -3.7153275 1.6078496 -2.9453654 -0.63628805 5.136629 -3.7523386 1.362395 1.6287328 -2.9646156 -1.5294607 3.3798656 -0.4043548 -7.727542 4.397394 5.0208926 0.22200458 3.9746294 -5.357497 3.7398798 -1.3061717 -0.42410317 -2.922837 3.4471986 -1.3738632 -4.2876024 2.9554114 -6.9034276
225 -0.31787506 -3.8009448 -4.5424695 -1.5192531 -7.10833 -0.16280198 0.24965519 0.07808188 -6.0601034 -5.6569886 -5.8641005 0.17611746 -5.6056075 -4.00422 -1.0782528 -4.3466015 -0.7359037 4.316865 -0.7142858 -4.7686024 2.6962528 -0.0027933687 -0.11500869 2.1845539 -1.5224303 3.1454673 -5.3814483 2.7564554 0.20504162 -4.770286 0.9227168 0.9525376
152 5.1875763 1.1633455 -5.9692936 -4.181638 -1.7619379 5.9740615 4.3028197 0.5936228 -1.2480608 0.7921026 -4.602057 0.5482376 2.291869 -0.48607907 -2.0632563 -2.8338492 1.4340198 2.3876276 -4.422999 -4.8753605 2.5657868 -0.71706045 -0.7189958 4.894401 -2.1731708 -1.0399641 4.0900235 -3.3803108 -3.5723584 -2.0037768 -0.015081043 3.0351803
470 -4.8293104 0.06232409 0.4548853 -0.8727117 -3.047288 -2.1821399 3.4427989 1.3424425 -0.7279172 -2.8418815 -4.2628326 -0.7316847 0.642232 0.49598455 3.7952583 2.1869967 -1.7492771 -1.9299277 1.1301054 5.5764313 1.052036 -0.067616336 -3.9659486 0.73566073 -8.601718 4.2257853 4.652243 6.067931 0.6191654 -1.3634548 -0.9047014 -2.664968
652 -1.8027844 1.0678375 6.8507175 2.9393384 -1.2280463 -0.29191083 -3.037379 -4.9492855 -1.0827847 11.328311 1.9889215 -0.85024434 -1.6930747 0.02332223 1.0777124 -1.0217243 0.6172175 -3.9727955 10.783289 4.702346 -7.2941484 1.0521924 2.9964294 4.1026435 -4.4253864 -5.7932534 -3.6374738 1.7337433 -3.4232955 2.761004 0.14124015 -6.292128
138 6.4471765 0.0602975 -4.7750106 -0.55290484 -2.000878 5.5751576 0.07332131 -0.0103335325 1.7897811 0.06751135 -2.368928 2.6271853 4.307907 -0.52214336 -2.5894763 -1.04914 1.888306 -0.21709342 -5.9927325 -3.6066008 -1.7560731 -3.7304697 0.09043632 2.9006789 3.6152606 0.37525892 1.1681871 -4.3722925 -2.296224 -1.378643 0.6005069 2.1959412
444 -7.0830827 2.538335 4.6212893 3.38571 -3.526437 -0.9881577 0.58912504 -3.0616395 2.5955236 -3.18736 -5.9673676 1.8032638 -2.912565 -0.5146527 -0.76218694 2.4136639 2.1911008 -4.3943906 1.4289645 -0.8160065 0.99733377 -0.6797749 5.4264956 -2.7403543 -2.8409276 -6.233281 4.093658 -0.8913743 4.7055383 3.4974499 1.5767145 2.3782706
487 -5.252851 5.099697 3.9966674 6.0212145 -2.2395117 -3.7535694 2.5671358 0.30325088 0.9463784 0.044293206 -2.2523754 2.7020094 -0.9009949 1.6392398 3.784087 -1.2061063 -3.307492 -1.7563546 2.0071228 -2.5072792 0.006250755 -1.5060521 -3.4006941 0.40410435 -1.3128381 -2.9290826 0.63396335 1.839365 0.19739018 0.41806707 -3.8523405 -0.9252857
183 6.664268 3.3337286 1.1923164 1.4261327 0.62622404 -0.672137 -5.513984 5.732192 -1.142943 -3.180046 3.4555757 -3.5193336 -5.7085013 -2.4478996 -11.454531 3.7122862 1.4926422 0.708144 -7.558963 -3.456478 -2.7422385 1.1084838 -4.073971 0.00828534 -0.5385209 2.5186796 1.6992482 -2.7221727 5.0353885 2.06671 3.989585 -1.6060476
544 0.5375804 1.0260594 3.9840095 -3.2294543 -0.100016765 -0.76546115 3.4538455 -0.50696015 -0.2235538 -0.23577967 -2.8357449 1.7226655 -1.1074392 0.5293735 5.1457562 2.1450164 -2.339384 -7.72392 0.34195504 3.7566783 2.6906734 1.9756327 -2.17226 -1.6361628 -7.253047 5.6524425 1.7427807 7.2361026 3.0732408 -2.6012993 -0.13938507 -0.94768924
397 -4.278334 3.3700213 1.3777645 1.3658067 -4.8816195 3.2924736 2.536257 1.2411886 -6.8604703 2.2737672 -0.09641771 -4.8426747 -2.5530512 2.181564 2.2771657 -4.6725574 3.2355945 -0.012110262 8.14546 3.355163 0.2768541 1.6637722 -0.966497 -1.6253895 -0.9315187 -3.9855344 6.0839214 2.8438115 4.107809 -2.6509936 0.54347473 -5.12314
105 5.4275475 1.6756932 -4.5569673 -4.187405 2.346367 1.2358141 0.4852772 -1.310028 -0.44372055 1.5960484 -3.726244 0.48112825 2.2692943 -3.0028121 -0.2096137 -3.448759 3.2091053 3.556014 -2.2086859 -3.9227061 3.8937907 -0.16472031 -2.717099 2.9527886 -0.8219101 4.444723 -2.9495091 -0.56477374 -1.1817203 1.9876227 5.2641215 2.5796723
44 1.2289554 -3.1029193 -2.235748 -4.833971 0.17447558 1.9565365 -0.44505736 5.31147 -3.5710354 -1.7591059 0.26598206 -0.3618118 -3.5696201 -3.796528 -3.0735104 -2.695506 -3.689611 4.293205 -4.594013 -3.9235325 -1.5752925 -3.180317 -2.347168 1.2683715 -2.3014185 0.8792111 -6.9007134 -4.9435954 -5.023966 2.9158733 -1.121605 -0.5494805
567 -1.4664375 6.8668303 3.43337 -0.56877226 -2.8253326 3.0753906 0.7115624 6.516236 -3.2179568 -1.5234554 -2.6083834 3.2169733 1.4881115 1.2781827 2.8096538 1.1934836 -2.798128 -1.1417654 3.8769393 2.8105602 1.8293921 -0.8539937 -1.5954492 -3.6813183 -3.9593573 4.4630847 -0.3137896 5.0797105 -0.5065682 -2.3031282 -2.0401227 -2.096026
162 6.619644 2.3852456 0.056694165 0.5516855 2.33141 0.6648726 -0.7377224 -2.290455 0.7874259 -0.6025155 2.9441612 -2.9696898 0.24792284 -3.4755056 -3.778642 -2.4471295 0.7161495 -0.73244035 -1.4228685 -2.0093446 1.501621 0.4546103 0.6794164 -0.6695892 1.2633086 5.332465 1.0064932 -0.6737442 -3.143527 0.1941452 4.15447 5.5669193
409 1.0021993 2.2662647 -1.5613554 -1.7305505 5.0427947 -1.0317158 -1.3525069 -3.764489 1.7182808 0.508397 1.629593 1.2190578 -1.3641754 1.6756597 3.5343971 -3.0570436 -4.0777884 -2.605501 -1.4254813 1.9874883 0.62851095 -1.2106497 0.91185963 -1.957024 -3.1155245 3.8109672 4.0870533 6.2380085 -1.0639596 -2.0153894 -4.6951094 0.40026602
375 6.5531735 -0.8466456 -2.659224 0.34085777 -0.60313815 -1.3540304 2.7116055 -3.7597206 -1.267119 4.0095797 -2.350192 3.5583644 -0.045703396 -0.7032358 -0.08195327 -4.0945444 -3.7222123 1.2846266 -0.44295302 0.83914787 6.909367 -1.9972227 1.484254 4.977777 -2.3485856 1.2224013 -2.8697734 -1.2466818 -1.476653 -3.598412 -0.7991772 4.1595144
463 -3.7470644 0.48992968 -2.8471556 3.1054404 -0.31718782 -1.404181 4.0431647 -2.2279806 5.9757123 -0.31403905 0.24893111 -1.3829219 -2.1962218 1.8855242 3.9927177 2.435157 0.3912244 -11.926771 6.4048586 -1.6708777 4.9445853 4.5343666 4.7422614 1.5643489 3.9239788 -5.478135 1.8055338 -1.5594609 -0.47138733 -1.6116936 4.043294 -0.3124123
391 -5.454 3.641549 -1.17451 -1.4494103 -7.1619987 -0.38940257 0.49136704 0.66610557 3.725338 2.154589 -2.7957757 2.7115548 -4.836006 -1.5040469 -4.3287473 5.094627 -1.1557076 -4.7564893 5.78393 -2.595641 5.044687 1.4713101 2.6278954 -2.7037282 -0.5383049 -5.2587833 5.1828265 4.280271 -0.021662498 -2.1800826 2.146497 -2.0348163
478 -0.50695866 2.5037396 5.646556 1.8864858 2.0324292 -2.3781283 0.45062172 3.0405626 3.5376015 0.4870348 -1.7578033 3.471486 5.1359 1.303656 4.090853 1.0037888 -2.9629052 -1.6992503 0.11684972 3.2017858 -3.5375237 0.5226424 -3.5805292 0.9074374 -1.5961926 0.28891844 0.7500244 5.4196863 1.5347296 3.034214 -2.164961 -3.186515
932 -2.3028765 2.6725535 3.7151465 -4.8863864 -1.906076 -0.054060943 0.47348252 2.082106 -2.3474963 -2.505212 -3.9364183 -2.0580616 1.2347584 1.1274929 6.8930316 -4.007802 -0.5928694 -3.9702692 0.33129352 5.057564 7.123459 0.30688664 -5.0787725 -3.1105542 -7.2245684 2.3175128 -1.072805 3.0402958 1.4309777 2.752197 -2.7461245 -3.2114804
799 -6.6135197 -2.649956 1.3049692 3.7110589 1.368776 -2.5942273 4.6644926 -1.2501415 -3.147996 7.012844 0.33142015 -4.3318696 -1.7483708 2.6470294 -1.4684027 -1.5910456 -0.44791436 -3.21803 3.3074982 11.858729 -1.4270854 4.6225557 0.45763978 4.6481876 6.9147773 -5.7932405 -0.76987827 1.2961988 5.4761386 -0.12115673 -0.23232035 -5.578693
630 -3.7162437 0.24423046 3.51178 -0.9164314 -5.4296784 -1.8889188 3.3612947 -0.48334712 3.5626264 -0.73917216 -0.8726454 5.055941 -2.6912737 -2.6132538 -0.57506794 2.246553 -1.5573883 -1.8449656 6.787321 1.8974942 4.564868 0.8358044 1.3748363 -1.5725634 -4.5908732 0.6321725 2.3553689 3.3144379 4.632666 0.19646415 -0.6637289 -2.13938
503 -3.267131 2.237981 1.518492 -2.4737782 2.544385 -1.8209678 -0.6436539 -2.8275564 -0.28957966 -4.3197403 -4.328876 -0.83507067 -0.9690318 2.8677142 5.1085777 4.807673 -1.8053145 -3.31394 -0.42259893 1.4235097 0.90534794 -0.22572067 -2.9054034 -1.2534494 -3.3584175 1.0335747 4.94617 3.440979 0.7371214 0.88837916 -4.4549394 -2.8265254
84 6.8989043 -0.02203047 -1.1092142 2.530963 4.7164574 -2.8499622 -2.2111845 -0.12959634 0.57560563 0.20875834 -1.7056867 -6.1927323 -1.1879715 -3.331961 0.0026970296 -2.2203784 0.940856 5.8621173 0.8416232 -1.0612805 3.6565604 2.1526017 -0.63188976 -0.3468046 -0.047516186 2.3680546 -1.9544607 0.6598764 -1.920256 2.2121472 0.22643101 1.1764483
659 -4.818844 -0.3692881 3.0397818 0.83037436 3.4745634 -2.750739 -4.1449122 2.1809044 -0.3815424 4.6261864 1.3872991 0.48431164 3.7555401 3.0345418 5.7377663 3.418406 -4.3220882 -2.777377 -0.44850507 3.2639742 4.1543927 0.46519357 -4.7634387 -3.0000975 -4.25619 -2.2286966 2.9692829 1.7646145 0.45692307 1.1076758 1.3554476 -0.7946815
1216 4.68315 -0.14817934 -0.4050549 -1.8333371 1.3491688 -0.7160399 -0.6150725 -1.9737291 -1.93444 1.656988 0.6043061 3.0390923 -0.23438819 -1.2508297 5.0476255 0.5748855 -3.029222 -0.27861762 -0.041844953 -0.06410726 5.138892 -2.3837125 -0.9084114 1.9960186 -5.4581237 3.3136609 2.1023576 3.7775998 -2.135281 -0.44557336 -4.1730094 1.9550201
181 3.4185247 -8.13823 -5.000428 -1.5661454 -1.9488655 0.23816916 1.2797232 2.5512228 -4.0756474 1.7759738 1.2970642 1.3256737 -3.8894007 1.2962077 -1.8157939 -4.3058586 4.0508647 1.2875383 -1.02505 -6.9782734 -0.7926759 0.26084518 1.4242423 0.32859588 -0.30528808 1.7341044 -0.628603 -2.4208941 -1.0855985 2.078288 4.289827 4.3322825
147 0.04784383 4.617694 3.1735806 -1.679496 -2.126663 -0.7361605 -0.92082703 -0.4971699 0.89582914 -3.7263558 -1.1705946 4.3804345 0.3598157 1.5281483 -2.6330774 0.8627827 0.96067655 -8.957188 2.6865118 -3.509158 2.6070144 0.060275707 3.5653477 -5.6353683 0.8314381 -4.274453 1.8002687 2.6544313 1.389582 1.3755091 2.107742 2.960904
515 -2.038945 4.2829065 2.038764 -2.0820775 2.2832055 0.821543 -1.4433398 2.2473426 1.753739 -0.99433565 -1.0847673 1.2749803 3.431179 4.119045 4.4462094 1.8917042 -0.77755 -1.6400368 -1.0914402 1.9816265 5.208599 1.6192275 0.5614717 -1.0791112 -6.275305 3.8505337 1.3369565 2.288753 1.8987694 -6.1800756 -5.640163 -1.1873473
647 -1.7827688 2.2374332 5.5769467 -3.7102003 0.024579143 -3.5445237 0.4389699 0.3714724 3.6429057 -0.09162669 -2.0643556 2.4612262 1.9357486 0.59657055 2.1682737 0.555021 -1.6215212 0.5027892 -1.0049577 3.7683554 1.8105038 -0.075415075 -1.874668 -0.30295482 -5.586153 3.9473946 0.8459618 6.774254 -1.3019515 -2.2849913 -0.18859582 -5.5136952
719 -2.4714024 1.3109872 1.1967604 2.9131901 2.7359784 -0.9953782 -2.6387546 0.6355888 4.021172 -1.8557565 -4.557979 -0.47635517 3.4852095 1.0518959 4.431006 -0.19600302 -2.3709357 -0.61584204 1.0718907 5.1939077 1.0027497 1.4811007 -2.663183 -4.617016 -9.756414 1.9397033 -0.13403389 1.0959142 0.56921446 3.4776313 -2.8190296 -1.9429523
165 2.982505 -1.9876013 1.2459581 -3.5897763 -1.036738 -2.9481046 -2.7861347 1.4617846 -3.7863028 -3.1458342 0.05970383 -2.1623015 -0.6689078 -4.651536 -3.8033147 1.7036295 0.023117997 4.2444305 -6.724674 -6.9759717 1.91468 2.8804564 -0.30187717 1.8698299 -3.6025002 -2.3385103 -1.3890489 -3.092919 2.5998647 -6.2501593 2.9810662 2.6283886
110 6.4660296 -1.5274956 -5.0431385 -1.7304044 -5.439055 -4.6379275 0.41739845 1.4989988 -4.9412494 -6.122282 -2.2678092 4.456112 -1.366468 2.7402465 0.92992 -0.2079352 -2.6245747 0.3498211 -3.9307408 -2.2510295 -0.849735 3.5927045 2.0260541 2.9823787 0.8795647 -0.5086475 -5.9572988 -1.2462802 -2.7924097 -5.9587355 4.353218 -2.673013
23 3.3671894 -3.0162776 -4.0114093 1.3222393 -1.5285332 -0.41263542 -8.3483515 -2.1428125 1.7870015 -0.33064264 0.6669692 -0.32219982 -1.75683 -2.267586 -2.8304386 -4.7396464 -2.2409203 1.0487381 -2.357369 -3.1312315 -4.348517 2.8126721 2.9633265 -2.2643754 -3.4442825 -1.0516078 -0.957317 -5.648584 4.1147203 1.0179938 3.50877 4.388431
632 -2.3670733 4.99701 1.8569092 -1.3176606 -0.67824394 -2.895061 -0.007309207 2.3545182 -1.3123678 -2.9109852 -1.5224458 1.5281595 1.2755246 0.65419143 4.208731 0.3365911 -2.7298546 -3.291483 0.87706065 5.767562 2.8962731 0.38750553 -1.0941273 -0.6923231 -5.732554 3.931681 2.3884425 5.4307003 -1.3274946 -0.27951825 -0.57835805 -2.4480736
75 7.252324 1.2048463 -0.7928118 0.9417344 0.3164204 -0.9873198 -3.506912 -1.1101699 -1.7522544 -1.9606068 -0.60414195 -1.4479486 -0.59051085 -5.3062997 -4.1373043 5.140149 1.1331252 1.4506851 -1.4384618 -5.784634 0.3716092 -0.6617957 0.49753556 -0.18849616 -2.385187 0.23987891 -0.37641037 -2.386533 -4.082939 -0.79565096 2.5861194 3.2855277
314 0.39059982 -3.1815426 -5.9450865 -4.050718 6.5565557 1.4220464 5.0347075 -0.9673756 2.5525215 -1.6647105 -3.0518477 0.539353 3.371706 -1.2770263 -5.2431636 1.2266092 1.0507451 -0.6657436 -4.6366158 -2.1965346 0.5393788 -1.992865 0.6142623 0.10147509 1.4476767 -0.6745414 -0.89312774 -7.1659837 -0.07616104 0.054431524 6.862016 4.3132677
239 8.208478 1.8590088 -7.2887836 -1.2237378 -0.89820915 1.856852 -0.8365067 0.2991246 -1.4497724 3.5382276 -1.9280825 -2.693693 3.6061938 -0.3692139 2.5864358 -4.739232 1.0842495 -4.6359353 -1.8860662 -1.9213908 -0.42328644 -6.749323 -2.6967201 4.7204556 -0.6139573 0.58693725 1.6707169 -0.43337706 -2.9880557 -4.079556 2.74876 1.6023502
881 -0.11410771 0.8573098 2.8647687 -4.0838757 -0.2160827 0.643258 2.73842 2.2610986 -0.7195553 -3.6248465 -2.005516 3.1373737 0.90525067 0.46275902 1.7036601 1.2165523 -2.4538257 -2.958557 3.1822944 6.1012454 4.407329 1.2592915 -0.54379165 -1.7882853 -5.528101 6.9879217 2.9549322 6.4980597 -2.0106354 -2.1196327 -4.1315155 -3.6450279
288 -8.591973 6.2993402 0.056215286 4.0409093 -8.2294655 0.33693245 -5.547105 -1.5624406 2.793326 6.843727 -3.5308049 -4.8815236 0.23296799 1.3942853 -0.98882645 4.3714156 3.508103 -0.23828033 1.3123375 1.4716421 0.08077248 3.9671361 1.9758544 -1.1745782 4.9458866 -2.3227727 3.115976 2.5121834 2.1119494 -0.3436323 -0.6241092 2.1368775
158 -4.1617255 1.369363 -5.1851306 1.4262809 -3.757217 0.38903898 4.6484356 -2.3103626 4.429812 -5.6749983 1.2511704 -3.8625848 2.650073 -3.430705 3.3342614 2.8732493 -0.9963675 -2.383403 6.10003 6.009153 -1.2350837 6.4850855 5.428854 1.2047081 1.2225581 -1.9177315 -1.6638275 -1.3630899 1.5187343 3.7583175 -1.5556707 2.5509567
90 5.8304806 -2.7188516 -6.8754315 0.09302492 1.5235325 -0.9177368 1.6176294 3.1272314 -0.8044148 0.07989122 2.072082 -0.637208 -0.16680814 -0.926414 -4.3177166 -0.19714782 4.219783 2.0428965 0.700205 -2.2506616 -2.2333727 -0.10466247 3.6821356 0.14038564 -2.0766408 0.73654944 -3.0216537 -0.22210808 2.6957614 0.71735 3.0958228 3.9622102
276 -0.033444237 -3.994368 -7.7943997 -5.4447165 4.161975 1.8986918 5.1285768 -1.0881395 0.58366245 -0.5242556 -2.0180135 0.97839063 0.5881476 -1.7216586 -3.5006611 0.66733867 1.22388 -0.6922436 -5.2166424 -1.7377129 0.7710126 -5.4355564 -1.101252 -0.19247809 -0.39020297 1.3161242 -0.7968091 -6.1871305 -1.3996826 -1.3665344 2.3248005 1.4428918
475 -7.191154 1.2019515 1.8205249 3.9751549 -4.652057 1.3146966 3.4395611 -1.8641642 4.362373 1.5892285 -3.8935912 5.2009516 -1.8215764 1.7878946 -0.49965933 3.6474533 1.7954173 -1.1390082 5.287823 -3.0410843 -1.0451506 -3.025923 -0.37107456 -4.514247 -3.4885573 0.3259327 0.5463124 -1.2214326 5.041361 1.0751892 0.45239967 0.85023236
461 -1.0640161 2.579198 4.319819 1.8129196 0.28378373 -4.3935013 -0.54111063 -0.51231706 4.3269296 0.5710783 -0.8208386 3.49081 1.1853534 1.571561 1.1616714 -1.8632866 -1.4115834 -3.4641733 -1.5154489 -2.9564507 0.5554205 -0.90648407 0.38471213 -5.613184 1.1408612 -0.4452421 0.2826396 3.5750206 0.9605501 -0.5226178 -1.082616 2.7889543
661 -3.248333 -0.4348217 6.074875 -0.1762045 -4.876306 4.4260645 -1.4470549 2.4198806 -0.46968836 3.102293 -2.909046 3.0636063 2.098409 1.9271601 5.925297 -0.18280083 -5.9369583 -2.9658098 3.987206 2.1364954 -1.6204354 2.935483 -4.6397433 1.9389184 4.625909 -2.1753974 -0.120349124 -0.41399696 1.8549653 2.1279535 -3.084486 -4.8935704
115 7.9776645 2.6692586 -3.8616703 -4.0312653 2.533475 -0.71018356 0.67227405 -0.27243197 0.76652175 2.1920195 -1.0795068 -3.638238 1.835939 -0.36374938 0.81026644 -0.24020238 -0.119467616 -3.8718052 -10.010762 -1.4181708 -1.2203805 -2.5782645 0.2763529 2.0690544 2.6006913 -2.540311 -1.3479342 0.81578404 0.66604096 -3.44924 2.9509103 2.916996
213 -5.103808 -1.8948314 -3.5014026 -3.58657 -0.23878846 -2.6781657 1.0216866 -0.707005 3.693881 -1.749951 -3.2828908 -4.285032 0.70205754 3.056783 2.0625355 0.20002282 0.86742496 -0.53301024 1.2294202 0.5709709 3.708895 -2.0245783 -1.5831074 -0.78877336 1.3007814 -4.05469 1.700053 0.9868683 3.6854649 2.8202558 -3.1358902 -0.36835405
293 7.4918046 -3.8029563 -3.02476 0.7180651 1.2810565 -1.8459299 2.668028 1.7376966 -2.8921096 0.259332 0.8062941 2.224122 -0.15615074 -2.457465 1.2553831 -0.40742186 2.0270872 4.843837 -1.1801319 -3.0081017 2.1275494 -0.07944981 3.766369 2.6884787 -2.1934557 0.32293522 0.097336136 -4.8123035 2.0313869 -2.2021396 1.6123422 3.4424667
876 -0.40869302 -0.60546046 -1.1663951 2.2156668 3.9148326 -3.9795508 -1.2140018 0.666764 -0.6703713 0.23338659 -4.3607836 3.7475321 0.6261935 4.9773536 4.255743 4.8052897 -4.041024 1.6130558 -3.0880098 1.9116855 4.182522 0.7172617 -3.2700565 -1.1147351 -6.3247952 -1.3837488 -0.6122164 3.061999 2.5698702 0.57215744 -5.2249002 -1.3538659
450 -3.0324821 3.3765578 5.2729535 2.4701848 0.057974085 0.09318083 2.4559693 -4.987357 1.5961096 -3.4305267 -3.130742 3.7900321 1.5316081 3.0311327 -1.4475132 -0.29222694 0.6318348 -5.1013002 4.3820996 -1.0100309 -0.3615798 -0.8528719 0.43814975 -5.949461 4.794389 -3.8382075 3.70192 1.5011919 2.9296465 3.6840267 1.5895759 1.681008
405 -3.305556 2.1798325 2.4064603 0.37483662 -0.44745827 -1.1873353 3.0619853 -3.749253 -0.80314803 -3.0099807 -0.39458427 3.4622808 -3.6189673 3.9257789 -0.039225537 -0.25204593 -1.6291872 -4.1156473 -3.148092 -2.2552986 2.20846 2.4939225 1.6193055 -6.143785 6.603353 -2.642692 2.2571084 0.98910207 -0.90519273 5.1404133 -6.403566 3.982173
386 -3.0153916 6.0073824 3.185446 -2.2799275 -4.79321 -1.6752629 -0.64295536 -2.2545004 -0.010358624 -4.940589 3.9972692 0.007806653 -0.25395527 -2.3682156 -4.2857313 1.2335631 1.6388593 -3.3487375 6.2353206 -2.8692973 2.7904027 -0.6050203 1.7875603 -2.7691224 1.1830686 -4.2795606 5.5397906 2.7944677 2.7031503 1.8011683 -0.101835966 2.2555308
668 0.18518414 -3.4586265 2.1494367 3.1215613 -0.826619 -3.4910874 0.9325478 2.181277 3.1844368 -2.6761072 -0.133928 0.10429181 0.35913 1.8794152 4.997097 -0.33000907 1.6146032 -0.7016905 -0.9424085 2.4200883 1.2285784 -4.8045273 -0.18904345 -3.840153 -3.3776507 3.7210505 1.9125125 8.190386 -0.9899599 -0.15613373 -1.5565751 -2.4416668
167 5.7668033 -1.7218837 -1.1542985 2.468813 4.0504303 -1.2066511 2.5293744 1.688422 0.03362895 -3.8521132 -1.5893282 3.043981 0.2796876 -0.26328033 -0.75977796 -2.4055033 0.2579471 2.5342064 -1.9783169 1.4509298 -1.0615616 -3.2481892 5.1049337 -0.6541213 -4.3868537 2.032146 -4.6818733 1.455145 -3.3389702 3.4364126 0.6880691 2.403329
524 0.098354384 4.658354 6.448955 2.216009 -0.07523318 -2.8781235 9.183841 -0.5770439 -1.4081918 6.8396425 0.2370471 -6.4241815 2.2469647 1.234187 -0.29786047 -5.2769094 5.5689707 -3.779886 2.8139036 8.219382 -0.33238512 3.2603931 2.0581503 0.9163653 6.3007355 -3.8753028 2.913472 -5.124759 2.817905 -2.5576868 -6.5213566 -2.283161
132 5.224975 1.0251178 -1.9852992 -2.7565274 4.3498607 2.299097 0.43695965 -0.6400159 -5.2421975 0.9599168 4.405938 -2.7312331 0.9807272 1.6088893 0.8895703 -4.9488144 0.40021086 -2.1569293 -5.06537 -2.2035365 -2.7772167 -6.0491695 -4.7779 3.6741223 -0.8143216 -0.20016274 2.2028012 0.7830738 -2.1445715 -3.970119 1.1925833 -1.8177513
377 6.4654174 -3.2966526 -4.7721453 -1.4088521 -1.0466185 0.16263118 0.9515457 0.04905129 -3.8329985 6.5247207 -2.4715152 2.491845 -1.7446113 -1.8820316 -2.5960312 -4.347965 2.8606844 1.5015656 -5.4725547 -1.5935981 0.7571286 -2.3389475 1.5630028 2.6032772 -1.2590712 -0.12909906 -2.005533 1.5604244 0.07807383 -3.0904057 -0.87485784 1.5557243
930 5.707201 0.66101414 -1.9827036 -2.731214 0.93333375 -0.83796215 -0.5414301 0.29856962 -2.4868374 1.9216797 -1.575031 4.318224 -1.148779 1.7077788 1.7858684 -0.35083124 -1.588615 -2.0920558 -1.9658557 1.6406252 8.6364565 -1.3602113 -1.4223315 -0.92499125 -3.2297895 3.612219 0.76931965 5.510309 0.8067123 0.3971936 -3.4438612 1.3465723
325 5.886822 -0.49826387 -4.2744155 0.6598348 4.3712497 -0.3899611 -1.9400133 0.48243603 -2.3085766 2.5389423 -1.7608577 -0.11483766 -0.41407627 1.5894332 -3.1479945 -5.6016393 1.7114288 -1.2087321 0.1812273 -4.5850167 -0.35917473 1.6934807 3.1436892 2.5303168 -0.4300954 -3.1506486 -8.024228 -7.4336767 -0.5728893 -1.007518 -1.4426785 2.3534873
157 3.186136 6.2981524 -0.52922153 1.6691428 0.063453734 5.029997 -5.35592 -3.7144036 0.8956264 -4.7747464 -1.9306542 3.5235445 3.0413275 0.49985328 -4.245781 3.0139453 2.0777767 -0.4118046 -3.135702 -2.2538195 2.729534 0.27284238 2.2362318 5.6506424 5.363548 3.530887 2.3334901 -5.198587 4.6610107 -1.4132568 1.0363064 3.6472576
1012 0.36307293 1.8414474 -1.2567176 2.1315522 1.562113 -4.2893043 1.0436912 -2.2195306 0.30955535 1.6533293 -4.8982697 -2.3160357 1.5478518 2.540749 1.4368998 6.7489223 -3.6123002 -2.484367 2.3116033 3.4126446 -0.6093233 4.7548423 -5.4899144 -1.2895412 -1.584791 -2.5492957 1.4143679 4.3056083 0.62565917 -1.9518058 -5.329093 -3.5160427
464 -7.248531 -0.05810215 2.1943896 5.2981973 -7.0149364 -1.1400702 1.1517551 -2.9356468 1.0534854 -2.3309855 4.1271114 2.138603 0.58693624 0.9998468 -0.3278575 1.4417212 -2.647287 -5.951114 6.428677 -3.699555 1.8131596 -2.1759942 -0.57986665 1.3296937 0.37486383 -5.0468216 3.0001967 -4.8234034 0.17258547 0.5456408 -0.66727394 4.2139435
349 -8.201639 1.5838624 2.8398056 8.693792 -1.9882214 -2.3816326 -2.7052245 -4.4248137 0.654059 3.086561 1.5161278 -5.2331557 -1.1688783 3.1835592 -0.5396178 2.5213764 0.6113075 1.9776587 -1.504756 0.91942656 0.023484344 -0.119463846 -0.16700915 0.4640469 4.9128723 -5.5449176 3.5910883 -0.80375475 0.31350958 2.9916697 7.0026245 2.6655393
505 -4.2307305 6.064921 3.0545347 1.8029598 2.3570843 0.16831756 1.2848871 2.8164067 2.8647346 1.0725889 0.6769657 0.10016258 3.0741575 2.0762763 3.680876 2.9439893 0.85182196 0.01592601 3.0091531 1.3970033 2.3298938 1.093418 0.5447609 -2.4322126 -4.9865894 2.7749746 2.8126094 2.9275517 6.1260815 -5.98098 -2.606693 -0.28968334
829 -1.1695992 1.6810637 0.62229353 4.2167144 2.236169 -3.4624162 4.274457 -2.651462 4.082239 -2.1127398 -2.1930149 2.1762104 -4.3447075 1.5704471 2.1332698 5.792945 1.0901836 -4.6636386 3.2776227 -3.4606338 -1.3436574 5.2965493 -2.636098 -2.8580384 4.995469 0.95086515 -3.5899603 3.9294848 2.4869049 0.7235905 -1.9073749 -5.4384065
219 5.9955945 -4.230223 -6.959022 0.3639066 2.9817436 -1.9621241 1.1926047 -1.1500907 -2.6731722 4.771736 -1.2484025 0.6974739 -1.1281353 -2.3873641 1.1632146 -4.8259854 1.2292867 1.504274 1.8982785 -5.1287885 0.93730325 -1.1888655 1.927171 0.14080782 -1.2605826 -0.7467594 -3.4920933 -1.6369351 -3.6163673 -4.230756 0.56468207 2.0407128
42 -5.02046 -0.13831973 3.9481611 5.999936 -1.5542251 4.070523 -0.0029490124 -1.532483 1.1499314 -2.0293727 -0.23359984 0.5936041 -0.9425614 4.8863063 2.4440074 0.0142822275 3.06127 -6.1128073 3.2114618 -1.2435882 7.823408 3.8828278 5.2096667 -0.8231285 6.7591505 -5.9880705 2.13375 -3.0368993 4.6014037 -0.2256668 -0.40776876 0.99578655
107 1.720876 0.1549081 -2.151293 2.0933402 5.1179767 2.5734904 -4.350629 -3.2250648 0.024483345 3.40292 -2.0508535 -1.9880722 -0.33686715 -5.1816893 0.2485997 -4.9073915 0.54877 5.160565 -6.062957 -0.9917101 -0.9307782 0.38151088 -0.54329133 4.0682316 0.9538163 0.477207 -1.9040895 -2.046978 0.63810104 3.5769138 -3.3758929 1.6800766
1132 0.6626352 -2.2453873 3.4321215 -2.1331868 2.3981862 2.6371272 5.522925 -0.1746768 -2.8236842 -1.6523569 -5.995046 2.1161392 -1.567689 -1.7991847 2.4065702 -0.84375167 0.47362384 -0.8164848 3.3323293 -2.2463293 -1.1742244 0.6435192 -2.9390147 -3.2728455 -2.8415842 3.3148875 -1.600336 8.84629 0.8206711 -0.68245494 -2.9557257 -1.6910669
864 7.940759 1.5997716 -8.071494 -1.0630044 -0.5127671 1.8958569 -0.35131493 0.47169772 -2.5037372 3.1964383 -1.1033114 -2.196221 3.522587 -0.22658457 2.5859637 -4.8205285 1.3391116 -4.105781 -2.3551736 -1.9278605 0.47077373 -6.525533 -3.1561568 4.0972233 -0.038073495 0.87228423 1.2872262 -0.6720951 -3.0410986 -4.1871986 2.6800377 1.4744554
91 4.3499002 2.3161733 -5.5024514 0.96240914 3.0407934 0.18089612 -5.9014273 0.5817362 -1.9177723 -1.1033521 -1.9465919 -4.357388 2.7885487 -4.4331894 -2.3413348 -1.824637 1.7131671 3.5111349 1.479021 -1.469983 -2.2469301 -1.3380811 -0.7805662 0.45072153 4.0341587 1.6153513 -1.7606536 -2.2430081 -2.278689 -1.5966657 5.819543 -0.40489808
426 5.628644 -4.005933 -4.7015834 -0.29387224 2.07558 -2.793582 2.3029644 -0.18524204 -3.3205025 1.5224992 1.2944088 0.4772687 -1.1866952 -0.7112509 0.19020271 -4.4494057 1.7169807 2.1329942 1.4190513 -3.6355863 4.3399553 -0.9802755 3.0205982 1.0900977 -2.335259 1.6280414 -1.4828984 -1.3459798 -3.0399182 -3.7670114 -0.2117096 3.776912
41 -5.075543 1.874294 2.5153165 7.242902 -2.6462846 6.773816 2.3760428 -5.8094025 0.9846877 0.82241184 8.038127 -2.6604464 2.2221177 4.2680054 3.7521305 -0.27161825 1.7851068 -5.345198 8.109876 2.9202092 -2.2809515 6.259283 3.28618 1.4862252 0.7574624 -0.8081585 -1.0787594 -4.972104 -0.29138586 2.9695237 -3.6121724 2.678256
498 -4.119424 1.5982876 6.95269 4.1926947 -5.4162235 -1.138557 -2.077377 -1.6061431 2.8855011 -1.5173064 -0.3680992 0.5012845 1.0719459 2.3810577 3.475783 -3.5203362 -1.0664883 -5.335711 1.2342415 -5.928413 -0.9852582 1.5197752 -1.7717843 -2.3864024 4.832698 -2.625024 0.97450507 0.96443015 -1.1289297 -4.344986 -2.8846416 -1.1401088
499 -3.251054 3.3863194 -0.04640447 -2.5588324 0.1289135 -2.062444 1.3026645 1.6288209 -1.2626085 -1.056225 -2.2439606 0.8697979 3.544725 5.904393 6.967248 2.4171796 -0.121115126 -2.5361025 -0.48261464 1.0722793 1.8871505 -1.514791 -2.903664 -4.365288 -1.8965112 1.8027475 -2.5355463 3.1817167 -0.021283923 -1.2054851 -1.7688558 -0.5288536
817 -0.8563625 4.721763 5.2168336 0.35459277 0.85992205 -4.1120296 0.09970751 2.5843935 0.8366643 -4.1069794 -2.0931206 0.17684229 1.3982269 -0.06715227 2.0266135 2.404061 -3.8237922 2.3051903 -0.021755293 3.248945 2.8580325 2.8247237 -4.149006 -0.36875895 -4.193756 3.120836 4.07367 5.069103 1.6279169 0.9331133 -4.8842545 -2.472346
279 -2.0387678 0.21247648 5.9086866 6.5141444 -1.1908535 -4.228785 -1.9501529 -3.8506713 -0.22180682 -1.523851 -1.4516739 1.6630201 -1.1707182 -0.3607005 -3.0929286 1.570936 2.0102541 -2.3918555 4.049637 -1.4493643 2.3009675 0.28008026 1.4935666 -3.4602435 -0.86347896 2.227757 -0.36060748 8.05852 3.029964 -3.6764123 -0.74184537 2.7399178
320 4.5184865 -2.828721 -0.16250177 -2.414033 -0.20863707 -2.465371 4.0934057 1.088065 -0.44660622 -1.2303026 1.9022467 0.36938974 2.3244946 -1.2471358 -5.8235316 -3.7712564 2.1032476 3.3517015 -3.067418 -0.7523025 0.5167624 -3.5702095 0.43250167 -2.839802 -2.132089 -1.7503393 -8.000631 -3.079986 -2.9139764 -2.3925657 4.7091045 -0.90020156
196 0.90312636 0.51156414 -3.1789193 -2.483643 -1.589301 -1.9603546 0.536089 0.03100333 -0.82015026 -2.2404892 4.84385 -0.7020654 3.283815 -2.2498558 -4.5261765 -2.2234774 2.3249586 4.617873 -3.991185 -3.1452913 3.5193346 -1.602892 -1.6672553 -0.9144676 -2.2653227 -1.5649087 -8.341752 -1.5235136 -3.961971 1.0930867 5.573918 1.6907516
