4941 32
4458 -0.0608282 -3.003877 -11.92989 1.1973159 -4.093167 5.0367136 -16.159838 0.6408374 9.334433 -8.623129 8.265495 10.004384 0.9095623 1.391838 7.217488 -0.44254103 -0.2885908 -7.863601 3.678187 -8.381441 -9.591055 3.6330714 -7.497993 -4.9638686 -6.435583 1.8813566 -0.0595944 -1.7655421 12.346203 9.053791 -3.7389119 2.0499184
3468 -1.415524 -3.6559072 -1.3199544 3.2968385 -10.910835 -8.978883 4.700587 -2.409679 -11.928037 1.8834443 0.32011896 -3.7864413 -3.3377674 0.8146226 8.047134 7.7740045 0.115348324 3.397455 -3.1375158 4.8560305 8.578573 14.412479 3.1748254 -0.18427654 3.146911 1.2672741 -3.7568634 1.0800759 -4.59133 8.711238 9.662355 -3.5526164
2553 -0.5566604 4.1303325 -5.244291 -3.3034608 2.6437504 3.6722512 5.0502715 -5.1911 -1.9708732 5.6011286 -1.8559185 11.64435 -6.60883 -4.454611 0.19026443 -7.729881 6.9930286 -6.210507 0.5312861 6.1011014 -2.4718878 6.614629 3.357757 5.270549 -13.088349 0.8179547 11.956324 -0.50218654 -16.071133 0.3173308 -2.835949 -8.809116
831 3.0390399 2.1027474 -11.977863 1.1772742 6.7945166 -6.7517023 -6.7912374 1.5819798 -2.4518166 -15.273772 9.930684 5.9758706 -8.015622 0.581285 -2.8267064 8.564699 -2.0579007 -0.8997541 -0.6280429 -2.2060018 -3.237165 -4.2722764 -7.0451255 -1.939504 -3.1211238 6.1730204 0.761792 -6.7864304 3.9714618 4.8392906 -0.46111855 -5.5528865
1224 0.32855266 -1.5261543 0.514088 -5.0324144 -6.135514 1.5860147 -7.667551 -0.11420173 -5.580198 -7.2723365 12.587538 2.043385 2.89255 7.785008 6.114325 -7.6447783 10.264538 1.8845665 -9.089664 3.1903844 -2.6684928 -1.2022991 4.438752 1.2005163 -1.0085189 -4.911333 -6.5092096 7.143291 -13.3973 -1.1786338 3.7704918 -3.6074557
2382 -3.7365263 -3.7720072 5.0004635 8.59244 -1.6196257 -7.7983227 -1.589209 4.853526 0.4969965 10.596668 -1.2884047 9.456358 2.9428835 0.64511395 0.062250018 9.261574 -1.964649 1.867213 2.32632 -2.9825184 9.005793 -3.3908122 -9.965945 -13.154566 -5.1457653 -5.4937234 6.910001 0.2061356 -2.6745222 1.1906757 -8.035879 -10.016253
2575 5.2806387 -2.0808454 1.330928 -3.208315 -3.5031905 -2.9176729 2.7586956 -4.471376 4.7110696 5.6593885 -1.8923837 -3.2372403 -1.076332 -9.612415 3.121266 -1.1623743 1.0739708 1.3836204 -8.022971 -0.1298989 -5.6448145 -0.4929189 -0.37282333 -0.7135972 2.0685377 9.243686 4.620661 -5.0078106 -22.154112 -10.230701 -1.2288126 -5.081331
3895 6.2962008 -2.5770848 -2.5074704 1.6109804 2.400678 2.3407273 6.643181 -1.737252 -5.461133 13.749441 4.9855323 5.1340775 2.2385917 2.191292 10.533635 -4.123869 12.3804655 9.290916 -4.8579884 -4.838212 -4.468126 -7.860819 -0.65699154 3.0705733 8.692877 -2.7177036 -1.8329885 -5.5048294 3.2763674 -1.2050297 -0.16322783 2.578171
2434 5.336671 2.7504857 5.532985 -6.1983566 1.6311319 6.3569903 1.3508577 -10.715077 -7.191885 -11.34206 3.4202993 0.12042289 5.651792 -15.718712 0.2981881 4.151816 -3.5906205 -2.4205177 2.3048172 6.4289494 -13.728472 0.52138263 4.214077 -3.5276003 4.36162 1.7599317 -4.2628884 -1.3841387 -7.4672713 3.2433918 9.253174 5.714974
597 -9.578495 9.013333 5.9440675 -6.8067064 2.592374 -2.3356383 0.26189533 0.40704298 -6.7276077 -1.6919199 -1.206021 9.662579 4.0747375 6.1461473 2.1004887 -5.3646307 7.5967894 -3.1053224 0.837887 -4.853101 5.864253 0.29059565 -6.816756 -7.446826 0.57746375 1.3148346 -2.2112544 0.16812861 -3.8978667 6.397948 10.817777 4.9106255
2617 8.169374 5.5796895 -9.041806 3.3049629 -1.0520036 0.56499225 -5.641912 -3.2922285 7.417783 -3.3490236 -7.420573 2.4507093 11.965553 -0.4852931 -0.6511412 -3.4167175 -0.87900555 4.8646083 -11.011974 -1.5110562 -1.1048936 -7.327584 -1.3291548 -3.6799283 2.0353415 5.2973986 1.6200829 -9.794908 -12.249984 -1.8518494 -14.431211 -7.2006516
2585 14.247392 -3.36766 -5.5595884 -3.3459132 -3.2741864 0.62176913 2.6210136 -17.430899 -2.9247804 -5.4394073 -1.6236163 4.9644403 7.576204 1.9368322 1.9741869 3.140882 0.11574377 -12.753019 -0.21092568 4.592235 6.3146605 -1.921329 3.1503801 -5.575442 0.60306376 1.3821567 -2.4876945 -4.2266545 -0.583433 6.1296663 -5.6818924 -0.94927865
2542 -1.1114652 -10.30519 -4.9550314 10.9715185 -14.724193 -1.9179351 -7.3302073 -3.8830848 1.2452307 4.093156 -0.98410827 -7.2718277 2.1692889 -0.8888676 -5.866493 -1.2286165 8.3416195 0.06451468 -7.309716 1.7371337 0.19513501 10.835143 -2.470602 -0.97699094 -6.4741344 -5.284511 -2.1576393 -6.1193113 -1.4865439 -12.362079 0.7158588 0.5563819
2439 1.6710278 4.311637 -2.8306408 0.2314277 -3.37547 -4.6742673 -1.5160035 2.1912298 1.4187922 -4.995985 -5.8441415 5.4572234 3.845273 -9.277741 -0.04851317 -3.0957367 -0.43841678 -3.1726222 -0.79653966 11.847245 -3.346118 -5.57681 -3.8853085 5.62837 -6.192817 1.0258349 9.702842 -10.390635 -11.991088 -5.777812 -12.416279 -7.0436187
1334 -11.477584 4.60973 0.74210835 -5.3632865 -1.4511102 9.056458 -4.5456433 -5.724892 -1.0289408 -11.626862 3.688856 9.317394 0.67889184 -1.0266576 2.1527069 11.064762 -0.40843257 2.9368312 -7.8333507 -0.6453205 3.0572212 5.8052993 -2.4459445 6.9326043 1.5393937 -7.2635984 -6.612408 1.8415216 -7.7801666 -17.463116 -4.7468896 -3.0586867
2282 -8.636319 -1.409413 5.467716 2.4713578 1.3298401 -1.9314911 -3.368887 -8.726685 1.4369092 9.227602 -5.056147 9.157178 9.736456 3.087618 1.1005034 -3.5900457 -2.8028252 -3.3114436 10.5645075 6.062587 5.067015 -0.93170416 6.58692 4.224376 6.70862 -5.113792 -1.8657547 -8.774362 6.9752746 7.360059 -3.9304008 9.777207
3355 -0.57751983 -6.5762477 -8.736118 -4.463685 -2.1349916 2.8081632 -1.8087838 7.4767714 -7.702798 -5.634798 3.5856545 -6.165613 -4.925381 -9.327275 7.5040426 3.4534862 3.3672624 5.285693 -3.4124024 8.624867 8.322158 6.3847666 6.5396614 5.8903847 -2.4945045 -5.235618 2.0830777 -9.014042 -3.2719557 9.117333 5.9078627 2.1364832
1326 -8.417638 -1.4936826 -3.6448739 -7.349268 -9.02455 -2.8161643 -8.294271 -6.6448364 -8.9219475 -0.1520206 12.606494 -2.4455278 5.615466 4.654556 2.2105272 -8.944021 1.8438863 6.332968 -3.8740072 -0.6681245 -4.4386835 3.2316377 -1.3151978 4.963482 7.1621437 -4.9785 5.067533 -0.47805694 -11.920353 4.4026346 -2.4357634 5.1189675
1005 0.32677126 -6.4203625 10.950549 -5.6069503 6.404604 1.8236542 0.19743156 9.194329 0.4839587 2.7371457 6.866322 1.7596614 8.25398 -7.8613214 7.166495 -4.373819 -6.9529796 3.3846328 -2.9108026 2.5475411 6.620892 -0.75807494 -14.234763 4.438979 -1.7590659 -2.5468879 1.6969645 2.1273823 0.31569242 -5.345229 -2.5538237 9.365137
4520 -4.656344 -2.2259417 -5.0670724 8.413903 -1.2634621 -2.5051413 -0.55005246 3.8537798 1.9324853 1.2074728 8.056884 -8.294615 7.404068 0.4682008 5.49365 -3.9455376 -1.6450417 7.7303023 3.576706 6.623665 3.4869077 -0.009718214 8.935965 -9.205569 5.1461787 -3.8742461 -8.975381 -1.4982767 -2.0237787 -1.8220363 -5.993131 -7.453108
725 7.8881006 -3.8923502 0.55224067 -7.29147 4.808759 6.6992297 -7.279681 6.767573 -4.7153354 0.43870994 -4.7137628 1.9469135 -1.360896 1.1911474 7.604539 5.497377 0.13367577 -5.9408555 -2.2361674 4.7048116 -3.0455437 1.3792027 5.5608606 11.495268 -2.0475786 9.329765 0.78174675 1.3592924 6.102575 -6.646737 -6.6154323 6.697493
4878 -2.2671587 -9.629396 0.5646563 -1.3606797 6.1325254 6.786803 3.3894818 -8.103158 -2.5130565 -0.9230995 -4.5531726 10.584787 0.09174161 -0.61947644 -2.3673186 -6.9823604 -4.6192813 1.9391528 6.485687 -0.5850731 2.882957 -9.294564 -8.858991 -10.136951 0.20811449 3.402899 3.156293 0.107562095 -0.24703866 -12.0999775 4.212901 1.5019923
490 -0.30883738 -7.513404 -11.06285 4.2439113 -9.415097 0.96851414 -7.1194706 -6.3655577 -6.0438457 -6.3063216 -1.2799498 -11.115003 0.61362946 2.665646 -10.516449 -1.0190821 12.653462 -2.5929556 -1.449176 -2.745813 0.9817704 4.4062457 3.5967977 2.144322 -4.519156 1.5914443 -0.2734794 -5.405288 2.1040788 -13.89499 -1.6666515 -4.5210123
3312 4.249312 -8.383502 -2.9998739 -2.5890136 -9.984494 -0.10015719 10.03004 -0.81606686 10.83119 4.098885 2.9917545 -5.590606 -10.627515 -10.0635805 -0.46099326 -5.965982 4.0051856 0.0048990375 15.857317 5.877426 3.395289 5.040296 -1.5901016 -5.3387966 3.5220788 -3.6509392 -1.6516627 1.475135 6.270666 4.015718 -12.9147 1.4893636
1030 -0.3013979 1.9245269 0.63798577 -1.6395117 7.320501 1.9032446 -6.8243604 -11.696018 -4.6922565 4.651699 4.400768 0.47152832 8.3123665 -0.45152885 -0.83352405 0.3009797 -0.97118986 3.504882 14.369165 7.2338934 -0.2889413 -4.2539883 -15.36566 4.845066 -4.102137 0.5876641 5.682908 3.501674 0.24671808 -3.47224 6.7713575 -6.1307716
2662 5.310425 6.983149 -3.6746233 -4.987723 -2.130221 2.1904736 3.7499301 -7.266066 -6.6245375 -9.473657 2.3619072 -0.9690347 -0.4927396 -11.588567 -3.4187531 2.061519 1.1706086 -1.5379117 -0.52359766 5.6559563 -17.812063 -2.7624013 -7.052418 -3.896315 2.0214117 -0.70270735 -4.4380713 -1.7838852 1.1730486 -4.653638 2.935117 4.1272116
1554 1.456759 2.8749466 -8.705728 2.8427987 10.287646 -12.556405 3.965915 4.4320126 -5.194986 4.839817 -1.4972461 -4.2408743 7.2683163 6.180307 -1.3428233 -5.4402285 9.137156 -0.99635935 -0.72818744 3.132664 10.184367 1.4105353 5.162201 12.020144 1.9981471 3.4324145 2.0975823 -6.8649073 -3.5756772 1.1004373 1.830244 1.6755275
1106 -6.9628034 2.5297816 1.7818923 -7.4211407 -1.7515035 -0.3915866 2.2585027 -9.594598 4.049023 1.2872179 2.881135 0.29755867 -1.1432484 -0.81105876 -4.093878 -9.695486 -6.114108 4.939097 -8.67344 8.987607 -1.0703025 13.097784 3.246486 6.9832244 12.8513975 -2.4214063 6.9995556 -1.7715144 -3.3392863 -13.54921 1.2345321 5.364656
2647 -0.45580077 2.9444652 2.4478283 -7.488676 6.0223923 -1.8409343 -4.0437155 2.663783 -2.5795126 6.7811775 1.403985 7.935765 -8.713266 5.671864 8.264827 -2.5197227 -6.8365135 5.8165135 -7.343278 6.929509 1.3006431 -2.7151792 -3.9823163 1.7801973 1.4770831 5.374596 0.36135817 -3.258612 -1.3282678 1.557058 4.583559 -10.016173
2586 14.32898 2.4077485 -4.5660043 -9.506527 1.5881536 8.034275 5.6926923 -13.414685 -0.5413909 -6.8805037 1.0628667 7.1628337 4.2650685 -8.636589 -2.5088415 4.952427 -5.939447 -9.87114 -4.7634683 11.554324 -1.1553681 -4.4043016 5.1403584 -0.16206966 1.3191153 4.1818275 -10.019751 4.3566885 -1.8553276 4.2124667 1.0054173 -2.506673
1091 -3.8075235 -2.4351332 3.9300377 -12.0714035 -8.688217 -0.09233857 2.1821082 9.067013 -8.055365 -3.5249333 -2.5789645 -1.0960922 4.020433 -3.933027 -9.427938 2.0590549 -0.9458637 2.801206 -6.2741165 -11.026756 14.020477 -0.74718094 -4.0578003 10.600523 -0.6069165 5.3530207 -8.211298 -2.2252035 -1.3007828 4.472368 -8.2662 -9.317226
1460 2.1215446 -7.3460927 5.602478 -1.3451165 6.841665 -7.2992415 4.1625357 -6.7988405 -4.32891 -4.214779 -4.402672 -6.1943974 2.3480096 -0.85908353 4.077196 -6.9747243 -4.531719 -3.633835 -4.043813 -2.884722 -2.9263608 -3.8613398 -0.55073184 4.2845297 -4.2362075 9.556085 -3.9932456 15.89057 -0.44259205 -6.185578 7.535231 5.0335603
1166 -10.296654 -1.7426326 4.6147604 -14.473018 -4.5271916 4.5868897 -0.24618243 -2.3011081 -5.0458126 -0.5619348 -8.282002 3.4179125 3.5902922 -5.4809017 -4.2282996 5.742466 -1.0232853 -7.7681775 -8.786137 -12.50117 10.315733 -1.1439298 2.776597 8.017964 7.592756 -2.2445037 -9.166311 -3.4122915 -4.5427394 -8.229347 -9.01266 -4.810126
3838 -2.3561225 -4.358703 -12.746356 -5.521159 1.1977006 -3.5975273 1.8127203 -2.6394928 0.9546981 1.8804966 1.6321892 -3.5512676 0.91182244 -3.4761093 10.4974985 16.074883 9.094112 5.16921 -7.925859 -4.9518795 -3.2328687 -1.8198298 -1.0413365 -9.518197 3.7484133 6.6373067 -5.9013305 -3.795777 5.942235 -2.74317 3.738732 4.4178476
2249 5.648759 9.110789 -4.1670623 9.498844 0.67689276 -7.5566397 -5.065873 9.034405 4.9641337 -4.4022517 -2.003958 -0.79217494 11.219185 -5.5026736 5.9069266 -3.8610666 3.793153 3.1326249 5.3831162 9.157207 -6.9624777 3.7435184 -5.9686704 1.1618447 -1.6964272 8.569887 -0.09941198 3.7918615 -2.2911692 10.1368065 7.4808 2.8581102
98 -6.856965 -3.454849 -12.022487 3.2924623 0.17644878 -2.4186542 -9.573474 0.40512043 12.308992 -5.147478 -0.7881683 5.669122 -0.7814798 2.9855268 2.7686672 -8.21311 5.2592144 0.562164 1.2991551 8.5412 7.203816 0.022730332 -5.1464767 -6.012718 -2.230538 -4.3401604 8.180617 12.323778 -0.34008586 0.81255144 0.6432021 8.3840275
2608 4.4477844 6.1397567 2.1598969 -3.8272784 -1.6253282 6.877697 5.669963 -6.365998 -9.37819 -0.35570487 -2.2975504 9.542075 6.7811394 -8.07475 7.8798294 2.5810528 -11.230006 -4.0916896 -1.2342329 4.0838714 -15.098005 -0.94373983 6.9386997 5.5493207 -0.23815961 3.2870471 3.8049767 -7.614662 -14.011273 -3.144395 3.7618718 -5.7918406
1309 1.2097771 -1.1388615 0.32124963 7.731375 0.005077623 -5.5224237 -5.1569767 -0.7266428 5.152909 5.9099126 -15.835386 9.098156 -7.0673194 2.0456345 -2.4299738 -5.4986253 6.815177 -11.560345 -2.5647676 -7.6141357 -2.5896726 0.885226 -2.1745114 2.8292794 5.698266 -2.9054785 -2.2537172 6.6251817 9.274907 -5.771919 -11.608214 1.470143
2321 0.4716334 6.2876287 3.429904 12.267095 -1.0332239 -1.9515718 -7.326681 10.479966 -10.862977 12.413885 -3.7762482 -3.060279 0.8858823 9.702047 3.1401103 2.8930974 -3.8927205 -4.335641 -3.4428315 0.9433614 4.945228 -0.86186194 5.467866 -3.7112086 -4.129511 -4.123436 -0.5842526 -5.324215 0.32555184 3.261272 -5.42265 -2.2477107
3329 -3.2825236 -13.300095 0.10704037 -9.746649 -6.921864 3.062002 1.5648613 5.0348406 -1.2700154 7.509173 -2.5321455 -5.3723927 -10.8404665 -9.07411 8.875059 -0.9185662 -1.7052029 1.5903184 8.11547 6.0473537 5.4469 -0.038027324 5.551284 2.7424002 0.94203025 -3.3090336 -0.35933873 9.222897 -7.0283203 7.171183 0.9674091 2.8018332
846 -10.730209 8.30333 -10.292868 4.249836 3.8817182 2.9126334 -9.881555 7.6070285 -3.2826476 -2.2538812 8.469589 3.3398328 -7.4735103 -1.5036484 -4.41526 -2.1740336 -6.9295864 3.363882 2.6005406 -3.993098 1.3849676 -7.356237 -10.222977 -0.9826938 5.248497 0.5337058 -4.985077 -0.14768955 8.665524 7.017066 -1.2806041 0.6984624
2717 10.936027 -2.5844424 1.4120104 4.5442476 1.8715484 2.9280815 4.4061837 -16.002718 -1.285071 -1.3465354 3.6070123 2.440814 6.506653 5.3788905 8.087953 2.3791072 0.3281617 -9.228865 -2.8182104 -2.1498785 11.152273 0.43637314 1.0400515 -4.3500586 -5.8698983 -1.8824286 -7.6184607 -4.764993 1.7211676 0.34275728 -3.4374857 -4.4796944
2936 1.3381677 0.44881824 -7.02614 2.012451 -1.4809119 -3.2748194 -4.3268433 0.6138186 11.839485 0.11993095 1.4278427 -4.533009 -9.332017 -2.9534113 6.238021 -1.8730816 3.2292373 1.8205601 -3.3689616 -4.8450003 -4.627925 -10.071154 6.0969515 5.763969 0.12067126 4.043907 9.893879 -6.7216187 -10.991439 -5.4080515 0.02546203 -4.0917797
3351 -3.439491 -1.7451301 -3.29093 3.0503032 -6.1120152 -7.6280465 8.542416 0.30495182 4.143274 2.307561 4.618594 -9.5213375 -9.951944 -9.47838 5.861441 -6.560929 -1.0387224 0.028013278 5.9404554 -3.6620798 1.3790647 3.737057 -5.889346 -2.1458743 -2.0987635 4.604216 -1.7057992 -3.5383995 -0.90366685 6.8576865 -14.751533 6.3262653
1098 -3.9825678 -0.13117895 3.428859 -1.7640712 -4.557154 5.539792 0.48236728 5.5758805 1.5675211 -7.507247 13.59644 3.8469002 -0.87658405 3.5402899 5.3886228 8.823419 1.806239 6.714485 -8.774624 -0.050576724 1.7601149 -2.7541847 5.8611116 3.2750661 -8.117063 -7.1691628 -9.327984 2.4818437 -9.870225 -8.986309 3.0148108 -2.5389593
2533 0.6786218 -5.1011596 3.1874127 3.7640681 -11.701403 -3.8672476 -2.6008875 -3.6332355 0.69437337 1.4212657 0.4439623 -8.222068 3.2145617 2.5463157 -5.3639855 -2.983123 7.7251744 -1.6594111 -3.9317932 -0.4405332 2.557694 6.3594627 -3.6478431 0.44667387 -2.2713795 -15.501797 -5.293149 -9.889207 -1.5003611 -8.734085 -3.6112545 8.111657
1506 -12.522639 3.5729887 0.3388422 -7.114173 -5.600668 2.96703 -4.219605 -1.5342219 3.9712706 -7.4711666 -2.85143 6.891874 -2.3434412 1.0470681 10.332243 2.3574626 3.8412182 -3.386526 1.0270488 -5.754441 2.3647728 13.673169 -5.221174 5.2635574 1.7203511 -0.6937733 -10.53188 2.2727795 -7.844179 -6.9604387 -12.808827 2.8436892
4187 -4.6140018 5.804987 -3.3944678 -7.6889973 8.309856 1.7092255 10.340492 -1.9907423 -1.1557434 -2.4309874 2.0247462 -9.621373 -11.724636 -2.3135052 -3.701888 -0.29619855 -4.775269 5.039156 5.3184237 -5.525909 3.481702 -1.2703795 -3.7604563 9.476982 -5.0401745 -4.141487 0.79428446 -5.5048304 5.1552253 -6.115187 9.333007 -2.8948336
1050 -2.8493001 4.1917634 1.7004055 4.0912666 9.050358 -4.606453 -4.7366967 -1.2444144 1.0210901 8.576735 -5.64004 2.6856954 9.317675 -0.32348654 -8.876812 6.7693686 -3.1767356 5.573434 -1.9751648 -3.9735632 -4.7121534 -6.7998347 -2.474865 11.25656 -6.298775 -0.12393566 2.2328174 8.067859 6.7946014 -2.6826918 6.4856167 -9.098991
854 0.49453303 5.3228416 -11.6242285 -1.7907736 3.4902713 2.2865462 -12.59163 9.033668 -1.1062887 1.6905887 9.712642 2.9493227 -3.4539218 -1.8691185 0.22966143 2.8931582 -0.27859798 -5.8931017 2.648398 -1.2425754 2.8055475 -2.8112354 -9.276512 -3.8814523 -0.72291744 5.5861554 3.7688625 -10.365403 -2.5477076 6.792954 2.2323303 -3.6194038
2458 7.0171337 6.358961 -6.6166854 5.294684 -2.1465275 4.8058805 -7.3935695 1.0299643 5.734191 -6.6289444 -13.9779825 2.4316566 6.443591 4.258466 -3.4150598 -5.6645136 -6.152759 9.74186 -0.8348457 -0.3468462 1.2596596 -3.551307 -5.420128 -8.917774 4.5936613 2.8435788 -1.3038849 1.3475176 -13.216788 -1.5000055 -9.423175 -7.0985765
4224 3.789862 -2.9396636 -5.0779724 -7.4252462 -2.1343777 -1.1544039 2.1685512 7.1376348 5.1878476 2.0938835 -6.886702 -1.0614696 -5.9606256 -9.090376 -1.6451594 0.15266061 1.6627125 -7.366424 3.1856368 -2.6648412 -6.394432 -1.0888407 3.0867782 -4.2856555 6.7420926 2.7794442 -2.004579 -11.742099 7.9986773 -7.0183907 4.3676395 -8.6058235
2554 4.5981407 4.5579643 6.0285687 -3.8266077 -0.42115536 0.8048295 8.386158 -5.6562085 -1.3548628 -3.431214 -0.2159497 7.0224643 3.50768 -10.494344 3.7543967 -5.6733623 0.84178984 -1.8811209 -1.5704594 -0.053473942 -3.921825 3.5941877 4.449662 3.0047843 -4.120478 7.1762676 9.794988 -12.807794 -24.761948 1.8822812 -4.164877 -6.589909
4199 10.870573 -10.02805 -6.400252 -1.4454255 5.771958 1.2679629 3.742083 -0.20754759 -5.6967278 11.473678 8.990181 -4.033921 -5.1125736 -5.290877 0.2458768 5.1980433 -1.5679487 -4.679738 -5.8522434 -11.34811 -3.9833066 -3.9063768 -1.4578506 -3.9122093 5.293116 3.6825907 -9.650131 -3.605548 5.3660393 0.7412538 0.19030894 1.4107275
3979 6.8934245 3.8032799 -0.11768744 1.2440251 1.1522111 -0.73668426 -1.4442998 -6.334065 -1.0035655 -5.099689 6.366165 1.622124 4.7177453 9.630813 -12.152071 -7.399986 1.9802189 -2.6207445 -2.8406582 -12.43195 -0.9999305 -4.490976 3.496413 3.6333418 9.3247595 -2.471893 -6.265643 -0.92405474 3.839222 1.9364153 2.398735 4.1170206
274 -6.7951593 -1.5715041 1.5468351 -6.6583195 3.3198657 -3.1246207 3.890099 5.4494267 1.8197224 -5.5009856 -8.846029 -8.847856 4.0206623 0.1723992 5.3637714 -5.6448483 4.025782 4.888394 6.9543533 -5.2061625 2.05886 -10.277787 4.156872 -2.8981032 1.5600411 -2.4394927 -7.325618 0.83949256 1.3780229 -1.0733117 3.6851678 5.754892
2493 1.4162418 5.2603717 7.8712487 -9.737778 2.4853055 -0.4713728 -0.38124698 3.0526056 1.0834041 -5.3353024 3.6092362 1.9006552 -4.214895 -7.130701 -4.3216133 7.4458 -4.833987 8.443438 5.4868264 6.437172 -5.6081514 -7.6051273 2.9021816 -5.7907133 8.902435 4.282519 1.1636732 4.707952 -6.354659 5.1455564 5.185178 -3.1607828
3343 4.0868516 -6.6848936 -1.9472791 -1.1736187 -3.7401562 3.5852046 -1.1770934 6.2825155 -3.9197645 2.6066809 -2.8468654 -1.851668 1.6976627 -4.4135756 10.499592 3.251651 5.9039416 1.8132945 -7.13816 5.7087636 17.143898 9.020012 3.2545896 -7.060641 3.0071402 -4.8423605 -0.91635245 -2.2348502 -9.385889 5.8475776 4.317386 -0.18770985
1170 -2.5388687 -1.1840757 0.25690845 -0.12260554 -4.6553736 -2.5830834 -7.4584117 -1.8397623 7.7557826 3.8605578 -12.415685 10.015089 -11.964314 -0.6467522 1.4062872 -1.6297717 6.350788 -7.0086513 -7.9542108 -4.0620666 -1.5807557 1.7799824 6.5018196 5.846981 8.352744 -0.14013815 -11.814361 -0.5692319 -4.456184 1.2558727 -13.761092 1.0496463
3310 3.5731208 -0.74653417 -5.2508736 1.0611117 -12.854843 1.4147221 3.5501182 3.029281 2.252808 -3.4508276 4.570849 2.9301326 -2.7499008 -5.849442 -4.5337896 6.216276 -5.113542 -5.3601084 14.069236 3.0478156 3.0937712 7.2338657 -3.39514 -0.67613655 10.187738 -3.540098 -4.5633955 1.239593 5.6137424 3.0098596 -4.132842 3.696344
2800 1.1276157 -4.5436597 -5.438371 10.052672 -11.485543 -4.374767 -1.4452361 -0.21076643 0.35665968 -2.5509503 4.2062635 4.651973 4.452386 4.352529 -1.3298461 3.9596694 8.470681 0.9214439 -5.10581 3.7766347 3.0703955 1.3101555 0.9426734 4.232844 -4.5203524 5.34604 -0.41404268 -1.3006259 5.416451 -5.8304925 -6.5717783 1.9465591
2851 1.1186671 0.9527012 5.3675284 5.3035107 0.10227062 -3.791536 3.8961852 -3.8965437 -1.791212 -1.8371449 -0.40100154 -3.625084 2.798249 -3.3199558 -8.177434 -7.8294644 1.1125627 -5.396898 7.1454177 -6.0724463 2.0676827 -7.0354304 1.6955684 -4.5737615 -7.209318 2.01215 1.189615 -8.934783 0.8509193 4.065119 0.80341756 -5.8840814
88 2.3091247 5.9685063 6.5028534 -3.9568267 5.775173 -8.166588 -6.2667994 1.3926383 -0.9117811 -2.3400948 7.143427 -3.8771398 2.0442247 6.273517 5.8147554 4.435647 -6.677288 -3.7621615 -1.8655818 3.8845627 8.012682 -0.9820604 -3.0998433 -2.2953842 13.15545 -3.070374 -8.783054 7.1734896 -2.0441728 0.78611594 -2.9657745 2.2116692
4345 -0.9433136 -5.646483 5.124377 -3.2377737 -0.6775117 -6.48215 -5.889994 -5.20694 5.7419896 -1.9676194 -11.417028 -3.5677955 -5.692225 -5.6701097 -1.835409 7.302524 -2.9280996 -2.715453 -1.3379654 8.00838 7.6964955 -3.1285594 0.26390782 -2.1002417 -2.8407288 6.802357 -0.38045338 1.4868661 4.636962 0.50190914 2.157295 -1.0826923
2221 2.0274398 -3.3124838 7.7981925 7.8147063 0.5492108 -1.8618773 4.742465 4.768504 0.11163949 11.577118 -8.655158 1.7418457 -3.2004106 5.8979664 3.2244666 -5.9033675 -7.6588864 -0.20403022 -0.41548145 4.660373 5.8420186 -3.560596 5.929486 -1.4600959 -7.750328 -0.8019141 2.3751898 -5.1009736 -0.13984434 -6.218584 -6.853813 -5.989386
803 4.689889 -3.473669 7.345232 2.465535 -1.1237656 -6.6776223 1.5679203 -4.627567 -6.8587685 0.4061057 1.9413041 -8.19617 -8.399292 -5.2963305 -2.5659013 -7.2664094 -3.9621506 8.840218 -3.2847953 -0.6595391 -0.70244557 -4.682487 -5.2982864 2.5314841 -1.0570666 -5.6118226 9.374348 6.1962247 6.454601 6.284533 -1.4120094 -7.335257
4151 8.75136 -0.06099749 6.3518767 1.8851587 -10.43299 -3.9733565 -1.9482867 4.5833926 1.3566515 -3.8244967 5.2110453 -3.9480658 7.2769294 5.0661573 3.7484336 7.58701 5.996531 -0.04425421 6.0246215 -6.731114 -14.541553 1.8732738 5.2903194 -4.8510447 2.772712 3.2699106 7.167043 2.1518214 4.129407 -3.6646395 5.51421 4.9488015
3431 2.5596979 7.1224847 -2.2421489 -5.9671946 -5.9777255 6.202199 2.943807 4.573491 -4.25791 5.444776 3.5846925 -0.40232223 -6.8451095 -5.810854 2.4837544 2.6152506 -0.8977373 1.5416577 -12.37063 6.930436 3.5223687 0.6987248 0.7986864 2.52527 -1.6989844 -9.380213 0.3938973 -10.033639 2.6351156 5.1268244 0.15345848 2.6513448
129 2.3863204 -2.8981936 -0.48209774 1.1515551 12.436691 -0.8237888 -0.04939346 10.462501 -2.5973408 -0.3535752 6.23537 -1.8682997 -3.9610004 0.2616224 -0.032711092 0.15648593 5.9770656 -2.7300007 6.803564 0.2105851 -0.005813276 -0.46396443 0.69168484 -5.6975265 -3.7249196 -12.245413 1.5654708 8.94334 4.032575 4.2667994 10.761181 11.560235
780 9.848345 0.5840898 4.4020686 -1.3437681 -3.0580251 1.172892 7.8456893 -8.114488 -8.628212 4.158488 -0.45982605 -10.575824 -3.21434 -2.3510451 -3.0373185 -6.5730968 2.0592623 2.8128676 -5.1668873 1.4862612 5.854036 -4.5815334 1.3864948 1.2687118 -2.5238953 -7.4636045 5.2675595 9.207681 6.828589 6.426763 1.0615958 -5.5230865
4172 -3.3079004 -4.7420034 -2.2148197 -1.3617622 4.7127166 -2.5314078 8.305827 -1.1728343 -2.6936874 0.5029212 1.5821961 -10.934933 -6.17909 -6.054704 -1.9545935 2.625468 -12.381214 1.9799087 6.8799624 -3.2061975 2.040303 -2.851776 -2.0699193 1.023452 2.991464 -8.099453 -0.812035 -7.0483203 6.2625356 -10.9749365 11.425865 -7.5127535
1090 -7.4263444 -2.9631689 8.743147 -9.145768 0.50011593 3.1921153 -6.30473 7.7304296 -12.555607 -3.7919507 -5.6895003 1.1297882 7.0532565 -4.0171914 -2.817182 0.78488183 -3.1385343 2.4195735 -0.6414196 -8.755508 9.213374 7.0842166 -1.5442168 6.3468575 2.8630252 5.004955 2.2750475 2.4637523 -4.573685 -0.10426601 3.5286481 -11.288039
1419 -4.9380097 -3.3838134 -5.605383 5.1962533 1.9564521 4.1944337 -14.805928 -11.226738 -5.970028 1.0000813 0.9700521 -8.346942 3.8135977 4.1358767 14.412157 -1.3395438 -5.333141 6.2756715 -1.9955182 -8.137559 2.2502909 3.389955 -1.9184549 5.201781 5.564825 -2.0803826 2.0882702 1.822572 -5.511106 0.53680116 -1.9854668 2.8266792
2545 0.93856597 3.6281095 -4.281691 0.24258249 3.2982206 -6.17352 -1.141973 -4.6251783 5.265701 -1.6907322 -1.1688242 3.6229258 6.495999 -2.56554 3.0575676 -5.244274 -4.028324 -0.008277626 -12.200691 -5.748949 -3.915478 -0.5983369 1.4618157 0.47443253 -2.2347496 9.635859 2.3184125 -4.290426 -18.652912 -0.7206274 -6.7591357 -10.971915
1140 -0.21688588 -3.0502675 4.134271 2.1416302 -5.963105 4.0909505 -6.7482343 -5.1116443 6.0924907 8.1690035 -9.29886 -0.1842635 -1.3520933 -1.8822157 -1.3397694 7.15082 10.052403 0.88818735 1.7571075 -13.264817 -3.0411797 -0.6252528 12.572782 -4.031447 4.973939 -2.094076 -6.764029 -4.190482 -1.602103 7.8106723 -5.372947 1.7689099
2522 9.789254 5.657212 -7.6041865 -2.3406973 -3.1366377 4.5709443 -4.398095 -2.3810592 10.888505 -4.7308216 4.697354 -5.2925963 6.2675934 -3.7109947 -2.8625903 0.40094736 3.267355 5.198954 -11.150392 -3.7119102 -0.46030635 -7.943933 1.3503397 -6.9253993 9.118305 1.625291 8.988191 -2.9535968 -8.621013 -6.1759944 -8.696571 -1.7773379
658 -1.3793097 4.034911 6.3027167 -10.963611 -2.6562288 7.9008574 5.7854943 4.642675 -11.616002 3.6024365 0.3745082 1.7952377 -1.6782774 6.145294 2.9347754 0.17317834 2.9508183 -0.9688566 5.277097 -3.0625799 -2.2053044 -5.956 0.8186498 -4.913828 -9.607461 5.432565 -8.100415 3.7792246 1.1406621 4.3957596 2.8352313 0.8109771
2548 4.7144394 -7.429304 -4.84826 -3.624645 -10.124917 0.90335554 -8.561983 -3.6034079 3.2502089 -3.890573 -7.620531 -5.867993 -1.1105129 4.734061 -7.6639366 -4.763784 7.2502255 0.78941506 0.52564555 1.3652928 1.058268 11.604507 6.548283 4.737465 -6.0526814 3.557329 1.3011655 -8.251343 1.2171005 -1.0020136 -3.0236573 -5.234433
3411 5.0027366 -6.0037518 1.2600557 0.26983288 -4.8384023 -3.844571 0.46779457 11.099916 5.011077 7.7775426 -3.5702705 -8.984508 -5.563416 -0.24028853 6.9301934 0.07999168 9.637063 4.5536423 4.4941874 2.563896 7.797291 0.8243033 -3.1183174 -5.6877337 4.293504 3.1160586 0.0031727469 6.118078 6.558026 -2.5570025 -3.9097257 -1.2027045
4485 10.402647 0.7299393 2.8780692 -1.0113375 5.601885 -0.7242048 3.9170222 5.2522006 0.0044032983 4.91397 1.1982135 -2.045358 2.5988529 -0.88837737 8.279027 -12.834553 -10.192194 -6.0285764 6.3222985 -7.603841 -3.5375283 1.060176 6.6434884 0.35391334 9.381587 1.3862035 -3.6470897 2.0947864 2.936492 11.0515375 -5.439242 -6.9401064
532 -6.3827434 -3.7256823 -3.105012 -1.8277762 0.502883 1.4158226 -0.5291166 -8.088264 -3.236252 -11.505729 -0.9929128 -0.19382693 -8.057267 -4.378579 -3.535386 -4.898848 5.436026 4.4730053 6.4933887 -10.818797 -5.632756 1.2668829 2.7223022 6.0771213 1.6433133 4.1800957 4.5276103 5.2273855 6.442843 5.211539 10.72438 4.3872
2595 -0.63997686 2.7314196 3.5783908 1.777842 -5.692014 -7.7775207 -4.8639455 -5.970682 7.307632 -0.49044508 1.2821031 -4.1376944 -0.91958237 4.7940307 -5.093718 0.7917316 6.612522 -3.8484251 -0.17890044 -2.604947 2.4419146 5.803921 -7.376935 -3.3453882 0.33731472 -12.008944 -1.9196056 -11.625711 0.45876035 -4.360132 0.04547297 6.535506
1530 -0.35690466 -8.010287 8.532657 5.361388 -9.602518 -3.1906197 -3.7235255 1.6194173 4.8060656 4.1766148 -0.5062614 9.006278 -6.116868 -2.8325646 1.7105066 -1.3561351 0.49031648 -1.4183105 -9.0916815 -6.5478497 -6.3416686 6.7554584 11.192751 4.095569 4.6882124 1.4964546 -3.0535333 7.0207047 3.1502492 0.7700691 -2.8713384 -11.303686
396 -3.8775656 6.673495 11.722734 3.58907 -0.8954733 -4.6810904 -2.1427085 4.0029006 -0.3303288 6.9249635 -11.119487 2.256769 3.2527983 2.608905 7.5469923 -0.26121107 -0.6869893 3.9154959 14.074588 5.1640487 -0.4650855 2.2593222 1.7977386 7.623035 4.924381 -4.2495623 2.9812224 -1.4561417 0.11581391 3.3086157 -2.1052387 1.6465676
4181 -8.615205 -0.8453693 3.0583913 4.9151344 6.104781 -5.125322 9.633277 -1.0084401 -9.037239 2.8598256 1.163627 -8.613652 -2.3152173 -2.5287087 -0.78794765 0.45009586 0.27901715 9.6018505 2.3170428 -4.783327 -2.080807 2.7333064 -0.27217388 4.2555723 -1.0841284 -3.440532 -2.6417873 -0.088852115 2.3907351 -10.500901 -1.7395176 0.92165697
680 2.4255862 -1.9757177 10.037509 -3.3276591 2.1380322 6.535946 -0.57742256 -0.9608556 3.5929244 7.5653305 -1.3460718 -3.8007529 -5.0299773 -5.631634 8.737504 6.3102946 0.12809995 -1.0237322 3.2274175 -0.5311356 -3.9997797 -1.0784429 5.088997 8.383324 -6.837771 2.9681327 -1.3602091 -5.0421357 11.085729 -2.0999675 0.080991626 3.502237
3796 0.9845065 -9.175592 -1.2838646 0.21931519 8.01124 1.5168153 -4.8559017 -3.532955 -10.139021 -1.123341 9.278674 6.944755 6.733015 4.609709 -0.53503096 2.6482458 -5.448527 3.6840246 -5.0132813 6.358034 -1.3040268 5.6403174 6.8779984 -8.612601 2.2741754 8.385474 -0.05942293 -2.3532224 3.190604 -0.83243406 -0.78239167 -0.03985146
3128 1.2630349 3.101374 -2.721781 -2.1572068 5.145038 4.907313 3.5203648 -2.8252084 -2.2816842 -0.6606371 -0.9730739 4.83823 -0.6576206 -1.8462296 -0.72461 -6.3115487 4.1306477 -11.146056 7.396917 -0.8121559 5.9326634 7.3806467 -1.2247196 3.234885 -10.5424795 8.751381 5.7124066 -3.254322 -7.4123826 -3.159609 4.676473 -5.674782
2604 6.1880784 1.213421 -13.273217 0.4018855 -1.0157381 8.4483185 2.6679995 -6.399737 -0.74329954 1.9140183 -6.2432046 5.653994 8.255545 -9.253301 -2.6923501 4.148771 -1.128424 -4.4350705 -5.3018174 7.5915413 1.1398569 2.471661 2.204292 -0.5201684 -1.7948709 10.491982 -10.634971 0.69986296 1.892876 2.6387687 6.9054914 -4.5981603
3783 2.9860935 -1.973329 -6.4787188 4.325856 3.0527244 -3.2688105 1.073643 -3.6554284 -4.558659 14.9606 14.0408945 2.5070784 -1.4265133 0.016654411 3.7445078 0.5611672 2.662434 -2.9243467 -3.1890805 4.122398 -1.5283862 -7.7211967 4.910931 -4.036709 6.7636294 9.468097 6.1385765 7.5689297 6.1160254 4.3502693 -3.3881805 -0.018425645
2846 -1.567753 4.0687995 -7.408023 -0.30221307 2.2568884 -7.586597 -4.7279058 -3.8690624 6.752785 -3.6474802 -1.0495614 -0.9309268 -3.3854218 -0.7789943 3.9416773 -4.8711624 -4.050512 -3.1329913 -9.050812 -3.686508 -3.9426737 -5.4351144 5.5011253 7.5339866 -6.9871926 4.592497 9.714865 -4.500349 -10.6865425 1.094335 -1.9594043 -9.000867
2561 2.2150142 -5.774457 5.0100613 0.6160675 -4.005112 2.033865 -7.2521806 -6.640524 -0.6526781 1.4068787 -10.578783 -6.9726667 -0.2525682 -2.6492307 -7.380013 -16.912909 7.190838 -0.034088645 0.8888321 -8.060651 -0.3538015 -1.3526081 -2.5092626 6.942316 -11.348483 2.3722928 -0.2609802 -12.5786295 -2.8200796 5.167103 1.9183547 -1.8810272
848 -3.7072122 5.999151 -8.415336 8.310319 -0.07083309 1.3571299 -3.4589608 -0.103388265 -5.9518185 -0.4877663 6.213923 -3.7864914 -9.308175 -2.7112834 -4.828521 -5.950672 -4.092584 -4.162176 -2.8698697 2.2876022 1.963714 -3.0710516 -5.0401344 3.7531145 -0.46474388 -2.1440687 -5.5059266 3.1446974 5.3524737 2.89913 4.3806586 9.604522
3722 8.888281 -7.18086 -9.955326 1.4790707 -12.872701 1.7722414 5.862167 4.7954288 4.6526737 0.35929123 5.238832 2.642753 -1.2474724 0.5059497 -0.42211485 -1.2352813 -10.951588 -0.4797706 -0.8772561 3.390041 2.2101195 0.99175906 3.8038542 3.2764192 9.4804945 -7.2122965 2.9071565 5.8123493 4.5738482 -3.3186529 -4.748209 1.1817697
2593 5.672192 -0.43872413 -2.4944532 4.905563 -1.5459238 1.8909786 -10.236607 4.766396 3.4930055 -2.347478 -12.739944 0.9611113 10.44345 6.354216 -10.629002 -3.695968 -7.222676 -1.3657085 5.298481 -1.0548953 -4.585972 -3.9298885 2.48972 -7.2957163 4.4928565 3.3839927 -10.0223675 1.0275677 -7.209601 -4.9554977 0.103232436 -2.5373023
3904 2.3437593 2.092936 -3.758159 -5.7209044 5.572418 2.1121936 0.104251616 2.6838892 1.118697 4.0371485 9.629698 -1.5064362 -1.853157 0.79520816 2.07323 6.9380484 3.571467 2.731795 -11.467006 -9.717046 -1.2872508 -2.680091 -2.4123342 0.9771467 4.489821 15.119652 -8.011648 3.28303 5.7050233 -4.343147 6.432049 4.3430595
4193 -1.0564654 -5.618148 -0.20441428 -3.1433756 6.9381857 -3.8320508 4.878626 -4.172912 -7.0814443 2.4816935 -4.431432 -6.974759 -2.272335 -5.578155 0.26184028 2.7840796 -4.666807 -5.926411 9.560738 4.2268963 1.1067237 -1.472003 4.8600082 0.14775693 1.9275603 -9.099034 -2.7165904 -8.286309 -1.7057791 -7.0619755 5.228371 -6.0638423
4209 2.8848817 -5.4617705 8.562294 0.927911 -9.1613035 -4.558708 5.053953 2.451404 -1.3140724 0.29609585 2.4179893 -1.2655525 11.644334 2.4857874 8.588681 -0.7174615 5.3234096 2.518427 4.7783523 -7.2363753 -5.5558095 1.0507306 1.5675665 -4.8329306 3.172014 4.2220664 5.7083664 1.545717 0.8563057 -6.1018243 7.566884 1.5498219
2918 -3.916434 5.9203176 1.5973363 -2.8061748 -6.55729 -0.6219935 -0.45243266 2.4468422 0.22763821 2.1523643 -4.388704 9.640129 2.5364494 -5.4937105 -4.459611 -5.789058 -2.874035 -4.3066144 -4.2409825 7.153463 -4.1642604 1.5764171 3.3124413 -3.7681503 -5.9303665 6.60472 14.282152 -5.143202 -3.9362006 4.0766196 -2.2362194 -3.085777
2519 8.553074 -0.10266237 -5.008744 -4.013266 6.053289 0.97969013 -1.8998356 2.8336194 -0.14265655 -0.39807817 -7.260733 0.5152459 -2.6661682 4.954475 -4.869619 -0.19830298 -0.5678145 6.3743353 10.88428 0.6524875 -2.1948893 -2.5778615 -4.213536 -0.51289284 0.83174103 1.9304391 -9.998204 -5.165974 -7.420308 2.3170333 -3.3849883 -2.749564
2538 6.2433214 3.7805989 2.5059004 -0.54755604 5.865479 8.359471 4.0001736 -1.4790725 -5.838336 -2.2842708 -2.4406588 1.1807606 3.9172776 -4.7841535 -5.3520646 -10.414947 4.393866 -7.394143 2.8400064 -4.854586 0.044053018 -0.7511879 5.168769 0.16951354 -7.855506 11.369116 6.0456405 -12.197484 -13.125357 -4.468043 2.8867912 -5.161736
2607 5.569728 6.1745467 2.458291 -1.8128636 -5.8015704 2.968142 2.4942374 -4.7417836 -9.239547 9.054138 -3.6693823 -1.2398474 0.6932374 -5.9453526 1.9298469 6.36904 -2.6519392 1.1491846 -2.798732 6.2735157 -13.396236 -7.747533 -2.297231 5.131687 0.25896797 10.431919 -4.2924876 -7.2867417 -15.177744 -12.237924 -0.4116599 -5.007849
2574 0.65089875 -7.335758 -2.317997 -0.9426702 1.1258478 -4.260684 -4.5018153 -0.56022286 4.9538035 2.5172267 -1.2551514 -1.1609508 -6.170255 -3.7603152 3.4428122 3.5662737 2.5558639 5.603124 -3.079756 -3.9589522 -7.0247426 -0.3951469 3.4699569 3.449917 2.0118139 4.9156227 8.370084 -6.260006 -15.373228 -7.702506 0.8043165 1.5592103
2502 1.1793075 4.8582406 5.118633 -8.222441 3.808223 0.3170875 -5.549669 4.6954594 -0.95731735 0.0062182 2.8248553 -1.8389429 -8.197639 0.18415125 -5.7956963 1.2590072 -6.8185806 8.225133 3.6878777 9.434695 -7.728388 0.59533924 4.705828 -0.40462452 3.2281308 9.231097 -4.40082 -2.5693412 -6.3051677 0.042078383 -5.5658307 -7.6066923
1361 -7.2925105 -0.3877979 2.0591574 -3.3740675 -11.609334 6.3597836 -0.8126857 2.09306 1.2220267 11.503995 -2.3394458 -0.51446974 -1.6101229 -2.8011305 -4.58088 3.2025533 5.2346544 -3.2703345 -0.12315789 -13.806671 -5.5724416 -5.0496073 16.36083 0.1514097 8.428986 -5.9613857 -4.186546 1.5665761 -1.4204888 -0.85166407 -5.976958 -1.6165566
4106 5.8805666 1.5552076 0.24682565 -5.1179104 -6.535972 1.0864578 1.0550363 2.0940566 2.8170412 -2.343378 -0.7658623 -6.7396116 4.127831 -6.6756253 -0.9954009 3.5875742 5.0664496 -0.39008734 10.700488 -10.515972 -7.057713 -7.6782537 -6.1208644 3.6678019 -0.29028374 8.311044 5.236888 6.601369 -0.035959173 0.10709008 -0.11635446 7.931039
3497 -0.248746 0.3925215 -0.17014658 2.2631214 -5.5264006 -1.6355689 10.830282 6.6316314 -8.326905 4.68251 -7.699966 1.2465255 -3.6648724 -4.016995 5.4024577 1.5669587 0.942368 0.22908302 -0.50244933 5.0277653 13.261659 2.0802958 2.1935694 -4.784925 11.850673 5.4318337 -4.16628 1.5836755 -5.6099734 -0.5812334 3.0137322 1.0838242
2235 -2.7503293 -3.0524752 -1.2929906 3.906996 0.4777178 1.6979363 0.13700372 5.7435503 3.533427 11.90165 -5.1271257 7.766775 8.600225 5.8880625 4.446987 2.5846884 1.4259751 1.9600916 8.27547 -0.6108094 8.211734 -3.5661733 2.859414 -1.5394679 -9.401492 -2.4954295 2.6510587 -4.403003 0.8493828 0.3778195 -4.4986916 -13.023428
3317 -2.341041 -6.11319 -2.0880077 -5.22386 -10.459122 -2.0025442 10.987263 0.5632718 -0.061538152 2.5769775 7.1491513 -10.699153 2.0783448 -11.081991 4.9145803 -3.882832 0.7188598 -2.7628086 2.488402 0.7917624 0.34494913 6.6126432 8.458552 -1.3237046 -3.1537445 9.429209 -4.815268 -1.3378478 1.9774363 9.285965 -2.2315311 4.0645185
1547 5.6387954 -9.306271 0.3530001 -11.766547 3.272496 -5.440618 5.187785 -1.7414514 -9.166294 8.45534 -3.5673926 -0.6862634 6.59292 3.0489428 -13.580755 -0.17660771 9.282626 3.9308383 -0.7525295 2.1846533 -4.0891047 2.1600595 3.6478624 -3.5459216 1.2020388 -1.484347 1.9567075 -2.5771825 -3.67763 -2.9218895 1.1243454 3.6146743
1026 4.9778476 -1.7216775 7.6904335 -9.56497 13.007351 -2.799852 3.1005397 6.4002833 3.7189426 6.137595 5.8676248 3.4695146 7.719659 -1.891376 2.6571724 -0.6456194 -3.7071865 0.7064772 -0.054026254 -5.0669184 4.386514 -2.2356608 -8.240629 1.6132287 0.9296968 0.34827673 4.859815 -0.60382855 -4.9613104 0.17892843 -7.7939787 8.463844
2883 1.0035951 -0.61814207 4.451927 -0.7473504 2.9098072 4.228952 -13.374703 -6.722637 3.6836095 0.47958526 -0.13736458 -5.6976576 -1.1068991 -2.1067305 -7.331744 -10.892108 2.4598458 4.603607 -5.136172 -4.986156 -0.42300546 4.438233 -7.4757676 0.47451186 -7.3686266 3.250795 -0.7157945 -9.853427 1.2153416 3.8962698 1.2916502 -2.7607105
2959 3.6461544 3.8272169 -0.75377464 -4.9530945 -6.590901 0.43075964 -1.5765291 -2.1630957 -7.494938 -0.057573408 -2.1345549 0.35223287 -0.29421693 -3.0770292 -3.8190784 3.2843413 -1.3502665 3.7109327 -4.8003855 2.105317 -14.9008465 -8.765017 -9.870409 0.59373695 0.84773624 0.06293508 -7.123994 -2.8788023 -7.803124 -8.297262 7.2489247 -0.22850908
2559 4.8237576 3.4234536 3.4425895 -6.8463697 2.3546066 -0.27139163 1.4665481 3.6709726 8.634627 -3.667403 3.169511 3.2856233 -10.359988 0.8120439 -2.9102569 4.210175 -15.720685 -0.51020765 5.737757 3.5433297 -8.2254715 -2.544536 5.1254277 -5.83374 2.0469348 1.264478 -5.4623623 -2.7196193 -5.7174177 0.12402196 -5.0738792 -2.3030171
4867 -3.331463 -2.9954643 0.78495425 2.4932215 5.0344853 6.254745 -1.8363799 4.2365375 7.4185996 6.592607 3.7525213 6.6788692 8.577557 -1.5921642 0.74153703 -7.52261 4.1637573 8.867119 5.487878 0.69561374 -11.161629 10.151757 2.8107963 5.116063 -2.8281596 4.6166744 -8.218788 6.1163006 -2.347527 -2.625588 1.3757834 4.3414164
4218 -1.2861986 -1.2579575 -5.4503584 -0.5028546 1.0924438 1.52441 1.8961716 -0.5724378 -3.421814 -1.8419642 0.90012246 -10.253191 -5.5185018 4.0098624 -1.9669489 4.415805 -6.972128 -1.6002207 6.359876 -8.626184 1.532881 3.2489545 -1.4580898 6.0255575 -1.9620231 -5.3541107 3.625209 -6.8094106 11.211606 -12.895721 5.8871775 -3.6837952
2409 -4.3839374 8.272511 2.1341853 -1.1472762 -6.1028366 -6.627738 -2.0525057 0.0869584 5.9334025 3.3229308 5.171904 -0.9756005 -4.612414 -6.347822 1.6873132 -6.39708 8.512974 0.46743307 0.48231748 7.7022743 -5.126276 -0.16706805 -7.396913 7.6475134 -3.433943 10.064616 -2.1485434 8.666167 2.40463 2.1440334 2.7900815 -4.889271
657 -7.1890483 5.6973004 4.035955 -3.7333398 -2.682588 2.2638626 3.2105565 -0.7151781 -10.167808 5.9285946 3.3518453 7.569944 1.2159213 4.793261 -2.9380107 -2.4396474 8.800606 -4.21159 2.8030856 -3.845943 0.8680859 -5.594045 -2.785476 -5.324717 -5.14761 4.48737 -10.502648 2.8240676 -2.6230054 7.3839073 9.458128 3.648435
402 1.3129586 6.8118525 -1.1223063 -0.9803083 2.3762407 0.93868685 -3.1614158 3.9644752 -6.499403 2.053735 7.7926908 -1.6250421 -0.9899113 -0.7742172 1.7493151 3.9547846 -2.1699755 -7.412678 4.4194765 -2.5378516 -4.339218 7.5182977 0.7530613 14.136988 -5.703963 -8.520168 -6.2228656 -0.2971903 -4.414172 6.1366267 -6.9054265 1.7489145
2474 3.6597738 6.74612 -2.3412113 -3.7019694 5.909199 -4.000943 -2.0608585 3.32849 5.4880342 3.2803857 0.14668304 1.005939 -11.954031 6.848328 -1.1088036 0.09501048 -11.670435 3.5408874 9.057122 6.312068 -9.860823 -1.534652 -1.1289369 -2.0573862 1.9750514 -2.5815217 -2.6869771 -1.5977489 -9.0913725 -0.064021915 -5.9445806 -1.6126837
4203 -7.4308267 5.2041936 -3.149959 -7.2494497 3.8908572 -1.1841033 9.280344 0.05893551 1.7424829 2.8655605 1.291304 -7.32355 -7.981683 3.9097502 2.6649914 0.9802576 -3.4948437 6.6612124 1.0965047 -7.475051 5.9555306 1.9901582 4.870736 8.299913 -4.9616694 -4.752284 -4.2487354 -6.3024793 1.165582 3.088204 6.3345857 -1.8174901
3307 -2.6954546 -11.951133 -2.2111754 1.2518045 -6.081642 -7.107651 0.38556072 -1.3632039 -3.7727287 7.7655654 -0.37407675 -6.831671 -2.089572 -3.8962388 7.692162 -1.2522173 4.6603103 -1.7404102 2.3678517 -0.9509039 6.035144 11.47868 3.9021068 -5.743158 -4.798591 2.2281492 -1.4584515 5.986677 -3.7255666 15.850054 4.904331 0.957142
3347 4.52072 4.6191077 2.451855 -1.9549043 -8.930894 3.0995789 8.594211 2.7748394 -1.688637 -6.1179986 3.3072116 0.99875474 -3.9197583 7.7894053 -1.0242046 -6.4565415 -7.0943923 -10.430024 0.6396031 -4.8247275 4.1745305 -1.7558374 -1.4032315 0.7995284 -5.2920885 3.6382062 5.770426 4.267683 4.4008813 -7.1075926 -9.298878 8.510827
2562 3.5512536 -1.1738023 -11.521678 3.4607701 5.3031764 3.659089 -8.53471 -0.15815125 14.434094 -7.902105 3.1937175 4.4288983 -2.4368553 6.011328 9.17867 -6.055236 2.8459952 -0.48120162 0.13493563 6.6169343 2.5357707 3.139431 -1.9021434 -0.76133823 -2.42084 -0.7470609 0.7207708 -0.14222023 3.1262958 -2.9926946 2.347782 8.174883
140 3.054741 -0.49408498 -4.0199523 3.7794697 -1.8021406 -0.25679767 -4.432113 -1.7382759 -0.61180174 -6.441534 -9.930776 -1.5685135 4.4827976 -1.9505684 -8.85455 5.301735 -0.3772903 0.92439884 10.157558 8.27829 0.5094016 -0.44135293 4.2696066 6.0707974 -2.7505975 -8.448531 8.969459 9.013527 -6.451806 0.44205645 4.162146 8.106287
3352 -5.3102684 -9.059161 -5.8981776 -6.593331 -5.095293 -1.0611274 6.441807 6.3014026 0.8830272 4.2567472 7.333225 -5.5738173 4.584172 -12.408806 5.489152 -0.051426996 -1.4583346 -1.2163427 6.888702 1.4150621 4.1761208 5.623925 11.172919 4.555604 -3.5069947 6.911375 2.5208476 5.084072 -4.5460296 12.71039 2.6162815 -0.27034748
94 0.16811611 0.3603865 -4.419601 1.0893244 6.4460335 1.6250696 -2.5089443 1.4435652 1.68434 -9.201951 -0.8015229 -3.578235 -1.52534 -1.3784239 -5.2325363 -5.972672 8.753521 8.505698 3.7112463 0.6307984 -0.90730363 -4.334685 -1.9858183 -0.71515477 -4.897687 -15.243728 4.8792787 11.3763485 -8.268942 0.14073877 -2.0015059 7.943259
594 3.3610947 2.0501761 4.334024 -0.5043278 1.8186458 10.34164 -1.1212059 2.0638986 -8.5206785 3.0548909 2.1160805 -3.3113105 -2.0919695 4.597222 6.513172 -4.887581 0.1455966 2.3852758 6.9198403 1.0312463 1.4999161 -4.5105486 0.22453424 -8.643346 -2.4338655 9.16343 -6.9993286 2.127796 1.3169981 7.5501456 -0.045166172 10.347501
4029 2.7655385 4.530825 -2.435062 4.8704658 -6.813374 -0.1813296 3.485838 -15.69157 0.05833572 -0.33197144 -1.9577708 1.7524213 5.1235657 5.5226192 -8.867719 -1.1218367 -6.9780855 6.4275665 -4.6144233 -8.155273 -9.396648 -1.2846159 0.69599795 -0.37298727 4.1806803 -6.810344 -4.654494 -2.9963915 8.348672 -1.3238885 -0.58668685 -5.4287186
639 4.682956 1.3607957 3.209114 -4.990823 5.7550416 5.665329 -8.181275 6.839044 1.1373726 -3.9389975 -3.160663 -2.9642236 -0.3108195 -3.5921717 4.1632485 1.8255119 -0.48267442 -0.5637372 -5.718086 3.6246505 -1.952072 -2.7484822 6.037701 11.09509 1.8577093 1.3369755 1.0673927 2.7298884 10.170161 -6.0824895 -5.2300553 1.7299558
4128 -0.85150445 -9.607572 3.4742303 2.4827077 2.8709157 -1.4652352 3.4523902 5.922339 -3.7012656 5.6282125 1.8609344 -1.9352373 1.2676759 -0.61411524 -8.380726 -3.7168324 -9.695601 5.760984 1.5216283 -3.7315555 0.9040977 -0.0013485329 4.759283 -0.34379902 -1.1118093 -3.6734 -6.4702034 -2.3414426 3.0454562 4.0888934 9.129777 0.9340694
681 6.3429623 1.5782707 12.2886 -4.4757524 6.8751044 10.102942 -4.1893315 4.6514363 3.1082802 0.44273528 -6.959105 -6.0412927 -2.0183377 -5.9130692 5.557437 3.4561486 -2.1446402 1.1166713 -1.5417696 1.7422022 -5.428064 2.0254722 7.481157 11.057391 -5.9552126 -2.431329 -7.163404 -0.22314216 10.127561 -4.9755936 -2.1039135 -1.3407804
153 -8.074031 4.9692216 -2.6821463 5.346819 -8.217673 2.972669 -1.6422656 7.414229 -5.071455 -3.3821511 -2.7107956 -2.2484946 6.959599 -5.7627115 4.4835033 -0.354219 1.0656457 4.029884 -0.6974981 0.59670997 -6.843068 -1.3175634 -1.7893655 -0.5727182 -4.8658657 -9.103846 1.7612367 14.098934 6.63783 -2.8223555 -4.7588463 -1.3987824
154 -6.2093306 -1.4496887 -0.39117998 0.9943162 -8.881166 3.256097 1.9479927 3.664712 -4.8277345 -0.39780995 -0.5339379 1.6228086 5.194862 -1.3308356 -4.8561087 0.68618965 -3.3437614 8.405749 0.054664966 4.2170553 -4.167654 -7.5956883 2.149607 -7.3448567 -1.0800129 -3.6973906 1.2289568 17.829159 4.352942 -3.536126 -3.5393853 -1.3095154
284 -6.367578 3.1655135 -3.031862 -1.6951385 -2.8216188 -10.676852 -1.7267679 1.2421645 -3.960419 -9.177535 -5.791006 -6.1135507 7.917997 5.786889 1.3232887 -0.55780715 -3.6766028 0.898433 -3.3265297 3.5316467 5.3167157 -6.952904 -4.338707 -5.133958 -2.676426 -1.6581804 8.260299 -8.122322 1.6974434 -4.3006573 6.896126 4.1921296
2489 6.58285 6.343504 1.2662652 -7.2706294 -0.31770265 5.142679 9.460045 -6.386312 2.083072 -1.8257917 -0.2733095 13.5857315 1.6994451 0.2929406 2.2158809 3.2475815 -13.774479 -4.2809796 -1.7267109 8.094353 -5.353614 -6.2886767 8.132969 2.8077347 -2.49581 4.870209 -8.837147 -2.4670446 -7.1217947 3.8017552 0.5493883 -0.54969066
184 -1.7873586 7.4554057 8.273747 -1.1975483 7.926802 -0.45479214 -9.672468 1.2217071 -7.8214593 5.714229 3.940329 -3.6224968 3.8774705 4.0626726 -1.6379621 -4.5457506 -1.4530666 -3.9844532 6.193771 0.6454212 -0.90235615 -2.1689215 -11.922374 3.1488914 3.7533464 -5.999935 0.5243345 8.408214 -4.828262 -9.173239 0.65838677 -0.31043753
205 -4.9019337 -5.6977463 -9.584772 -3.133472 5.6958284 0.24909635 -9.817992 1.2017069 3.2844439 -5.6176934 3.7322938 4.213752 5.1251655 -0.9736041 -7.7969418 1.0239481 1.3395188 -6.674063 3.4738643 8.526922 6.764552 3.6816494 -2.1804862 -4.1810923 -1.1506052 -7.3969693 9.056101 9.472869 0.40175867 -2.1449397 9.251727 10.734207
4448 4.0679955 4.56732 -9.701752 -0.6856908 6.098143 7.5730915 -7.657701 -2.6006422 7.8401766 -12.808463 1.5627439 9.363959 -0.78928006 8.108024 7.215452 -2.7516127 0.23386902 -1.9710777 6.0123515 0.5917386 -5.109555 1.634775 -0.19555481 -1.4612454 -2.6822317 -0.54653704 5.2260804 -2.69914 4.4554152 -1.8517371 2.1978705 2.1977952
3410 6.8395925 0.10919083 4.710486 -4.0068064 -0.7943585 -5.026957 2.0464435 6.0401506 -1.1603882 5.123774 -7.032847 -5.299925 -2.8246744 -1.3916559 9.6734295 -2.4039526 9.87784 2.5434372 -0.7217138 3.28274 9.23126 -1.6949148 -4.874539 -7.7172313 5.9654703 6.0085063 -1.4075017 -3.1637733 2.3010314 1.8190581 -4.2819943 -5.9497347
4602 -1.1962872 1.7976192 -1.4824313 13.878442 -0.09862151 -7.7694874 5.1713676 0.80907 -3.034581 0.8981401 10.852882 9.362889 2.187703 -0.7495172 -1.8681562 -0.32440826 -3.951943 -2.685215 1.2004927 -2.804575 -6.238763 2.1818094 -4.9369197 -3.1799111 6.553101 -0.15599087 3.6049051 -3.70953 -5.681334 -7.2488017 2.6456614 6.153377
1069 0.48986393 1.3298705 -2.59091 4.151736 1.258401 -0.847214 -7.263739 -8.96801 1.4631206 2.2911246 -0.9939179 -11.891296 -0.7665054 -4.628876 0.30126318 5.51739 1.5857801 4.6745257 1.6060169 -7.3244205 1.9311587 6.476662 8.451131 6.148151 14.561715 -1.6010642 1.6381342 3.7828019 2.5901272 3.9664328 -8.483756 -1.859371
3316 -2.7269392 -2.598623 -0.70666957 -5.1054363 -10.666059 -2.1425614 7.0312634 -6.5467634 -2.849735 -2.6648538 9.423473 -9.28186 -0.15317732 -0.97319394 2.5033438 -0.12397277 1.1821058 2.5300963 -0.10494618 5.3944592 2.5734527 5.178516 8.513492 1.5226628 -3.6284792 6.0442696 -5.997645 -1.006216 6.4577236 8.204717 -1.6797605 4.3928623
69 1.1751511 -2.5334334 -2.9133108 5.31224 9.131592 0.0021116233 -5.998508 -2.9507923 -7.534349 3.480704 1.1341516 2.0387273 7.435687 3.7277362 0.5099275 8.037325 -6.045329 3.0317361 14.034247 8.607751 -2.762163 -1.251905 -4.866106 2.3053677 -9.287162 -6.2205453 4.3276124 10.493677 5.221431 1.5949119 4.166551 -4.538001
4210 -0.6711596 1.1250336 1.6076698 8.741124 4.1242056 -6.3555355 9.683175 -0.92916226 -7.063859 3.8023355 0.30167833 -8.548458 -0.21769914 1.8573173 -2.0933347 0.85416067 1.0229523 9.73902 -1.702661 -5.9296193 -4.182264 4.1995063 0.24894378 -0.007701156 -1.1057142 -1.6644357 3.185186 3.5657954 3.0144188 -8.686375 -1.5709308 4.4110837
3762 3.1481256 1.4953464 -4.0673323 -4.816706 -0.022228202 0.5066779 4.653576 -1.5682971 -3.8538678 3.9323962 0.65330935 7.336124 4.990317 4.2063465 9.413909 3.5558398 9.826127 5.652293 -13.136975 -4.1870046 -5.847104 -1.4543225 5.0185204 3.0999112 1.0403901 5.5480313 0.3067208 0.71441 1.983425 3.2936385 4.568533 7.7010245
1072 0.5396742 1.1968336 -14.240333 2.5253453 6.495618 -10.2200365 8.783295 7.5286756 -8.866709 6.0350366 -2.6399338 0.80020666 6.1288886 8.672674 -6.45755 -9.002089 4.3964124 1.0410098 0.5903466 -0.20894502 7.051473 5.534559 0.5557201 7.3263435 1.9304029 5.3386664 10.352548 -4.9902864 4.6736197 -0.4947469 1.7335867 -0.4052328
1353 -4.5755997 -2.1357818 -0.4316975 -2.0752983 -1.9652694 -3.3814986 1.0969887 3.4083238 -3.2561283 -7.571297 3.136483 -4.3716574 6.2406273 -4.8519664 -10.726729 4.195432 4.930631 1.6009991 -1.7447104 -10.288954 17.137093 0.45347923 -5.481915 2.4734552 -0.2097311 4.244517 -3.1310742 6.229874 8.890633 5.635327 -2.1379573 -3.929742
2596 1.1071934 5.6799884 1.1433803 0.27216533 -10.489535 -3.4883118 -0.15434575 2.8153672 -0.5024138 -6.09323 -1.3132226 7.1433315 4.2403493 -8.528454 -0.3959926 -4.6368275 -6.486906 -6.5619226 -2.7140298 7.8197494 -5.1194763 0.67629534 1.493713 0.7305512 -3.7537768 5.7755213 17.375498 -6.0946126 -9.064307 0.32252663 -4.400801 -6.2976146
2485 1.358119 -7.750846 3.192297 -4.7419844 -9.654796 1.0968055 -5.0589423 -5.1439753 3.483396 -2.006961 -6.488075 -8.002511 2.5063274 6.0759935 -2.668654 -11.251318 9.749811 1.6529534 3.550715 -6.316014 -1.8566946 4.3200307 -0.7037309 4.898676 -11.957875 2.9578633 -0.47318825 -6.503043 0.48705497 -6.661949 -5.184284 -5.543327
4317 1.2813891 -15.046019 -2.0937445 -1.5350434 3.283905 2.4012823 3.1968431 3.5658576 -0.4811396 2.0272038 6.748273 -5.593644 -0.68362164 -5.036056 -6.1052084 0.38106614 -12.553432 5.5965905 3.7395627 -6.9935126 -2.3854146 0.14238967 0.25845847 -3.8276114 -2.16489 -5.8226814 -5.6491404 -3.9609385 6.7126174 0.6129056 11.778797 -0.60240823
1206 1.9317034 0.1446691 -1.3549473 -14.739876 4.9693346 0.47786134 -1.9509101 -4.666276 -2.5045197 2.8027375 -7.3675995 -2.3980353 -1.1896844 0.3266173 1.8149908 -1.4746931 2.9192646 -3.7021518 -2.6978257 -7.136932 10.410913 -8.187105 -2.8275087 5.1909122 6.033472 -4.0543814 2.83643 2.7527716 -8.139133 -0.7336411 1.0316046 -5.2292776
726 2.6274073 -1.3822978 3.392698 -8.335839 7.894391 7.8945694 -0.9034333 0.04698734 -5.706739 5.4979568 3.2728927 -3.3367963 -6.656709 -0.29100645 11.030079 7.650496 5.1095767 -6.669422 4.8138113 3.5923085 -2.2365685 -2.9697475 4.5125566 3.3466926 -7.863567 9.395742 0.2691622 -1.5581785 12.966485 -2.7217498 -1.5048474 6.435514
1442 -0.6985867 -1.2291186 -8.139502 -9.750682 -1.7396919 -2.148569 8.589971 -1.425718 -11.639645 4.6863008 3.3746507 -4.76115 7.129276 2.1676123 -9.478283 -2.877086 1.9488082 5.30444 0.19335644 -0.42519245 2.6799836 8.915424 1.997947 -1.8135855 8.154256 -4.252218 8.819899 -4.959505 -7.4653835 -1.5582525 2.4042408 2.6937504
2932 4.7267704 -5.3257313 -2.5010073 -1.0849447 -3.7868252 2.6764731 -10.408763 -3.0254207 2.663762 2.2619812 -2.834269 -5.8281207 -4.5743694 0.36284634 -7.1640625 -1.9468855 4.0822215 8.135461 -5.5916004 3.1586664 -0.06329847 13.327197 -5.075637 3.388407 -6.3212686 0.6328114 -2.9180028 -6.9976115 6.5904613 -0.4042 -1.8201946 -4.300835
1356 5.6054854 -4.8078365 5.3052187 5.6219206 -4.242004 -7.6384745 -4.2373023 1.3665953 0.5385658 1.7256461 -7.8134894 10.615562 1.8096249 -1.1471952 1.9379356 -0.3471469 -0.96506864 -0.6479479 -9.78775 -2.1721106 -5.4598575 5.307119 3.1932845 2.3460555 8.932516 1.3553079 1.4865694 1.6799676 4.338432 1.6588304 -2.676484 -5.1922493
3005 4.8986917 -0.20900801 5.731916 1.5560648 -4.7750206 -9.0652275 -3.7728815 -6.270367 0.5367233 -0.2490028 1.2809453 -6.2635994 1.7561395 0.04199654 -1.0118579 0.7042224 8.635965 -6.555979 -5.151961 0.40817583 0.51519126 8.025939 -7.765659 4.177099 0.04941996 -9.708091 -4.302017 -5.409762 3.4751477 -2.8302524 2.9673617 8.619822
2645 3.0560234 3.7255151 2.906354 -6.158208 10.686975 -4.744401 -4.3614326 6.2597504 1.6808668 5.299429 3.4107985 4.750851 -10.964219 2.3868375 1.4696714 -1.6978981 -3.147274 8.762987 -6.744105 8.402636 -5.2653875 -1.1750152 -2.919267 -1.1895549 2.780035 -0.8533243 -1.4898262 -2.4708364 -5.652377 0.65209395 -2.1004622 -7.121387
3467 -0.34325463 0.43083832 5.616065 0.704137 -11.987403 -3.7839453 1.4078604 -3.5923648 -11.716486 -2.8102827 5.4408855 -5.087113 -2.7911613 0.83284605 9.456841 7.041874 4.354709 7.466802 -1.1259459 7.389494 2.1595967 10.125219 4.253885 0.13814771 0.35283569 6.5931206 -0.2282984 -1.543172 4.210282 8.327573 -0.3131089 -1.0063844
413 3.9596112 3.3365107 3.7474873 -5.537445 -4.403287 -3.0340233 5.4896703 -0.24164608 -9.369168 0.7072018 8.369315 -4.9989424 9.867388 4.290547 1.7415264 9.401365 -1.8681608 0.57039994 2.953453 2.9009397 0.91454154 -2.324807 2.2709894 4.4755626 -0.76436085 -11.10428 6.608516 -0.02831807 3.315143 -3.6943583 -10.374907 -1.0852993
4395 -2.4308722 -5.875755 6.682759 -0.8448563 -4.248575 -3.9600976 -6.612766 -0.4008968 -0.8442612 2.5380435 -5.904216 -4.0910487 -4.6556916 -3.5121136 -4.186467 8.642305 -6.326768 -0.10006784 -3.9795604 6.1563463 5.448232 -2.6815634 0.32802194 -3.695123 4.34034 1.2212701 1.0244365 1.94971 7.2871203 -2.790447 3.9206562 4.3426127
2530 -2.867146 8.898057 2.2615254 -1.4997475 -3.6687875 -0.45539612 -0.044347346 3.962264 -1.6834054 -6.890111 -5.087141 8.385795 3.3990881 -3.3348978 -8.062733 -4.903037 0.09703514 -7.793318 -8.2916565 4.2591205 -2.299487 5.154562 7.772201 -4.373251 -5.851944 0.5085449 5.9935203 0.051509887 -0.9216576 5.1935897 1.6003064 -1.1560766
3797 -1.9601711 -4.954927 -5.671751 -5.5842724 10.728638 2.5945382 -0.06177568 -1.2867566 -8.52569 2.826594 14.753096 7.6447816 5.641696 1.6011394 0.36052734 1.366283 -3.4371018 1.4540911 -4.062784 5.5190144 -5.4123116 -0.38602895 11.616625 -4.5651426 6.2826266 3.2966235 0.67041016 -1.4066231 8.620844 1.0431579 -1.2661046 -1.621527
4279 7.1407084 -5.3391137 2.7753127 -4.0795975 -6.3031664 -2.5625637 -3.6408486 7.834408 -6.889687 -9.6391325 0.52055573 -3.843791 3.3886805 -0.1850074 0.15457557 -4.4428487 1.8896294 -1.0289049 1.8217278 -0.38457203 -9.479792 -3.097332 3.4842567 -6.6213303 1.0997 3.4255972 2.635764 -1.3881682 7.935797 2.4539728 -1.2686379 1.5111866
4651 -1.3274599 2.8775823 -6.0089407 -0.64953965 5.4737425 -2.7032583 6.952286 1.6120187 -0.19859631 -5.076451 2.1283803 2.191016 3.5377004 -2.6427062 8.338656 -5.4186378 4.5949283 15.906037 1.2094291 3.90322 -0.53006697 3.8902972 -8.288328 0.40044492 -5.900158 8.026837 -2.4371967 7.816971 -4.5085406 6.1028605 2.4989371 -5.8278737
1528 -0.082274325 4.1790113 2.842048 2.9875076 2.1620576 -1.4493923 2.1893609 5.3197174 -5.013054 -8.647953 6.2882795 1.8626068 -1.3851027 7.364322 2.9532871 6.4509635 -4.383086 1.0327054 -11.592645 0.10017264 -5.171984 -0.0710403 4.67696 1.1300218 -7.8588 -6.734004 -10.871654 -3.7570257 -1.3597146 -11.486381 3.7688906 -1.1718745
539 -3.5601342 -6.3811903 -3.9905257 6.474747 -5.4685225 9.690597 -0.065422885 -2.6510837 -6.893907 -5.584174 4.459817 9.886511 -4.1444635 -2.1913855 5.534501 -1.6723984 1.3017818 -3.921089 2.4716277 -10.13499 -1.4989026 4.9456453 2.37043 -1.9221963 -7.9492793 -4.167856 5.3209558 -0.6995709 7.435153 5.608436 -0.13187338 2.3709154
4154 -1.1390318 -1.4246548 -7.384044 0.54637516 5.600194 3.331285 -0.7784269 -4.868015 -6.2678413 2.8598707 -6.8515096 -4.6823163 -5.5801854 -5.916329 5.6674447 -1.0389189 -1.1222109 -8.350745 8.217008 5.638959 0.4216598 1.0059739 4.6080413 -3.1270428 4.419966 -7.978689 0.14278343 -9.787093 3.72878 -5.640635 3.3489373 -5.919498
2880 8.0710125 -6.196342 -9.00863 -2.1747339 -1.0433196 -3.0123603 5.3714876 -13.619293 5.2684402 -0.41098863 -5.3027515 3.8615654 7.6395173 -2.5954683 -1.3489344 0.97183406 -3.7676835 -3.612554 -2.4403822 2.6292734 5.9303093 -0.27203956 1.2728854 -4.8488154 -1.0388625 -0.61943686 6.8681564 -2.676039 2.3833601 5.440243 1.5635314 -2.1951506
316 -0.9880029 3.282848 -5.799017 -0.5989305 -8.742239 -5.5212564 5.0390253 -2.656977 -0.3263965 4.5816298 -2.9575338 -9.851615 5.931017 5.367008 1.9021696 -4.5985045 -0.0038267171 -1.6494699 -1.275743 3.0337937 3.4176562 -13.693716 -0.14278816 -7.5998044 -2.1043735 -0.62303877 3.7423294 -2.5386717 -5.5760064 0.3118948 4.5976925 13.934805
4164 4.2379704 -12.601395 -5.850889 -3.8465765 -0.041829094 3.4221098 -1.7952247 1.394646 -5.531556 -5.110654 6.406754 -7.510511 0.9800399 1.9464703 -2.3358893 3.3759685 -1.5465478 -0.78489685 3.8092017 -11.722052 -6.271544 4.4700775 2.284992 3.42582 -2.1359189 -4.8092685 -1.2702366 -0.014835859 13.801273 -2.2080402 13.594422 3.9016063
548 -3.6403763 -1.39213 -3.3341372 8.285116 1.729774 2.0885236 2.5478725 -8.22141 -5.659802 -8.4734 -1.5600165 0.43133324 -0.6470915 -4.603536 -1.7739887 -7.5176697 7.9632983 5.3232803 0.465863 -3.11914 -1.4753782 2.3561149 5.7313514 2.554713 -1.0838336 5.278268 5.0501404 3.2514677 5.103098 5.338262 10.263607 8.9101095
4373 -4.7367187 -6.9387183 4.8712635 -5.4408803 -2.477335 -8.298657 -4.2947097 -4.9827447 2.7022948 -0.8534668 -3.821783 -3.2283993 -3.8786962 -5.4782186 -4.517717 7.376967 -6.5599737 -1.4445839 -1.2634189 5.4981666 3.3400967 -1.1518654 -3.5101264 -3.9863868 0.7659017 2.579414 -1.1226604 1.1448131 3.947645 0.9366346 1.1062436 6.6387014
2760 4.8223696 -5.1972423 7.502849 1.5527513 6.5046086 -1.1446848 -8.450125 -3.7156422 -1.3127601 1.9727651 -3.5748081 -4.8333426 -1.695416 3.4325762 -3.4344606 -3.9999597 5.138595 2.5643895 -4.736346 -5.6096883 4.706107 8.374472 -8.15261 5.0630393 -8.301448 2.7507052 -2.1223261 -9.095569 4.782329 0.7399056 3.4872673 4.435245
4157 -5.0332136 -8.552066 -6.2600627 -0.27880052 -2.5677018 2.9214232 -2.6420517 3.4048138 -5.446152 0.4233437 -5.9178386 3.3903718 -1.3803211 -7.990919 -3.5254633 4.298594 -2.131029 5.0071025 8.99549 3.1771724 -5.5240912 -1.344309 2.0044057 -1.560935 1.7968819 3.1337457 -4.375123 -6.5905333 6.4750857 -1.3208549 -0.04776046 -4.6168704
3781 3.0899243 -4.361461 -1.4119263 -2.6344006 14.579906 1.6268778 0.9401288 -2.4731016 -4.7312384 8.724857 10.531317 -1.3747092 -6.2041245 1.7166085 11.245491 8.556726 8.519759 -5.434124 4.1224804 3.8604286 -6.210784 2.087209 6.043473 -1.0619818 -2.5954978 7.6866593 -3.0181837 -0.46488273 8.66373 -8.413816 -4.3220363 1.1781754
4138 2.2563684 -5.4300623 -8.642362 -2.422606 1.2745209 0.6979735 -0.7395774 3.785792 -2.3957958 2.530558 -8.092962 -1.8477135 -6.411478 -9.1865225 -3.8666034 1.1079948 -2.2195141 -1.2143613 3.8594825 3.5274744 -3.4861047 -4.0957446 3.6313274 -2.2118685 9.822983 -0.79084855 -1.2398142 -14.76779 9.178492 -4.672941 1.9370881 -8.121524
2798 0.2786268 -4.69392 -4.148662 8.976659 -10.021618 -4.834802 -1.1576126 -0.26870996 0.60286236 -0.4923177 4.0220494 3.8016832 3.7211282 3.0297785 1.2728037 1.9328158 4.979692 0.8643112 -5.584266 2.5444078 2.213236 2.27352 -2.2645648 3.3609276 -5.7311935 3.865799 -0.6226492 -0.8595697 3.6168127 -4.2634635 -5.062843 1.9451967
1416 -5.8636937 -5.1146193 1.5538632 0.24457866 -0.33648157 -2.2716036 -3.4607232 7.8413954 7.060237 2.4119642 -4.198226 6.4298773 -2.5942843 3.1815548 7.919751 -1.8885583 0.23316301 -10.406584 -3.0679328 -12.866509 8.832454 3.8747852 1.2626041 5.836016 5.225139 -4.6691475 -6.3772445 3.1742592 3.4274905 -5.6346636 -5.6145215 -0.95720834
4727 -0.40679651 5.942885 3.3394926 2.8443525 -10.838097 1.9068832 -5.184653 -3.2866025 1.4139924 0.84827447 6.3790555 -2.1563032 -10.028509 -2.884173 2.9438128 5.393567 -1.5402906 -3.8808012 -1.6760502 4.175183 -2.1102726 -2.0090668 -7.1618896 2.0381174 -6.266021 0.4162807 7.765408 10.73929 0.28119853 -5.745688 7.57479 0.6712796
2852 2.5185034 1.5460056 2.0910988 6.8711767 -0.7957408 1.0453826 2.1655898 -4.24782 -0.65713763 -2.2246318 2.9961843 -1.8432177 3.9817092 -4.72711 -8.718977 -5.651326 -2.5796714 -5.229803 8.2832155 -4.0617895 2.2998555 -8.239003 1.2879174 1.1403551 -6.235515 3.8729622 3.4668126 -6.266953 -1.384996 1.5019523 0.27829266 -3.7504642
2781 -0.12538773 11.377028 -0.85582274 3.431721 1.4269102 4.4770885 0.018697629 -0.1131237 3.5752668 6.5789685 -7.715852 0.85322434 0.46242496 1.8967035 -0.3661589 -2.6794639 -5.8622746 4.2716274 -4.051428 -0.18116005 3.169381 1.3285824 4.7701354 -3.853124 3.6703312 -5.8660502 4.794456 8.761768 -6.896786 1.6434389 6.018384 -5.343079
702 9.159609 7.8552337 5.4412184 -6.0236993 5.558834 9.869822 -3.3184571 5.552686 4.436085 -2.4862392 -6.5501785 -5.3786855 -4.8568883 -2.485708 5.552628 7.028739 0.31989765 8.573255 -1.0109401 -5.161549 -9.142425 3.99744 5.511316 7.195182 -0.3602483 -1.9753656 -4.180738 0.83293426 5.4439692 -0.31379914 1.9827824 -2.7261722
1489 3.394711 -3.276507 2.5295184 6.639475 -2.2547698 -4.896408 -5.878291 0.78475064 -0.5122288 1.2253059 -6.5429735 12.911409 -2.171038 -0.7994087 -0.54388803 -2.0006793 0.96838796 -0.78479636 -3.6978424 -1.4644694 -7.335179 5.772432 -3.0349145 5.0497975 7.2295256 -3.0364134 4.119168 5.8760223 5.691903 -3.3630154 -5.9981837 -7.01971
353 1.8996956 11.395466 -6.386857 -0.6746996 -2.537675 -1.7904053 -0.19349049 -7.673114 -0.7019075 -0.39654043 -1.3173528 -9.141017 -0.13805439 -0.7044334 0.5040188 3.7526298 -1.6704628 -1.5773268 1.263428 -1.8783869 2.7188568 -4.6601934 -4.5523667 -3.1415594 -7.1229677 -3.4675124 1.756541 -0.5786883 -7.3185673 11.648203 1.1889497 4.4640036
3785 6.019791 -6.5233135 -4.9124036 3.9017189 9.435961 2.4592562 2.948061 0.5635449 -7.1132197 10.267048 14.737981 -1.5182755 -4.3106403 -4.762549 7.291605 3.4278824 2.866747 -1.7039555 -7.848431 -2.8622134 -3.4500468 -4.4329896 3.9464607 0.06587827 1.0211099 8.576154 -5.375353 6.189316 8.581344 -1.1166899 -3.0046008 -2.726591
3863 -3.61669 -0.1749937 -2.8723502 -7.4140754 4.9630566 -6.143446 2.054678 -7.898408 -6.794377 6.726424 7.9494243 4.9697733 2.0648534 4.4055467 0.5712324 2.5977342 2.9413285 -6.922008 1.8143932 -0.4628628 -3.5088074 -4.541766 6.0347276 -11.592342 10.061124 5.9966636 5.2382345 1.1591028 7.327594 -0.88521737 -1.0758142 -6.346398
1159 -10.336561 -4.157919 2.3484735 -2.6337678 1.220885 -2.0879893 -1.2708726 0.6069181 6.755515 -4.136989 -8.977946 6.3008757 -0.24495935 2.2879982 3.4984534 1.7793617 2.5732172 -2.5633535 -5.412902 -12.949961 9.391372 5.9697785 5.933852 10.98053 2.218623 -3.7598908 -13.723198 0.87935275 -3.0316353 -3.6682572 -15.432698 0.2962737
1461 -1.4271996 -0.9456633 8.458253 -1.4490017 4.886315 -4.967297 3.048853 -10.224305 -8.855659 -2.2174456 -7.2531977 -0.0025928465 -1.2406102 -4.044451 5.075368 -1.5177966 -3.5890324 -10.145597 -1.3932303 -11.379118 -0.29712698 -9.455108 -3.5491083 4.345299 0.17596093 4.7027845 -2.1296208 12.701428 -1.9936035 -1.8129077 -3.5353794 0.086189516
1371 -4.9400544 5.847312 -4.3429317 -3.1211827 -11.723659 -0.6811116 -2.0353932 -3.7511055 0.11600385 10.403994 -8.461027 -8.433523 -3.814732 0.30134174 3.1984916 3.455978 1.9340086 -2.984841 -0.57203144 -4.3002462 -4.8518343 1.9741522 11.852993 5.7979836 9.318533 -0.3475392 0.9989114 4.072695 2.5777411 0.43207544 -10.001355 0.5568421
2327 -0.8912499 1.9113512 -3.5915244 1.3915898 -5.0298753 3.8511777 7.6461186 6.0636187 5.299345 11.822248 5.4417396 7.7892284 3.7326603 -0.18449527 7.445839 7.106814 -3.2953486 5.098641 4.5269203 -1.1232764 1.6730088 1.5812545 -4.913687 -5.4804883 -3.0748885 3.2690144 3.7611592 -8.207707 1.9115633 -5.5644565 -5.3127737 -8.548391
2627 2.7005033 2.394303 11.310452 -7.497642 -1.1754978 -0.23043446 0.47676992 1.985734 8.195147 -5.110144 0.95337766 5.9147444 -4.7329645 -2.2693985 -7.2601147 6.9901614 -9.5914135 4.1612606 7.6342716 -0.29879716 -4.681275 -4.314307 0.9979887 -4.7083154 5.7468357 -0.2293873 -0.160564 3.5175657 -6.8517733 0.45826197 1.0471882 -1.3635261
4041 5.4052424 0.50336754 1.3943217 -6.571455 -3.1484149 7.8317184 1.4544374 -3.6862686 0.22678837 -1.8147539 3.2061212 6.9786615 4.5681214 1.9052418 -6.448972 -7.374664 -2.5379941 4.4919624 2.0433428 -4.0912595 -3.2413456 2.9578056 0.1079715 -3.070162 2.20644 -12.7803 -2.215799 -7.26309 3.1678522 4.5397124 -1.3550979 -10.209975
2740 1.2140538 -5.5319867 2.321927 -0.9717659 0.6574804 0.5715967 -5.666356 -5.830111 1.4654601 -1.6005214 0.5260311 -3.4282472 -3.9481847 1.1079801 -3.1805782 -7.113283 5.5896463 7.399676 -7.274787 -1.8434108 0.006368769 8.068645 -8.434548 1.177891 -7.670983 7.543137 -3.626561 -8.2708235 10.145011 -4.0355124 -2.2267725 -4.2458835
1685 5.403075 0.22357303 -7.136337 2.7633772 11.560381 -10.48806 2.2442193 5.896798 -0.2565343 0.7304183 -7.7275224 -7.8756256 8.84589 4.1224484 -0.8121929 3.3766265 12.491362 0.02027849 -0.46787277 -5.785755 1.1207428 2.8029208 8.718095 3.8279963 -4.991769 -4.0188336 0.4787485 -5.3675156 -3.039728 -0.7878299 -1.9745513 -0.11742853
4332 -4.341154 -4.681621 8.957558 -1.3035848 0.7570818 -2.241439 -1.9436119 -2.7856364 3.2798603 3.0582004 -3.9755292 -0.3204835 -6.7628098 -1.1869605 -4.3094087 8.936651 1.7099359 -0.96636355 -10.504505 3.8252888 10.487265 -2.082581 8.423958 -3.291475 0.6714747 -1.1626571 0.4573309 4.2862997 7.510477 -3.5528982 7.743078 4.346677
4538 -3.4346159 0.18687536 -4.299881 7.7545753 0.46446034 4.5417585 -1.2734036 5.646109 -1.291449 -1.1978805 -0.20426422 -5.126073 -0.5577021 0.58836675 5.0448604 -5.1198587 -4.3341074 7.319175 -0.032969266 1.0068731 0.7228378 7.366566 7.0074997 -6.69932 4.700702 4.002391 -2.2672005 0.8774536 8.500542 -6.24855 -10.981241 -6.2908072
68 -4.300031 -1.0774224 2.2353053 3.438176 4.107901 0.029630126 -2.167316 -6.1716347 -5.0964165 2.6311326 -1.1959225 4.5992846 4.136338 4.7151046 0.7387543 4.0983534 -4.20252 4.71843 8.816439 7.7609963 -2.7968352 1.0601718 -8.6552515 3.29137 -14.615692 -1.0221113 -1.7535311 4.5509534 6.3019195 -0.78783005 -0.71032196 3.4447143
1953 1.2541115 -8.580699 0.025359426 4.263058 -0.3241383 -5.8923836 2.1065133 -3.8598146 -3.103748 1.1158314 -15.217197 -0.3376681 3.3006914 -9.584418 -0.2687246 -2.925466 4.8285093 1.9519432 1.2078948 -4.0964704 -1.4027926 0.17049265 -7.5123496 0.48047987 4.123201 -1.1008354 -6.2894235 9.047696 1.3380451 -0.05080326 -3.261836 3.677048
587 3.958915 0.33263743 7.322923 0.99104327 -1.4075818 9.819125 -0.6433317 5.2573557 1.2039797 -2.8749635 -0.7887991 -2.928381 0.086367846 -3.3158789 0.40957206 -1.3496565 -1.6047661 -0.70187885 1.935994 6.081413 2.919994 7.8332367 5.886004 7.241236 -8.514512 -2.490323 -2.719811 5.431975 8.402369 -3.377772 3.7729542 -0.94050604
1313 -5.062067 0.47460538 -15.7926655 -5.1597958 0.15716855 -7.358183 5.020898 -0.62915325 -4.9386725 6.063271 -5.494357 -3.2852156 9.500497 -0.04545535 -2.0104375 -9.602554 2.279373 -0.8673368 3.7471507 -2.9783804 0.8735781 11.424211 -3.1131492 4.0270276 9.787649 -2.4125953 6.691858 -3.5461633 -1.4114106 -1.7808311 -5.0639653 -1.7555373
4359 -6.7320275 -7.9174414 9.530975 -0.293234 -3.901786 -3.9834945 -7.1837215 -8.000024 -2.002831 2.3647726 4.279658 -5.7771997 3.6817136 -4.907937 -0.2886124 8.947008 -2.5380476 -2.4169211 -2.5187197 1.5791461 5.0018096 -3.763924 2.543234 -3.8324003 2.736051 2.9021096 -0.70835745 0.65536535 1.347195 -4.9929857 2.85385 1.5052092
4162 2.28075 -4.539339 -5.1413064 -4.959794 4.4427166 -5.76874 0.76641583 4.4502196 -2.1089742 3.0353234 0.39343932 -10.184049 -4.019842 -5.576589 -4.108634 6.4225154 -4.827026 -0.42474976 4.8191957 3.978092 0.37493727 -5.6281905 1.5602217 4.3194566 8.05022 -8.726522 -2.9038715 -8.129992 1.809917 -8.494002 2.8168674 -6.8715878
720 9.075308 -4.2254252 -1.402377 -5.538152 5.082707 2.2046778 -5.8493347 4.858752 -2.4116318 0.8931462 -4.468607 2.3691635 -1.7299755 1.3877856 6.0639873 9.136275 -0.64603543 -0.61284524 -0.24758656 2.913452 -0.5735493 0.3569362 0.55124164 11.770835 -5.2142944 5.319018 3.6210303 3.3738227 2.1525517 -2.1218922 -5.4894357 2.091714
3331 0.681891 -1.7068614 -0.9088989 -5.204939 0.33534217 4.0795712 13.238876 -7.4851227 7.4385176 8.599071 0.10090664 -4.8929896 -1.2798368 -4.2335486 -0.5854396 -2.7095282 4.232117 4.671523 11.524019 5.4070296 0.6616624 2.5140624 3.2093048 -0.9672551 0.4675105 -2.0683672 -9.148565 8.218342 -3.0496638 -5.1262794 -6.0329056 -0.107724726
3299 -4.2561765 -7.592797 -1.3291546 -5.4773226 -0.3907348 8.951837 -1.6867193 -2.5738466 -0.6057549 6.694216 -2.1908638 -6.5910325 -6.798685 -4.8933225 3.3716078 -4.4051456 -0.25262666 5.1509423 5.228846 9.253315 0.4087143 -0.6480718 7.414726 1.0707322 -0.7518216 -3.1265717 -5.3907037 8.430446 -7.247902 -1.7354827 1.5437573 3.8288388
2687 -3.0316055 3.706992 1.5431573 -1.9959369 -0.7616085 -6.787355 -6.626739 -3.6339169 8.589104 -3.4210002 -0.44822085 -2.4963055 -1.9870735 0.08935652 7.0431633 -0.36485612 1.0008371 1.0427291 1.3478521 -0.039703753 -4.728578 -13.152131 0.9334371 6.8127985 -5.5455523 2.7409267 4.9469566 -6.6126547 -8.537242 -2.5263608 -7.4672656 -3.232719
4500 -4.986372 -3.684315 -1.2672 -9.628656 -2.0699651 7.019242 -2.9947443 12.0413685 0.6708283 1.3332918 4.4219203 5.580724 -2.9614315 5.203962 -4.296762 -6.8985496 -2.4817119 -4.315179 12.143767 -0.67680466 3.388609 2.9829319 3.3670876 6.559606 1.5937843 -2.871778 1.4527838 -4.67765 0.36095077 -5.5752535 0.5115842 2.5160222
4346 -0.05531541 -7.9110527 3.059066 -1.3889484 5.039176 -5.5367146 -10.140278 -5.4269667 -1.910086 -0.69910467 -5.171961 -2.0103426 -9.259368 -5.98501 -4.1372247 5.980738 4.3671937 -4.9843044 -4.085035 8.794816 9.843785 -5.362652 0.58801943 -0.8134015 -1.0688285 8.514462 -1.1704878 1.3290516 -3.6302524 0.37250778 2.5445971 2.2607455
2388 -0.1298016 0.04069107 0.29094434 4.892879 -3.806677 -0.2500798 8.664401 7.343404 0.22268055 7.9123654 -0.32665828 9.923717 3.7856572 -3.7344291 2.9898603 5.6784296 -1.8674713 3.9939425 4.2210035 0.84943175 2.6523852 0.3803171 -8.967751 -6.85983 -6.3044243 -3.6551023 1.7372202 -5.819785 5.6291504 -2.052942 -1.9571053 -12.095159
4381 -3.3834147 -3.3894567 4.9239874 -2.0053928 4.5419474 -5.1162677 -1.3422585 -6.495737 5.471533 0.24568649 -6.7632036 -1.6304404 -6.3526144 -3.7214518 -2.0196037 5.986217 4.8174024 -2.303168 -5.938953 6.498557 10.119307 -1.6316388 6.0608153 -2.2695582 -5.18776 4.6861825 -0.6371248 2.968062 1.693103 -0.29336065 2.9633768 0.017654728
4384 -1.5519497 -1.9661008 7.421911 -5.4319844 4.3049126 -3.1923652 1.6827102 -1.1169624 6.3350987 -4.7114396 -2.8685944 1.6324172 -4.4122734 2.2110631 0.014816735 3.3010268 2.114288 -2.895494 -3.9381459 0.3573074 8.309012 0.15965568 9.952607 -4.16774 0.023401674 4.0877266 3.622304 1.6309476 1.4554406 -0.68250203 3.895625 6.256471
4652 1.714985 8.596219 0.37118423 5.790277 2.2710931 -4.5927477 5.9695296 5.113785 10.596261 -1.6911117 3.4406972 0.39155385 10.024915 -5.343045 5.2954316 -8.873401 2.5834055 13.110711 4.208728 4.468185 -4.4822206 4.18329 -5.975809 6.0753446 -6.36411 10.955186 -1.6224806 8.337356 -1.2104317 8.334852 1.9243604 -2.1486082
692 2.332624 4.847074 1.2553856 -8.233523 4.986601 8.780311 0.18605822 2.7456045 -7.090738 4.8408885 -1.2791092 -2.546757 -6.68208 3.559024 7.544468 0.92581177 3.7489944 -5.7076025 7.5456305 5.711551 -0.06643578 -6.7687173 0.31793436 -1.7729851 -7.6643515 6.654759 -2.3332229 1.0062503 10.0264225 1.7563297 4.214182 6.132509
313 -2.393738 7.4168987 -2.386506 -1.1301901 -3.3749652 -3.5151265 0.58130723 4.389558 -4.3897195 -6.46741 -2.272188 -8.874877 -2.1934087 4.5680847 0.566454 0.49832353 0.7615774 2.7170596 -1.0900416 4.9472084 4.0146313 -0.892372 -3.9448895 -6.4026113 -5.587414 2.6466215 2.9887016 -5.8649006 -0.731267 -3.9867587 2.9419594 3.6363852
3320 -0.43849 3.5574307 1.5992656 -6.340688 -2.605551 -0.41076297 -2.685893 -0.7588447 5.8623123 -4.521739 7.636572 -6.199386 5.1251817 -0.665833 3.56818 -0.0046532936 -4.485593 -2.0400267 8.384529 1.0658416 3.7142963 5.2380958 4.2974405 -0.3714299 -2.0994413 2.8092358 3.3233185 3.8947227 0.6117228 5.498883 -0.69921714 -10.209242
2606 7.4059224 6.7606754 -3.4861476 1.4928753 -2.360039 9.008022 0.8418919 -1.782972 -8.136132 3.343746 -3.68305 -4.1822224 12.263235 0.4210476 -1.5701401 -0.8060075 -3.4491246 0.83748084 -1.2715425 0.9403052 -7.507238 -0.5954283 3.3798776 4.5239377 -4.9053397 10.906382 -0.7127228 -11.475264 -6.4858303 -8.569106 3.2647123 -4.3211565
3017 1.6470697 -9.005393 10.822732 0.4331791 -6.634954 2.2673774 -4.554449 -0.31047067 0.7738711 -0.36628118 -8.270387 -8.116965 0.004908676 4.148488 -1.7922283 -11.523496 9.163806 1.1716441 1.7150003 -4.980647 4.777406 3.8676424 -4.427094 4.2922535 -9.855155 2.1152866 -5.817915 -8.683962 -1.4318537 -6.543571 -0.7589906 9.582209
2724 -5.7854476 6.2532177 2.7627525 2.5040221 -2.0492506 -1.9066232 5.668235 0.102086164 1.8291633 -3.5580394 -3.6801777 6.948901 -5.254741 2.9025662 -2.862026 -1.5438114 4.1748095 7.9295845 -6.338519 -5.5748987 2.2330186 -6.1932654 1.0414412 -2.6371672 -3.0590684 -0.37569696 3.7880082 0.7478563 -0.94274837 -2.1349993 -2.4038656 -2.459467
4352 -3.2548065 -3.3088002 1.792201 -6.48814 2.450909 -2.983405 2.243439 -2.5598242 5.882555 0.8373196 -4.365896 -2.2583506 -5.9378595 1.2922367 -0.73070496 3.2708595 3.3508143 -1.8059161 -5.621073 2.4914157 9.575306 -0.6421396 10.547073 -4.8194475 -3.6667643 5.0903726 1.0277866 1.0970045 -0.8073382 1.6713717 2.833308 5.85122
3957 9.474874 5.2844605 -3.0549934 4.6310177 -1.1522287 1.5630764 -0.2612917 -4.0976815 -2.034642 -3.9043822 1.2799549 5.6525483 1.7487823 6.3875494 -13.635529 -2.26946 -1.8126152 3.272158 -6.507816 -6.449494 -4.0858693 1.5488089 2.883298 4.8786507 5.163901 -7.4761715 -5.693349 -7.1612053 2.6347117 4.141843 2.3747199 0.9839365
1323 -7.0759425 6.6761055 -1.6021601 -5.172981 3.8438284 -1.4410216 4.516357 -4.9588604 10.098421 3.1997228 1.0643036 -1.8031253 2.7264373 -8.432938 -5.475954 -1.0328256 -3.999355 -0.134863 -5.0680647 1.951367 -1.5481148 16.36746 2.081696 7.623787 5.6538043 3.2737343 9.080949 -5.484123 0.15731622 -8.289371 1.9327524 12.530906
36 -4.635062 3.1555145 -3.25266 4.8119755 -3.069159 -0.5422109 -2.3542845 2.7147071 -10.148818 1.9121042 0.9711106 -6.291653 3.555451 -0.41444924 -3.574607 1.6441444 -0.2648378 1.3835021 13.626911 2.0979278 -4.6244154 -1.4733847 -2.9469328 -2.3944414 -0.20844091 -5.6086526 2.503046 15.451682 -0.39473447 -0.93336314 -0.55100554 -1.0152073
2262 -3.2266355 -1.5990131 -4.438454 0.15254319 -2.885663 5.660602 0.71747863 2.257165 2.0880625 3.7063644 -5.422792 5.0279665 6.454273 4.328074 0.40787008 2.8566139 2.5084822 1.1721848 4.624573 1.747163 12.022818 -5.726997 2.090858 0.44557148 -11.887008 -5.4748573 1.0372516 -1.9140215 2.0514703 1.0760224 -0.25896156 -5.577728
2813 5.637468 8.895098 -4.8575363 -6.2505584 6.5192614 1.9115777 4.429069 -5.0599346 -4.709678 -7.8064203 -1.3588842 1.1038043 7.4892216 -6.720093 -0.3378603 2.3817518 -2.018706 -2.8304827 1.4317925 2.8559027 -8.502622 -7.5045075 -7.3217516 -4.3568816 2.871657 -1.3233666 -8.374506 0.5237545 4.9977093 -1.5251333 0.96835625 -0.90746593
2459 5.004268 2.3434715 -8.245545 1.0804516 4.579924 0.01582149 -5.3443356 0.24126738 2.3047462 -0.94586796 -10.033307 1.2136688 1.935428 7.1078296 -9.890808 -2.2715902 -3.1651077 7.518959 7.252428 0.0059971255 -0.15313682 -1.7389205 -3.802008 -5.7546463 4.7541757 1.9898487 -10.087261 -4.6987014 -12.064135 -0.35923302 -2.7690747 -4.8715167
1776 8.445635 -5.056345 -1.8411117 4.9893265 2.1535075 -4.4995356 -7.173593 -9.144713 -0.34146988 3.4066262 -3.1140616 -14.400859 1.6309887 1.6007286 7.574068 -5.2392735 -5.787691 -3.4365273 1.6093855 4.520506 -2.9064915 7.593245 0.36623767 1.1021258 4.5080748 -4.583545 4.806559 3.7864974 -2.128747 -6.197723 -10.250958 3.7125492
4461 5.7681913 1.6971782 -10.777168 5.5269465 2.3441455 1.581398 -5.386986 0.28328884 11.520343 0.20660982 1.1614729 4.288363 -2.7116263 5.632505 5.904099 -0.052434802 0.54159284 -1.4770122 -0.5861086 5.432789 1.6564573 -0.68974817 -6.263988 3.827503 -0.6824852 -3.6990368 -4.1248927 -2.7202468 2.1617284 -7.479469 6.0234327 4.1948123
4850 -4.0771165 -0.22453989 -0.2077551 2.5421224 -1.5679729 1.3872013 -3.0643706 -6.127992 -2.0945473 0.17931972 5.6853595 -4.543806 -4.449912 2.2937198 2.9258523 -7.3379316 -1.1242542 5.2782617 8.955652 2.1396804 -8.3822155 0.4988511 -1.29154 -13.148263 -3.6969602 3.523023 8.493697 -2.093354 -1.7153035 -4.562644 2.311436 -4.6661434
9 -1.0612664 -2.291531 -8.259779 0.55565685 0.28218198 -0.61304975 -4.8413243 -1.7159102 6.405075 -4.3292274 7.63918 2.739993 0.1718003 -3.6808965 -13.977052 -2.9662275 4.051789 -1.4622896 1.105648 7.138727 -0.9059163 -1.2108291 0.65243304 -3.2356637 -2.480607 -4.6224823 3.9466567 7.920454 -7.6707015 -1.6994699 8.637339 4.3612456
138 -1.17587 2.5041192 -8.093748 -1.8497721 0.72829443 7.034819 -7.278873 -1.2159945 -0.15828873 -6.6373487 0.116521694 4.4711556 4.223024 0.38564983 -6.9045987 6.9960084 0.51498115 -1.3244175 4.863287 7.149867 4.179747 -0.7844115 2.6259933 2.2007246 -1.372659 -8.21522 12.360043 5.785927 -4.353498 0.9935904 -0.67991346 15.489755
4564 2.511725 -0.14300789 0.46808097 9.947858 -4.073552 -5.0125766 4.9698334 2.0177996 -5.640615 4.366211 9.202767 5.9788904 -5.889632 -1.4026959 -2.8892045 0.16768074 -1.7230197 -2.3948994 -0.18564293 -2.95852 -4.136082 -0.6953049 -5.170101 0.015357382 3.6190925 -5.6130915 8.016338 -2.8788133 -0.8618932 -4.2196336 4.469023 6.145913
632 5.5590453 2.457526 1.4509009 -1.0585024 3.775194 8.415619 -7.107305 9.599311 0.6480916 -0.8599161 2.2737339 -1.8123827 -3.6530209 -3.8706508 3.0407035 -0.20693897 -1.0360583 -2.6187236 -6.4886003 3.6229386 3.9725535 3.042198 6.0096006 9.080626 1.3557264 5.756618 9.030205 2.0587952 10.082562 -5.3535943 -2.7590501 -0.21795495
1095 -5.584096 1.7256554 0.6819583 5.58649 9.437803 -1.3752952 2.277991 3.0511665 -6.192921 4.325438 -4.7475305 2.765275 -0.79056174 -10.75395 6.723806 4.1060696 1.7378314 -2.818534 -8.809381 -4.761849 1.7540017 -4.0074983 -2.846324 2.046383 -6.10932 0.8789116 9.2880945 -0.33319578 -0.24924284 -3.8102295 4.696388 3.1635952
653 2.6638339 1.7847731 3.5294125 -4.329137 1.5388504 4.949589 -2.4925058 5.396207 0.5529475 -1.6731538 -2.2078822 -1.4793203 -3.6025302 3.5602336 1.1470212 8.925913 -1.0702535 3.662478 -2.2570908 3.73877 -2.9101238 -1.1328056 8.101957 7.4782023 -1.3440512 1.9636109 -0.6221962 -2.6430209 13.417266 -5.2283225 -7.337639 9.600567
4476 -1.6033452 -8.949001 -2.602583 -4.091339 1.7401351 -1.6988193 -1.8509715 0.6204232 9.862283 1.6680754 6.1614017 2.1617389 9.731061 -6.9367566 -0.74023163 -1.4834323 -0.21738034 5.6046724 10.465852 1.8928308 -2.3124418 5.432495 7.3832636 6.632974 -3.969817 12.913807 0.5367287 5.1372523 -5.2811656 11.162037 -2.4859405 -0.53689104
1478 -4.942423 3.6764262 5.906344 1.274883 -8.067707 -4.609538 -0.40257105 7.038178 -7.2193556 -5.8102083 -1.1308341 -1.8235372 -3.2479076 -7.573129 1.2726096 7.2022796 0.7070589 -2.3751922 2.25208 -14.855758 -1.5942059 0.74880606 -4.7908163 0.42221168 2.1268158 -0.72922003 -3.435506 -10.167858 -3.6899958 2.3607776 4.1417413 -4.6496344
1930 9.318502 -5.0536284 10.324655 -6.6269097 1.8472276 -7.1649823 5.955258 -6.1266365 -4.9319887 7.864551 -1.8589852 -2.0486548 0.17582425 1.4968035 -9.448489 -6.4264855 2.1635814 0.82048124 0.08131683 7.564776 -6.13815 6.534445 5.5965457 -0.4182454 7.6394334 -0.6955862 3.213237 -3.2905133 0.0036310148 -2.4568152 -0.4394849 5.3668933
2810 -0.5997574 1.0568653 6.00183 1.5569321 6.0771933 -4.754231 -6.680566 -9.931386 8.402666 -1.6697081 -3.668995 -2.1338758 -3.6031797 2.4672415 -3.7872832 -6.7760887 -0.39635545 2.9803424 -2.186667 -1.9295933 -1.781206 4.288303 -6.9061637 -5.7785306 -4.3783116 -7.7256985 1.5369418 -10.91168 1.6596944 0.8295628 3.6434357 5.023854
4686 -3.18789 0.92669946 -5.54155 2.6286814 5.0953317 11.742678 -1.7813131 8.991672 -0.7980112 4.1623273 0.91445786 -2.21183 2.5107684 5.4779415 -2.131203 -4.039923 -0.68822867 4.8168855 2.2831483 -5.006753 3.4343393 9.773926 5.0762496 -1.1548277 -1.5547856 3.2600603 -3.0151415 6.5149474 -0.397108 -8.277015 -7.6140823 2.5794783
1119 -3.577834 -0.43052816 0.8084151 -7.8480997 -8.111515 1.7351203 -3.867658 4.696101 -3.6823897 4.798836 -1.926681 -6.3103633 -0.16553986 1.3655179 -7.6890173 3.0373144 -5.008788 8.109966 -1.4070531 -5.8507204 9.190398 -10.632139 -1.9545463 5.3836703 -1.5731565 7.9696097 1.1625818 -2.820133 -2.315493 4.800604 -5.0963535 -2.031349
609 -5.1136217 1.3495784 4.1438775 3.5724556 -9.432104 6.307352 -2.6641016 2.1268442 -5.453781 5.1207542 5.70104 6.2393394 4.1158237 2.6472242 1.4066794 -1.492574 2.3943198 -6.5578885 7.8204226 -0.8215476 3.5241206 -3.8849564 -0.17697787 -7.749627 -4.306072 2.679709 -6.646662 1.3181187 -5.7737045 5.7070127 7.0376177 4.842178
2697 9.14208 3.832241 -2.8228347 0.39602226 3.8413303 0.8071492 6.0551867 -5.8985395 2.6924853 -2.6807592 1.7459666 7.7494054 6.12167 -6.5599127 4.015259 4.198258 -0.49034548 0.3750523 -8.31674 10.046768 8.046195 -0.8573209 -2.1496003 3.3961341 2.3819406 1.8433845 4.4288373 4.6014013 2.2724085 0.49060297 4.832393 -1.0578716
2544 2.7499251 3.6134975 0.829523 -0.37662485 8.370529 7.794929 -2.0124426 1.4198287 -6.1219716 -1.8294673 -3.0921712 7.510266 -1.2721839 -2.003705 -5.5186973 -5.2980237 7.1170316 -6.2688723 0.031223876 -1.5776973 -3.4771025 -3.1240103 8.501994 -2.539481 -6.4544587 5.5577116 7.158012 -4.1618605 -7.7688675 -2.5260458 -1.2332214 -4.402577
14 -5.850481 9.500815 1.2026936 4.369702 3.1755247 0.59940696 0.80767035 0.07193639 4.2748446 0.73425305 0.9095487 0.20499776 1.4122641 0.67595243 10.06898 -7.3482523 -2.7119756 -2.831032 -0.8089908 -6.2352514 -10.005849 -4.7973156 0.09615814 -1.5006976 3.0708134 3.9228022 -1.034221 -0.451216 7.011205 -7.439246 -0.4663372 6.78864
4111 6.1379137 -5.88469 1.9108776 1.3649316 5.1583805 -3.4313376 4.2666206 9.1658325 4.483767 4.4027057 1.9684974 -1.5931829 1.8807174 1.5683415 -6.9624743 -5.9613714 -2.7559447 2.448808 -0.024536675 -1.4216509 3.1388452 2.936416 -0.011288734 -4.934317 -2.866622 -10.741549 -5.479253 5.7458997 3.5470424 6.486455 11.355541 4.10011
4147 11.877122 1.6038554 2.4257317 -1.360191 -8.313631 -6.4727683 3.12489 1.1532762 2.2315166 -1.4491825 -1.1924025 -7.630373 5.100953 1.2430625 -2.2142062 7.9513464 1.9490137 -1.5763547 8.877783 -7.408728 -8.224978 -2.970527 -4.1154866 -2.4762146 -0.6438701 7.291292 3.4396677 3.474977 2.0521328 -0.72049236 0.95412755 2.2510526
4221 1.6619629 -9.2041 2.4573095 -0.2795385 3.774847 -5.5827007 6.7753534 6.342198 5.0636377 4.841016 3.1616836 -0.67280495 1.9673743 1.6600007 -6.0108786 -5.4722958 -6.556593 5.2766204 0.033244733 -3.5151668 1.1718669 -1.4774209 2.0590034 -4.319934 -1.576392 -6.633713 -3.920823 -1.6907524 3.9051447 1.9508375 8.479173 0.33027616
4570 3.1086135 -10.118907 2.013903 -2.5459075 1.8452017 -9.406002 -8.845254 2.3492093 8.281366 -2.709666 4.1269846 1.9600719 7.85717 -1.3452932 -4.5748363 -2.9874563 0.8554436 -2.0524592 7.109093 1.6194024 1.3429236 2.250474 -0.044797793 4.653532 6.1133385 9.393835 5.6766467 -2.0452204 1.5688769 -1.7612578 -2.4567547 -1.4344329
4446 6.311526 4.006222 -10.779876 2.7822034 3.7555068 -0.0013768836 -3.7961304 0.7435569 9.790531 7.413366 -2.031013 2.7731338 -4.848902 10.338535 3.746053 5.5280595 -1.1216766 -1.7219665 -1.4850206 4.6088023 3.9760993 0.7202464 -2.7979808 1.709351 -0.24430142 -6.335418 -6.7212853 -1.5773107 3.284692 -2.978377 8.312474 3.1165802
4196 -2.2094796 4.333956 2.492439 -7.8623195 4.332967 -0.90483373 5.8374314 -4.208529 3.7973986 -6.721434 3.7854862 -7.5335093 -5.761464 -3.3037596 -6.078572 1.1374638 -5.2395654 1.8422306 1.6741652 -0.100653626 2.2053924 -2.8485067 -4.7985973 5.2278376 -9.579199 -3.8925893 0.86966634 -1.4587394 4.1836586 -5.28791 -0.10489273 0.31222314
386 4.5681124 -1.2238302 4.6848764 -0.2585661 2.7900593 -5.8873606 -1.3746533 -1.5447803 -5.686899 2.1512034 -6.5939765 3.1822906 -2.8983302 11.102876 6.6873856 2.0525904 -1.4424851 -1.756733 0.22551493 5.1125345 0.17680599 -11.142815 9.30865 -3.892979 0.6269321 -12.06887 7.321155 -0.9550627 -1.6369764 0.70225596 -4.152183 -0.59583676
744 -6.2718215 0.23871343 -0.7649803 -6.1083894 9.258498 -3.5707133 -3.0341082 -0.34907064 -4.3972507 5.948995 -1.3335679 -5.046488 0.2714795 3.875335 -3.7043142 -7.638818 0.2008082 1.9000983 -3.2282343 5.0805216 10.019894 1.6394151 1.3680937 2.2785397 -3.819603 -7.4209266 1.3219177 3.935939 7.3164463 6.512657 -11.757496 -0.8751996
3802 7.3378005 -4.5336957 -7.2260585 0.27377453 0.07809742 -3.3979435 -0.4266797 0.79904443 -2.6355748 3.6643348 3.726546 -2.1335182 -1.472257 -0.35821936 5.1227264 6.908469 1.1382221 -10.407203 -2.5945773 -8.886135 -2.21862 -0.68478215 5.000525 0.71250916 4.7686167 7.2352853 -5.7963715 -3.423028 -4.946663 3.0524445 5.5814476 8.67596
4469 1.4682078 7.1441107 -2.0326662 11.296938 2.158909 -5.861331 1.5293777 2.618205 -4.0339975 3.4679368 4.751955 6.2331233 5.2916164 -1.7215061 1.7015299 -1.6333429 -2.7259402 -3.3965745 -1.0036446 1.124386 -5.0918274 5.5045247 -9.992043 -5.1045775 7.021578 4.2711906 -2.2321548 0.8160443 -7.598397 -2.963786 -1.9329689 8.855406
3792 -6.643538 0.11141526 3.2698736 -3.1652124 2.2349627 -6.080829 -0.62710065 7.397761 -3.8768659 0.6029247 7.302218 6.5483084 8.018105 -2.2447512 -2.3516378 2.5230138 2.935331 -0.71248204 -3.8667321 10.667839 -1.2446275 6.8647313 3.0571856 -1.3946177 1.6615292 1.0464362 -6.2564764 -2.5996375 7.299423 -1.7514828 -1.142628 -2.073816
604 -6.9746356 6.8781824 1.4056941 -2.155475 -2.3492327 4.049118 -3.8164868 0.7523754 -9.755277 -1.7843207 -1.5786684 4.874571 -0.14175728 2.739382 0.82669604 6.6843314 7.805435 -4.0246844 3.9516563 -1.4553658 0.7515461 -4.89092 4.8838725 2.5601084 -5.334255 4.6524177 -8.169197 4.663778 2.6429248 8.264537 5.334851 2.2838893
1311 2.8382063 1.8549078 0.110635825 -0.12433264 5.4102354 -5.9963 11.228164 2.3087857 -0.908269 1.5058522 -7.362694 -1.9813656 0.2199618 -8.383938 5.1534944 3.4233885 0.024918294 -5.5649843 -5.2005424 -1.361992 -1.2255526 -3.5491173 -0.64141923 -1.714603 -5.013243 -2.8574622 7.219317 5.902608 -0.32326794 -6.1750317 1.5933762 2.1844418
1446 2.39937 1.793156 0.6805824 2.9732282 9.482612 -2.6054494 4.0293922 1.2410917 -2.6279123 -0.13624972 -6.2230663 1.2262987 -1.2529409 -9.544966 4.1785955 5.1078954 1.634397 -7.5343447 -9.0197115 -4.395507 -1.140293 -4.7083287 -4.4365788 -0.49876237 -9.323159 -0.7403202 7.7963495 3.6510186 -0.4335569 -5.8701706 2.2623878 3.7274778
1584 -2.0293093 -5.2524643 -0.49405447 1.2976944 4.3675904 -8.510348 4.4360313 -2.7255814 -3.0287855 -2.451054 -3.0713353 7.3260455 3.286887 -2.2027314 -0.23213388 2.9239652 6.429289 -8.729147 10.355073 -4.137689 -1.4602675 -7.194963 -2.591234 4.431275 0.49580297 -0.65396065 -2.0371053 8.563055 1.7311254 -5.0979385 -3.5818892 1.8078971
298 0.9832247 1.9584386 -7.2443514 -0.8220557 -1.9150198 -7.884513 9.744836 -2.6089387 2.2774856 -9.959217 -3.0026867 -2.4488015 1.3081765 -3.0493042 0.76373273 -3.485425 -1.6961061 -0.6049113 0.066502914 -0.72894156 6.039947 -7.95969 -5.8804474 -1.1505466 -0.20494528 -3.4189036 -5.095119 -3.779161 -8.979459 4.5105047 5.371007 10.74401
3337 9.5662365 -2.461311 0.16483742 0.29678616 -4.2285824 1.1389623 10.778272 2.9212472 -0.11174814 -7.561092 2.656603 3.8970892 -3.1561983 7.376924 1.5663878 -7.182657 -2.1071022 2.0176666 3.8841095 -5.0503535 -4.3678274 -3.986379 3.5841951 6.3367367 -0.4546108 1.2919346 0.5629401 4.7386613 -2.6776276 -5.9382305 -9.587322 6.244461
4361 1.5139716 -6.977945 3.821602 -3.2395446 -3.3887866 -5.312416 -7.319832 -2.2114854 4.8310776 -0.7813746 -7.0637164 -4.0208206 -1.9310592 -3.5193663 -1.1230786 7.3712444 -5.180072 -2.1295023 -1.4041327 6.7780485 5.500243 -4.2447658 -1.2473339 -1.0442479 -0.7625317 3.6204345 -1.7402793 1.6077749 3.6447723 0.59713036 2.7051408 2.8094683
584 3.5472713 -3.5065138 6.268345 -4.3528075 4.0544786 7.631806 2.250647 -1.1807423 1.7547197 4.527008 -3.1085348 -4.255277 -2.3962302 -3.513881 6.1737547 4.159026 1.3982582 6.0656843 3.8863637 -0.19308473 -4.0692587 -0.6311081 5.584507 2.468468 -9.2608 4.045259 13.269147 -4.039856 12.73704 -2.3231788 -2.465589 4.9212155
2611 6.4793863 3.6626067 2.2963932 3.2478628 -2.5397606 1.6124653 -3.3628106 -2.6178005 -8.529206 3.117874 0.52634335 -5.332377 -2.5762765 1.001063 -1.3332268 1.655132 -5.1143107 4.0448318 4.042827 3.3326354 -10.063912 -2.9217649 2.3327763 7.178061 -0.12312186 9.053221 -8.391327 -4.7219024 -9.538267 -3.7809508 -2.5012097 -8.633064
13 -6.0806375 5.0013876 -2.118687 5.3509355 -0.80980414 0.9345638 3.7598448 2.7041225 5.394779 2.8781757 -2.996845 1.0334761 -1.5291162 1.0408286 8.871031 -4.7459636 -7.2459188 2.791525 -0.30690807 -8.5196905 -8.833865 -5.7936387 -0.3080955 -4.3754177 3.2633042 6.4971004 0.27348346 3.5180953 6.35574 -5.078743 1.4230393 8.883679
1999 -0.49446675 -4.436025 0.0084558 -0.22015311 -0.51857936 7.00915 -5.228089 -1.5595849 2.958925 -10.540236 -0.47143313 1.5232774 1.7032754 -6.251973 6.4813623 11.905968 2.2626865 1.709024 5.7456274 3.2192638 5.1728897 1.8394195 -1.7524695 0.32899824 0.18498883 0.90079933 -6.104575 0.25667727 -6.3369493 -10.714883 -3.1029088 -0.1492493
1298 -5.0378366 -4.1257706 -9.10628 -8.817372 0.39319444 -2.7541687 1.0814669 3.8463743 4.377924 -0.1841491 4.2949 1.1024542 0.3033885 0.3836461 -2.9152427 -5.709313 -1.3470619 -1.9510119 -4.217266 4.3560004 -1.7590069 -8.762592 0.35637218 1.3656279 -5.4749894 7.0043154 -4.248997 -2.759113 4.21758 -5.1044087 -4.1271205 5.063865
2550 2.778685 -1.2064569 4.0573177 0.7432062 2.1175313 -0.74110746 3.0273511 -4.1541004 -4.330952 3.1074467 -5.9073296 -3.8812182 1.003204 -3.5019333 -6.833672 -11.748071 4.8066487 -5.0037475 6.6987863 -8.583384 -1.9109219 0.6196861 1.2884847 -2.490225 -6.2871237 5.7958407 1.0479982 -13.681009 -2.9804003 3.5132675 1.5984211 -5.7611785
198 -0.58818287 5.447529 9.002286 -0.63251215 4.9264903 -3.185791 -9.64509 1.3717092 3.2114096 2.517825 5.0806594 -0.7674805 -0.09629387 2.0394256 2.9099948 -0.6663506 -1.6015923 -8.181959 4.234111 4.7623935 4.4472804 -3.7772326 -6.1857386 -3.750334 9.179967 -6.2772593 -8.501339 5.95685 -3.9487064 -5.065486 -0.9594217 -0.582782
3775 -6.404355 -1.4919679 -0.99345005 -3.2978246 5.5734825 -2.5418296 2.6185465 4.7240562 -7.1507516 1.5541842 10.680517 10.159155 5.437807 -0.98332274 -1.4199309 1.0160705 -2.8581963 0.049275804 -2.9189584 7.7749534 -4.0590806 2.2517025 7.5148506 1.2371551 5.689695 0.48388278 -2.582852 0.2976535 8.524185 -1.1906468 -0.3164109 -1.7025316
4166 -8.867446 -3.0766368 -0.21540242 -1.7251352 5.4505982 -3.8244073 10.244866 0.44183847 -10.272729 0.69461536 -0.15630987 -6.0118866 -7.453579 -1.9659353 0.44271177 2.52861 -7.3938036 6.4094853 5.2790937 -4.87121 -1.7577033 1.6680765 -2.7193997 7.415492 0.14088462 -2.6494653 1.6072733 -1.856247 3.7905157 -12.360806 -0.62266153 0.1168919
4097 1.7761462 -8.419358 2.6322966 -4.5805616 0.21226224 -10.605336 8.020754 4.2363706 7.789723 2.2112243 5.8038964 -0.75728077 3.740925 5.6374445 -2.8295164 -3.4028337 -5.014589 6.4514065 -5.122775 -4.426612 2.5782332 -3.7646356 2.9102087 -1.2732038 -0.18558297 -2.6519647 -0.63780653 -1.8419293 3.4887586 -2.336459 3.28427 -1.9225562
2298 -1.1556445 -2.3967285 -6.3672724 1.8805554 2.0558507 3.8395936 -0.5871789 1.5786289 -0.88198584 2.2188091 -2.6269553 5.5983753 5.9216332 5.8866043 -0.29959357 7.258812 -3.044133 1.881304 10.34912 4.0602427 6.1717544 -2.498767 3.8199456 0.29690874 -10.138546 -5.4365644 -0.11423397 -0.76901495 2.0749922 -0.7535522 -2.5689092 -11.356858
485 6.7130527 5.7713547 -2.7349267 -1.1643691 -2.6967354 -5.34082 -2.0807 -0.04735602 3.8767793 1.4689822 -4.3051114 -3.9744816 -7.5964837 7.9722447 0.07927779 1.0134879 2.7129776 -5.4246836 1.4995509 2.8357484 1.325302 -3.0967581 -2.230736 -3.637984 -3.74214 -4.6434417 -6.4284115 0.43639776 5.1050096 0.78741586 9.836026 -9.233804
2952 -1.1480087 -4.956019 -1.5080346 11.019511 -10.675696 -0.5497442 -2.8974655 -3.657137 3.721669 2.626224 3.6932986 -1.452635 2.2712927 -3.5147133 3.1379914 -5.1754956 5.6252255 0.020726437 -7.6176786 3.9327645 1.5447303 5.366788 -1.4651659 -2.9456956 -4.2543592 1.5226531 5.0513644 -6.9909735 3.9622362 -7.930645 0.90465325 -0.20420605
4402 -0.13795954 -4.0097027 9.520594 -0.19680615 8.234222 -4.920182 -0.9794548 -2.9693682 9.120382 -2.8449314 -3.819335 2.5112302 -3.8666925 0.3982871 -3.0201957 6.04377 3.364281 -0.15251026 -5.915107 4.1893325 7.386276 1.4925461 5.9963274 -4.937851 -3.4262958 2.3228238 -0.6540676 4.4898195 3.6033163 -5.444508 1.5939093 1.8855969
3675 -1.3942714 -5.7032943 2.2076747 -4.5109706 -7.803588 -0.556848 1.9199469 13.456769 -0.7544131 -2.7164826 -9.112278 7.696267 -5.4662857 -3.574352 2.4129255 2.4022665 8.226696 -1.9049355 4.8532047 2.2985501 5.2656913 1.7030116 -1.5421512 -3.4834924 -0.7391831 3.597634 3.2134001 4.5737696 -1.6316801 0.20784953 0.869202 6.5301943
2878 2.539383 -3.2140222 1.9809676 -3.355431 7.8914213 0.9723759 -9.20086 -6.931958 1.1799561 0.76720613 -0.22595958 -4.160609 3.039679 3.2844326 -2.7440379 -3.3207529 1.8426807 4.362747 -6.736506 -1.4334214 1.5414139 -1.6171682 -3.1746166 -0.5787905 -8.139583 0.6130068 -3.7307525 -9.661911 -0.1303677 3.2352788 5.305953 2.944388
4392 -4.053567 1.2483485 3.3367822 -7.4970355 2.9430919 -1.4898193 3.276016 -4.954102 3.4597316 -2.3683844 -6.0253696 -2.004673 -7.2750726 1.4179955 -0.16758288 1.8594961 0.05429933 -0.8671272 -3.3215022 -0.26141933 9.661622 2.956285 9.626519 -6.9584885 -0.27314946 8.452349 3.8329926 -2.088133 -0.13630995 2.627842 -0.93349135 3.0226784
546 -9.347966 -1.4851545 -5.648149 11.0801115 -3.5213077 2.2022426 6.4848285 -7.094099 -8.190731 -9.28963 -0.8306311 7.849978 -0.74056447 -0.3038203 8.103912 -8.128708 -1.5888529 -1.5660108 5.3877077 -0.5858963 -0.7543829 0.86484015 5.0452495 -2.1556315 -7.907535 -1.3385155 0.5426938 0.82933027 4.262899 4.44029 1.0612783 1.968643
2534 2.9292507 -6.1090493 6.1550574 -0.44349736 -5.9379454 3.7194142 -2.8509414 1.4402683 -0.7389806 -2.6257625 -3.1303687 -5.7489457 -0.86546916 3.0516772 -1.9873593 -6.664817 5.059158 -0.2955453 -3.6478658 -1.2297262 3.5153415 1.1683289 -0.5537669 0.65383404 -4.954429 -9.131867 -8.120861 -12.15529 -2.036335 -6.152513 -3.1568336 10.915996
757 -0.28205797 -8.808432 -6.2748985 0.05172066 1.6439564 -8.895337 3.9556668 -9.004418 -7.019925 -0.4549945 3.4723856 -2.800084 -6.7971945 -6.6344943 -5.780444 -6.138583 -4.0403256 2.5029013 -5.509385 2.8110979 2.2539837 -3.6650615 -4.8712664 1.6241279 -3.6727355 -5.763132 1.7710218 5.7774944 1.4260826 4.2740273 -5.184988 -10.930577
771 0.6080934 -9.338599 -7.0573335 -2.7420146 5.127722 0.15623774 3.2043219 -6.366453 1.3771174 -0.6181039 3.0442843 0.46425956 -9.219114 5.9005337 1.1244435 -6.7644396 0.66632175 6.3074327 -4.1661496 -4.727743 0.3881067 4.426562 1.727296 -4.7009997 -1.285503 -4.9043226 -4.1453123 2.4761255 -2.3189027 -3.3320024 -2.5236115 -4.123455
1272 -3.376681 0.048342902 -2.8583074 -2.1838088 -6.8567395 4.305304 4.031665 0.45002693 1.3275234 7.2121143 3.3881333 2.795363 -2.4202888 -3.2946205 0.2546971 2.8479965 0.70568794 -2.0708277 1.7820874 -10.0828 -5.0506063 -13.865973 10.15037 0.89447 -0.784674 -10.290183 0.32795492 0.788204 1.1988447 6.396313 -3.0617707 -0.7251176
2842 -3.3460424 0.250229 0.064280204 2.9951422 2.6993825 7.2950373 0.25573987 -1.3629401 -6.89166 0.68040526 -2.7455626 1.0150586 -2.232931 -5.96187 -3.9662588 6.2680917 -4.407541 6.7067533 -9.287476 -6.5970683 -0.675536 0.8782532 2.1802833 -8.101468 -5.776794 1.1190779 -5.204114 5.8068337 -6.03983 2.3424687 3.6187472 1.3622025
1257 0.9921882 -1.2426817 0.95128775 -2.3266814 5.0367317 -0.6514027 1.0923432 3.7916136 -6.2804675 -5.597532 2.8391047 -5.202385 4.283793 -8.301886 -9.483625 -3.2736356 8.5852375 0.88319796 -2.1492329 -1.612902 12.718063 -0.15825713 -2.9933763 -1.2101969 -1.7429062 2.6610827 0.29082572 8.118688 8.766599 7.7667246 -4.987178 -2.848663
4534 3.2648306 3.9591079 -8.802431 6.0542135 5.2296505 1.0230291 2.9218524 5.1123877 -6.9469438 -2.783386 4.690188 3.6503575 2.5782363 -1.6083714 6.1975317 -0.55195916 3.4135668 8.393053 -0.1380592 6.590112 -0.7100882 4.4564204 -11.303324 -2.5633788 -0.86347145 6.191878 -0.9253439 6.283863 -7.017577 -3.72302 1.6738883 1.7687658
1933 -2.4798987 2.6149275 -4.3839273 -2.259626 5.8433795 -6.8221684 -1.0936393 2.2994487 10.438972 0.69586724 1.6264608 3.204281 6.667823 -2.814432 -12.794261 7.092999 -1.5922797 -4.391602 -1.2500138 -7.1525245 9.739505 -1.896964 1.2712959 -6.2005754 4.717017 4.2637954 -6.3026195 3.1178603 -0.17551427 6.3341675 0.7490549 -2.1519759
520 7.5288486 -0.91599864 5.9068756 1.1261946 1.6145664 1.8859183 -4.864079 6.781432 7.1653666 9.131378 6.234513 5.8593655 5.127244 3.8483047 0.8557168 -0.8831391 6.6823034 0.048241906 1.7189206 2.2654972 3.220521 -3.6422434 2.5193822 2.48294 -9.372878 0.78386605 -2.5478966 -4.2947083 1.3978022 4.7040095 -6.9726152 -7.8933334
4152 4.785409 -2.7994692 3.23212 -0.24328496 -7.3136873 -2.8393517 -8.153482 7.715561 -2.699687 -4.7435956 7.625239 -7.6725936 0.80776 3.6757684 0.22080484 -0.8019749 -0.14888908 -2.6602156 1.9658408 -4.2419295 -9.782571 -0.5216481 5.0303006 -1.2930554 0.6139179 3.0127244 4.173656 -1.6448092 9.735232 1.9854249 5.733826 2.8837445
3308 0.98471135 -1.5355952 -3.459874 -4.2072186 3.041541 0.3216495 5.4358215 -6.1078653 3.9179847 2.9735363 -4.5712337 -0.49948198 3.4316401 5.8058295 1.9433241 1.8206353 4.141298 9.346698 4.9114976 4.5958233 1.9912628 -4.0030904 7.4168477 2.9235885 3.6081102 6.22641 -0.3928091 5.6528687 0.07115378 -9.380873 2.962981 -5.737905
2363 8.646736 4.4913673 -1.9932749 -0.5639362 -1.6719557 7.8303075 4.139249 4.359582 4.76697 8.744262 -6.054395 -0.02069033 7.3399835 3.1530232 -1.5911824 1.6832718 6.2950425 0.20902401 3.213736 2.015986 9.736085 -1.6823378 0.039805487 3.667484 -12.6218605 -1.7718412 0.62430686 0.29963902 0.08820764 3.4790306 -6.197144 4.72073
1104 6.0046334 -8.734749 -2.0555732 4.391566 7.017338 -5.0101776 3.5963204 2.8928938 -1.3896302 -4.5658455 -10.748802 -4.0832667 -1.0128864 -6.5026126 2.7758064 -2.8943312 -0.23713933 0.82970166 -9.253538 -3.3800852 -2.0049367 -3.578589 -0.16502924 4.81965 -2.6764085 2.0450068 -1.6826981 11.394514 -4.026778 -9.734597 8.272145 1.3653235
511 2.8343596 0.72288465 1.7527535 9.376135 -6.185488 6.580414 -1.9350202 -1.9286513 -7.351556 -2.43954 -1.2804284 1.57206 2.0012605 -3.8651395 -1.6429685 -4.44421 7.6014957 2.8788984 -0.2588845 -6.244866 -1.0140407 5.3795066 2.1167097 2.9157162 -2.6731064 1.039955 7.0346007 5.5425215 -0.3528669 5.878102 3.9787102 5.269499
1243 -1.6076118 2.166296 -8.064434 -12.61596 -2.6492283 -2.1703289 2.1454897 -0.43307647 0.20508555 5.5858254 -3.7157366 -1.2750571 9.98675 4.386862 2.8850677 -9.665724 -4.492226 0.92763364 5.3428426 5.9466076 -4.204181 7.9199476 -6.3468933 -1.4270718 7.8892517 3.391393 -3.151393 -5.456003 1.4236168 -3.467766 0.39990488 0.40556723
2490 -0.090452425 2.7727256 12.655023 0.069471896 -4.790416 1.2481427 -6.5449133 -6.8000207 3.4949183 -3.4494889 -6.449517 -4.4638143 1.8300041 2.3822386 -5.256182 -4.258152 8.194806 -1.256528 2.0484664 1.1732247 0.00285636 2.6300483 -1.6324279 4.224466 -2.8128684 7.01223 -7.2905087 -5.1360006 -2.1078534 -6.0358386 4.195823 12.706195
3360 -2.9064271 1.583389 -2.226386 -8.849895 -2.077013 2.4076009 -2.6234133 0.60289866 7.4279413 -1.1300362 8.269448 -4.3600574 5.6575756 -0.38067323 1.6706045 -0.7884734 -4.270055 -0.0015806418 10.149895 -1.3616127 3.6518228 5.816439 7.190068 1.9838765 -1.1603944 2.478108 4.257947 5.315606 -1.8317547 9.963289 0.8279843 -3.973544
4491 -4.0525203 -4.2536736 -1.329503 -1.066957 -1.9993892 -1.4140569 1.2236599 2.0222597 0.0011422491 -4.643614 2.7414346 2.607719 14.245977 -0.083078265 1.6547375 -2.8353014 0.107074834 -5.1544633 -0.48568234 -5.7176147 2.5745502 -0.17043059 13.554935 5.4234524 -3.017027 2.1465857 7.65526 8.760493 -0.95461696 3.06539 -2.6352065 2.651259
2908 -4.8277683 5.1874027 -3.0349874 -4.3054733 -1.2502818 5.0475545 2.3440495 -0.29603836 -6.735175 5.7529235 -2.5003452 12.497986 -3.0006304 -7.049759 -5.989903 -1.8238192 -0.86857015 -5.4085793 2.333073 5.871525 -7.794795 2.1233034 4.0427575 -0.48615175 -4.8973546 3.3036659 11.792153 1.1484402 -4.7466035 1.2199746 0.84868866 -7.0663023
