5022 32
3669 -10.295296 3.943825 -5.4689555 -4.725941 2.9612875 2.4679492 -6.3343253 -4.292022 2.5084603 0.16915895 -0.50465715 -7.1223593 -1.8919386 -8.819967 -2.5907729 2.084906 -1.3562812 -1.0416573 2.0068119 -10.830746 -2.553323 4.2093496 7.0220604 5.3582635 -1.8731438 -3.7736585 2.843315 4.743299 5.728856 2.510268 -8.313545 -4.042026
3638 -1.9689417 -4.9331255 -0.5557857 -4.861364 -0.8519285 -3.1436436 1.2019969 -2.1559517 3.5962248 11.857029 6.8023176 6.935773 4.0688057 -10.3275795 -6.1375136 3.8460863 -4.413267 -0.6696959 -1.0059142 -3.3830473 -3.9806058 4.564322 -5.0081244 2.3340304 -4.359325 -4.107335 -0.124526024 -3.3643997 -0.04681547 -8.699169 -8.699139 -3.111679
3337 0.57027197 11.347254 12.504605 5.105192 -7.256157 -3.9158776 0.9258001 5.673791 6.941584 -6.100592 7.073435 3.9047117 -6.848835 -0.22620639 -1.5169332 -0.47284612 2.6352682 1.9173633 6.514928 -3.8293846 4.0669928 -0.30884394 0.9577413 -0.3167814 -8.765811 7.56064 0.07948264 -3.1846817 5.7639155 -6.8259377 -2.303372 10.70401
1452 -12.174898 2.6472964 2.5728617 -1.6842849 7.5458956 -3.6950057 -5.159472 1.4502909 6.5912986 8.885714 -6.8671074 -1.289611 2.7042243 4.6541996 4.747258 2.858246 4.8675795 13.256228 -8.399105 -12.534454 -3.6757123 -0.84338963 -3.4822354 0.60921234 -0.38267502 -3.1446948 -2.7375 -6.7008157 -3.2019773 3.7299187 9.860838 -1.5094818
2623 8.892108 7.05723 4.552148 -4.209643 -5.5534196 -7.735362 2.8699088 2.3305051 -10.060486 -5.5884724 0.52612954 -8.065795 -3.3000078 5.2013793 9.477427 1.3907797 -8.32632 -1.2117991 -6.5245905 -2.3689907 0.8561345 2.2760894 1.8917553 -1.9616953 3.4163218 -0.013871713 0.65557784 6.445868 3.1054401 -0.8585289 -0.6389375 7.230626
3368 0.28166515 1.7139338 8.863495 5.7119 -10.815382 -6.119995 7.4909296 6.431491 -4.99676 -6.260446 -1.1678457 3.4970624 -8.514615 0.90883887 -3.0197003 6.8391943 -0.86733323 -5.7528234 7.0950894 8.989802 12.798033 -6.923474 -2.4707475 2.1333919 -5.7441344 7.8065996 -6.300994 7.263967 1.1354686 -3.6296315 -0.48486742 -3.1149385
3338 -0.3736405 17.821903 1.9689715 9.570412 -8.802326 -11.931244 10.34232 -4.830304 2.7256799 -9.020165 -1.0384566 0.6431422 -7.271306 -3.611128 -4.910418 1.8272547 3.1887167 -2.6053507 8.627693 1.337023 9.985898 -2.1185777 6.065164 -0.24514608 -7.4828377 7.8817363 -11.319664 -2.5016308 0.67253953 -4.3259764 5.2227154 -0.79217464
3674 8.356789 -11.026965 -5.5195994 -10.067851 2.8947856 0.96286535 -3.3327057 -5.9704757 0.47624353 3.7662446 -3.582746 -0.54384553 -8.522805 -7.173908 -6.965711 8.881586 -4.7773204 -3.4891307 6.1077743 -7.6697335 -6.612624 5.453455 1.5379883 5.9327126 5.440052 8.699489 7.570105 -1.1163404 6.8373775 -7.3873787 -6.303636 2.3813403
3325 -6.1385527 14.118002 -5.3846326 12.250316 -16.77531 -6.931603 7.138193 5.737753 -10.289314 2.4247093 8.928661 -5.862444 -10.939128 -0.74009925 -9.785939 5.5629 -1.0887897 5.877933 7.774716 9.920703 3.1886592 4.5309095 -2.7356868 -2.744948 -2.041635 1.2910857 -7.8876996 4.845471 7.2846494 1.4065807 12.013759 -5.8972063
3671 -5.5477443 -5.246164 3.174541 -5.797472 -2.7150102 5.507274 -1.400041 -17.0583 -5.228849 8.837708 0.44113937 -3.9514115 2.1032379 -4.8386564 -4.533673 7.1708665 -4.04688 -1.5211164 2.2168944 -6.872511 7.5051155 1.4403149 -0.24656218 -1.7485143 0.28167716 5.050075 13.7741 -5.21076 -2.6336324 -7.2595415 -7.2989025 11.031152
3643 4.0269427 -6.255638 3.7239234 -9.861661 5.1269455 3.1341038 -3.486379 -7.811203 10.114401 9.044392 -3.878262 -5.5619206 -3.6324768 -5.00644 -12.644999 6.811762 -6.3776197 -7.4895816 5.6413245 -3.784292 -4.0383587 -2.405204 -0.71392685 0.13319226 -3.5582075 -8.091247 0.58644485 -8.38236 2.1470802 3.987633 -8.709439 8.080013
3667 3.5160675 -14.94561 2.3063035 -7.019169 10.429223 3.484452 -12.095566 6.3097887 1.8803555 5.6287985 1.5634216 -12.662717 11.05828 -7.329893 -10.837725 4.1541595 0.7197219 -0.2987296 -1.9442028 -9.780765 6.7470436 5.243953 -6.448013 3.2813869 1.5806514 3.9133577 -2.2431684 9.059408 -9.533414 -7.650719 -4.090704 12.091755
3637 -4.0379815 -11.411461 -2.4114463 -7.980517 4.653038 2.5602162 -1.0418769 -10.694316 -8.310586 4.357129 0.26868016 -5.7739167 -5.612007 -3.7765887 -7.585955 2.9553232 -11.157064 -0.69633585 6.7153006 -11.173552 -0.80244917 -4.114487 -3.2991078 1.1681993 5.4130282 -5.0699825 -5.100126 -3.3008235 -4.667484 -3.623921 -11.6253195 -6.0959764
3616 5.618844 -0.08645714 1.8945929 -10.544299 -7.1312337 7.616208 -2.0289621 4.676047 -2.2092865 0.48554555 3.2566907 -5.1858716 4.9085994 12.200715 -5.541498 -6.587314 13.755435 -1.4943702 13.923055 -4.4460797 -13.803326 -6.183804 8.15157 -2.2117577 9.589739 3.2536373 0.1829468 -4.609994 -3.5943544 -0.893282 -0.46916035 2.4412076
3372 -0.3518531 8.224289 0.09895172 8.950531 -7.882253 -6.283366 10.596421 -2.0568438 -3.54639 -2.0651672 -7.288026 -7.7524004 -9.093426 -2.3272235 -13.221475 10.967655 -6.468764 -3.8442338 3.6173217 -1.1107655 9.242358 1.4582485 -2.5176814 -4.016064 -12.969073 7.942568 -5.15717 3.1927872 6.268623 -7.600266 -1.9827025 -2.073286
3613 3.9661539 -2.8380737 -5.190725 2.0886931 -4.5891337 7.0286727 -0.013107568 -0.48312703 -8.816441 -3.6576192 6.8228116 3.7754211 10.491274 1.9026034 -0.8133037 -10.698684 12.556873 -7.879871 12.354846 3.4950538 -10.931154 4.53163 5.3901143 6.014371 -5.9990897 4.9635177 10.145047 6.8599463 -1.214632 -0.7221936 5.657819 4.934658
3344 6.6193166 4.131505 -1.9141883 8.639763 -3.404235 3.0224125 7.9474735 2.8599536 5.106133 5.6970363 7.2973137 -5.849977 -12.289226 -6.999699 -0.09951363 -3.6389263 8.903401 8.675253 -3.4420147 1.4773816 4.3591723 -4.484888 12.989451 -4.123987 -6.4501734 3.3033798 -4.166284 0.14467812 4.356606 -7.7822876 1.8621764 0.9279254
3663 0.43469664 -3.9289522 -6.750685 -3.2425268 8.358553 5.5492773 -10.514994 -9.902864 1.7546247 5.777096 1.3016982 -0.032463197 4.9082513 -1.2098972 -5.8695006 3.285622 -4.064416 -1.0097092 16.297966 -7.197152 5.114393 -0.7893806 -11.839433 -0.3750449 -2.1365266 -1.6579821 3.4132738 -6.0009074 11.9589205 -8.282455 -4.3355994 -2.301601
3353 -6.559733 3.2754707 12.878548 14.347082 -7.7123246 0.40770245 5.497845 2.3470821 -1.9368471 -3.287148 3.739572 -8.690578 -12.539242 10.090239 -1.9746666 1.8398463 3.1148958 5.603258 -2.1681652 3.4491758 5.8492775 -8.345162 7.3112206 -0.46465948 -7.7127643 2.0210998 2.1782312 -2.2011275 2.6765828 1.5241055 -9.204418 -3.4333858
3333 12.289598 2.5866466 9.815035 11.6036215 -6.461458 1.8744963 3.8355186 2.4462395 -10.017503 4.719655 5.209728 -1.4164689 -3.6114793 3.6843 2.6565752 2.5511599 6.14365 3.178645 -2.1925063 2.3303516 7.6614065 -6.2493305 -4.289945 -11.520945 -12.57349 4.673778 -6.273893 -7.2749686 2.4989848 -8.410453 -0.46343687 2.747494
3728 0.38111636 -3.6590827 -5.9856696 -7.375327 7.035855 6.680349 -4.686187 1.5233544 6.334408 -2.2753491 -5.848918 -8.703085 0.8529712 -7.8660173 -4.781546 16.030611 -8.259355 6.0573373 0.7932728 -3.445625 7.7896256 9.01503 -11.423196 5.572219 -7.390427 4.6146526 -1.6251959 6.7325597 -15.897244 -6.4137616 -7.646817 7.3869796
3330 -4.007328 -0.9065282 4.4265037 12.614721 -5.316206 -2.0403953 5.907905 6.566788 -3.4552143 1.4187595 7.972797 -3.022864 -3.2968884 3.293511 7.013217 7.1252513 -1.3969043 1.3384032 4.2742677 -7.6267185 3.31081 -9.09066 7.430322 -1.2448082 -1.1147337 15.111851 -6.330266 0.95177436 9.728026 -12.896208 0.9230065 -1.6042806
3641 3.5515456 -9.419406 10.873174 -9.666853 -1.8785669 8.327441 0.22112596 -15.924756 9.034513 -0.556966 -2.8948958 -6.4365454 1.0867847 -4.380756 0.37036967 -2.527005 -9.745887 -2.3120909 6.2794237 -6.871161 0.50286156 7.3994417 1.5840774 -9.426335 -6.609358 1.3146913 2.846581 5.277731 4.2452717 -10.587652 -8.617794 -0.7887391
3726 -0.34769168 -5.1111007 -5.5054574 -9.44853 9.680411 6.831003 -4.2880344 0.21198654 5.7738795 -2.9408848 -7.326369 -7.608356 2.8600233 -6.979123 -4.012825 13.378605 -6.7160907 1.0783621 -0.099406675 -6.2902703 8.849679 9.132975 -10.52967 4.3254933 -6.949348 4.3208385 -2.0743272 5.347702 -15.218379 -6.33031 -7.6365113 6.9437428
1472 -0.8522702 -5.0849676 9.148519 -2.399522 10.688357 3.606458 -5.2203426 -9.475144 4.6324835 4.176312 -6.871095 8.710812 0.7304815 5.6112595 -0.1462667 4.2560725 12.605041 9.554118 -7.430372 1.9924177 -2.3814657 -1.9714284 -6.871015 -1.3941543 1.7751151 11.265014 5.5744004 7.312624 4.535799 11.937362 2.9269414 6.1200237
1477 -7.1881757 -6.3557944 9.411378 -3.5874104 11.633742 -0.45974758 0.20181726 0.82716393 -5.0964513 1.9980447 -0.024897316 9.150022 1.9379108 8.936018 -1.5939485 11.676984 -3.6723566 12.141795 0.7513942 -12.561324 -5.4621134 -1.4480026 3.8177538 4.2208166 -3.8625069 5.9491577 1.4925538 -4.2906346 -3.1467223 13.268319 9.639687 4.160773
3676 1.208969 -0.13742633 5.644164 -5.2458205 0.84361637 9.444861 5.105816 -10.411896 2.7553463 16.361486 -8.4054985 -5.172641 -1.1754236 1.2980459 -14.580935 -3.2190483 -5.9532437 3.0098693 3.574468 -7.3383217 7.264714 2.3737476 -4.730491 12.18391 -2.1234813 -1.0354894 10.666247 1.2375093 0.09291027 -9.372715 -2.5411887 -0.8898573
468 -0.97297287 3.6319082 7.890216 -3.0227816 5.5417595 -2.135884 -0.52664787 5.5822024 -6.493411 1.5021548 15.550654 -2.9953837 -1.2529013 -1.6221907 -9.061993 0.16362554 5.5679674 6.9107394 0.24009798 -3.7367406 7.290426 11.880044 -0.31683576 -13.375563 0.5099601 -5.6488214 13.785814 2.6059887 7.4105964 -2.218988 6.2671075 -7.498057
3341 0.9695357 6.8128567 -8.078396 2.8930304 -18.600174 -7.3414993 5.2180214 2.7781312 0.33461085 -4.6716676 -5.278773 -3.6199484 -12.549311 4.4592175 -8.1174 4.521173 8.393316 -1.3841919 2.091805 2.7297637 10.7481165 -5.8925834 0.5501749 1.811627 -7.3319554 10.828514 -5.4304333 -2.2511156 7.1172514 -4.2530513 4.29201 -6.399412
1448 -2.547836 5.5590315 2.2100558 0.80044925 2.7832563 0.60879725 2.573124 -19.774208 5.1030245 11.170783 -12.748294 9.673242 11.205683 2.969076 -0.40887186 5.169379 -10.731038 18.094698 -4.3573155 -6.398037 -11.675408 -10.293633 3.303531 1.4080471 0.6969304 3.1955192 2.8175912 4.2879467 -4.936287 5.520806 -4.917294 2.9533155
3660 3.5428355 -6.6770444 4.3767476 7.5918703 2.499404 13.403211 -9.833689 -11.570101 5.786618 11.871834 -3.9630373 1.928666 -5.4364495 -7.402401 0.40537012 -2.1702785 -9.923388 -4.838278 9.655119 -6.802631 -4.158338 4.8814416 -1.2761651 -6.8327146 0.27634144 0.8670453 -0.22662249 -2.5149086 -2.813111 -5.46818 -10.554909 1.4842733
3340 1.4230614 2.1884258 7.9232683 -0.38357815 -10.067269 -8.421434 5.8093038 12.065991 2.8796208 -4.9143 5.022816 -8.304508 -11.287338 -6.5420523 -1.0865932 7.2170663 3.575262 4.3945284 -5.700697 2.3150473 2.614093 -15.309945 -0.72104025 -10.908634 0.4490629 5.01466 0.42760924 -5.6260495 3.4475164 -8.385394 -6.262113 0.9326387
3695 -0.6437557 -10.975355 7.8719854 3.173558 7.2669697 -12.441743 -7.6961813 -0.68363416 -4.7250676 -3.9744062 -4.1946254 4.786221 3.3452973 10.091296 -16.581022 -7.2819366 -2.2334824 -6.20701 -5.741411 -3.8395514 0.6697776 6.6929784 -3.3095126 -4.2682924 2.2261567 -1.5204673 -0.9770151 -9.728514 6.946057 -11.514248 -0.21680692 7.539718
3733 3.2582998 -6.016274 -3.6813755 -12.108843 6.9748106 5.4276447 -8.945896 -0.40220752 3.3088036 2.4278657 -2.805594 -4.2479486 4.763509 -11.496951 -7.7211695 7.003644 -5.9635925 -3.0110428 7.5566573 -5.4217415 14.214069 11.9328165 1.3226094 6.0524035 -0.43272233 1.043769 -7.9448595 -0.21859427 -11.434003 -4.6464024 -5.8888965 6.6811557
1785 6.20538 2.7768097 13.23664 3.175358 8.284735 0.6530996 4.303564 -1.5843291 2.733736 12.785674 4.9818864 -4.3064218 5.9742246 0.9213753 0.81707364 -4.383518 0.31674597 -14.593287 -4.3525276 -7.4377294 5.830951 10.681204 7.7112823 -1.6969423 -0.118953414 -3.199989 -5.14827 1.302852 -3.543441 12.288026 0.5882676 -4.506592
3650 5.326376 -3.7259393 2.6844344 3.0842419 10.82017 -9.196014 2.0277472 -8.662219 6.812748 11.640484 3.9327717 -7.211367 1.9078317 -8.64627 1.7302783 2.7563515 -13.133694 2.8486552 12.726733 -9.675158 -2.7078369 9.285864 -3.6590154 -1.6020056 2.1778204 -2.8843937 8.869884 -8.91017 1.3787215 -0.053282604 -7.711837 1.0134977
3590 -3.739689 9.698714 -3.622973 -9.353459 1.1611377 4.634538 12.561938 0.32536733 -10.057999 -2.8273299 6.17959 -7.602829 15.5367985 7.950031 -8.209396 -2.216352 12.066272 -6.156279 -5.2488627 -4.7590523 -16.130457 -3.8339252 -3.441615 6.9871407 1.6479974 5.713747 -2.0738404 -2.8917336 2.0015373 -3.6785164 3.3954737 7.088943
460 -2.4844549 -4.1327105 -4.9588246 -1.1936715 -6.2388678 1.3920901 -7.8101716 11.48633 -9.306156 9.269567 7.486208 3.7174456 -8.454796 -2.8309796 -4.9526267 1.1330851 -1.1384436 -3.343167 -10.658628 0.62534755 7.475166 2.262916 -4.8123116 -9.503698 -0.20568818 -5.320903 15.829373 9.963933 8.811403 5.2860503 6.3351517 4.095531
3346 -0.094636045 -1.4088221 8.654716 7.2045226 0.88138217 -9.88103 11.27825 3.4520166 -0.875972 8.113624 3.3112943 -4.613798 -10.080385 2.5444946 0.19919974 3.4573932 12.461016 7.4775825 7.7908506 0.09596213 0.54683703 -15.039687 -2.597821 3.4573915 -5.1773643 -1.0125108 0.43590122 4.7090797 3.8081217 -12.752954 0.082748674 8.953416
1069 2.5643926 -4.0002804 1.7682381 1.2516055 4.4013577 -5.5570135 4.5400753 3.121091 6.8814406 4.797034 14.230451 -0.708532 2.8369453 5.6126165 -5.7655787 5.7180614 6.227943 3.1691337 5.651824 5.3098855 7.715951 -11.340091 1.9994457 -5.7818656 2.9230783 5.2866054 -9.01095 -0.2424481 7.654656 10.210358 -2.8506906 -2.8469157
3324 -0.87361157 7.5370374 -1.8939875 5.963047 -17.596506 -5.7700925 3.976236 4.4973507 -4.149303 2.6090455 5.293731 -5.2193136 -13.163143 -1.6040462 -7.827393 4.230965 -0.5363505 4.7974524 7.171939 4.326821 6.967755 0.94096226 -3.3868887 -3.9188707 -4.492132 0.56054807 -7.5276456 7.523703 -4.8917413 2.5174215 19.249668 0.29447773
1459 3.2595494 -5.827398 5.980455 -9.263527 6.3629155 3.9419432 0.31089738 -4.8971634 -4.364851 9.4004545 -3.4874303 0.21774271 -3.2622 -4.229564 6.4103336 13.376261 1.0003136 10.558561 -18.8485 -3.8345299 -9.572653 -2.4239187 -1.3573112 -2.561319 0.5798848 1.9635586 -6.991492 0.9153185 -1.1409905 11.390498 8.089492 -4.93376
3370 4.2512755 -0.56239504 12.343048 11.774246 0.12230918 1.4191502 -1.1858053 12.107322 -4.809895 2.1653712 -0.93932617 -4.036797 -8.975708 -10.414055 -5.033254 3.5459735 7.721829 0.70635587 3.181509 -1.0929941 -0.73464036 -16.401 4.928334 3.295124 -7.554038 6.3894954 -1.7403281 -5.5064125 8.770495 -2.209255 5.5334682 -0.3845189
1479 -5.1813097 5.87978 -3.267719 -1.5737951 1.825616 -2.1045616 6.4507427 -18.284668 0.4593346 6.051389 -23.830523 8.881218 6.5623493 3.0943742 -2.2459404 9.202614 -6.346379 5.91015 -2.1569927 -7.7737355 -2.8281312 5.52038 4.544123 -13.854112 -10.8254385 2.1309123 4.0380754 11.307973 -7.315837 7.755783 1.4863968 -2.2700446
1426 -2.8880172 5.8314767 4.232795 3.676318 2.0367138 8.992306 5.435889 8.29399 3.7439563 0.16011217 9.011438 -6.1549654 1.6707152 14.191633 -3.9784744 2.8980927 -13.365135 2.0077271 -0.19365795 9.405125 -16.043121 1.6251621 -6.938778 -5.622065 4.6056004 -5.7401805 -3.0680137 -1.9431998 7.333894 2.0312853 4.4818234 1.8528651
3697 -0.78609 -0.93825054 -6.108409 3.1793017 6.03417 -9.996195 -10.623057 -1.6510564 -0.30670875 5.3720393 0.24987227 0.6735182 14.21027 -1.8521315 -8.790192 4.943078 2.5177424 -8.280789 -11.204734 -2.346858 -2.949553 4.479242 7.2957253 -11.778187 6.683882 3.759915 -6.4130354 -7.6766915 13.254655 -3.8295138 -5.1510653 8.869082
3334 10.487752 9.004229 10.065916 3.6368706 -2.8803964 1.8658644 9.222491 1.9012699 -4.621782 -0.66030204 3.4269423 -10.115003 -14.276326 -1.4882946 17.059397 6.593564 2.3778784 4.881847 0.79069984 -2.076151 4.6227026 -9.881197 -1.5397434 2.9576788 -5.8012 6.960046 4.3459535 8.043494 9.062694 0.46513912 -0.7242547 4.001476
1458 9.135204 -7.5113916 -3.1680205 -4.3178163 3.0187142 2.405588 -1.4005569 -6.6802287 4.534341 10.983198 0.9049587 8.618676 2.2139423 12.648669 3.0008764 0.1722751 -1.307157 10.728261 -6.0328803 -12.377786 -6.087598 1.3433307 -4.167549 -2.4348063 -6.665546 5.5830126 -2.449496 5.0715103 1.9223529 8.456622 12.706706 5.966319
3596 -1.795277 -1.0751574 4.5906496 -8.192613 -12.638116 4.496354 3.9961705 2.4276624 -9.504516 8.214644 1.9433984 -11.6939335 18.441422 3.810624 -5.910301 -8.993311 1.5044273 -9.917814 8.337785 1.169367 -9.057879 -5.248003 -2.3012342 11.847145 2.3543563 1.3208463 -1.3886641 5.634291 2.4331074 9.831329 -3.2062755 5.6550417
3387 0.9243727 -4.527681 8.592183 -1.5477402 1.8929493 4.08833 -6.6867585 -9.624032 2.4115596 7.5498796 -9.246279 -22.964022 -4.2215962 0.25869077 0.6277101 3.5332472 1.1571761 -2.1689968 -0.74001807 2.9879673 4.190381 3.4307892 -12.47086 -3.0767133 8.931194 -3.5695567 4.3941784 -1.8903648 1.684021 -4.580515 2.8443205 -8.961218
3375 0.8701626 1.566412 9.354554 4.784818 -7.0372877 -6.1815906 1.4793715 2.2996361 -2.12653 -3.7378342 5.1024055 0.21224615 4.5986276 -2.0260978 -2.6596248 3.2957613 -2.4686043 15.837875 -2.8624394 4.595418 4.5772395 -10.417283 2.3494394 6.043092 -14.903273 4.5658393 -0.8935268 2.892499 15.934752 -5.9590664 0.6334305 4.8935876
3602 -0.510314 -2.5978572 2.0551822 2.6595135 -4.134053 6.208083 9.536227 3.1095889 -9.938437 -4.263612 6.6481156 -9.317245 5.380835 1.2046328 1.9731134 -3.657464 7.850702 -10.684702 4.0426884 1.5623294 -21.587845 6.533081 -0.24412498 -4.4276834 6.3750906 13.142614 7.327923 -1.7543595 -6.1495557 8.002672 -4.5473557 -3.5853221
3351 2.642618 3.148999 2.6415603 7.4645295 -12.075895 -10.105351 6.825162 1.9100542 -1.5267681 -3.6327584 -1.1649306 -4.9699135 -11.115353 -0.6717075 -4.848163 1.324631 -0.05199615 -4.3408437 2.7653031 0.3669906 4.3612547 -3.8186815 -9.993705 -2.160848 -6.3312206 7.630754 -9.880186 1.3688443 -5.568258 1.3820492 17.100515 4.5701013
1467 3.3404214 1.3006825 7.4845524 1.9322515 5.196238 8.63417 -10.722027 -2.2507896 -5.45491 -3.3754973 -3.9733515 7.69007 2.9237068 10.166166 3.130533 2.3334386 0.6487154 14.329561 -7.838885 -10.718311 -10.2876625 -3.389337 -5.1895533 -3.7620513 -2.5409353 5.5278096 5.938444 8.165663 -2.2851498 4.6538777 5.0672984 -8.256742
1428 -7.850386 2.5467324 5.72094 4.55391 -3.0584822 12.555876 -5.6799507 5.5818787 -7.362929 -4.1290054 4.4714494 -6.1155863 -1.7970212 -0.079917274 -1.5846645 -6.0242867 -13.186716 2.9224374 2.4553616 7.3293843 -12.356615 5.681756 -3.3431127 9.251301 2.506676 -4.987484 -4.003331 -12.022262 3.743312 -0.5039459 8.948208 4.189375
1505 -11.898012 -6.771731 10.593327 1.2488823 -4.455085 -1.6074823 -12.025599 9.377826 -8.516488 7.093576 7.0147448 -3.5945053 2.8172479 2.247457 -0.0069899326 2.9361982 4.3728642 -6.026853 2.1091387 -4.746651 0.761657 6.8180604 -3.1438892 -16.063541 -3.6318448 -10.064131 3.9315019 3.4216142 2.0006275 -0.6351836 0.2610059 0.60014546
3679 5.3788776 -5.7634187 -6.006748 -3.6762812 -6.757232 -5.11982 -7.3537536 -14.483492 10.527403 10.681707 -0.048551906 -1.893814 -0.46709746 2.3986502 0.42460924 2.9738579 -5.7930074 -8.284615 5.1810665 -10.221419 7.288525 -4.0940733 -2.8033762 4.7990813 2.1721747 -1.1491383 4.273867 5.622301 -1.2148632 -1.9870865 -15.741837 -2.4442759
1403 0.39525875 15.0657625 -1.5457718 6.461424 4.8450265 5.0913844 9.676758 5.810149 -6.058895 1.3557429 0.26579174 -1.521459 0.14947273 1.8274828 -5.617367 -7.1161585 -0.927019 4.1099496 4.4109235 12.288099 -11.263823 -1.7151467 4.4042554 8.753218 14.323456 0.8500708 0.3926459 -10.841788 6.1704698 -1.423991 -5.401991 3.5320604
3350 3.5140564 0.0028084952 1.1762732 20.013874 -6.506345 -11.14912 4.501898 13.475297 -1.6575193 2.4500144 5.857241 -1.6297095 -6.0201254 1.1234387 6.7293525 -1.5085024 -4.6633406 -3.684696 -4.152249 -3.703165 0.78663975 -12.487023 -1.3674376 4.918493 -13.41776 0.33196095 1.0963275 -2.6916704 3.7468157 -0.90163743 -2.9100027 4.4873285
1184 -0.518409 3.0144165 -11.839477 -4.6511316 8.812671 5.73254 7.207923 -5.272254 3.4952455 -2.4359791 9.314003 11.461382 -11.03704 3.4426455 10.869742 5.696099 5.506328 -14.51372 -5.044003 5.049451 0.7827958 0.18353607 -2.127498 -9.736365 5.275501 -4.879584 1.2024615 -2.054411 -0.8854685 -4.899345 3.5635548 1.346948
1064 0.44301036 -1.9480679 1.8185893 -1.8939967 18.289825 3.5677297 1.8698031 -3.8894253 1.7777786 -5.8583126 6.5657554 8.549099 -11.695988 3.3676271 16.09859 2.7983546 6.2715254 -18.031513 -1.9189968 6.0704165 3.9717586 -0.9968641 2.9538615 -7.548297 8.114683 -10.380317 -4.2386394 -2.0672693 -1.4342116 -1.0590535 2.6588879 2.2438543
1236 4.059702 0.4253662 -2.1611352 4.8274913 -0.344087 -12.063417 -4.133882 -3.4675486 -15.078416 -6.194882 10.408014 2.1749215 -4.3589516 -2.3913 -5.8910384 11.760534 7.409183 -1.9375225 0.7525028 3.8605494 -4.3367424 -5.856238 1.7566925 0.5170884 -6.870408 -6.4770966 2.972655 -0.7977239 -1.6644602 3.0231783 -4.956422 1.8721703
3698 -6.090688 -8.320935 -0.059945676 9.08615 2.735764 -4.4460106 -11.587833 -4.8519497 3.055506 -0.24963233 6.059996 3.297528 5.329289 9.714142 -19.640465 4.079829 2.4269755 -11.334707 -5.9880123 -8.038056 -4.309463 3.6069682 10.38627 -0.8533327 5.733472 5.7148423 -9.045384 -1.7166115 -3.9094386 -4.4047155 1.4635478 -0.69739044
1410 -2.957977 9.507396 -7.848486 10.71407 -4.3407183 2.0062068 -2.0244536 12.428484 -3.6799874 -2.3578322 -2.0337691 -4.8735 -0.47178906 0.28651306 -12.686005 1.811995 -0.53801954 9.185994 3.9011903 19.476118 -8.765686 9.064857 -8.470044 6.9093103 7.2563324 4.533054 -3.882978 -0.30630493 -3.1340594 -4.2633986 -7.8091183 4.0788364
3327 10.1157675 3.819636 4.247182 14.02031 8.440215 -7.0107126 -4.375345 11.781551 3.7244422 -1.0050104 7.4680214 0.85857916 -5.7310843 5.7652063 2.3944297 13.255102 4.1921167 5.697212 -0.22338504 3.0579982 7.212589 -7.052342 6.8301344 -2.2470653 -5.807504 0.7299405 -7.720578 7.5982494 9.626974 1.4322908 -2.8855605 -2.4749482
319 6.187434 -4.503485 -8.991265 -4.7763124 -2.3829176 1.8513889 -10.923081 6.389606 -0.46886128 -16.699501 14.088499 5.29141 -9.656317 1.225525 11.0568905 3.4005828 -5.0452304 -4.8911147 2.557881 -0.47324005 0.8781305 0.89278173 5.8639627 -12.243643 -6.6099424 -5.403155 -6.942446 -7.138879 6.9746804 7.777859 3.4552665 -4.9407773
1511 -16.579475 -1.2662997 4.765859 -4.012755 4.132848 -4.5194497 9.295863 4.9994345 4.915883 -4.634626 8.060573 -7.3363523 5.6433883 1.066074 -2.5506692 -5.891619 -2.9576585 0.15566818 -2.3010678 1.106148 3.854922 4.558093 -6.4736037 2.3218076 8.348758 5.3095946 15.0436 2.8260622 8.055724 2.0051217 2.7628343 -4.0761414
3748 -1.6151268 1.0361199 -8.166628 -4.5856624 12.974978 7.05214 6.0767956 -5.34522 4.930534 -0.2154431 7.404771 8.516268 -10.30759 2.3460405 7.6697164 7.4842544 3.1997483 -13.884963 -6.797206 2.9824233 4.9778595 1.6561631 -4.267198 -7.6358595 5.6991606 -3.8851116 2.3970156 1.1700335 -1.8587366 -8.203121 3.0262268 4.050793
3690 -7.1577516 -8.3617735 3.4451556 13.312165 12.606198 -4.254241 -7.558432 -3.223403 -0.68181914 -7.191046 -0.6340912 -2.4064236 11.528138 -6.03238 -12.562171 -10.358268 -0.70150936 -2.1492746 -7.413901 -4.751599 1.0862347 -3.1653357 3.0340693 -13.548443 1.947581 4.8163934 -2.4687908 -10.427776 -2.17416 -5.2435603 -0.74430174 2.3255062
3694 1.9730963 -3.9381561 8.851397 0.8033871 0.115991585 -0.5318082 -15.847695 -7.365554 -3.9990854 -8.694896 -4.1950088 -0.96110135 2.2401145 -2.2295775 -13.21233 -2.787431 1.1157352 -17.045872 -11.805441 -4.5779223 -1.5326581 -1.0986493 2.628719 -10.352468 7.396834 5.017218 -2.6298006 -1.1976564 0.41705415 -2.1352391 -1.5861224 6.8085623
1391 8.595809 4.125458 -2.1393418 -6.639479 -0.032944806 5.1155457 -7.047868 -11.857215 -2.3328662 10.754487 4.2650175 -4.9774156 -3.7024372 -10.93847 -1.0338061 1.4025565 -6.7172475 -2.5397506 4.637224 -18.752712 -2.363681 -1.690158 -4.208648 -0.6258087 -2.6031158 -9.76124 8.284252 -7.1036973 -4.6391864 -4.2893934 -1.7587112 -1.1350368
1475 -8.345462 -11.967255 5.6081014 -1.8086618 -1.7239926 10.285785 2.6622143 -3.2996497 4.213039 4.271156 -2.7467682 8.877963 5.2226086 0.7066984 5.157047 2.2753892 -3.790407 11.062204 -8.417279 -0.91750765 -8.374666 -5.74591 -10.608377 -4.8304152 -8.392699 10.850007 6.698392 1.2733871 -2.021247 6.364773 14.148079 -1.8869907
3683 7.1876984 -3.2568922 -3.8351936 -3.4135082 2.4687068 10.235992 -2.476781 -7.335031 10.762602 4.4299946 3.4725995 -7.1453695 -4.942016 -0.97579074 -12.663477 0.80476415 -14.739709 -1.009066 5.107412 -15.454902 0.62080747 -1.4586594 1.2616134 -1.9440566 4.142737 7.797742 7.382521 -4.4205384 1.4303137 6.1031084 -5.197182 -6.130608
1411 -2.530045 6.8080063 -4.635476 11.538185 -5.540831 2.2297735 1.7978169 12.789933 -2.9164147 -3.4320464 -0.12527144 -2.273795 2.8749084 2.1182954 -9.381614 -6.078831 2.143447 6.851683 2.3356736 19.976347 -10.823767 4.4199095 -1.8492655 4.7983937 6.8021894 4.116367 -1.4561368 -0.34376836 -2.1197116 -3.7936063 -6.072967 4.8593826
3893 -0.33752728 -3.6703942 -6.5860443 -3.3518121 6.4526153 10.243133 -4.3804364 -10.881513 -4.1694493 -3.988132 -10.375526 0.19086377 -5.532307 6.901172 0.5386589 2.885767 -1.2933427 12.873318 -4.905404 -4.296008 -5.6046996 -18.27188 -0.3256738 -0.9927292 -3.6408677 -0.91558623 1.5013375 2.6046543 -3.7138245 2.9416704 12.699136 8.624069
815 -3.964736 -5.039197 -3.383354 1.2765865 7.8134494 4.0511336 -1.4791869 5.5953403 -0.118415326 3.9620907 6.52996 7.7678566 -13.019913 7.268496 8.632874 -2.4311323 5.9935794 -8.596883 -3.8477962 -6.3395767 6.1618824 4.3804107 -2.6895936 8.017481 9.2811 1.1640246 3.6441529 -13.872683 -3.5042481 -0.8561726 0.47411075 -9.33724
1495 1.0158105 -0.7341566 3.2044828 -4.2398815 -4.5303946 -3.7154264 -9.80657 -2.2574918 -7.850362 8.742653 6.4541664 -0.053470228 -3.957404 2.33873 -6.748909 -9.368143 3.7438686 4.7900143 3.7417517 2.4896688 8.734806 6.399597 -1.0222363 -12.457187 0.40644673 -16.668545 -1.202202 15.095152 7.6177306 1.3046458 0.31765953 6.254122
3659 -0.4036884 -18.863865 0.090036206 0.3966464 1.5675927 -1.9977896 -5.9855614 -9.047534 10.2757435 0.09119729 2.943865 3.376133 -7.809743 -8.506054 -5.6882014 -3.2332408 -9.414036 -6.1634645 8.38871 -6.5919495 4.688766 2.4466877 -1.3670101 6.252278 -3.4428186 -0.3838353 15.119609 -5.9304094 -4.573947 -1.5578929 -4.02814 -6.6469893
3635 2.9048047 -4.741333 -6.050911 -6.1407833 11.151042 6.678672 0.75596464 -1.7840425 10.819267 -4.3349924 0.8767775 -1.1581433 7.0622735 -9.348501 -3.9548454 4.8508334 -4.794034 -5.217047 8.831068 4.373065 1.9848038 10.566152 -9.215242 -0.37955216 -6.46218 -0.44654918 -1.4539876 0.5895946 -12.328132 -5.5404544 -7.895544 5.265406
1492 0.5566577 -10.998845 1.9550527 7.7508535 0.9889974 -0.47355404 -7.220556 3.9834363 -4.365035 2.4051356 4.5726366 -6.754108 -11.849929 5.140563 -2.4634082 -3.3514895 1.2334268 2.732307 6.4083123 -1.1154304 4.458531 6.0987716 -0.4161441 -18.406017 4.2180614 -0.13324152 14.024472 8.477959 3.3718712 2.0125353 8.203858 3.5773523
1182 -0.64148164 -5.3511066 -3.1178522 -0.4692372 4.7886224 5.9851866 -5.6484575 6.316577 3.8583972 -2.6291726 7.8252606 6.849534 -11.112115 7.4599996 11.765747 -4.616555 3.5024242 -10.712049 -7.9703817 -6.1479673 8.182837 4.7549143 -6.2952704 6.6844726 6.2250004 3.1984334 7.6140714 -11.715805 1.9652947 -1.4339852 0.7558532 -11.033286
3680 -0.8247351 -5.2879453 -3.2104292 -9.362845 -2.2930784 3.044927 -1.2696271 -5.9080033 4.9637327 7.4272046 -1.5597113 4.911942 2.932251 -11.558905 -1.1759073 -5.5790663 -14.330404 -4.455128 -2.4482992 -16.307522 2.822839 -6.7740855 -5.55334 3.705815 -2.8512528 5.8320403 3.0308266 -10.844185 7.110418 -0.27549216 -13.19304 3.6203372
3685 -0.36671898 -0.42175466 -3.8478103 9.347874 0.98308766 2.4669142 -4.7640386 -10.394485 0.2385081 2.4284642 -12.181317 3.1056168 -0.15112877 0.9844374 -9.949847 4.6621923 -18.734503 -9.943772 -11.537208 -8.794617 7.8852506 14.372791 8.820383 -9.89788 -15.170428 -3.819028 4.373549 -6.8962545 2.2269964 -9.506518 -4.3543253 -2.3404846
2042 -3.8822289 -2.6694555 1.4002602 -0.6890266 10.914704 -1.9597001 1.4626724 2.5468576 -5.5362053 2.584708 4.7136846 13.138381 -10.441613 1.6237544 11.372492 -4.4063497 7.426079 -14.708847 -3.6787248 -6.5075192 12.284722 5.968562 -4.8947196 9.027038 7.667088 0.45109946 -1.2376444 -10.556521 -1.8349848 4.371923 2.7412784 -11.382886
3808 -1.3502022 3.9750037 0.43919116 -9.37727 -10.977789 3.6729403 1.3908588 3.2974463 -7.996029 0.9274478 9.755561 -6.703241 12.725964 5.450906 6.0043354 -4.864587 4.7034645 -12.069764 3.2474763 5.6679506 -9.48219 -5.27685 -1.0006618 13.768998 3.8647976 -4.065023 -1.5395443 -2.9331958 5.9117136 9.9572315 2.3578134 3.3052802
3600 2.8517375 0.6169994 0.2777384 -3.022506 -3.5774987 1.144934 4.0603375 -1.516242 -3.4275138 0.7197189 6.760798 2.806905 8.741812 -0.3803498 -4.7541676 -14.798107 7.916136 -4.7848606 10.347508 2.2477396 -8.763437 -8.577424 -14.732244 -2.4890318 14.117673 6.62413 10.848904 -3.7361414 -5.1549535 -3.2905872 8.128849 1.1614579
1465 -3.0742362 4.637557 -5.7462707 -3.976202 1.4396126 3.9695709 -1.1513225 -7.589979 -1.2966774 4.491687 -13.403717 15.2465925 4.6094184 1.541661 2.5273325 0.5958818 2.019889 15.75567 -1.6913496 -0.8072067 -5.812029 -0.87411964 5.4389224 -2.629012 -1.5528793 3.2585492 -1.2238294 -1.1293088 -4.5127754 10.548935 4.504524 -2.3568997
3326 4.9360685 -6.7122955 8.768217 12.918786 1.9297752 -3.843447 -3.1618052 2.7579966 4.1643634 2.7689393 1.3978803 4.671185 -19.09145 -1.8426486 7.279657 5.4274426 -7.455714 12.691522 -6.228903 7.9439754 9.43289 -7.437922 2.548589 -0.80336726 -2.4010203 3.9189813 -10.826889 -6.204809 10.887349 -4.100106 -3.1420703 9.231696
4058 3.562571 -1.44361 -6.1304545 1.3629642 2.7965846 -6.470605 3.1426497 -9.324067 2.798456 0.46248645 -20.872768 -17.97884 5.031697 -2.7472682 -2.028043 0.059923373 -1.462711 -10.672823 2.7086163 -4.19024 -4.1367326 4.411581 -2.0418959 -7.9369116 -7.2233686 -7.7731495 8.143457 8.412746 1.6065481 -4.163607 0.38265723 -17.174694
3373 -2.8580477 0.7697148 6.4116316 19.651112 -0.6399597 -5.0694427 -1.5866748 0.28960046 -4.7872334 -3.9934144 2.0763266 1.7217966 -10.870544 -4.1011305 7.215131 7.09961 5.886926 5.201034 -10.770553 6.2564116 0.06896866 -3.9883177 2.925379 2.439294 -5.5592794 5.6178055 4.940371 5.3059497 6.874081 -14.347196 0.6067023 -0.65261984
1416 2.8153284 2.8348246 1.1912649 1.1960071 -7.6668124 7.476449 4.9410453 -1.9931453 -0.40275192 4.3367057 15.366397 4.113478 -2.8845596 7.261079 -4.769856 -4.295177 -11.639236 3.0868 -0.10116163 13.72827 -2.1222486 -0.37787464 -3.7875972 5.750275 8.586842 -0.9037115 -5.9176183 -7.3117294 -4.432102 1.8256705 0.33569866 13.376531
1422 -3.23488 -6.3260117 -9.828624 0.5723506 -6.7325363 0.4551751 -1.1313984 9.15757 -1.9761295 7.9883175 8.917435 -7.473535 -2.15199 4.109832 -9.509793 -0.22306389 -6.225094 6.86299 -3.042735 8.013885 -12.423363 -4.039141 8.565446 8.07594 7.5354795 -6.5594287 1.0364983 -8.207937 6.8886003 3.4190254 5.8534675 3.069256
3642 4.1258125 -1.9667561 -0.6519063 -3.7889187 7.92992 -1.1618702 -0.10373398 -14.654518 5.16377 7.5695357 -2.9320004 0.87697977 -4.403697 -20.814034 -9.150768 -1.6757492 -6.041361 1.6736827 6.0824475 -0.030795926 4.632383 -4.717337 -4.598988 -5.344922 6.973188 -1.29202 7.4570932 5.7010856 2.8034272 -2.2541053 -10.582813 -1.6912506
465 0.03193514 1.9340625 1.0402099 1.9997878 -11.08472 -2.516875 -3.0333052 5.9539146 -7.3396435 6.6679287 9.249002 3.0116317 -7.373155 4.6823616 -4.5174723 -0.49717227 3.9673893 7.8356767 -7.938153 -3.603399 7.009603 1.9703219 -8.265398 -23.522274 3.0460765 2.8243182 -0.40951878 -2.1826003 -2.9359045 1.7966831 -1.6087955 -3.0581043
1408 -17.557182 -2.3029368 0.7666119 2.577686 -7.100061 -6.907788 -0.87122214 -1.7816639 1.3818748 1.7223933 8.684793 -4.886658 -1.2563848 2.9103131 4.108875 -3.271222 -5.3426704 -0.5418445 -2.9057045 15.24439 -9.982006 4.1481524 -5.9655657 6.160064 14.824729 -4.6219506 3.6114707 -1.7211739 10.16226 0.02089446 -3.9140084 10.526374
3647 8.114801 -1.355507 7.490889 -3.2972593 5.957062 3.5380936 -2.143514 -14.834698 7.6865234 3.0410204 3.932861 -0.6622846 7.147446 -7.1800103 -6.5248394 13.15034 -1.0776377 -6.977059 8.092754 -7.336283 -4.2257223 -0.9051015 -1.1194137 0.4041698 0.9042752 7.761481 5.890114 -5.5457544 -0.3110027 -2.0763817 -11.74509 -14.42895
3328 -1.3793364 -0.71251893 4.6188297 11.916753 -6.9182835 -0.690044 -1.824521 3.7895644 -1.5212785 -2.1418471 3.3430738 -6.928838 0.18965209 -5.560366 6.6306415 -0.19821274 6.9925523 0.9012727 -0.6935037 6.092711 1.6195701 -16.77751 -0.98461115 -8.85566 -9.729519 5.9707813 -6.517085 10.952163 10.807898 -2.0331004 -7.059859 11.652307
3591 -6.272696 10.000235 -8.927374 -5.243197 -1.941172 -3.247762 4.24775 3.6492033 -3.3034792 -3.648546 4.8827252 -8.2701645 5.4629755 -0.41892752 -2.2237427 -8.852526 15.485551 -9.943248 11.018184 -1.3469651 -4.4550476 2.8293765 -1.6504648 0.9527481 7.960147 -2.7126522 -2.8539896 -3.2128086 -10.739777 0.960618 -1.4157062 -0.31727323
3611 11.276886 12.38135 -7.248929 -2.2660005 -5.504684 2.768688 7.114799 3.9440887 3.464617 -0.21472536 10.630052 -3.9216502 10.539994 -2.9098248 -0.5206282 -10.965933 6.600966 0.14529702 8.213257 0.22904588 -16.697117 -2.8295112 -0.69464344 -7.786922 4.475617 4.1260424 5.9581184 7.965108 -1.6466143 6.1793485 -7.100145 0.30680776
3691 -4.8489156 -11.467459 -0.9883124 -0.6394297 8.556892 5.541907 -7.8909225 -2.930377 -5.748278 1.398098 -1.4676342 1.7031968 3.2158272 0.4113484 -17.028276 -7.434005 1.2729924 -5.5822873 -14.139426 -0.4992092 2.001982 7.413351 -0.1394016 -5.1466484 5.387931 5.185258 -11.672129 -2.3020208 12.778006 -1.0524579 -0.50476956 -3.3353655
3612 -0.27478006 0.49740222 -6.5651836 -9.499877 -6.999832 9.29553 2.7126267 -2.8946273 -8.381331 -0.9131916 3.2499776 -1.6988658 -3.6378548 -0.78439045 -3.8409135 -15.666572 14.318704 6.9629693 8.039631 -0.3009166 -14.1739025 3.5568805 -7.9481835 2.582105 2.4468303 5.769766 0.86186904 -4.7772093 -1.3506582 7.963722 -3.1426315 1.2076837
1402 3.284458 9.0910425 3.9585128 6.132094 -4.8213778 6.0586486 7.574792 17.668638 -5.1566925 -0.18126065 -2.2528043 -3.3408782 -6.4697785 -1.468235 -3.6000373 -6.641557 -0.7585391 5.6568265 7.3588047 18.281204 -5.816174 -2.485291 4.2228227 2.3857827 5.9460344 -0.38394004 3.34581 -10.381464 4.0095677 -3.0369177 -12.262555 7.4339395
1526 9.400432 4.2426257 5.025414 -2.6485612 -5.2080073 -9.528979 -2.6032755 0.66528094 0.21493033 -1.2101862 1.9188817 5.5627575 -6.756571 -4.617408 -8.10953 -15.195823 2.7412643 4.647335 -3.9899788 0.8523639 8.1361 -11.1469555 -2.842346 5.2433352 -3.4291217 -10.372713 2.0503714 3.176774 -3.2802198 9.678183 -5.6301565 -2.82795
3322 4.3513494 -2.4434342 10.104831 7.613201 -13.292808 -5.56824 0.023201495 7.366005 -8.515934 2.5222824 -6.276534 -4.6573405 -11.783109 -10.450041 9.529359 -16.273659 5.3189263 0.83958775 1.6727138 5.74586 7.0957923 -8.550872 9.302466 2.1898837 -1.5771359 -3.1527798 -2.06364 -5.9713078 4.154546 -8.736693 -11.063416 5.987964
3371 9.706061 -3.8217883 9.11207 8.496085 -8.021109 -2.4057627 3.312406 7.8578787 -1.5864753 -4.8766 0.6438176 0.399799 -11.022998 1.4569318 -2.7643597 -0.503762 1.1744604 6.379915 -3.9239016 0.7119829 -14.526172 -11.386872 8.955198 -2.6668437 -12.537512 2.428179 -7.409772 8.258181 8.25224 -4.5758557 -5.5944653 2.4446468
3360 6.8495946 -1.7878609 4.800125 8.282587 3.4943295 -0.73031557 -2.273065 9.681957 -7.6346345 -12.698424 16.718573 -5.6567793 -11.612008 -0.7241021 -0.2846399 -6.503542 6.313728 1.4777855 -2.2803745 -0.19325851 10.28964 -13.40971 -1.0058858 5.177118 0.251503 4.368863 -4.505666 -0.11167521 6.350734 -10.369417 -2.7386582 7.5262136
3862 -3.9970028 4.5046773 4.388787 -4.2070503 0.781945 3.1832533 12.422874 20.86326 -9.413811 4.0504503 -7.358907 1.7757123 -9.417158 -3.5038376 -1.2020947 -2.4386263 4.077885 2.7625022 6.425518 2.9948292 6.153838 0.45729515 4.096143 -16.61106 -5.2121873 -1.4037958 4.245376 -1.932275 11.359762 -2.461265 -12.654512 5.426855
3586 13.468867 0.111117564 1.0757278 -0.00917293 6.317408 -0.69912046 -6.498281 0.07137598 4.2290974 3.6613097 -5.412344 -12.332421 -1.695606 2.5663044 0.031536896 -0.22293903 12.677206 -0.31145364 -3.339258 3.1715643 -12.182291 8.874918 -3.1136782 -1.1506319 -6.8305964 -12.520393 5.4359117 0.3832425 5.468233 -5.4310513 1.1931609 -4.911914
3824 -3.1908278 3.710469 6.081942 -3.4981217 1.4261389 3.768347 9.466051 21.346786 -8.967965 4.771233 -8.754394 0.9689966 -8.229724 -4.3337755 -1.0560054 -1.738653 3.632174 2.705196 5.2539835 2.3946435 6.0509453 0.8929333 5.4492207 -16.671911 -5.5021563 -1.3913172 3.0700843 -2.1041694 11.5386305 -2.3967829 -12.770788 6.067182
3646 6.665718 -3.3196318 -0.9100878 -0.74275535 13.342267 4.239265 -1.551875 -12.654355 1.7781571 4.748316 7.9874086 9.615323 -2.403873 -0.57182056 -7.7553473 -3.2544181 -2.2949142 4.654894 5.595666 -12.884147 1.9024858 1.5088531 5.313835 -0.19090268 -4.0175357 -2.6437838 7.8373976 -3.3169303 -0.60031307 -4.1810203 -21.290127 2.8516197
1221 -8.503616 7.839124 -6.694468 0.47962484 2.5380397 8.574469 -2.3118997 -7.8277726 -3.7654276 -3.1189039 11.216834 10.851655 2.1376143 6.438948 14.282458 -5.036029 -7.649614 -3.279623 -4.444173 -3.472859 12.7567835 -8.79354 -5.4422293 -0.57747555 2.0854306 -8.574104 3.0747364 5.3785567 -4.9242644 -3.2165213 3.7733264 -1.6456122
1418 -6.6672926 9.556527 -1.3641095 6.70175 -5.683384 10.763868 -1.2524076 6.3474298 0.74465734 8.704205 3.7204077 -8.299512 1.3020213 12.753917 -2.525661 3.8692925 -5.5740294 -2.3861518 -1.3580885 4.6474366 -7.3471866 -6.6552014 -0.50778604 -0.0038886887 10.45807 1.0145028 5.542531 -2.000077 6.2370825 -2.6950243 10.758383 13.371192
1414 3.2243268 2.334256 -1.2861828 5.2112784 -4.1300716 10.623911 -3.013602 -6.198783 -10.366505 5.135678 13.700291 -3.9127395 -6.1471 11.575386 1.7036707 4.65452 -6.0835953 3.6629636 3.438175 8.247097 -10.737195 6.210819 7.3152366 7.9725847 9.504581 -4.594343 -0.60634243 3.3881276 1.2909155 -0.19079348 2.968817 4.726201
1496 -1.06256 0.46524942 8.038109 2.252148 0.5770565 -5.6058717 -3.3490517 11.976364 -3.9333127 12.204227 5.9189086 0.110980876 -10.794748 2.339774 -8.216159 0.4402268 -0.3954795 0.05266542 1.5679016 -8.97592 -1.0807925 3.4561186 2.991429 -8.4262295 8.89123 -9.708756 6.346515 12.863344 -5.4948916 1.1516728 0.62850106 -1.3314469
4019 -7.112056 2.216702 -2.142462 -7.749037 3.805189 2.537369 10.676204 3.6639004 -5.448614 6.0820584 -16.733917 1.8384335 -4.360188 -2.094445 -6.4442396 3.0290866 -4.059271 -2.2633104 5.620816 -9.070767 6.9594965 8.040746 2.278977 -19.991434 -10.941951 -2.826069 10.512898 5.5029545 5.4691305 -1.2618015 -10.412035 -1.8163244
1521 9.80273 -6.136708 5.3411756 5.637972 7.077035 1.9828486 4.4715 5.381943 -4.971508 -1.4283834 -0.39777434 -13.146705 -4.7889524 -3.5896022 -1.8404449 -6.2753897 -3.7311783 -6.74385 -5.440579 1.1110879 -3.493974 -2.0938282 -0.5476437 0.8409741 0.92006516 -9.130643 4.6658483 5.811478 -3.3440475 -10.6407585 6.8182926 -13.912625
3585 4.917134 -4.824554 1.4405676 -4.412858 -1.0647407 -5.8939033 -6.4033475 -10.702132 3.7883248 2.1382985 -3.340172 -4.722694 -4.119811 3.0696483 -0.033950355 4.704834 11.32106 3.2063792 -3.8216312 8.6161175 -5.6524014 10.869145 10.673697 4.452874 -6.120273 -13.370412 3.898722 -3.8072948 2.7513034 -6.2075806 3.1710904 -4.9027658
3347 0.2917871 3.0906587 18.349411 10.998824 1.2721112 -3.8485246 9.717127 8.568519 -3.615663 2.9489639 -0.11728768 -6.5793643 -1.1198888 -7.6648393 -1.9093874 -6.0495133 0.48129642 15.570102 -0.18483119 -2.074381 0.77023655 -6.2867947 -3.53004 1.7596475 -4.8463054 10.047627 -7.593833 6.216923 -0.60880023 -0.22491623 -7.091553 3.4595652
3678 8.411306 -7.819083 1.4471058 2.8780494 -5.635627 -0.23226753 -11.932428 -7.9775133 -5.6733546 6.3531604 -9.964432 -3.8517935 2.9548943 -8.654515 -9.098122 3.4153402 -12.872304 4.7980514 5.29407 -4.9752083 0.5094716 7.3278217 1.8122337 -2.8973284 -10.938524 1.7374517 4.550107 -3.1816745 4.605429 6.2115827 -14.87308 -4.7244935
3686 -0.61144614 0.37339547 -6.4761486 -0.012194203 1.6340603 0.19791354 4.8170404 -7.192473 -1.8035418 -8.062809 -5.7504554 -4.4884315 9.003465 5.4534607 -11.226472 -0.555126 -3.0370789 -12.482007 -10.317581 -15.716084 -5.906114 6.587398 2.4983232 -5.9065294 -14.200587 6.483963 4.360799 -2.7086725 3.3551357 -4.780194 -6.464982 -2.463796
3648 3.1304562 -1.9148213 -3.335421 -1.8097526 -3.1756556 3.489131 -4.291102 -6.7163906 3.5981274 4.045693 4.6295543 2.6458247 6.87171 -6.0039816 -12.717012 6.4544134 -19.557129 -3.7588773 14.232929 -3.883086 -6.0122437 -8.007893 6.1148577 -2.7621124 -0.68647915 -5.4926257 9.862537 6.954889 3.075289 -8.791312 -7.4688983 3.0414402
3332 -0.8668273 -1.2781457 12.945214 0.032515135 -3.254557 1.8607407 4.2895427 8.223197 4.9357514 1.3342339 12.128387 -6.8833113 -12.058526 -3.8647628 8.589159 0.3439489 5.048088 -2.2704322 -0.23387492 -6.5867386 6.3336225 -11.655829 -3.490299 3.7824912 -13.142996 -2.692942 -11.652748 -0.49630597 11.804403 -5.182423 -2.3949187 -3.7163587
1542 5.093388 -7.381531 -0.77636886 -1.9317033 -4.5760455 -1.1090546 -2.0425017 10.31773 13.58449 9.282813 -4.4410133 -13.825384 0.720428 -1.2003809 9.260051 3.611751 -0.05203936 -10.569844 0.03702339 -1.5278848 -8.329616 4.083611 3.4929152 -0.0835772 -0.9363986 -5.7573276 9.969788 4.1180177 0.07004285 -5.502742 9.920574 -6.623839
4079 -6.8740315 2.5493162 -2.2916942 -8.84445 4.095508 2.6445005 10.84205 2.5880473 -5.2378125 5.965272 -17.199142 2.1191988 -3.6412158 -1.6650031 -6.102647 3.260901 -3.5881426 -3.4028916 5.5505652 -9.31153 6.7673426 7.88629 1.8832103 -19.996075 -11.158633 -3.480928 11.266811 5.83059 4.637709 -0.15008567 -9.597964 -1.6432406
3608 -4.3342166 6.0183053 1.4229974 -10.816907 -9.487964 12.541637 4.07633 3.9442303 -6.39462 -4.4953823 11.811238 7.524133 4.1125417 -2.7588618 -10.80641 -8.675791 1.2275541 0.33584768 4.126072 -0.4977248 -9.7879095 -3.6675143 4.340615 2.9228072 11.7905655 9.505109 3.396868 3.6909864 -3.544026 2.174401 -2.0339034 -2.51614
3329 0.7085157 -6.773101 12.32941 6.545749 -0.89993614 -6.7775655 2.3040872 16.326927 -1.819597 -5.230799 6.253068 -11.233041 -4.3680263 -0.4554399 7.7639627 2.607673 12.505809 -0.20814542 -5.944947 4.7627788 1.6599938 4.789563 7.217369 3.8843331 -9.1507015 8.28602 -7.9278035 -1.8828408 7.792618 -0.67105716 -1.2875012 10.263772
1156 -7.430374 8.806403 -2.7174494 5.8319354 8.918185 0.7604238 -0.6736544 -3.4864423 -7.2643948 0.31061465 6.2208104 10.714459 -0.30896205 5.0668416 13.512735 -2.2576897 -7.164605 -4.466271 0.82568204 -1.9140348 9.493462 -5.95036 -6.102002 -0.17338707 5.1656284 -12.404544 2.4526436 2.0603669 -9.542988 2.7408442 1.1653885 -3.6707926
3352 3.3990355 -4.4766073 15.615872 6.496997 -1.7259336 -3.3741245 14.13475 -3.3341868 -9.387257 0.28536963 12.231864 6.153004 -9.751017 -5.315059 1.8605131 -3.3772664 0.21508446 -0.50521976 -2.0949214 1.7775086 -1.5730096 -10.203718 5.006561 -6.690263 -5.666678 4.5547585 0.4462111 -2.3802295 11.45387 0.717085 1.8606238 3.4107969
1520 16.667519 -2.0025253 -1.7299149 2.3285623 10.174946 1.6200718 7.5994186 5.3229938 -2.465494 2.7511504 -7.081925 1.2415662 -4.1539297 -3.938188 -0.5711869 -7.5701766 -9.525583 1.2198503 3.2554595 -1.2710639 -4.7077174 -3.593926 -1.8912668 -3.4025505 1.9675168 -4.8299446 0.45469147 0.34170717 -4.8314915 -10.340778 13.284387 -8.616423
3603 1.852489 -3.8637192 -7.2547636 -6.2347374 -3.8277533 9.855669 0.8593809 -3.3421278 -5.5003495 -8.649531 7.9790053 -7.484656 8.254573 3.588526 -6.05624 -8.770981 14.797498 -2.8098938 0.42790282 11.845982 -7.862551 -8.755546 -0.48104993 -0.4680945 5.544416 0.8255715 9.162587 5.2732964 2.4893413 -6.624888 -8.094464 -4.981315
3589 -5.5708523 5.6283455 -5.5827765 -7.0738964 -12.85711 0.35883927 4.013792 3.8473532 -9.289799 3.603865 8.016127 -4.13125 10.287971 4.320532 -1.5106845 -1.4668033 3.418664 1.3516314 2.2296212 1.8286508 -14.005025 -2.7426362 -0.15751167 4.116194 3.0315762 -3.1633303 -3.4108114 -3.450516 -7.378042 7.716234 11.308572 5.754182
1528 5.0491586 7.1598897 3.6657162 -1.0432439 -7.129382 2.2824664 -9.112026 3.84427 -2.7088509 1.3216372 -4.388087 1.4143405 2.6757388 -4.8848314 -7.1681614 -14.088946 -2.5887957 3.2087638 -0.62661225 -0.42218938 2.7374895 -14.879427 -0.9238623 -5.5321965 -1.92231 -12.049147 -12.141356 5.436622 -0.0759266 -3.0952725 -1.6713641 -3.4844835
3356 6.5131345 1.7693886 8.906273 8.587177 -6.0473795 -1.6962607 5.2755218 6.418191 -3.5045965 10.438 11.203779 3.034987 -10.369696 -5.312487 1.8356743 7.524141 8.495952 0.35606885 -5.3044567 -2.8023574 0.22749113 -7.5009065 5.097977 2.274271 -2.8717465 13.13435 -4.6845956 -0.53799045 2.0889988 2.5331407 -11.417224 10.282367
1425 6.4355884 7.675024 2.1512666 9.150993 -4.23447 0.6856453 -3.894996 -6.033347 -2.9493167 1.8703421 13.106982 -8.505971 1.4227955 1.0823646 -5.1144934 -1.790338 -1.4746977 5.5682325 -6.4236164 10.781212 -10.851511 4.681813 -2.0581548 0.5536212 3.6424866 -0.64120275 3.3363616 -9.912666 4.0829816 11.37765 6.032438 9.321688
1258 -7.4793153 1.7127433 1.5788093 3.6771536 13.667811 -0.51153576 4.4202123 -6.980048 -4.4354424 1.9195228 3.751566 3.8726304 4.6990547 5.360552 15.432661 -10.509996 4.5860047 4.4085956 -8.063897 -1.6231313 8.280629 3.5563543 -5.3004494 4.8220344 -1.41826 -6.962897 -1.3861575 -1.7672565 -4.3442607 0.6530237 2.8749413 -0.20735909
3689 -4.0932474 -2.4692729 0.7239905 10.915385 8.195444 -2.648053 -9.813446 -7.567594 -5.6769066 1.2422233 -3.500874 -7.7276196 4.744497 8.609717 -7.283335 -12.203408 -0.44784966 -6.2603207 -4.030733 -10.964563 3.6371548 5.429731 4.777757 -2.065719 8.2835865 5.274335 -7.8403025 -0.46914846 3.1694906 0.14099902 -3.9537878 12.668725
3722 0.7179205 -16.68657 -1.9104226 -1.8991272 2.3699548 -8.4822 -4.524485 0.42686108 -5.5076346 -1.3573233 -6.0288076 -13.014257 3.4348183 -10.482186 2.3990602 0.053659044 1.268002 -1.1168025 2.5159614 5.127768 -12.714986 0.25964564 -5.0479574 -2.7022474 -2.8685598 -6.4344263 1.5917605 1.7667243 7.9076533 -4.5615883 8.525167 -3.8301322
2696 0.8625254 13.994974 1.7152132 1.4841913 -3.6106799 -4.368474 -3.6556323 8.679259 5.960239 -3.1240828 5.0454893 2.704472 -3.992601 3.1032262 2.5190363 -5.9556036 -0.35138735 -4.9136624 6.711344 -9.263737 0.55169266 4.291689 -2.5807333 0.36411798 -2.2288473 -2.660066 -6.6175227 2.7205763 8.387697 -11.875042 -2.9763386 3.1004086
610 1.1006813 4.5627594 -7.681619 7.513457 -7.140029 -6.842556 2.9925268 1.0630256 -0.36391082 -11.942429 -3.486617 -1.9230876 -4.821379 0.8023906 -14.012206 5.0715604 -1.2720534 -3.3911653 1.078124 15.851123 6.023047 5.335108 -1.6918585 0.9378508 -3.5979316 8.520374 -9.152428 8.79976 7.2955794 -4.647579 3.5174944 -0.79013497
3664 12.418349 -9.655412 4.034885 -3.798671 5.7077365 5.831438 -1.1606039 -9.679429 -4.0580773 0.80122036 7.4503684 -0.24467178 -1.6691105 -1.4801444 -4.771179 -0.44727013 -9.665822 -8.650865 5.294706 -2.6763363 -4.2209177 -0.44185984 -15.140546 -2.3749225 -2.8841782 -2.7710328 11.751517 4.8665557 4.798564 2.2267773 -11.02521 -1.3984381
3357 -2.5403552 7.294288 6.5778723 4.1114025 -5.069438 2.220621 0.8857236 7.626444 -10.842173 7.126199 2.938796 2.983213 -7.6277804 -0.044242702 4.2094784 8.346374 1.7446581 4.526564 -5.491711 -3.7599766 5.720579 -12.505521 12.113942 5.552581 -8.024752 -3.4804437 -10.958663 2.5832973 2.248086 -7.8062167 -5.6304226 11.453977
3336 5.612823 4.417829 15.31198 7.905671 -0.87587005 -3.7535284 3.5015051 11.491003 0.19907562 5.133153 2.2227354 -0.89362144 -4.048767 0.84129846 3.895958 -5.0148826 8.783977 0.743704 -16.624846 5.521078 2.5006769 -8.192922 -0.71012557 2.2323887 -0.15739644 0.40913385 -6.119419 5.721302 9.127995 -12.065738 2.9967797 8.488511
1474 -0.16766095 1.3191663 1.8822585 0.48625675 11.93672 6.965997 -4.1440125 -5.7602153 2.443217 2.9111204 4.8552685 12.172022 3.5513437 -0.5132123 -6.8467307 1.7725811 -0.69226 9.354222 -10.080457 -5.9843845 -6.379673 -3.9290106 -2.9305105 -4.9695835 -9.021253 -4.675083 -3.211724 6.4946704 -7.176725 11.409952 11.150391 2.0127938
3349 0.17714554 6.0183263 13.793205 8.584967 -3.6793768 -11.68138 -2.9237237 -0.39392692 -10.061862 3.257864 0.023556361 -0.8663014 -6.077294 5.1710124 4.3529806 -0.077188864 3.941947 3.5206046 -0.8777417 -4.3168907 -0.741893 -13.2660885 0.5987084 -0.42316136 1.790784 -1.2875407 -6.436854 -2.9727697 18.392595 2.9737718 -2.5961394 -4.467021
3666 4.934005 -19.737795 20.061302 0.76246965 5.7511067 -1.6900048 -21.72409 4.492123 -1.075239 10.524844 3.4729705 -12.270679 8.271848 -5.22073 -2.8798032 -2.3654156 1.2649926 8.936139 -8.953058 -14.002657 2.4340267 -2.1907694 8.779397 -3.6475582 0.7292391 -2.3903515 1.578477 9.875921 12.239988 -3.7478166 -2.6627648 2.4985585
3665 -0.29397622 -10.605644 19.360964 -1.527896 3.313964 3.4783003 -11.9538355 -2.4844291 -0.6847916 16.113436 7.111942 -4.573549 2.1776533 -0.018114902 -5.429336 5.7349076 -5.1466002 10.970045 -8.928927 -9.513743 14.539737 -0.99768007 1.5616355 -2.7920024 4.5042715 -0.5622096 3.0836036 9.544846 4.5746045 -11.144255 4.4337153 9.954077
1343 -9.958559 4.226394 -2.2311802 2.0809484 6.62619 -0.17174752 2.8652418 -7.6145067 -6.3737674 2.3525262 3.8792067 2.3059452 3.1431084 3.9449453 13.79753 -5.739649 2.3792708 5.829666 -8.398119 -3.69975 4.5420175 5.1197357 -6.494131 3.0986292 -2.6103296 -5.7142076 -4.315942 1.3646581 -2.1577575 -3.5872786 3.2987833 -1.5235366
3833 2.964309 1.9676046 -5.014542 0.9637508 1.4753202 -2.6421366 -9.863948 6.228569 3.9808445 -10.972691 5.4537873 6.802065 -15.458767 -2.8380527 8.842133 3.0756965 -5.35277 -0.55745953 5.0501385 5.597754 -1.454765 2.9851902 2.1564105 -7.1942086 1.3549243 -12.467122 -3.3940935 -6.925185 0.44138342 8.271218 1.5531305 -15.702535
3640 3.5848966 -13.891084 -6.41233 1.794559 6.524578 9.98629 4.4711695 -13.010683 -1.1594131 16.684803 6.931372 -4.0209255 1.4750661 -7.6271353 0.80689245 7.1110463 -11.182449 -7.4904976 3.972594 -1.7863901 -1.9794115 0.05738207 3.5925744 4.4191585 -3.163917 -0.10307981 6.7001452 1.6568978 7.099394 3.6881256 -8.796912 -3.8577442
1429 -1.1880827 0.473884 5.527655 4.055536 -9.139405 0.16889511 2.1098049 1.4471152 -0.7502429 14.757268 6.279249 2.445868 0.80125034 5.153983 -2.0660968 3.0913072 -1.0897518 -0.78571844 6.4050064 11.361227 -12.525847 9.0086775 2.0595388 2.8668613 7.204275 1.5631766 2.1969373 -9.671994 12.836498 2.2119243 11.136212 0.5032807
1427 -5.976646 8.017411 5.9687605 0.140735 0.33243084 6.797985 5.978954 4.737605 5.6385508 5.579879 17.83944 -5.6401033 -2.5440302 -0.94530797 1.8625787 8.594129 0.67871916 2.2904568 0.47961122 10.412235 -10.189817 -0.5799398 -0.8403955 14.781832 7.40007 -5.4506116 6.4882274 0.077351 -4.3110204 1.4023271 9.551273 2.0535622
3317 -0.75343734 1.7674534 1.4525312 4.9534874 -18.034422 1.994896 -4.328351 1.1870425 -4.3814745 -2.786662 -1.3353989 -3.1847715 -7.1726546 -8.85671 5.8722577 -10.762037 -2.6188028 6.075175 -6.324513 5.586408 7.1726475 0.2952786 3.7083366 1.8819327 -0.39218685 6.8733735 -1.6455555 0.9313066 -4.83269 2.5633602 1.617225 3.9839377
3673 -5.527409 3.830851 6.156397 -4.513113 1.8669524 2.1862054 -1.3314459 -13.531801 0.5629624 9.786767 3.3416326 5.7069397 -0.9840268 -1.7327162 -5.564435 9.85286 -19.066303 -6.839815 2.8281903 -10.040067 4.433402 11.109125 -5.3604984 0.0869963 2.4164522 0.6805203 3.5335617 3.184898 10.401902 2.819684 -9.133734 -3.3439999
3662 -2.5370145 -7.6095557 -7.7948203 -10.978779 8.904631 8.177784 -8.792338 -12.609432 4.024009 10.00064 -0.5140055 5.0681014 10.64432 0.51439166 -3.9703593 -4.941174 -10.360153 -6.267796 0.67690206 -3.1614518 -11.724925 10.839971 -0.18670264 -2.949452 12.959309 -10.632871 16.654768 -3.7510154 0.039763194 6.322098 -8.263473 -7.3080645
3656 2.1122897 0.319417 -0.32848093 2.373283 1.1405967 1.9688051 -3.6653585 -3.0664265 4.5259805 4.5400033 8.4277725 -9.446244 -0.8974682 -8.580593 -7.765621 -7.910058 -8.16411 -18.583641 5.9383483 -2.3453317 6.117632 4.2879047 -3.2414584 1.2785536 4.739046 -8.375029 11.209935 -8.543537 8.410827 -9.417981 -19.857626 -6.0169578
344 -2.8445716 0.054771528 -7.4100094 -3.1660683 -4.740412 1.4986244 -8.435719 -2.6260803 1.3825315 -3.3512661 -1.2593254 2.0232587 -8.074478 1.1476988 15.668089 6.016522 -2.2723947 -8.824147 4.0631385 -2.4625392 -1.8943748 2.7734652 7.6944966 -7.9379277 1.2361339 1.7949656 -5.6755915 -12.461172 2.627988 14.40141 3.5539596 2.5107744
1473 -1.2342649 -12.877547 -2.1587024 2.8175642 0.31611422 -0.66597444 -11.294649 -2.1960032 -5.950138 14.0886965 -5.374983 10.064886 1.8574343 7.0087585 -0.8354448 8.351402 -0.8865619 6.26028 -4.42161 -1.9981703 -1.4240971 -10.658663 -7.010282 1.0975555 2.045829 -0.94744384 -1.4973015 7.1743207 -8.514428 9.536312 8.774517 -3.6651502
1417 0.5553871 6.977712 2.7988338 5.986131 2.1269333 4.547638 -0.83373207 3.7531621 -3.5870173 0.43780845 4.9347134 -2.7994454 2.8237915 8.280494 0.08536185 -2.1547995 -4.623504 4.5166907 2.287353 10.958399 -2.0081086 -1.092024 -3.2059197 7.0786443 5.652219 -6.0747685 4.6310973 -0.41878778 -2.8239648 2.805711 5.9793034 6.4931774
3323 -5.6766343 5.748153 7.4613705 9.755973 -19.358912 -7.4453454 -9.458686 5.0263762 -1.7089425 3.6166937 11.583441 -4.9001055 -10.648855 1.0919602 0.4973253 4.81425 -2.5966141 17.274355 3.197282 0.76966035 2.1599002 1.3313556 2.3922527 -7.109884 -1.175201 -5.2427 3.8004446 5.288929 -2.4362352 1.5523598 8.025385 -1.8594112
1471 -1.2162092 -9.360445 4.5168743 -3.4142854 5.993422 -3.9122539 -8.396609 -2.5241308 -3.3624039 3.804151 0.41805276 13.25511 -1.162095 -6.403642 7.7554584 0.007895777 1.8533947 17.208511 -6.3793464 -5.2316375 -8.598789 -0.5505961 -2.6417398 -8.077629 -0.72749853 -0.60543 4.9671345 2.4162455 -6.3326335 3.0174518 4.7097015 12.918536
1541 6.4775786 -1.3881347 -3.909362 -1.2721738 -9.491762 10.80408 -4.755563 9.754528 7.59371 5.224468 -2.868686 -5.8432603 5.0395274 -0.17187244 5.924271 7.9738293 -3.7640157 -2.4667463 -2.7085936 6.094034 -6.1057663 0.3201917 3.7073176 0.28116617 -4.4955826 -0.058487687 5.797186 7.7436957 2.4890587 -4.321632 4.633155 -14.212058
1421 -5.7189507 6.2549806 2.0186436 4.643346 -7.8340406 5.626869 0.44295764 -8.153262 -6.689623 9.166735 6.8867407 -2.9611537 2.5038972 -2.2799132 -5.534957 2.7853398 -2.489367 -0.13724388 0.0920111 14.924039 -15.369493 -7.4493566 3.8490558 -5.192101 8.034391 -11.695086 -4.1148586 -4.242024 3.4120457 -5.029105 5.6426196 1.7180672
1430 -5.512773 -0.0060634785 -0.8093618 11.709158 7.259713 6.3869643 1.8335584 -1.5652796 -0.5306744 5.701505 7.479018 -2.979242 0.020713374 5.604779 -2.4486465 -10.632956 -5.8341894 1.6565304 3.4690788 8.574323 -9.408763 -4.106461 -6.760622 10.056933 5.469749 -7.2060294 -1.0099798 2.0867426 8.281084 3.392789 10.118829 1.4411752
3369 6.5666914 -2.2998643 11.994347 8.313124 -2.1909287 -4.7137957 3.3200116 5.6191955 1.1509316 2.9407718 5.9561977 -5.7805796 -6.476533 1.3227793 -1.0963583 -2.6248064 2.0432818 -4.282259 -2.1024847 4.6131244 4.890164 -10.705837 15.811701 4.609898 0.41672626 0.01347115 5.0049005 6.1353736 15.993941 -5.3069077 -5.00535 8.665197
2695 -6.2426248 -2.9684765 0.57486457 0.65096414 4.545198 -4.409368 2.4379964 -0.6268785 -2.1296127 -2.05835 2.8461912 -0.73677033 -1.9838694 -5.0398364 -8.243169 -4.1662216 -7.7897153 -7.320269 -14.040552 -6.2396026 -5.809576 9.357692 11.662883 -1.5872943 3.69158 -1.0386081 0.4815878 -4.614453 -5.062533 -0.22245057 0.8672658 8.589688
298 4.653076 -2.3754091 -1.4256583 0.3070093 0.13154045 -7.39558 -7.47565 -4.233185 4.3550525 -7.631486 6.559726 2.64082 -4.72608 -8.282642 12.153383 -1.7429181 7.8878717 -5.6666284 -1.5114295 5.3138013 2.404217 8.271032 -6.2266464 -8.892312 -1.2580073 -0.60592026 -1.1855042 -4.294875 1.3053768 7.9838796 -2.8655975 -7.9710217
1490 -0.10828928 -2.8361201 7.3780456 -0.088809155 -0.6847746 2.4326837 -0.7743374 20.02075 -6.719515 3.791567 -3.178974 -2.5730536 -5.2272177 -5.6887913 -2.8798296 -1.7205669 2.387959 7.452896 1.1291302 4.3590584 7.350131 2.019788 5.065015 -13.2308 0.69961977 3.7302856 5.743601 -2.9956207 14.041402 -3.322591 -8.970288 2.8768868
1455 5.5432744 -4.587367 10.121529 -7.0092654 6.2297635 5.504338 -3.6602895 -1.996891 5.3276815 8.661517 -1.3509318 1.5394892 0.95492876 -2.8531117 9.9777355 3.995529 0.5895906 16.441238 10.388786 -0.36906627 -3.4394426 -6.2493763 -2.4166737 -1.4127516 -5.7806273 -8.052382 2.3158753 8.699522 -5.214546 10.696267 10.445638 -2.90832
1419 0.0018214971 2.320114 -0.21841533 -3.9116678 0.8661962 6.166232 -3.4540546 6.30406 2.2665393 -1.8622094 11.931564 -4.4648557 4.677345 -7.832615 6.3069973 3.2079196 -9.142565 2.085326 4.2335224 13.472292 -10.478416 2.4823189 2.9357412 -2.2775524 11.175098 -1.7640835 -11.099571 1.9574757 8.07219 7.39038 13.962878 4.7894344
3376 6.1664476 0.33078626 12.249268 14.8952465 -4.2981815 -6.6385703 1.1922914 2.6768758 9.1828 1.0807754 6.7016416 -1.1086016 -4.6043572 -1.1329405 6.191292 -3.5862024 4.260203 -1.3987516 -7.500597 8.578713 1.6545652 -3.7887166 -1.571401 -0.9418615 -2.4649398 4.513765 -2.0049317 0.13609979 17.750381 -6.726676 -8.584573 -9.856625
3693 1.6104203 -6.1266384 -2.4913354 5.89785 -0.6883161 2.197492 -4.05004 -0.0786747 0.5754801 -8.689498 -5.68762 4.9985085 12.667814 10.428269 -1.7351437 -3.8752398 -5.7948537 -10.104887 -13.428651 4.7303176 -0.10728165 -1.0864824 7.4300475 4.351955 -2.8603277 6.545716 0.07329283 -6.003224 1.8273976 -2.5667815 -6.2339272 0.6375219
3615 2.2968159 -1.3590101 -3.0261457 -1.531914 -0.25281915 2.3650913 9.075497 1.7806643 4.100988 -9.2232485 11.114437 -6.3497844 7.5749817 1.6183538 -6.068575 -9.871079 4.8956957 6.383675 14.738387 0.10642828 -11.772311 -3.4998603 0.9722821 8.881867 -0.46526426 4.8981123 3.353529 -5.123491 -6.5436077 -0.22346349 1.2561808 -11.628478
3388 1.7372124 1.0390615 13.078024 1.0377822 -4.879089 -2.602323 -10.870784 -5.9971766 2.0157228 -2.4970765 -2.3098092 -12.859329 5.436617 9.028632 4.4017334 0.34064358 -2.2326405 0.6888708 1.9457508 2.635114 5.462074 5.3181973 -6.0235276 3.3252878 8.330606 0.87522584 5.350106 -6.7059135 -3.8812356 2.5318968 5.792121 -8.839037
1515 5.277146 0.50128245 -2.6406648 -0.1598307 2.2827032 -2.1976671 -6.260345 -2.37611 -6.3276634 4.9059324 -5.3023987 -4.7554154 5.774457 -2.5022511 4.486536 4.5615225 7.221014 -12.010477 0.8335579 0.77495086 -5.32709 1.449495 -2.630581 -5.642734 7.4153247 -3.0734868 -1.7728552 15.37001 2.2350922 -5.7554154 2.8417497 -12.62905
3653 -1.4631749 -6.8405056 -8.557692 -0.3940192 -0.12885098 1.4577186 -4.547401 -14.2467785 11.720516 5.103403 9.563119 -5.695788 -0.9392882 -4.9496074 -7.1560335 4.092588 -2.3749948 2.4898925 0.5873944 -8.243506 -12.060872 1.6869901 -4.4767833 -7.1253133 -3.5708206 0.37758562 10.7410965 -0.2874098 4.8014684 -3.4677992 -9.854837 0.6844564
329 3.389731 -4.2379484 -6.079344 0.095975526 -1.3823153 -7.711076 -5.466011 -3.9407887 4.1105103 -5.8421817 7.847555 3.9730778 -1.5645896 -8.682133 12.843771 -0.603768 5.9338293 -6.4694552 -2.0246775 3.113232 2.8613017 5.385209 -5.5568795 -6.3569117 -4.1221356 1.9791216 -0.7663119 -5.060824 3.6456528 8.374042 0.08498429 -8.128689
1956 -3.7533085 -3.3408523 8.185268 2.910091 -7.8269477 -9.15451 4.5660195 4.7768745 3.782836 1.2679764 -3.218341 -1.0777506 -3.2199469 -7.1664915 4.7047725 12.021045 -0.96018696 1.3740695 7.6652694 7.1470375 -5.047454 -6.985058 4.285627 5.6769633 -3.0951269 7.210063 -5.430581 6.315706 3.8935535 6.422686 -5.197466 -3.530075
3655 9.064695 -3.2740262 -3.352189 3.8200037 4.0671554 -1.887919 -3.4695055 -28.696943 5.7457447 1.8055278 3.4140694 -1.0353551 3.9766533 -7.6500707 -4.404576 -3.885555 -12.902017 -8.53251 1.3455521 -2.7436223 -3.8632767 -0.8598914 -1.8046063 12.76173 -1.4391923 -3.313434 0.45688337 -1.4746083 6.056123 -5.137759 -2.6328483 -2.1847613
3311 -3.8526552 -0.9475674 -2.1390822 6.0210443 -0.29900745 -4.0968637 -5.0801764 -7.0034957 12.947543 2.143078 2.7246993 5.4832797 8.242618 0.2844474 -0.63350445 7.2738967 2.6660068 1.0060492 -2.7820942 12.151097 4.9624305 -4.2544236 4.303105 -5.1488166 1.953862 -1.5771075 13.485754 5.4610453 -3.9749541 -0.35740283 7.571487 -6.1622095
3062 -2.3889709 -1.0874128 0.4720714 4.245892 3.3064687 -5.1477094 -0.392589 -18.824419 2.5662713 1.4020154 -2.2830958 3.6242058 -2.955427 0.45979702 5.9477344 -0.712332 -0.02639433 5.313551 0.06894215 -5.4128623 -8.199621 5.001674 3.5272653 0.4395998 6.7921376 5.9737153 -3.7284772 8.924855 -6.316567 9.730076 8.5381365 -5.9028587
1506 -6.8357425 -2.8083174 1.8044086 1.4939145 -6.1397557 -6.0203233 -2.281456 7.0450125 3.0776176 6.76048 17.48233 3.805745 2.8418546 1.0929203 -6.6639967 -8.003364 -0.73180294 0.9341167 1.39905 -8.832048 11.848517 2.042313 5.0448804 -9.638233 -2.006119 -3.0595691 4.3398147 8.0366 -2.7647471 -1.3573813 5.470957 9.620051
346 -7.4925084 -5.4942484 -3.5502176 -4.02788 4.071487 5.663553 1.9020307 6.0431805 9.385378 1.9029498 -5.8790984 5.1188273 -8.912746 6.346108 2.298765 -2.9471312 -0.5497079 -11.261137 -1.0555098 4.401247 2.9585142 -10.513173 4.6544795 0.4390871 10.695669 -5.876643 -2.7291892 2.3416266 -2.772856 2.0013394 2.2385542 -6.9370036
1457 1.6938742 -3.7204921 8.776518 -11.155821 -0.6993962 1.6698738 -9.674377 -11.297931 2.3602812 -0.4250785 -3.5560331 11.179137 -2.9071572 4.9475546 -8.048889 4.5444493 -4.0719824 10.470581 -2.2624507 0.62853706 -2.4105706 -0.5157906 -10.422485 -5.622487 2.9067416 -3.3971124 -1.033423 -1.6272765 -5.789734 2.7450073 17.311996 -2.0265975
4156 -4.680609 4.897702 2.7216582 4.6968117 12.9912615 -4.821756 3.637731 -7.439819 -2.8175983 6.0907693 -4.14558 5.2182965 7.1404467 4.350184 11.606714 -2.8361773 -2.4003015 3.8897917 -7.722494 -4.4598527 1.168626 -1.7880816 -8.622378 1.056008 -2.8937821 -8.6427145 -0.23649934 5.1345363 -0.12098025 -1.2722203 2.3884683 -0.6214809
2044 6.53178 -0.65770644 1.4054565 4.089575 -1.7093201 -6.5592213 -0.5754084 0.9833488 7.624811 -5.552147 0.6520775 3.9615967 -8.900659 -6.0086093 6.2017827 -3.1950064 3.5134752 -3.036265 -1.483956 8.429519 2.204291 7.689403 -7.0978346 -6.135258 -4.492556 3.6671593 -2.4802897 -2.9892476 11.956886 2.885403 -1.1893166 -10.015159
3597 3.4607787 1.3636551 3.5639083 -12.790595 -3.2866318 1.8442616 3.3022017 -1.613183 -4.7698584 -5.5614743 0.85164213 -1.068134 7.8605666 0.86156416 4.955729 -10.9002075 8.553582 -6.7722664 11.946701 4.62334 -1.4475644 -2.8134627 1.5838457 5.802661 0.31605256 -2.9217126 4.6268115 -5.9563417 3.5866206 7.298847 1.8639089 1.0437012
1451 -0.032899406 -6.754714 1.0405984 -13.541261 3.6129615 -3.320023 -1.8816351 -4.21639 2.9524415 -3.9179106 0.8547839 10.613043 3.5838404 -0.26700696 0.76995933 5.520801 9.591195 8.887226 -1.2028748 -14.252077 1.6341484 -12.744665 -3.008839 -4.968493 -5.3182864 7.198746 -2.403739 12.09234 -4.728443 1.1875154 6.152119 -5.2429943
3704 -3.9210956 -9.868889 -0.4096437 -0.29733565 3.4042954 -6.273511 7.354836 -2.237194 0.55412114 0.019865671 3.0448785 2.501079 5.847127 1.7195798 6.8184958 1.8200324 0.70067126 1.0364747 -6.01927 4.983442 -7.5495286 -3.4130592 12.355288 -6.301123 -2.1086287 -6.7009473 8.894173 14.391246 -6.2871623 3.5113695 0.7050918 -1.5649254
3335 9.439105 2.2068665 14.025216 12.349308 1.6738394 -0.027048947 2.9828558 3.610883 -6.055971 -0.13067232 6.619705 -12.059694 -5.3254356 -4.2296777 2.8254635 2.5303485 -3.6204689 -2.8583305 9.487071 1.1000252 -0.68856287 -11.71348 7.078967 -4.947252 -3.3175755 -3.4614263 -5.1718616 4.0082436 1.9592937 -5.838361 -7.1476274 8.251121
1446 8.707957 -6.7046375 -0.27645916 0.5622241 2.609325 -1.8929812 1.9491227 -5.6176124 9.326437 -1.6361204 0.9968747 3.9057605 -0.02527932 5.786882 0.3533505 11.474922 -4.9674764 11.0055275 -7.907521 5.1971936 -1.3013237 -2.5940042 -2.2103872 -2.9469638 -3.0024984 2.341205 13.562974 11.366077 -13.200319 1.658666 5.315374 -0.9667541
3745 1.8454192 -1.5810779 -11.344907 1.5982271 -2.4705803 5.105967 2.7998583 -5.922244 -0.8630136 -2.7664073 -5.2927666 6.2160916 8.01091 5.757528 -6.403743 -5.907507 -11.226853 -15.400789 -9.416425 -4.0809107 -1.4976553 6.1462984 5.6532884 -3.0899727 -9.686851 -1.2748247 8.936996 -5.8418336 -0.9218178 -4.19508 -6.776182 -0.5710034
1415 -4.266782 7.900575 -9.636288 2.6949828 -9.690372 6.6069155 5.3264894 -3.4462721 -0.8608336 6.6964355 6.9740753 -7.726087 3.0273204 -2.7662354 8.584406 -1.1049902 -8.336845 5.17354 2.7062426 6.3953433 -12.001959 5.204247 -0.5346198 4.618902 -4.367944 -4.733399 2.6100132 -6.5948644 5.826342 -5.2243333 5.7587833 7.193209
827 -6.635727 -2.8688889 -6.5465727 -7.6445527 0.16215302 9.225921 0.2469552 6.915539 11.66093 -3.734221 -0.7350949 5.222077 -3.661097 7.3260255 -2.0152504 -8.596944 -1.0484991 -14.842462 -2.4150655 1.1351817 5.6900797 -11.372903 0.0679054 -1.533519 7.067875 -5.1874557 1.289828 -0.36116195 -2.3883145 -3.1130433 4.764123 -4.5985546
3601 -2.3578746 -3.6792858 -4.1131816 0.36765957 0.68933743 2.933395 7.1782904 -1.3219496 4.9525757 -5.0754824 6.7346296 -1.5609888 1.8712717 -1.294792 5.861858 -15.089675 6.5943193 -3.31193 1.8370202 -0.6210236 -13.900882 -10.043343 6.5496745 9.13445 12.19718 8.351317 1.1541921 1.3865947 -9.224374 0.47111169 -3.7640193 8.737864
1488 9.533671 -6.684195 3.3715296 4.048993 0.09999233 0.35672975 1.4110007 -11.349853 -1.1287248 1.5775045 1.1191057 -0.00727737 5.7331142 2.461219 -5.691983 0.74826694 -3.9929845 6.923515 -7.963966 11.41667 1.5030446 0.5364764 2.5028484 -6.870394 2.720422 1.5863712 3.3016489 12.365258 -9.665963 5.379227 -1.464993 -7.446247
3720 0.4837363 -17.954926 -4.0053053 -0.9900109 3.8432798 -3.043425 0.2920338 2.2621126 -4.8672605 2.8477664 -7.3097544 -3.4971533 7.0757866 -8.897307 4.848338 -2.446494 4.783328 4.460678 5.5726585 13.727088 -2.696894 -0.15256187 -0.28742597 -2.0401978 0.35428303 0.17227921 -3.205789 2.149136 3.4256916 -5.109584 3.1841228 -8.406532
2043 5.680256 -0.2332144 -2.973139 -5.5860653 12.137618 5.67651 0.4461105 -5.778024 1.6837853 3.4820652 6.220312 -0.28329256 -8.777165 2.6931524 2.9600005 9.060183 2.7259345 -10.104591 -6.3581934 -1.1851864 5.663759 0.72739935 -1.0808172 -7.653115 6.529077 -5.477605 -2.735448 2.2405283 -1.2200543 -6.242779 -1.2078958 3.4707234
1485 -1.638808 0.3372951 -4.797759 -2.8317707 3.0716026 -6.7617793 -0.6177003 3.4692595 -7.1482854 -14.633129 -6.8334603 -2.2487824 5.392456 -0.37268138 -1.5363485 -11.777734 -2.5762122 2.9678166 10.577069 -1.3745035 -6.4809103 -4.3590097 -4.562241 4.1223726 1.0185643 3.760741 4.859219 7.632456 3.1736298 8.837055 -2.9582436 3.79713
3632 2.095861 2.1534352 -4.5079618 6.786456 3.3527143 -5.7197514 -5.869338 -2.0680103 10.534354 0.9223373 -2.7367394 6.823496 -0.19734596 -2.3409076 2.0335386 0.294301 -14.097013 12.207017 -8.352447 -0.38997993 -1.3053502 0.015000366 -0.62316215 5.560016 2.8645785 1.3450773 4.888077 9.3836775 -0.45034623 1.0512938 2.5181007 -0.018380998
3316 9.672197 -3.676183 6.035173 10.674271 -4.223322 -13.964461 -2.900003 -2.0407832 -7.756034 -3.821567 15.070945 -0.7150722 -1.0451919 -4.644108 7.697765 1.1472442 9.248085 5.9315586 -3.1676452 0.5013122 0.7607562 -2.6376579 3.9787533 2.5525246 -4.3301444 7.2362976 -3.4174814 4.3257575 7.7438397 -2.453628 -12.51393 -0.40318134
3700 -6.381295 -5.506942 -4.829222 8.862164 0.026279377 -2.8041968 -8.291418 -1.5138599 6.40115 -4.272659 0.9959457 1.6694736 10.628186 -5.1839457 0.91813076 -17.703215 -0.64458555 -6.8629494 -5.987454 -4.3087587 -1.0565308 -0.93433666 2.6443143 -2.87845 -2.646023 -0.57931274 1.6021365 -5.7527037 3.5135841 -10.415771 9.0601635 -1.7301363
1539 4.49641 7.3621135 -5.5257 2.417211 -3.2753613 -2.0821536 2.0653114 -4.0861206 10.714947 -2.2115943 -0.9605911 -1.208117 -3.9048216 1.013144 0.79056126 -15.708995 -1.0642356 8.568673 3.836041 1.8025683 3.2376275 -11.66549 -8.136741 -0.9807816 -5.467088 -7.169035 -5.3922124 -6.3116307 0.42418256 -0.3106651 -6.164218 -2.5900338
3654 1.2185109 0.9659201 4.865324 1.3522723 5.379973 1.1876546 0.96875465 -6.59261 -0.64522153 7.026483 -5.361431 1.1241287 7.5319986 -2.3087556 -4.555329 2.8959196 -17.023499 -9.101755 11.4058485 -11.439096 -5.222244 -11.309307 5.844112 7.8330026 1.7070062 -4.8111954 11.1114645 0.4550182 1.6649209 -6.797206 -8.659218 -0.25393242
3657 4.8044047 -4.7877684 -0.033490375 -5.222324 6.9478555 -4.964287 5.6662655 -11.264522 -0.6143771 5.740656 -6.529628 -0.07929927 2.0340512 -6.279892 -0.535484 -3.5709417 -0.44279772 -15.31691 5.046535 -21.224459 10.892175 4.3865695 6.2512507 -5.500215 -11.531862 -0.26196265 0.7644578 0.71248484 1.2675035 3.6921525 -2.5605927 -9.65258
1517 5.697323 -1.6085017 -6.911224 2.7582295 -5.42219 -8.337653 6.981562 1.9418833 -10.836239 7.521247 2.3485212 -0.51130813 1.5135387 -5.9136024 -0.66603273 -10.770557 1.0520022 -2.349724 -3.1982856 0.09673978 12.063808 -6.321514 5.7947054 1.0719596 6.001156 1.3227935 2.2285898 -0.68570566 -6.6268625 -6.8705134 -1.4552306 1.9954543
1489 7.0824766 -8.649673 6.347042 -2.1077075 11.230168 -4.4138184 -0.7386962 7.287363 3.6864967 -5.748833 -6.3608623 -12.427297 7.5388384 7.4402227 5.5030875 3.8622735 4.4354806 -9.222239 -0.8925854 -4.2108407 -2.6932454 -9.361399 -2.8709354 -3.418353 -3.0252533 -1.7198877 6.6475616 0.84218407 4.9911 -1.0551674 2.2465243 -7.2727985
2887 -4.44024 -3.577249 1.8222529 -4.216317 -1.6346642 -4.761923 -1.3716484 -9.420197 0.3559634 -1.2522572 -0.8998416 -2.512265 3.7983506 3.3262174 3.2280133 -4.7051506 -5.482026 7.8850503 -10.019977 -3.7654293 -3.012115 -4.3136473 -0.5323901 -7.0005527 -3.6020346 -2.9246008 0.11960713 3.9751499 0.3134034 17.406075 0.39825055 3.742469
1524 -1.3036779 1.5087415 -0.57136834 -0.5089468 -9.982687 -9.601969 -6.696745 2.9567146 -4.7335544 0.0024457152 -10.345663 4.4347014 -6.406352 -2.8255603 -4.9299192 -15.246727 1.9120181 4.5443444 2.9974415 4.911427 13.103263 -3.8782258 0.9526114 -4.8458567 -4.708095 -15.507757 -2.846204 6.101069 -3.8541408 -4.1152773 -1.2338451 3.6082194
3284 -8.488343 -4.7313266 0.48426688 5.437525 -1.1906226 8.467179 -0.22584413 2.8279583 11.899429 3.9245746 3.101877 12.945358 1.8987882 -0.6755877 5.762952 1.1206353 -8.368336 5.782093 -6.18575 2.5577877 -2.9826157 0.307097 7.023394 -1.8938676 -3.7645566 8.818525 1.7861565 1.2078184 -2.4950905 11.106813 3.2122915 0.5297804
3828 2.5787058 -2.36066 -5.7656 3.8271315 -3.879952 3.8385777 -3.5712402 1.8288852 -2.8820632 -5.702578 -2.1004815 5.975191 10.206639 9.28692 -3.7108002 -7.1638393 -4.7118716 -9.2966795 -13.143818 2.1968536 0.2098139 2.0776057 6.525367 -0.92668223 -5.5154057 0.027620569 2.4828434 -4.9064355 -0.43732727 -4.262464 -5.9186583 0.88927406
520 0.26530236 5.1237974 -1.153328 5.2386103 5.2785053 2.8154485 -1.2631099 -8.311687 -6.506266 -1.2445986 2.1286273 14.043768 3.415572 -0.44529158 8.980645 -0.3985847 -9.967109 -3.039329 -6.0559487 -3.0610294 6.231953 -6.669422 -1.4846979 -4.214201 3.6141121 2.594883 -2.6405983 3.876401 -7.7124352 3.2530935 5.008224 3.9264932
3358 0.27349526 1.4116936 17.92822 11.483762 7.231861 -3.5559998 2.245288 6.3368516 -0.39553666 4.8856854 2.1943214 -4.180413 -6.698272 -11.190872 8.861677 5.376133 -4.398847 2.8758514 -5.025441 6.840424 8.23962 -5.6394525 1.2098815 -1.7688961 -8.319655 -7.8987546 -0.74560666 0.17773795 5.194211 -3.4558575 -2.323082 8.207788
1144 9.620777 -4.3742986 -1.5089108 -0.44495493 11.690473 -1.6807026 -2.6362 1.0507232 6.5355034 -10.893751 4.9914684 3.0830014 -6.890652 -8.865363 9.867295 -6.4462385 0.48787096 -3.635718 -7.8473167 8.151573 1.8038739 10.193498 -4.180328 1.6995423 2.7247849 1.9845196 -3.1823268 -9.501934 5.027889 10.582506 2.9541948 -8.710289
3599 0.5116368 -2.8841088 -3.7244508 -7.1504393 -9.472912 -0.7547015 3.3695526 -1.9432663 5.613157 -4.8638496 -2.470848 -3.277477 6.206876 -5.1550245 -12.409247 -12.382895 8.5806875 5.042287 3.0044978 5.9269185 -11.718444 5.6435814 4.732042 -4.2608914 2.648881 11.112752 3.871946 -5.262744 0.8107506 2.9312766 1.2844523 3.634423
3348 0.5383883 5.506028 5.4983487 10.368705 7.68078 -3.7335079 3.817779 5.2586155 -5.477229 0.59111285 4.47536 -9.231897 -12.841391 -9.067896 4.357656 -2.3405607 3.880666 2.5881064 -4.4569263 -5.6985497 -2.502897 -2.5640206 -2.3530052 -5.8109307 -6.876606 -2.9508047 -8.812866 -6.097487 10.437066 -6.3622046 -6.3403497 7.891841
3343 12.206986 -3.596151 12.862154 7.4642463 -5.331717 -4.7206035 -0.38368058 3.207425 -1.7425967 4.2146726 5.168049 -12.162793 -3.4339654 -9.42278 5.452259 0.37105548 4.1143117 11.20933 3.4751818 -2.212928 -4.506748 -7.6071906 3.1006558 8.159488 -8.568075 4.6831384 -4.4107547 -0.59522307 3.8641338 -2.7444222 -11.85412 3.0515947
1450 -0.330762 -8.520144 5.58225 -1.1552407 7.759436 7.047289 -4.1147532 -6.683978 -6.1850023 0.55724967 -7.867057 -0.79049236 3.5144575 5.374979 0.30359846 -2.4169242 0.44572386 5.018452 -6.9065332 -2.5762913 -1.3052719 -12.2676325 4.9728236 -2.143596 -1.7220616 -2.9790099 -0.49694532 7.736901 0.5703138 -2.0766861 14.461144 6.273771
393 0.061624624 -5.955512 -6.3159456 -2.1328008 5.6610217 2.7433634 7.164947 5.258424 10.052704 -2.3640091 -0.9521705 4.4803624 -8.575891 6.466359 4.720995 -12.125886 6.3526626 -10.67731 -7.7559366 -0.7875612 0.6034211 -5.4276757 -4.119937 2.098102 2.1475825 0.76243293 4.0392666 1.1718127 -3.7369308 4.773247 -3.0348415 -1.6561738
3374 -4.460576 4.1039205 11.328985 8.881851 2.8315773 -4.5537724 4.6414237 4.754895 -1.085522 -6.055739 13.511354 1.1507977 -0.064895056 -2.2840388 3.9504375 4.619711 -2.3956532 0.69786495 -7.7380915 6.3257537 2.0289357 -4.05309 7.637505 -0.39765707 -3.8636098 -2.2227342 -11.408752 10.134632 5.9259596 -6.5829873 -7.547563 3.528559
1439 -0.07501188 -0.4302837 5.343002 4.863542 -7.036265 -9.38696 -3.744651 -0.6192964 -7.9390583 3.5358312 -3.024722 -2.7583153 -6.806447 -8.31364 2.185698 -3.015874 10.857773 2.1356452 1.2840785 7.8459797 4.4395027 0.7032889 4.322561 -0.93234307 5.5024257 -0.036814645 -9.188733 -2.2750208 -9.064413 4.393535 -1.6190739 1.9807265
3672 3.9173903 -4.59537 -0.5863732 -5.1118965 7.5051913 0.70446223 -1.4368441 -12.72402 8.356732 8.511515 -4.4423575 9.148341 -10.3362 1.5758017 0.17887431 8.358643 -17.998106 -8.32441 -3.9339206 -11.516754 15.779362 -5.8784795 2.424939 -8.6342 -0.93159 -11.3734455 11.170995 -4.7991776 7.1539154 -8.806787 -2.1961823 -12.692466
265 6.2620215 -3.86533 -1.9206395 3.5773525 5.1019545 -1.1709929 -6.48119 7.809364 0.9370877 -6.676194 8.773643 1.6243072 -1.8558779 -8.756653 4.9724894 1.9830447 -9.68787 -10.241012 -1.2389117 9.599455 -4.402761 2.0875003 -1.2426293 0.65219265 11.175766 2.041216 -3.5565732 -2.7619228 4.3809056 11.036907 3.6009781 -5.9704375
1357 -1.7901275 -10.318127 -1.6841552 -4.409542 9.659195 3.9783852 8.636873 6.5197115 4.323487 -0.3870648 -0.3157843 1.2779287 -5.371974 5.954984 6.3421807 -15.362592 7.693436 -5.937096 -7.11471 1.2940437 3.871587 -3.9208155 0.47639808 5.4865904 3.9140818 -1.6248001 -0.29124352 1.0309722 -6.3554497 7.758642 0.774833 0.9939518
2252 -2.328483 3.619087 0.06926905 1.8419957 -6.406631 -4.4056926 -8.43373 -4.5973167 1.5192441 -8.101943 3.8179288 9.108592 2.1517923 1.9049749 -9.007663 -8.63695 -0.3814472 -1.1023995 -7.3570056 5.241001 -0.4220846 -6.9886537 -11.050816 11.977056 -5.39112 -6.3795156 3.442593 3.8687744 -2.3750918 5.3983197 -5.7504864 -5.1286244
3687 5.1049895 -3.819148 10.379377 12.584012 5.896396 -3.2416785 -7.5880666 -8.869402 1.1258488 5.1495256 4.3679123 -11.446395 -0.598101 -2.2822886 -11.641743 7.886552 -11.015776 2.6549401 -12.564334 -8.952823 -2.6596305 -6.500632 -1.7027533 6.4682603 1.0588619 4.1416774 -3.6651556 -6.5621257 11.466277 -13.048438 -6.9025517 2.4076192
1434 7.5302672 4.656782 1.0159945 1.9350998 -5.824037 -2.7348154 -2.8239388 1.3606509 3.1160626 16.050726 -5.7704453 0.25756097 4.079722 -8.438406 6.972075 -4.8214774 -0.5706637 -1.8306776 1.3972499 8.537387 9.47302 -4.2949457 1.468402 -1.3652344 4.6715884 -2.4559321 -1.0698049 -1.3626392 2.515525 0.4889488 5.6035433 7.392575
2423 -5.3970323 -3.9417315 -7.2207255 -11.841906 -13.666591 5.3416743 -0.23979487 0.70700634 -1.6795098 -7.1688337 -5.990684 0.8277614 -1.0110632 12.00648 7.3429847 -1.1599802 -0.011069442 1.0267394 2.2338362 5.3087406 -6.1924453 -0.6523041 -8.535646 5.8558764 -6.2857122 -1.1294757 5.4218893 7.203348 -1.5109183 -2.9300086 -3.260785 0.44424736
1171 -4.9319563 6.131392 9.873269 2.0158362 6.979596 6.0006456 9.277907 5.4210997 3.0087624 5.2007003 -4.6814585 2.5730724 12.899671 -6.976631 1.6292863 -5.820086 -2.5146742 -10.4533415 1.3525501 3.7926672 2.8106887 2.5273213 9.782066 5.48882 -5.5636477 -1.1472952 -5.560091 3.044351 4.2394648 4.6602592 1.7123612 -9.661942
13 4.501113 4.4329844 -1.1073059 4.8899074 -6.340754 0.265273 1.5964699 10.508919 -1.9265919 4.2609205 -0.028017685 -0.72582537 -4.3572435 5.4137564 6.6322865 0.10870424 -6.8336687 3.3385882 7.2058287 -7.163583 -2.7112863 -4.3653784 -5.6082935 6.4087563 -6.5783744 -0.25234526 -5.712795 -5.561488 -6.3030934 3.9196 -7.2110143 -7.1520123
3355 4.3238 -2.8258462 9.702183 7.019592 0.5103202 -2.438942 5.1121626 9.418056 -10.978816 3.3871508 7.9746923 -10.087132 -8.1743355 -1.9419031 0.91992795 7.3908577 -2.4501748 -6.205485 -0.8370461 3.0601254 2.6150336 0.7357292 0.5860941 7.901304 -3.506666 -4.4368744 -2.204659 -1.6167808 9.440447 -9.899812 -4.9202647 -8.013457
3625 2.7019072 -9.837417 3.0863273 5.871274 2.3283212 -4.881828 -7.681318 -0.17291228 6.5257025 0.6819163 -2.8810003 -11.413281 7.9592924 3.2255504 0.55046874 -1.7317264 -0.18263678 -6.674996 0.4350817 2.0152419 -9.336956 -0.2177553 -5.363113 3.2838402 -4.5101223 -9.969979 -7.204689 8.222927 -5.9145923 3.4249456 1.4615778 -11.825811
1251 4.8152766 -6.189053 -5.881887 2.0565479 0.58462834 -3.0983505 -2.567519 -1.2898374 6.713629 -5.7762637 4.541435 6.604841 -4.570752 0.062269494 14.283221 -6.080101 4.0462785 -5.1871824 -3.415176 4.7924547 4.8263407 9.12923 -6.9012637 -4.444757 -2.2737088 4.3774905 7.193025 -4.5635805 2.2956116 5.5255985 -3.3336034 -4.332926
2510 -14.148604 5.6775236 8.502443 -5.2295976 4.9495664 -2.370334 -0.78621376 4.546309 4.0330534 1.229163 -13.227494 2.0237458 -0.9391414 -2.5219514 2.8179393 1.6632625 2.5052655 7.272914 -1.681421 -3.9875488 -3.4520996 0.16973227 -3.4265034 3.844688 9.397621 1.6246426 -1.0875465 -2.1669872 -3.4185607 -8.147255 7.861764 -3.5950887
1530 2.9568949 2.6320968 -7.3795476 4.7838397 -4.2900014 -3.935095 -11.150425 1.9777249 0.62485474 1.0501672 -5.054061 4.617238 -3.3562732 -0.0509009 -5.9534926 -10.237605 4.8637214 -0.9267324 3.2325003 3.1156933 2.824746 -8.959866 4.465475 -5.038142 -0.5573812 -11.02265 4.0922337 2.605564 -6.1134677 -1.680903 -2.1216295 9.24192
1480 8.988241 -13.453616 9.463708 0.32759598 4.6979403 -3.3688917 -0.4010789 -1.6321802 3.46041 2.3171186 2.7981617 6.198924 8.589152 4.512912 0.85494053 1.7977372 2.6732616 4.5864754 -10.207832 4.1671367 -2.1796618 -5.661258 6.585041 -7.2310157 2.4129639 0.83278763 10.134334 10.630714 -8.335787 -0.21313117 12.244189 -0.52916616
3658 -7.083765 -0.88031083 3.1099386 2.0095665 2.3029225 -4.8075047 -1.4119699 -10.428836 1.9029211 7.142951 -4.927593 -2.8069441 -0.84292436 -2.2006838 -7.1554203 -2.195649 -4.889599 -3.817499 1.8236132 -16.077244 -5.6855183 -2.6609 -14.477714 4.139954 2.1827617 2.6074567 12.200497 1.035069 0.74427414 -1.6699563 -11.459817 -1.9759662
921 -0.41513553 -9.990692 1.9516333 -2.747915 -7.7668114 -12.585688 0.2534465 2.936156 -0.5248841 -0.14149073 0.7614086 0.5696024 -7.615272 -0.2727311 1.9057293 2.6912682 10.866526 -0.124774344 -9.555496 -5.265255 8.300436 -9.152649 6.9284387 -5.240531 -5.7831206 3.1977766 0.30972797 -2.5344257 5.099069 -0.86544317 0.819299 -5.7409835
3618 1.4224688 7.1791205 3.4188035 -7.6095047 0.55650514 -6.2524786 6.797347 -9.323387 1.9372315 -5.1590657 8.243686 -5.3839517 1.8251421 7.5929265 -6.0188017 -3.9307802 11.002405 -4.592029 2.2434032 -1.1474309 -9.219227 4.760544 -3.3226032 6.6723766 12.60522 4.171356 1.5831238 2.5180843 -4.010573 5.026541 -1.7735269 -2.4417624
3651 1.5069108 -3.2700162 2.9369633 0.65144056 7.941728 6.283014 -4.6228085 -9.44138 7.689317 0.24926266 0.39474714 3.7839842 -3.339791 -6.5807996 6.920386 7.6351395 -14.693823 6.471231 1.1821585 6.973067 -4.0090456 -3.6499722 -4.2717557 5.514121 -0.1770142 -5.7642207 9.980944 -7.1094246 6.5978613 -4.4438806 -17.062654 -3.9643214
3363 3.815719 0.53856224 -2.7791924 1.1059132 -2.9739897 3.3002176 4.207989 15.0240965 -5.8818965 -5.163618 10.047036 2.7282116 -18.27348 -12.540172 9.0373955 4.003613 3.9471078 4.2143893 11.553293 13.075828 1.6588895 -4.227847 5.4049916 -6.785934 -7.6226144 -5.451291 1.4801204 -7.147017 3.2415473 1.2906532 -12.338877 3.7974398
1868 -0.28536007 3.3852086 -5.5158706 5.133779 -0.7168852 -4.752301 -4.988321 -6.4790654 0.48394832 -3.3321543 -0.23684295 -13.628475 7.241377 7.335927 1.9862912 -2.8007138 1.1668056 2.5025618 -0.36074072 -0.44751504 -2.2720838 -2.7738404 2.7459376 -4.306058 0.57606375 -10.270457 4.32329 3.351722 -5.334316 -10.971322 3.9178376 -2.116248
1435 1.8149452 4.303082 -1.1201304 2.9237866 -11.269211 -6.003139 -3.9333742 -0.022091543 -4.5078225 6.6148863 -8.136905 -0.72693056 -2.5201836 -9.1682415 8.786766 -2.2313106 -0.19255061 -2.1513054 5.1140585 6.7188044 8.586535 -2.1540685 -1.3367534 0.2341596 1.8247309 -0.70988464 -4.225867 -0.90760356 2.8131332 -8.483787 7.13767 7.091774
2272 1.1105614 11.804587 -13.316859 -4.76515 0.48839948 -0.6459778 4.8277574 5.8298903 6.3420753 4.665349 2.954366 3.6283379 7.5896535 -0.13313457 -0.5245339 -1.5051198 6.7365766 -6.364125 5.476535 -3.4981563 -8.075056 -2.354972 -0.3471281 4.8654904 4.3032146 4.0591516 7.8848224 1.0535295 2.1949754 10.385862 -1.7060515 -3.5963254
558 9.130642 0.796506 -6.5408955 5.44774 3.0773258 4.365901 -15.54089 -9.764801 3.949571 -3.0602713 -2.116165 1.4230366 0.02870128 0.6564674 0.8838864 -2.6163783 -1.9512863 2.9165323 9.411377 -0.17211352 2.3567278 -1.6658598 -5.3066673 -7.133403 5.8374147 4.322071 -0.95061195 0.0101028485 4.133444 -7.7471404 -0.8776871 0.20575555
2041 0.22382624 -10.006775 -3.720688 0.9687641 10.063879 5.2640405 -6.8102083 1.9682404 2.129837 2.762123 3.2387443 -1.9202018 -3.8706834 3.449544 5.212891 4.754651 2.1526747 -6.5329833 -6.392304 -7.998298 1.8670555 1.5316125 -7.085728 8.312698 1.3509969 0.96842253 5.4452887 -7.032028 -5.4487224 -3.542966 -3.0651798 -4.4866853
1420 -2.2976093 1.8620169 2.0369372 1.2076027 -4.4435563 3.0077438 -2.819185 0.43373448 -1.6313412 2.8079958 18.074118 -4.6070523 6.228121 1.7252219 0.13998675 -2.1289415 -5.9729238 0.12720244 3.9216633 6.435566 1.8501304 -0.12221464 -0.48161668 6.692202 7.4923105 -4.192024 -6.0841722 -8.317116 0.0811643 -4.3173413 7.8863997 5.7668905
1538 6.313746 -1.8182381 -12.320604 -0.7097143 -1.3340356 -7.1014156 4.0864854 -5.0359054 2.4459093 -7.126472 -1.4131188 0.15146309 -0.663595 -0.607101 2.7404447 -11.93162 -4.19385 4.1592803 -3.2191656 7.282675 -1.0194073 -7.992363 -9.399313 -6.112474 -3.2762234 -6.0606427 -4.80434 -1.2353843 -0.45282757 -4.725184 -7.367482 1.8396213
2728 -2.4204876 0.75425375 -0.17677249 10.095795 -4.8555455 -6.193424 0.2530617 6.3804383 0.8838098 8.064357 -6.226045 2.557141 -5.4873056 2.1758928 2.444894 -3.652004 -1.760312 -5.065343 1.9646912 0.573153 1.5774497 1.2286837 -3.3253841 9.108283 -10.265697 -1.1041763 -2.6771264 0.53735596 9.483147 5.2108545 -1.6970556 2.9593134
1409 -4.7121553 5.7053623 -2.8853922 2.428652 -6.502031 10.75497 -8.80068 1.2906991 5.940663 7.9349732 12.8079605 -0.04824991 3.785704 5.8695855 2.0378757 -1.345753 2.4492242 1.4568685 -2.0921755 11.464383 -5.524672 0.9513368 1.0577387 6.1587067 2.539326 -6.930724 -6.074832 -3.5660086 9.3055525 4.8403196 -2.4620514 0.015465043
3652 -2.9275692 -3.905082 7.33717 0.88359714 12.085952 3.7134037 4.502025 -6.5930605 4.0875535 5.45315 0.46411973 0.12145198 6.1305637 -3.8759787 -1.6536294 0.2880248 -8.915711 -7.212328 5.7292895 -9.399107 -11.030069 -8.251502 0.20845753 2.7980862 0.1598987 -3.2926054 16.003487 1.7434295 6.3578696 -7.133192 -8.821797 1.5016376
628 5.4675303 -2.3642113 -7.1239266 -2.5139248 -5.1456537 3.812527 -1.4825482 -8.0084715 2.4393845 -12.246535 7.8703547 6.704279 -2.2278016 -0.4353662 9.064562 4.501655 -0.50724447 -2.767087 -1.8012178 7.181597 -1.7633991 -3.5015047 4.7625847 2.3280547 -1.8944066 8.11363 -9.14979 -3.6752367 -2.7519803 7.895975 -10.099862 -3.9610038
2087 0.13202058 -3.1405618 2.241094 0.89069474 -0.40755597 -6.8920856 -4.033781 -2.7606251 3.1528552 -7.708062 -1.4653201 -10.041675 -0.7795366 7.5051913 4.3866515 -5.026542 -1.6596944 -7.9805303 1.1448603 -1.1363907 -10.244224 5.8363843 -5.825922 6.988211 -3.875425 -10.985786 -7.4906473 6.4374704 -6.8886247 3.8581915 0.68487895 -6.952057
3755 5.029897 -2.1219635 -5.0632453 1.3299917 -6.414863 -8.820493 -1.1427939 -5.829149 -3.0251055 -11.907678 14.649502 1.103758 -5.281039 -2.859226 5.6649213 2.5788994 3.4301581 -4.5609927 -1.6071337 4.072094 7.436612 5.0923986 -0.62238526 -1.3532372 -4.137526 7.0500546 -3.5055516 -1.853849 6.9976425 6.671503 -7.1486316 -7.0348597
3721 -0.8448681 -8.914686 -8.025513 -2.1433995 1.5409756 -4.0413017 -3.8515606 5.5811515 -8.395471 -6.069189 -7.424761 -4.2152095 2.2777143 -7.6417985 10.794063 -5.385161 2.6183233 0.69572 -4.4430976 -2.5112717 -13.751159 2.6164207 -4.517665 -3.945441 -3.0464413 -1.9354846 -4.3577013 4.0349236 0.18634257 -8.459455 2.2283533 -4.2581806
3321 7.0217905 2.311004 4.7567763 6.4950566 -2.2432702 0.083175756 1.0643378 10.915704 -0.28101557 2.9983323 7.6502085 4.959694 -7.951272 -9.186148 11.236642 -7.2751575 4.4447227 11.048609 3.6094925 4.4802613 5.417471 -16.399836 1.877718 4.15163 -4.0642495 -3.3683994 -1.5693762 3.1259968 6.5128555 -3.197227 -11.636721 -4.714626
3583 5.334538 -2.2840068 -4.7560773 -7.7920027 6.8016973 -6.3239336 -3.34148 1.3495352 12.729207 -1.8193848 -1.1184607 -9.092143 2.3583088 -1.373102 -5.8103175 -2.3487363 1.0237111 -2.6436477 -2.0855422 -2.371025 -4.5495706 -1.4359219 -4.950252 -4.2147436 2.9649572 -7.343435 -2.3743765 7.461758 7.859164 -1.7770089 11.062116 -9.757108
503 -5.584782 8.034313 3.3822746 -1.1262928 6.623382 1.268656 2.9345355 -6.092726 2.1206958 2.037334 2.5370865 6.236579 6.7534475 5.7422442 11.4576645 0.84269 -2.6394868 1.1237904 -0.1577783 -3.6852074 3.9176397 -7.758291 -6.8169556 -4.2642236 2.4120798 -3.916492 0.8597146 3.7905638 -6.2518535 4.7254424 -1.5152006 -0.591837
1823 -4.1477203 -9.288038 3.1749864 7.0420094 4.2601666 -2.5055022 -1.5017998 -7.3378973 3.3390522 -2.8545547 -10.169355 -1.8562908 6.7990904 3.480858 -2.3371222 0.068801224 -7.131861 -12.611032 -7.8904514 3.1705642 -0.49264166 0.70305264 5.011178 6.282667 2.3360345 8.186152 -3.5405793 -7.3145914 3.6841059 0.3740528 0.33947912 0.61271495
4923 5.155092 -2.6599596 -2.5376322 -2.9789138 0.02228199 2.3230739 -5.702406 2.3679366 -2.8743918 -9.495511 7.810246 8.372583 -5.2267933 5.8514414 4.642971 -4.1793146 -6.189628 -8.984465 4.961287 0.3902245 -1.3148063 2.347795 5.014326 -4.199554 2.1636086 -0.59683883 -9.901162 2.2766283 8.196473 13.480222 -8.657509 -3.6603339
1405 2.411629 6.451109 -3.2182832 -3.7994606 -8.589703 -3.2308648 -7.232645 1.249831 -1.9429538 5.2791405 10.227478 -0.14641993 -1.0923381 -1.4309843 0.28395608 5.461128 -3.9946098 5.1915073 4.6103325 3.8567512 -15.19784 -6.9923396 -8.2115 8.585638 7.2430387 -5.9075847 -3.470951 -0.02999389 8.637424 1.556609 7.759693 5.2812896
2984 2.061906 -1.3847717 5.890371 1.8839523 -0.0030773026 -0.5671507 -0.6981766 -8.394211 0.04168609 2.5804524 -9.19101 6.0486336 -4.205033 -0.4378815 2.4130938 -3.509612 -8.043131 -1.3882684 -2.0783298 -2.535931 -5.3043394 -0.08581965 4.135041 7.3450117 -0.5022183 0.66186386 1.1790595 9.471151 -7.279867 14.262333 5.910101 3.991699
152 -8.68019 -7.0996943 3.7504594 0.55266273 -5.7552714 -3.2994545 -4.737867 8.348147 -6.3539643 4.590428 2.2204673 4.5273566 4.392821 7.409622 11.948361 -0.6837865 -5.7216697 -0.99148256 3.1174533 -3.0516472 -4.2455997 10.067966 4.9807777 -5.150474 -4.4213333 -6.389327 -4.9411173 4.203735 -4.978167 2.8620498 -4.0291734 4.9706907
1498 0.06933093 -1.0878274 2.1242106 2.218787 -7.6992793 -2.3957481 -9.391633 2.2865088 -2.093386 9.115396 11.93794 -3.5060425 -0.35577452 5.162241 -4.1609735 -9.31012 6.4880853 4.531501 -9.8359165 -7.9470654 8.049177 3.5895166 -9.219243 -10.8513 6.816356 -0.36448503 2.81116 5.120866 -4.6198707 0.10120874 -0.41392672 -1.6060798
3633 -2.6737285 -2.0510492 8.2744665 -6.1438384 -1.0275561 8.9405575 2.8953402 -16.403519 1.8081377 8.654077 -8.334405 -8.62316 0.018594816 0.7365932 1.4301678 -0.8520717 -5.9627886 3.0504866 -1.7948998 -2.3897598 5.1970754 1.2560459 -2.519821 -0.8319541 1.8984662 -0.78324133 11.294246 -2.9949913 2.9796267 -6.593709 -5.735177 -2.013907
1481 -0.36409038 -5.392991 8.62609 -4.975051 0.54835516 -5.2310495 -7.958907 -7.242945 5.032249 -3.1826746 0.21553184 0.34652284 7.5562367 4.8288736 4.282772 0.7549713 -6.762816 5.5946684 -8.990816 -7.4372635 1.516105 -10.226117 -5.5663385 -7.2817554 -1.6943114 -0.120595716 0.1730256 6.4066424 -2.227936 13.809175 6.691451 3.793913
3681 4.370586 -8.386522 -6.5824957 2.3221555 -2.1258368 3.8483918 0.029532809 -6.1226277 -1.170364 12.704891 -6.195772 -6.1401787 3.1201725 -2.3105145 -5.9996324 -0.00878324 -7.557104 1.4286219 -3.567111 -5.824969 -7.4442763 -9.448536 -7.496454 -3.5326905 1.5573127 2.5978143 14.402781 0.56770027 4.0323324 -8.141068 -14.705969 -4.8625994
1440 1.4820023 4.0080466 14.394599 0.55302787 -0.12470446 -6.470358 1.0979091 -4.2828555 -8.331757 1.5338783 -6.3733478 -4.192174 1.33841 -8.385895 0.7231688 -3.65803 7.199703 -0.75356966 0.5918983 7.9019475 1.7139547 6.358846 6.951732 0.99621075 3.191709 -3.5837479 -4.25826 0.3031511 -8.832673 2.1381822 -2.0728111 2.9628403
1512 -11.511396 -0.70595926 2.1104581 -3.6466188 0.47744727 -7.702016 1.954858 -1.7041391 2.1863785 -2.8199553 -0.43221027 -0.42350635 8.020367 4.541663 1.0441433 -6.5070653 3.0774176 2.6223505 7.614821 5.5374966 3.928862 6.593699 2.728174 10.033441 8.232121 2.7888374 1.6850141 1.637935 4.6905437 -5.0904694 -7.8138022 -0.19774583
3702 7.5335193 -3.744154 -5.1231637 7.114037 7.2080946 -8.598607 -5.3735986 -0.9707181 1.3326018 4.4632363 -8.2404995 -14.426095 -1.7863992 -0.76547766 -0.51868796 1.1585873 3.1304486 -7.147151 -6.9037147 -0.54165125 -6.355916 -3.7691472 2.673924 -0.43768454 5.5193386 -5.6044903 2.4509041 6.504139 -1.7424084 4.3464484 4.240985 0.5939777
1784 4.5604424 5.0332313 -0.2315777 1.8519235 -1.3003421 5.8608885 6.677523 -2.790063 -9.556217 -4.346843 0.10662797 -3.7264469 -6.3869643 3.7785764 6.974713 -3.041594 -3.659433 -0.3489296 8.2479315 -3.7376742 6.614753 -0.9577938 1.5708025 7.3215766 -8.522005 5.551453 -4.9922357 -0.530149 4.6392803 3.6361852 -1.6790223 2.8350415
2988 3.5161831 -3.6564066 -9.112183 0.86424005 0.12512286 0.598479 5.3122387 1.4386598 -12.448778 -0.89686507 -3.2601895 -4.2680535 3.0987062 6.1283736 -1.4753062 -0.95621526 5.568025 -7.4977827 0.9460077 3.275666 -4.158349 -0.4358959 -4.721829 0.34143797 8.09736 12.84185 1.1353418 -1.6840045 -5.8570137 12.377688 -5.355715 -1.0207193
326 3.4422562 1.9112768 -5.1782556 3.6423395 1.6621587 3.0439172 -3.5573614 10.076227 1.2693257 -3.7408333 5.0715938 -1.0882062 -1.7428051 -7.040693 3.0787745 -2.6780596 -8.778278 -6.8996577 -0.6421389 6.701792 -9.356149 2.3574793 2.0688179 -0.087172054 7.9577627 -0.31283456 -9.546767 -1.3008288 2.595027 6.8485966 -0.6004508 -1.2568696
2861 -1.6127483 -2.7120044 -9.2895 8.427432 6.076854 -5.075297 5.653917 1.9326316 -4.6222615 -1.5890557 5.0776606 -0.32127464 -2.6640308 -1.6366187 5.0024266 4.4814215 2.3312378 2.6343384 1.2990276 -3.814092 -3.4130383 -11.774668 0.24438594 -5.726561 4.883508 9.283895 2.3076825 4.0440807 5.443581 -0.13445528 0.07084355 -10.298235
1462 3.036145 -4.390617 6.9795537 2.2971454 2.0345564 -2.8856304 -10.229142 -10.593397 2.0382705 -0.15842587 1.1459756 0.4737132 12.24266 2.9948442 7.189288 13.840834 0.34832853 2.0881634 -2.4208875 -2.7989888 -11.887853 -2.882514 -5.269592 1.2246025 -6.6875944 2.3682365 -3.843928 5.6372976 -3.941332 0.7065601 11.8688545 5.9354267
200 -3.0162807 -5.327752 -2.47037 -2.8232749 5.7884517 0.037221167 5.547114 5.2159595 6.179698 -2.491703 -1.6331131 3.552502 -5.1621275 6.62567 2.081816 -10.539896 6.263698 -7.2103868 -3.8269389 -1.5537549 0.79410905 -5.8229847 -0.9885392 2.0672307 2.6577432 -0.76003635 -2.246488 4.293357 -2.8658178 4.5267653 -2.5785675 -1.8570678
3594 -8.826674 -2.8932855 -10.029737 -4.671592 -8.712587 -2.0719867 -0.6393419 2.6276302 0.5560785 -15.814733 2.0731502 -2.122238 5.5176206 6.7947917 -3.2780378 -6.991702 3.4717906 8.775893 11.233378 2.649922 -12.692671 -0.3978465 -3.2683833 -1.3264973 5.425333 8.499346 13.9571705 9.072262 -1.6113528 -4.270694 -4.7459373 1.5638729
2040 -9.210151 4.2466354 -2.9567852 0.44248068 3.8340728 3.7559927 2.7242007 -16.173994 -2.5263984 1.5704093 3.4950714 7.74912 3.8492858 3.5750835 9.632169 -3.6557872 2.040721 8.857339 -5.120187 -1.1918988 3.0326157 4.8591733 0.005705231 0.39636183 0.56571674 -0.6142961 -3.1048896 4.364072 -5.4760885 0.19139302 5.0525365 -4.2238665
3200 -0.31739584 2.3749807 -2.1376762 7.064459 3.3850558 -4.1190467 -3.513969 -3.777592 2.630362 -1.2730519 -5.2632875 8.260216 4.375307 5.044368 -9.467579 -4.732949 3.1150107 -6.654476 -6.8153152 -2.3394897 -0.3141425 -0.20694175 12.179984 6.9181614 4.42208 -0.55240315 -3.2209501 3.6569839 -6.171884 -11.657707 -3.176141 -7.1651516
3595 3.0648494 4.896895 -3.7577937 1.4771348 -6.5937343 6.7500606 -2.6944346 -2.4101336 5.716443 -5.302117 0.21181616 -4.187494 9.918759 1.7214518 -1.0589648 -8.377448 6.51741 -0.19767502 -0.19723898 1.549535 -10.9825535 1.3593659 -7.207106 9.72054 7.32588 17.050154 -3.3453336 2.2740839 1.0649745 -5.325783 -0.1262604 -5.490486
1460 -3.8887563 -7.548794 1.4879727 -2.1471689 7.074198 1.9141926 -7.252404 -17.167688 0.7070023 -1.8581166 9.318826 4.281159 3.2319343 1.478813 7.0388527 0.7145052 2.0675967 9.947127 -7.2240505 -6.8083773 3.311983 -0.039172377 -5.1335073 7.326396 3.1889913 4.843358 -1.955395 8.652074 -4.704067 3.271954 19.70421 -6.4554033
1527 3.1450994 -1.2283019 -6.7752495 4.707417 2.7911532 -0.73277843 -7.137794 0.23370406 -3.855203 3.8388915 -6.0257335 2.4270613 -12.983757 -5.030167 -1.7074049 -8.612101 2.6319711 6.2372108 -3.373615 2.202324 7.4160323 -4.1146 -3.718679 2.798187 -5.668459 -12.564575 -3.588935 -0.36056083 2.1460176 -3.422735 -1.3116689 -7.838136
2810 1.6555659 2.379551 -10.105108 0.2628314 1.7904447 -7.8791466 -3.0622838 -0.9647493 5.3082824 -1.9692587 3.7656841 2.9003778 -0.3744757 -0.4929632 1.6039044 -5.0331903 -6.736289 12.154204 -11.818159 -4.524556 -2.6178288 3.8007388 -2.5473151 4.805104 7.663415 1.6670828 2.66732 3.0180006 -0.14328006 -4.80398 1.3650085 -6.3787513
1783 -1.4185724 4.0320535 -2.276875 0.2704582 -3.7905686 -4.4515777 2.5877023 1.9653093 -10.119729 -6.497336 7.9499936 1.5444106 -9.726538 -5.1522613 2.844669 4.116034 -1.6401216 4.9252734 4.4465876 5.075784 -1.4689476 1.2009726 0.031671118 -0.11178097 -8.197308 -8.033401 1.8338298 -0.750313 -4.7343407 7.116454 -1.2836839 2.5885277
1504 1.941171 -4.829642 -1.7760638 1.776334 -5.4374323 2.8888025 -8.277834 8.471287 -6.309494 8.2604885 15.201524 -11.335128 2.2145448 9.048413 -2.8400064 -3.5505052 -2.7656786 2.0063705 0.34329954 -8.349321 9.108813 -1.6009964 -0.5805263 -1.3180048 -1.2380316 -9.549968 4.4670506 9.771015 -2.815707 2.4154947 5.060533 -4.6117783
1510 -15.121466 0.33324006 -0.35090876 -8.714232 -6.463955 -6.206948 3.7590384 3.4405386 3.8879423 -6.459715 1.3801534 -5.262763 8.775011 3.336402 1.8454684 -7.738533 0.08290343 -3.6221097 7.130373 10.171341 0.45198914 6.7630215 -4.1209564 7.849471 8.781562 0.6849347 7.4612336 4.7738123 5.9300723 1.0779425 -2.7944653 3.8537652
718 1.7555604 2.862474 1.6904361 -2.9871762 9.44542 0.87411857 -1.8624535 8.670143 -1.7671936 -11.3274975 -8.509433 -9.785185 5.823045 3.913355 6.6931853 -0.6040598 0.7402742 -7.9672327 -1.2906319 -6.425744 0.9354759 -9.030266 -4.7033925 -3.9916587 -2.7661064 -1.5133681 -2.9205904 -3.1848521 1.648955 -1.3091598 3.2660983 -6.0415664
3593 3.4668365 -1.2622826 -6.487584 1.7278258 -5.6257777 4.962545 8.933122 -2.628967 2.3279994 -4.990459 -3.5238779 -3.2972367 -0.08829014 -1.2475574 0.23875448 -6.306201 0.68186486 -4.343425 0.86622775 5.884117 -10.98365 -4.000968 2.5913658 7.009846 5.553378 9.410898 3.296644 -3.6164055 -10.997222 -4.5345755 -2.9978616 -1.3294762
475 -5.6971645 -5.814821 -0.49057364 -1.9255289 -7.1084437 1.2490624 -6.3790402 5.1528625 -5.3683367 7.664611 11.35803 -3.9261765 -5.259394 2.7950122 -1.6521218 -7.07601 0.0054960996 6.5352273 -0.3652542 -11.619822 0.98005754 1.7540739 -5.6922398 -0.9264453 1.4053322 -5.8233624 4.4946246 11.497383 0.8429589 -11.17517 12.786252 0.8271033
2792 -3.6580403 -6.3386893 -0.9143457 -6.073941 -3.7306957 -1.9918334 -1.7233951 12.111935 6.832519 4.995073 -1.659317 2.3615558 -4.990579 6.7218847 -7.901448 0.190717 4.2591214 7.2986016 1.4863031 -0.70015603 -1.488011 6.8354993 -1.6194535 -8.622783 -5.08736 -0.6905088 8.544572 2.248083 8.964124 4.1786323 -4.8761396 -4.4093323
251 -3.0683327 -2.6017764 -3.939271 -12.390796 7.1312737 2.3404758 -1.793118 0.25991508 2.9777567 -3.7995455 4.5796447 7.943449 -4.93052 -1.8400991 5.879564 -8.555988 5.591398 -0.8726364 -4.7527857 3.6982038 13.380979 -3.7570875 2.540725 5.520333 3.89491 -8.778763 1.640531 -12.456247 0.37063396 -1.5884084 11.59374 4.397522
4616 4.208518 7.0823083 -3.9293745 1.8270847 -8.4899435 -7.1099854 3.0720952 4.099681 -0.112476766 -0.20381941 -0.57662994 3.1575491 -6.200664 -4.8300595 -4.062236 -7.077251 -1.8875211 7.820655 4.6461506 7.19125 9.051805 -11.397473 -6.189333 1.710954 -6.374936 -9.474161 -5.478195 -0.040586386 1.5771955 -0.50321305 -0.41744626 -10.484062
3715 2.00114 -0.11739499 4.309788 1.9365137 10.819332 0.1000515 0.584302 -5.4719615 4.580777 0.094828516 -8.665649 -12.462517 2.2253368 3.0787902 0.32426667 3.299703 1.0090933 -7.984721 5.689571 -1.7237068 -9.700037 3.5987186 4.7370367 5.667649 1.5619218 -3.4149892 -4.6839576 2.8258805 3.431437 -4.8057504 12.596132 -5.717987
3930 0.71775556 0.2515837 1.7946322 2.3138149 3.6518426 3.620578 -5.402737 3.897697 -0.20017269 -7.6209717 3.048334 -1.2780173 -1.5648333 -4.065811 2.0606375 3.6624982 -8.030542 -3.801916 5.451802 12.762865 -6.7453766 0.7400311 3.2050402 -1.579806 10.9417715 0.18210797 1.2841138 -1.1879573 5.6532583 9.062628 2.6458251 -3.5739355
3708 2.3143213 -3.2084265 4.758571 3.8859735 4.4751964 -3.080773 9.455666 -3.1939654 5.8669734 5.033127 -0.17244452 6.9929338 1.5166451 6.9188657 -1.3226851 4.2369785 -0.027543876 3.9544623 -7.825275 3.0936964 -3.4228582 4.590518 2.6626844 -3.7321057 5.993018 7.8050656 7.5787616 3.3680751 -9.568795 -5.2328334 3.6938782 -1.2739863
1482 1.2789954 1.066454 10.574912 -0.8711585 8.895601 2.7847402 -4.8926625 -6.504863 2.324452 -0.48203626 4.950974 8.026034 9.673562 2.706571 12.8416815 4.7687216 -6.607542 2.3667881 -7.405792 -7.785532 4.948006 -13.098825 -7.7230034 -5.578189 2.6712236 2.7350543 -2.9400897 3.9847538 -9.139117 6.327376 7.4544353 5.022094
4558 1.5000446 -3.2426615 15.103799 2.337538 -0.3181004 -0.26687166 -6.9165754 -1.7643028 -4.77689 -4.554615 5.3420963 -5.20138 -4.722884 1.2610111 3.3986619 10.00771 9.941713 7.9207554 -1.4367013 3.9426594 -2.527294 -5.2194176 4.599542 -0.4439657 -0.39601168 5.0364523 -8.457118 4.9423494 11.559796 -6.5647902 -2.2508597 0.6294243
988 -1.555504 4.373195 -0.64674807 -2.0500908 -11.634591 -0.4324344 -16.294857 0.2345324 2.3353667 -4.4862647 -3.4092548 2.2057784 8.8837185 -0.4965685 -3.8004313 -5.4628243 -4.5379944 3.1720357 1.442834 4.6047134 3.5495121 -4.455093 -2.8419363 -3.1920376 1.6241375 -6.343371 -4.3475327 1.8386713 -2.00861 -3.5154047 -5.9212337 -9.441263
3318 3.491915 -5.2366376 -1.8685498 4.3279333 -5.3915057 1.5033506 -1.6055235 -4.519403 -9.872393 -2.3616593 -3.3636549 -3.0619636 -0.64941645 -7.828962 4.804595 -11.787809 -1.5330262 7.4322753 -7.975826 6.7357993 2.101961 6.0021353 1.0162673 -0.20378271 1.7411697 11.2054615 0.64248204 0.870942 2.6975963 1.7554625 3.5496662 6.6184726
3390 6.1950326 -3.6725953 4.2415442 -4.416932 3.8950064 0.08847017 -0.9176578 -3.9894228 0.19778945 6.6048546 -4.0231934 -9.9033785 -2.731895 4.08245 1.5487797 -4.3208985 5.18048 4.9406824 3.329888 3.1281323 1.8413384 9.227915 -8.699042 -0.20033361 8.6570215 1.809889 -9.983756 -2.4622943 1.580882 5.1352506 -0.38058296 -8.390911
3699 -2.7534149 -6.191961 4.061046 1.8483241 8.786748 -4.1770034 -3.7912617 0.80909264 -1.654934 5.5810413 1.583353 -5.1299834 2.098756 -8.800871 -14.331437 -4.488289 -1.1301571 -3.988718 -9.506502 -6.4375076 -5.2730465 8.108017 7.2709618 -0.10321049 7.793337 1.7360724 -3.9696336 0.17513569 0.47425088 -3.916534 8.564511 13.11748
3692 -2.57774 -13.457105 6.63651 7.8252106 8.939851 -3.9358177 -5.062668 -3.9613767 -0.24113078 3.6288376 -6.700925 -3.1683292 6.1429644 0.23392117 -7.914191 2.0811117 -3.2809515 -10.11922 -4.448444 3.898885 2.0899386 1.5839719 2.7879632 0.037179027 10.739906 8.631162 -4.868046 -1.4840494 2.2240396 -3.3978546 4.7534504 5.526598
