332 32
118.0 1.0452124 -1.1073599 -1.2305429 1.4811193 0.8340704 1.9601411 -0.3504513 -1.0389978 -1.1495906 -0.04143954 1.4220688 0.10377523 -0.5973655 2.0546758 -0.023637008 0.60893464 1.3015587 0.6683529 0.26567912 -3.2020285 -0.7227837 1.0768478 -0.020644544 0.28142664 0.07828199 1.5129583 1.8099604 0.5614773 -1.2958897 2.1374402 0.7548518 1.4730886
261.0 1.2336262 -2.1199114 -0.86847746 1.5100356 0.32968223 -0.08909767 -1.2076877 1.9509252 0.6912729 0.14875302 -0.555001 -1.8444812 -0.9332183 1.8437473 1.6850517 0.35614324 0.2110083 -0.9751261 0.5950229 -1.4748003 1.1349318 0.23387745 0.8630155 1.6676484 2.0030007 1.1959952 0.6674729 0.99405164 2.0829234 -0.30201766 -1.4641514 1.5443519
67.0 -1.2275287 -1.404492 -1.4621254 1.7447532 -0.4136149 -0.9982535 0.39484578 -1.3761904 -0.22859009 0.92709684 2.1117442 -0.48491058 -1.3998611 -0.05824539 -0.42548198 0.3877978 2.4456127 -1.7742887 0.044165548 0.8537896 2.0018458 -0.56474096 -0.33352828 0.24285936 -0.24175115 1.3053046 1.4934412 -0.88144255 -0.049338978 -0.08840775 2.6307352 -0.5129517
47.0 1.96318 0.67115915 1.0425082 -1.4021589 0.22400188 -2.7978258 1.7000761 -0.34384918 0.062509574 1.6631953 0.1583908 -1.4256184 -0.27770305 0.08043224 2.0152845 -0.6745437 -1.0632133 1.3736005 -0.702819 0.19307339 2.1913 2.5002966 -0.4287499 -1.1487166 0.37211272 0.22168343 1.9267747 1.7216996 0.84565836 -0.26270953 0.23702788 -1.5940007
248.0 1.3116009 -1.737 0.817131 -1.2203108 -0.8103703 -0.8137119 0.12655012 1.6118973 -0.5568295 -0.17048499 -1.4510124 -2.6809318 -1.3453717 -0.68650466 -0.9328093 0.4359721 1.9742151 -0.5647668 -0.047464028 -0.8926277 2.0027852 0.21583465 1.4353712 -1.6629469 -0.8164512 -1.451649 0.73545 2.1004412 0.18146318 -1.9820416 2.5770247 0.49403086
255.0 1.1005939 0.14258493 -2.7838318 1.973545 0.26131806 -0.76188636 -1.0853581 1.141672 0.67730296 -0.9215567 -0.68812126 0.47271284 -2.4411283 -0.13395719 0.22388226 -1.8454111 1.1499934 -0.13389511 -2.8128686 -2.3694372 -0.24574684 0.22735544 -2.5294898 -1.3886558 -0.52211314 0.70774466 -1.2984418 -0.20788498 -1.8964268 0.47372043 -1.2008898 1.6630685
201.0 1.9489777 0.57524586 -0.15501162 0.14634633 -1.003898 -0.6284655 1.516569 -0.09398801 0.31511548 0.32718208 -1.2073512 -0.67889094 -0.42528826 -0.09578383 -1.1220388 -0.13056591 1.0005893 1.0904337 0.9646234 1.5252901 1.8605915 0.95915604 1.2344639 -2.2323925 1.2559988 -1.0791838 0.83672255 1.6015302 -0.7988511 -2.4072442 1.2919734 -0.46651188
166.0 0.3512773 -2.911459 -1.9630708 1.7453637 -1.2571913 -0.5090718 -0.25350842 -1.3740253 -2.2611856 1.450082 0.50254697 -0.21503924 -1.0081544 0.6922582 -0.81438524 0.09629484 0.47998312 0.10124414 2.8269439 0.35982278 1.7022501 0.8796778 -2.2851067 0.15118547 3.3450575 0.665218 0.16850582 0.50104225 -0.6729165 1.3386117 0.6011682 -0.36278734
182.0 -0.5420089 -1.6125466 -2.9627283 0.52836615 0.62973255 2.2556696 -1.03911 0.9734505 -1.1146356 0.50770044 0.66305596 -0.6511193 -1.4914796 -1.7766397 0.36117724 0.6268228 -1.090953 -1.1054925 0.48893183 -1.288856 1.8108773 1.3579798 0.10109268 0.43413547 0.58644015 0.31208208 1.2942235 -0.8162704 -0.13275643 1.8334092 -0.1915331 -1.2800336
152.0 1.0746186 -1.4255458 -2.1827939 -0.443171 0.32410276 2.4897532 -0.54116625 -0.5969516 1.1177781 1.1466924 -1.2246128 2.8779287 -0.5719248 1.0234876 2.3058455 0.99865973 3.4351537 0.5522763 -0.18863143 -0.56243986 0.058562137 0.20055132 0.1371783 -1.171432 -0.7589555 1.1090909 -0.1791596 -0.70820427 -0.8539002 2.7852628 -1.3246822 -2.0094771
258.0 -0.12302243 -3.5901496 -0.69410115 -0.38584268 0.3962763 -0.9372226 -0.9035848 -1.8341519 -0.14746664 -0.28663597 0.25664872 -1.4092252 -2.3453383 -0.3623618 -1.15764 0.38757396 0.22249454 -0.23493795 0.5502837 -0.8787503 1.1272634 -0.4771206 -1.0536983 -1.3594879 2.8172793 -1.3110461 -0.020902263 2.1265013 -1.2162718 0.7428381 -0.66217774 0.39876443
147.0 2.2826529 3.1847575 2.5914886 1.0869848 -1.0504609 2.1366205 -1.3070682 -1.4834487 -0.11320383 -1.1347443 0.56547004 -2.800296 -4.2820864 0.70777917 0.64507365 0.53478724 1.4536654 -0.22967653 0.45453537 -0.7468261 1.1772785 -0.6154256 -0.6396401 0.4620709 -1.0555755 2.266953 -3.8631923 1.1071036 -0.77567405 1.7446014 0.3641521 -0.42353532
112.0 -0.9489519 0.8368286 -0.72743005 0.7379626 -0.5679909 0.5627759 -0.12964916 -0.25811926 2.0618799 -1.1830509 0.84603554 0.94527537 -2.1166413 -0.48011 0.31329542 0.95560646 1.0892628 0.018843004 -1.0757375 0.930439 0.9374809 -0.13779192 0.07538999 -0.46311077 -1.5851982 -0.42818862 2.1030385 -0.8512079 1.2490782 0.6201672 1.1730154 1.2062072
293.0 0.066955455 -2.505387 -0.9064461 0.38657907 -0.9616159 -0.51180446 -1.6152267 0.4524411 1.7976052 0.13179667 1.2156444 -1.3300575 -1.6032462 1.0501643 0.13376158 0.46309707 0.70766884 -1.6366131 0.29437184 0.2395368 2.0359483 2.228583 -0.88578045 0.031429164 0.11172414 0.7045461 -0.08396104 -0.40677124 -0.33798033 -1.343513 -1.5305408 0.5952843
8.0 -3.4787335 0.7000724 0.5828513 0.38283312 0.41319636 -3.5612826 -0.07920508 -2.528873 2.1459022 -0.70377415 -2.5180967 -0.7572713 0.71716374 1.2959678 -2.365963 -2.8444314 -0.8258151 1.3349905 0.16923515 -2.2109823 -0.7773793 -0.70480657 2.9604502 -0.4155696 -1.9993804 -4.179629 1.1041436 -1.434679 1.1775745 2.886937 2.9885585 -0.23994394
230.0 1.532288 1.7272502 -0.19233732 0.01523679 -0.30453697 -0.31328237 -2.3254771 1.4334264 0.8714218 -2.0160322 0.26951444 1.9036853 -2.4903238 -0.8481761 1.8414717 -1.8913573 0.9813837 -0.2811256 -2.8580298 -2.1088583 -1.4540868 1.2535641 -1.6126001 -1.6593411 1.7274725 -0.6431246 -0.79003197 -1.5052207 -1.9282205 0.6863604 0.54780835 0.35613728
313.0 -2.213569 -0.25253803 -0.5097032 -1.3492893 1.0940589 0.05381591 0.38659796 2.6860466 -1.9008244 -1.0309048 0.2789075 -1.8813742 0.7593485 1.0807159 -1.0346326 -0.8864202 -0.18250659 0.29760417 -2.7705626 0.041093603 2.5001342 -2.1854348 0.3184116 0.4032399 -2.500064 -1.2693608 -1.119332 1.2996454 -0.60089236 -0.962076 1.5454638 -1.5313379
311.0 0.795243 1.7407423 -0.003628029 0.48398864 -1.9277627 0.18322037 -0.20917603 0.18419166 1.5480219 -2.3815112 1.5075716 -1.9757748 -1.5214752 -1.2749203 1.2663627 0.08108595 -0.24685405 -0.5551823 0.79718196 0.17105697 2.1425602 -0.6310808 0.4184581 -0.3942498 0.81645215 0.52874523 -2.2402055 1.4092199 -1.15312 0.8475701 0.40244573 0.3775949
299.0 0.9426526 1.6603186 -1.4582062 -0.03666423 -1.5516328 0.71508586 -0.9387866 -0.328667 1.6960027 -1.3012251 -0.6398628 -0.86841244 -1.6282889 -2.217293 1.0464696 -1.6194341 0.15506534 -1.0366567 -0.31267428 -0.32440066 -0.21673816 0.12775771 0.24577722 -0.45459473 0.74423844 2.2900534 -2.259715 1.4378612 -0.992545 -0.65543896 0.70119905 0.39174947
219.0 0.22696659 -2.071233 -0.7925729 -0.09909795 -0.24637091 -1.0315012 -0.13538475 0.23359272 0.7235512 0.06170379 -0.3155464 -0.8487132 -1.4809262 -1.1920996 -0.26135394 0.18545078 0.7663811 -0.7604276 0.07369897 -0.416695 1.1937078 -0.11913622 -0.5309966 -1.0128202 2.0076091 0.10425848 0.5618273 1.2101918 -1.0761636 0.32957345 -0.60660595 -0.48161966
144.0 0.018106708 -2.7008715 -1.893199 1.3866596 -0.25248873 0.253548 0.6360704 -4.245062 -0.19566591 1.7453647 0.7902979 -2.1976972 0.92283916 -0.45512512 0.71663433 -2.054082 -0.11362196 -0.31051514 -0.22605257 0.6781225 0.45555583 -0.14826971 -0.96067506 0.9196127 1.895069 -0.049421158 1.4766967 -1.0467075 -1.3258371 -1.3345014 1.095795 1.4086307
109.0 0.2909344 1.3076028 0.6181632 -0.545532 -1.223785 1.0017545 -1.0204083 0.12134913 0.053988207 -0.79422814 0.029231964 -0.43065047 -2.582081 -0.5708357 1.5090964 1.4629716 -0.37221876 -1.7038437 -0.5792678 -0.12460382 0.34720647 0.44714087 0.43255958 -1.0995386 0.4893192 0.24949461 0.6590416 -0.028159447 0.8359739 -0.7389357 1.1347873 0.71642697
162.0 -0.054265644 1.0519043 0.9223363 -1.407123 -0.86308116 2.297689 -1.049129 0.032678332 0.44239315 0.27123845 -1.1466043 1.2289021 -2.3706458 0.69718105 1.1154509 0.23755792 1.8768214 0.012845042 0.1473713 -1.8127284 -1.2747158 1.2827742 -0.6476263 -1.5644001 1.3512992 0.5725654 -0.5833585 -1.1730187 0.92938256 -0.031056648 1.3564937 -0.3030004
150.0 0.92236954 3.9389753 -0.16260354 1.6100335 -0.5748862 1.5956615 -0.10349432 -1.4515302 0.10257324 -1.4489259 0.58505356 -3.5144076 -3.2049177 -0.3397501 1.5332956 0.41767362 0.7431404 -0.7797474 0.026620913 0.85197854 1.9151925 -1.5129138 -0.33711475 0.914 -0.40743363 0.73001575 -4.0762715 0.9563387 -0.86214995 1.6045042 0.823975 0.79844356
176.0 0.34270748 0.97795194 -1.3556576 0.98556393 0.08252452 2.6427794 -1.0498438 0.68338156 0.34481752 -1.0151743 -0.7483237 1.3502638 -1.0945433 -0.38263747 1.3840572 -0.6136243 1.937418 -0.104921244 -1.0120224 0.6325833 2.1436572 0.76522505 -0.0955861 -0.99847066 -1.1089562 -0.40746012 -0.5702253 -1.2690483 1.0047075 0.42725372 0.3232406 1.6097525
263.0 1.0241205 -0.9275712 -0.23833098 -0.15538374 0.31596336 -1.1772321 1.3566649 0.5554474 -0.22571854 0.08734101 -0.24453922 -0.8496138 -0.35018024 0.12707973 0.42665213 1.0143291 -0.4160031 0.75630367 -1.3090416 -0.43993136 1.3750056 -0.23003986 0.2777183 -1.6365701 1.9094325 0.009387874 -0.22480801 0.49397847 0.00791542 -0.52518195 0.2868882 0.7496656
301.0 0.54705626 -0.43570194 0.061397113 -0.32418656 -1.3246447 -0.24329071 -0.97693753 1.3085874 1.2559865 -0.70099545 -0.17791924 -0.25870138 -0.45533195 -2.6336558 0.88448876 -0.29214197 0.067061774 -2.025028 0.09800555 -0.37784994 0.6959674 -0.23296492 0.16340594 -0.5340923 1.0610365 1.422759 -1.1639215 1.9979616 -0.020628667 -0.38997582 0.80135185 -0.33744082
174.0 -0.43972415 1.7086596 0.088769615 -0.908249 -1.0525568 2.4207091 -0.9186277 0.33999184 0.5528578 -0.53698784 -1.4042685 0.59292954 -2.8952289 -0.9839993 0.78805923 0.83754486 0.55743885 -0.038827132 -1.2165679 -1.8249002 0.38292956 0.44783986 0.77653605 -0.84499204 1.0482955 1.2975622 -0.48347673 -0.91154546 0.6674084 -1.4370322 1.1382921 0.2819649
217.0 1.3332127 0.18283871 -0.87265444 2.3767493 0.29468247 2.1702936 -2.5747814 1.9554379 1.4396799 -0.90005434 -0.11096886 0.70301783 -1.3319802 -1.0651966 1.4509695 -0.3377977 0.936066 -1.8434584 -0.8233453 0.82016957 1.3762529 0.28550076 0.07364882 0.09348937 0.2787652 -0.72223645 0.13679682 -0.9832323 -0.062700644 0.116985805 -0.28255406 -0.39553013
146.0 0.96303016 0.05068481 1.9772747 0.41969794 0.30200464 0.90222746 -1.8084574 0.29156062 0.60200614 0.10056168 -0.25469676 2.0240593 -2.7290866 -0.67961645 -1.0389721 0.3630838 3.1944509 0.22727816 -0.0047431444 -1.7684206 0.67627954 1.5013187 0.050156377 -0.8619705 1.3256671 1.5616922 -0.6853053 1.0558985 3.5450368 -0.48523068 2.4459677 1.8181939
65.0 -1.3707218 0.2697523 0.6430004 -0.22083467 -2.4148035 -1.1361057 0.12497248 -1.8967414 -0.38688445 1.1145228 -0.7040188 0.35638726 1.0698628 1.4734814 -0.84842604 0.040966857 -1.9492034 2.8357596 -1.6573361 1.3467505 2.3935075 1.9773473 -0.46520573 0.42122284 0.34077075 0.9942943 1.8750671 0.4608825 -0.2433348 -0.7581183 -1.9082849 1.0465517
131.0 1.3075011 0.62345225 0.27186242 -1.0002006 -0.5809959 1.2099994 -0.72260875 -0.3124024 1.1531795 -0.6633939 0.20112856 1.0255497 -2.3865654 0.09003712 0.63745064 1.4184285 1.3096031 -2.1370137 -0.27430478 0.120968156 1.5859833 0.12280765 -0.5106116 -0.6029932 -1.1210377 -0.123965874 -0.09300427 -0.26769906 0.87591726 -0.8103506 0.7817204 0.16464837
177.0 0.50294423 2.2833004 0.59685326 0.126486 0.8227064 1.6787819 0.11792416 -1.232755 -1.028919 -1.4396058 -0.69186354 1.0381112 -1.5573446 1.4889809 2.0432138 -0.3361518 0.30003583 -0.34252566 -1.2405822 -1.1275786 -0.7749222 1.1738298 0.88360536 -0.81356317 1.2802522 0.2841516 -0.7578282 0.6035281 -0.19117501 -0.2173228 1.5335476 0.09843889
310.0 0.54934067 0.5066394 -0.36170992 -0.14166018 -1.3320956 -0.25641686 0.2968823 0.3684696 2.7637513 -0.88676095 0.899271 0.19031265 -0.100229375 -2.859331 0.9252265 -0.48143494 -0.30991867 -1.2032125 0.7018233 -0.019032465 1.0162836 0.27956107 0.3180168 -1.1507869 1.5636729 1.1773207 -1.0383304 2.3503802 0.35524017 -0.47441053 0.14696787 -0.051001336
321.0 2.5875986 -0.8332368 0.12472688 0.19952807 -1.1969193 1.5889554 2.1291747 0.6173015 1.3219702 -1.3753206 1.1414857 0.0014356944 -0.60129374 -2.5385473 -0.08411179 -0.098569386 -0.75680023 -0.7777313 0.06035286 0.13478658 0.010370454 -1.3269479 0.3963188 -0.23237552 1.5835956 0.1343057 -1.3102728 0.6397199 0.53598195 -1.5652597 0.036073327 -0.3023829
232.0 0.6501819 -1.1379844 0.89267623 0.5950067 1.8078471 1.0190266 -2.1480262 -0.9743924 1.0673755 -0.256564 -0.41007364 1.4232239 0.15287761 -0.48977917 1.2671163 -0.6747576 1.005968 -2.3525028 0.54696023 -0.14247277 1.5293143 0.5017524 -1.2871133 -1.387064 0.6854642 -2.3771632 0.50074565 0.95875496 -1.3074367 1.0289537 -0.89422923 -0.040940825
221.0 1.6827422 3.5024793 -0.8437848 1.2997056 -2.2299163 0.7392407 0.41594028 -1.5687032 2.19729 -2.2438824 0.9781498 0.11913775 -4.1931143 -1.3982209 0.26665968 -1.2070208 0.66110575 0.8587855 -1.0002804 -3.600758 -1.4529258 -0.2980201 -1.3378419 0.81411123 -0.02569705 2.721488 -4.5684996 -0.033059813 -0.99241745 1.9207364 -0.30189934 0.89297837
292.0 -0.32469925 -0.0985313 0.0023436393 0.38191938 -1.9104427 0.6933278 -0.09988751 0.14280212 1.505514 0.13042861 -0.38102362 -0.48736468 0.9824917 -1.0331517 0.6807366 -0.1083331 0.4768879 -1.7029157 0.6828724 0.09789989 0.44146964 1.2656535 0.8623553 -0.8482664 1.5108416 -0.55987114 -0.82927495 0.61726713 -0.49593526 0.0046999473 -0.116268724 -0.21093775
94.0 -0.26389453 0.5186905 1.2807165 -0.112784415 -0.24721406 0.53060323 0.007851753 -0.16371743 -0.05392625 -0.58821285 -0.031742755 0.9221613 -1.1941874 -0.5620377 1.5456808 1.3668302 0.045805756 -2.2652733 -0.60482895 0.39176387 1.9201138 0.3110533 -0.38854352 -0.33841786 0.19605061 -0.49078745 -0.3429339 0.7120576 -0.2211684 -0.52823067 0.41350237 -1.0272248
167.0 -1.9549904 2.131447 1.459187 0.1945063 -0.16998541 1.3898673 -0.13499542 -0.66510475 -0.25536954 -0.01702518 0.0050830166 0.9175011 -1.8625369 -1.5274693 0.932292 0.67438954 0.9043011 -3.4604454 0.4482111 0.05512518 1.2122562 -0.2405356 0.07343454 -1.2607898 0.6182028 0.25297666 1.0200564 1.9516274 -0.19636491 -0.2743838 -0.4929368 -1.3749961
307.0 0.24545798 -0.26001477 0.6095407 -0.14141004 -2.054767 -0.63851136 -0.34037986 0.6471962 2.2496464 0.012607874 0.69510126 0.5316167 0.26976293 -2.2028465 -0.54549783 -0.093650706 0.17393066 -1.6507102 0.8832164 -0.16763636 0.54697347 0.49695903 0.042188127 -0.54190505 0.8034847 1.3024296 -1.4329408 2.305177 0.67051756 -0.10580046 -0.44202948 -0.5602115
172.0 -0.9918084 -1.3166544 0.54997224 -0.67427284 0.25807232 -0.40042862 -1.2078885 -0.9057407 0.7092446 -0.2618016 0.26192412 -0.27832127 -1.1134048 -0.94450194 1.0502917 -0.3896604 0.018452767 -1.5390573 0.043759666 0.5392536 1.2468059 2.080303 0.35857096 -0.58247614 0.3562917 -0.0062737283 -1.1948234 0.6600777 -0.6813929 -1.174331 -1.585101 -0.003677786
306.0 0.96743834 -0.5705623 -0.37851867 -0.7877936 -3.2402864 0.5806947 0.3789193 0.19610685 3.1394815 -1.0960153 1.4577745 0.7062888 0.5449893 -2.800436 0.10582239 -0.09871475 -0.7332798 -0.2744012 0.60351956 -0.7045481 0.9426206 -0.073193215 1.5614839 -0.68027633 1.7365999 0.48450893 -1.7129917 0.47826263 0.45418644 -0.21011436 -0.8475781 -0.4118205
179.0 1.0504168 1.2729706 0.6100817 0.1289256 0.77192587 -0.21124452 -0.9646088 0.16898738 1.6883008 -0.49334076 -0.10099392 1.8967855 -2.6428487 -1.8094088 -0.46479607 0.1973709 2.2334557 -1.2057656 -1.0579623 -1.1612161 0.6242467 0.89067155 -0.012379121 -1.5991521 1.0652897 1.6875107 -0.67009115 0.60983515 1.5038084 -0.40927085 1.5096468 1.1682382
203.0 2.2873993 0.46070725 -0.90355855 -2.304062 -1.2751217 0.41273403 -0.25340375 -1.0458585 1.2380346 -0.058141895 0.9830232 0.8034804 0.3800017 2.6714575 -1.7637241 0.16748336 -0.022832202 -0.5885597 -0.3246905 0.15258855 2.0112824 -1.2120004 -2.034106 -1.1115155 1.2422878 -0.5676748 0.47796184 -0.52443594 0.21951292 0.5823808 0.017701846 -0.010261369
119.0 0.9100204 0.54991025 0.30866933 0.8355342 -0.612744 0.94719285 0.7715389 -0.08862696 0.95547074 -0.53337896 0.25848922 1.1165714 -1.8376708 -1.9754534 0.60752326 1.848669 -0.8082775 -1.865365 -1.1728606 -1.5536224 0.15691085 -0.14263253 0.60867023 0.061554857 1.4803098 0.6284175 -1.2056319 -1.0842701 1.3240966 -1.0340165 1.0453538 0.5021619
123.0 -3.2415051 3.0820136 2.0222743 1.2620198 0.9897655 0.8448132 0.9634862 -0.33336255 -0.7597073 -0.6380632 0.29356042 1.1755774 -2.806228 -1.6473465 1.2755283 0.7560936 -0.0583464 -5.210065 1.6267892 -0.42557144 0.11722234 -0.5885615 -0.21946561 -1.5374738 0.8804943 0.30376512 1.4664408 1.4723961 1.7732172 0.7332304 -1.7476032 0.44886163
296.0 -0.28646794 -0.15956418 -0.5570666 2.114497 2.4017684 1.6949499 -0.5733797 -0.024842901 3.6494596 3.2334602 -1.613765 -2.828703 2.869832 -0.2924203 -0.071124814 1.2650526 -1.8261561 -0.38001317 0.14818509 -0.75291985 0.7310025 0.9640411 -1.5537133 -2.1007383 2.007919 1.255652 -0.90333104 1.4039261 -1.0060418 -0.13414544 -0.98023796 1.8633561
246.0 -0.8246249 -0.2486823 -1.2950166 -1.2979271 -0.034936205 -2.0362864 0.56881243 0.8704453 -2.3002894 0.52598155 -0.063412406 -0.4402314 -0.25386703 1.8439409 -0.63180196 0.5448319 -0.6610671 0.36450446 -1.3728023 -0.63625187 1.0491287 -0.66579986 0.027603101 -0.7550832 0.81366676 0.75157297 0.38145483 -0.2689327 0.578728 0.1211177 0.18585251 0.9158085
253.0 -0.57164407 0.54192215 -1.5470916 -1.4709831 -1.2165678 -1.565605 -0.5654297 0.047741625 -0.985612 -0.25399464 0.60262364 0.49237263 0.20621297 1.080206 -0.18709455 0.06823445 -0.8778614 0.34058285 -0.9131666 0.19331743 1.2935729 -0.9738819 0.47168285 -1.0213542 0.66236293 0.7370521 0.17071497 -0.49994266 0.88942033 0.16719241 -0.09552003 1.874177
159.0 -0.69942766 -0.29450187 0.85531336 -1.0791698 -0.4642195 1.0789673 -0.71474355 0.16089623 0.13381119 0.036111884 -0.7743194 0.21904519 -1.0048625 -1.1656338 0.11123622 0.5752844 -0.033478547 -2.2804284 -1.2408786 0.1260067 1.142624 -0.97246665 -0.80054414 -0.431206 0.9701637 0.08967499 -0.0008234084 1.2660544 -0.58206993 -1.2652823 -0.5123421 -1.1565918
305.0 0.38472676 -1.5511415 0.9777407 -0.31413817 -2.7038293 0.3109539 0.34689802 0.4602857 1.6343163 -1.2922845 1.4931116 0.73121625 0.53000814 -1.4455398 -0.42418432 0.319712 -0.4643252 -0.43664613 1.0408578 -0.41208634 0.42537865 0.34128916 1.3131696 -0.2509663 1.0362589 0.1274579 -1.7744715 0.8730732 0.5207031 0.27002424 -1.348865 -0.16014133
183.0 -0.03616318 -0.07625472 -0.4006351 -1.7655259 -0.1926376 -0.81369 -0.13440916 -0.6564353 -0.7925763 -0.20708998 -0.19288224 0.63251257 1.1040292 2.941379 0.89690477 0.8378334 -0.122339286 -0.11590252 -1.9348038 2.4009554 1.2943642 -0.60753894 1.5855284 -0.9202734 1.6242273 1.4758826 0.48484915 0.3468236 -0.0058170496 -0.45722082 -1.1956998 0.61123335
233.0 -2.692217 0.3767702 -0.2855931 -0.054303378 1.2613069 -0.04304529 -0.610894 1.7368991 0.80276096 1.2044019 1.4196416 -2.067099 1.3680649 1.3610978 -0.2856294 1.7711112 1.3011981 -1.5318968 0.34060577 1.0646323 -0.2093336 2.017375 1.7564363 -2.0292103 0.69689363 0.45875773 -2.1453412 -1.525925 -1.562854 -0.13689396 -2.0166872 1.8930764
142.0 0.065796204 -4.0001936 0.45764768 -1.1901191 6.2267275 1.4333513 -3.974115 -6.8362217 -1.2413898 2.748721 1.654641 0.8653138 0.34322423 0.47922182 1.6536516 -1.2326902 -0.10851224 1.8437308 3.6099694 -3.1364126 2.8647475 -4.9099574 1.5298457 -1.6484582 -0.08007952 0.70479447 -0.92321515 -0.41374522 -3.498296 -4.3720565 -3.4455266 2.608678
297.0 -0.9664274 0.39637518 0.1576773 -0.65517586 0.2913207 1.2657285 -1.1262853 1.600347 0.52152574 1.672124 1.1525775 -1.60039 0.52440786 0.5126657 -0.22002837 1.8088545 0.7825353 0.23656495 -0.7803386 2.5756927 -2.1963327 0.45195228 -0.5245798 -1.9944545 2.0256171 -0.6324397 -0.71173626 0.34374523 0.19549423 -0.23718554 -0.36896282 1.7430985
161.0 -0.155798 -0.9191875 0.06357437 -0.68593484 -2.4918563 1.448632 -0.101613976 -0.20144965 -1.3294827 0.67001003 -0.5223146 2.937329 0.97155386 -1.3926537 0.52433866 0.2058368 2.7375913 -4.0868196 0.23763512 -0.5397999 -0.021314694 -2.8839006 1.2600771 0.32847828 -1.5777105 0.021648372 0.9042753 1.1182046 -1.0375378 1.6900891 -1.0990884 -3.212201
284.0 1.5176051 -1.0432799 2.0948272 0.3529864 -1.6539102 0.2673329 -0.41900772 1.2236024 0.5850283 -1.6716542 1.8792635 0.85032994 -0.9276468 -1.3205785 -0.762986 0.08139066 0.09092026 -0.7233541 0.29291114 -0.4916547 -0.23954704 0.5627494 0.20656596 0.56142193 1.520503 0.54287636 -2.337181 -0.46599492 0.21649735 0.6017711 -1.4482807 0.22190201
197.0 -0.05816938 -0.13076395 -1.4190972 -1.5059346 -0.2826848 -0.20868151 0.050087698 -1.1248707 -1.1607105 -0.70176554 -0.09017698 1.0660884 1.2292709 3.367968 -0.36742142 -0.9917661 -0.71978563 -0.698131 -1.4497095 0.92630726 1.9581559 -0.76773703 -0.97953606 0.55904365 1.6701926 0.6026138 0.6513995 0.78905785 0.7596016 0.062317427 0.1843158 0.68569094
288.0 -2.6599004 -0.48367107 1.3490329 0.62001 -0.78932464 0.7229814 -0.84423584 3.7612264 2.246427 -0.012567034 3.7600646 -3.217367 0.3228308 2.0792115 1.3951076 3.74093 0.032473315 0.07545538 0.6370739 1.1499054 -1.7963719 0.41125402 -1.0159042 -2.3501756 2.4232335 -0.6357307 -0.11799909 0.7445544 -1.4340895 -1.0150976 -0.58075124 2.234797
322.0 2.5098681 -0.16630931 2.101612 1.4482462 -1.7409497 2.994276 4.3802624 -0.15254356 -0.5177256 -1.4424453 -2.8422186 -2.4234862 -2.2808175 -1.5299705 1.1561028 -0.85406595 -3.4396 -2.7043457 0.9362572 -0.9609593 -1.9167634 -1.3845279 1.3202341 -4.1965485 0.493771 1.7279477 -0.53110665 -1.9396564 2.5645072 0.6071087 -1.9281644 -0.18608126
273.0 3.3244758 2.4167254 -1.0430707 1.6689788 -0.32706603 0.3017156 3.028115 -1.3579252 1.827363 -2.4725494 1.312629 -1.6786475 -3.2642448 -1.7425516 -0.6775115 -2.0562377 0.080881536 -0.2254715 1.710617 0.86667264 -1.1918104 -2.2946537 -2.3740315 2.002582 -0.6781783 2.9756408 -4.4297156 5.0029616 -1.7950126 -0.46499968 -1.8196871 0.19103715
45.0 -1.8044392 -0.19932234 1.4696456 -0.059631992 -1.0954835 -1.7244194 0.12315822 -1.7524375 -2.3485763 1.0761144 1.7020079 -0.6532076 1.7890816 -0.09087613 0.75816226 -2.571893 1.59389 -0.5601396 0.5574557 3.7898738 0.47545928 3.1978626 -0.5420352 1.4330302 1.4056548 2.7290075 0.76257914 -4.695036 -1.938523 -0.9713801 2.1379204 1.9530158
276.0 -2.1543772 1.5998939 -0.9934583 0.30414978 0.47056487 1.2834712 0.120767355 2.6055832 1.0031184 0.87922394 1.1842017 -1.2465575 1.2089872 3.0238156 -0.5942889 1.4472796 1.2995989 -1.5445335 0.41495404 0.67669845 -0.51610875 1.2019032 -0.9933719 -2.5741627 0.9410036 -1.6481949 -1.125184 -1.378234 -2.5046492 -0.1832247 -2.081563 0.8127315
325.0 3.1120908 -0.4028541 2.66702 0.871473 -1.4418699 3.571652 4.471747 -0.37666622 -0.07203351 -2.087052 -3.5742137 -2.3020108 -2.505865 -2.0420914 1.4264336 -0.5165897 -3.9079764 -3.2981503 2.2233796 -1.4258624 -1.9650614 -1.1062815 1.6031802 -3.6776078 0.8492551 2.0581653 -0.40982804 -2.1779168 2.0715091 0.76742244 -1.3207241 -0.56113863
95.0 0.66639113 -1.2524346 0.0658037 1.0386659 -2.075217 0.99745065 1.2511094 -0.81539845 0.705893 -1.145191 0.39240807 1.558362 -0.40107247 -2.115285 0.5198064 -0.057908844 -0.37396508 -1.5711999 -0.67401135 -0.90217566 -0.43485892 -0.01731708 0.8039463 -1.889508 0.06578924 0.10724851 -2.284869 0.11178796 1.1198303 -1.0319841 0.31819823 0.79325485
274.0 0.014321657 0.10365927 -1.9000893 -2.7765398 1.6581818 1.4617426 -1.1149894 -0.5387983 -0.06566947 1.3745459 1.1973535 -0.26379612 2.9765136 1.4034258 -1.2114568 -0.7664714 -0.06277901 -1.251603 0.21003775 -0.5130177 0.7336356 -1.6852419 1.3465614 -1.2709392 0.75700265 1.733523 -1.088378 -0.5846801 -0.79147816 -1.5460382 0.51583993 0.52935565
169.0 -0.67947984 0.1227162 -0.90008134 -1.5395501 0.12564276 -0.13276006 0.72202057 0.5559714 -1.7359877 -1.4919152 0.39487478 -0.06304791 0.13651705 2.843669 0.29115978 -0.0015267173 -0.30119702 -0.07223081 -1.4018729 1.2496203 1.3535926 -0.4697682 -0.032740425 0.8227737 0.92031896 0.19813092 0.7488381 0.3450935 0.37174326 0.14565617 -0.3736981 1.2077323
133.0 -1.4907893 -0.16064215 -0.26665503 -1.8085282 0.26537326 0.26171514 -2.022868 -0.6897323 -0.8796761 1.2228608 0.4239667 -0.4921992 -1.0461439 0.029173175 0.013948143 0.18514429 0.55510885 -0.08161705 -1.6331658 2.2011619 -0.66531897 -0.96044517 0.2848176 -1.2303123 1.635886 0.25930038 -0.34810078 0.7694916 0.5164056 -0.27380416 -1.4768205 0.2577376
92.0 0.90380985 -0.7560359 -0.7002182 0.26559556 -2.3289413 0.7535561 1.3055562 -0.18240237 0.5702239 -0.7898947 0.76076484 0.98497224 -0.03758307 -3.296321 0.12825775 0.16813743 -1.1015539 -1.2690034 -0.08637061 -0.6556618 -0.480436 -0.14240435 1.3698896 -1.4307855 0.38765833 -0.14437267 -2.2217422 0.32064366 0.84059364 -0.725067 -0.2790231 0.70153475
331.0 -2.32097 -0.44987863 0.26620942 -2.3442712 -1.1808771 -1.7804767 1.5503742 2.1040888 -2.0449343 1.0878927 -3.210784 -2.1402435 -0.15475915 0.2816285 -0.8820447 0.7540985 0.94077194 -1.6994936 -3.129569 -4.891752 1.2302374 0.63262993 -0.23183088 2.0820866 -1.1144297 -1.6238897 0.13957798 0.07422912 -3.5472353 -0.4836902 1.4309077 -2.6482503
316.0 0.07674607 2.6403618 -0.43687084 -2.251565 -0.3683506 -2.0397985 0.5298053 0.8608583 -2.2630053 -1.4424989 -1.1354162 -0.5633038 -0.5175436 0.9447471 2.589136 -0.1003667 -0.11074994 -1.9006826 0.26875144 -1.2610513 2.89362 0.9121233 1.1625533 0.19555959 -2.2358816 -3.1051538 -1.1542901 0.7681558 -3.7955952 -1.1933975 0.6716643 -1.5353494
153.0 0.9301625 -0.2763579 2.5060616 -1.5371462 -2.5713704 -0.81442416 -1.1973374 0.24263836 1.3436813 -1.2452757 1.7595683 -1.5579878 -0.53879976 1.1146204 -1.5044311 -0.34589425 -0.53947836 -2.028938 0.14175211 -0.97996354 1.835137 -0.060851224 1.3146428 -1.3135258 1.3841491 1.6334162 0.7375141 -0.51843977 -0.7899711 -0.71392703 -1.1279838 -0.8836397
13.0 -3.895004 0.42077297 0.7448565 -0.817953 -0.23184057 0.12090106 2.668067 -3.4914649 5.184714 2.592628 -1.2868198 -0.6301154 2.065263 0.6404093 -3.0084674 -1.4869636 0.10816336 2.0924385 -0.27386537 2.075195 0.5814345 -2.51266 0.19258761 2.2521424 -6.0885696 -4.9126754 -2.106191 1.3948208 4.907737 -2.590405 2.3407214 -1.5990121
212.0 1.2466139 -0.59356546 0.6314139 0.028230926 -1.6477424 0.35704014 0.1942547 0.44432327 1.4724915 -0.58854324 0.614098 0.21474473 0.5326399 -1.6944495 -0.88895196 0.21943356 -0.13528273 -0.040977634 -0.12612715 -0.119208395 0.27526963 -0.26170313 1.1035035 -0.0068262434 2.1675339 -0.3636295 -0.71854806 1.1718546 0.31207877 0.10862065 -1.0456566 0.48014954
143.0 2.257655 -0.058775906 0.79991555 0.2758366 -0.11512468 1.5380913 1.9028425 -0.83014554 1.1797239 -0.8896315 0.5306157 2.3410108 -3.087446 -1.3296956 0.42615175 3.837711 -0.0682071 -2.7883916 0.31131402 -0.2598878 -0.29356375 1.0381382 0.3871782 -1.002608 -0.2843296 -0.36169443 -0.9079073 -1.6999859 1.8664854 -1.5332233 1.256787 1.2336454
125.0 1.8739873 -1.5495819 0.7065035 0.62742645 -2.457537 0.542483 1.0782363 -1.5512418 0.66430974 -0.7340698 1.0538304 0.818713 -0.5298275 -0.45355782 0.46707088 2.6065252 -1.1935151 -2.645543 -0.1789578 0.63005584 -2.429366 0.6012268 1.7733195 -2.358865 -1.1823314 -1.4823666 -1.193072 1.6539228 1.1861249 -1.789795 -0.0841066 1.4791086
216.0 -2.586526 -0.32846454 -1.2159367 -1.5820382 2.9350607 0.7299301 -2.8881867 0.3975679 -0.004267919 0.76963043 1.3467051 -2.0122461 -1.7140497 0.57805055 -0.6354935 -1.9549943 0.75513494 -0.6812509 0.49214622 3.365074 -1.0909796 3.8461027 0.4264414 -2.174026 0.65684575 0.28749302 -1.5138527 -2.3095322 0.8453626 -0.591137 -2.79674 2.07219
250.0 -1.0683172 0.5914048 -1.6818548 -1.8160664 0.35127452 0.2962794 -0.2816392 0.9992644 -1.2058325 -0.7201698 2.5119216 -1.3064893 -0.14966938 1.1142117 -1.3428962 0.62135816 -0.82795817 -0.5911404 -0.15881899 1.0515262 -0.3023829 0.6709692 0.14650172 0.81346774 2.315174 0.8315091 0.57392156 0.19581121 -0.12513731 -0.037723664 0.6859687 1.5576143
245.0 -1.6052551 0.37996766 -1.821133 -0.78956884 -1.047995 -2.0100546 -0.12587208 0.30367362 -1.9847803 -1.340001 0.12644194 -0.25286865 -1.5885692 2.5538425 1.5071547 0.19003889 -0.6510766 1.2085927 0.6675019 1.6147126 2.098448 -1.2711573 -0.3672743 0.37111542 1.2290865 0.15478018 1.5999827 0.23215772 1.3776951 0.065967694 -0.03117023 2.6835387
83.0 0.24588025 2.1901047 1.6945473 -2.2357554 -2.634165 1.8823599 0.6571815 -0.95389277 -2.9451575 1.3060329 0.41990757 -0.54202706 2.8389823 0.11589742 2.4193015 -0.061122015 0.14122027 -0.46054685 0.79735845 0.43080702 0.68140435 1.0265127 -1.8664783 2.8058796 -1.1489817 -0.9200803 2.3069808 -1.2808867 -3.2862248 -2.1658406 0.057093065 3.4540784
225.0 -2.5269923 -0.02200836 -0.40450633 -1.5785254 2.133218 0.3434434 -2.613294 -0.36384735 -0.17809509 1.7703688 1.4987441 -2.1568766 -1.4027375 0.40009564 -1.460293 -0.64061725 1.112035 -0.83152115 0.3108155 3.6393564 -1.0881834 3.7122278 0.51469725 -1.6057886 0.17529868 0.7400608 -1.5151054 -1.7079071 0.74391645 -0.26142794 -2.4033945 1.8594004
91.0 1.4640188 -1.5367573 -0.11003741 1.5095158 -2.7494204 0.78732765 1.749597 0.7558151 0.7161328 -0.90776575 1.342791 0.93449014 0.344691 -2.4505253 1.1559575 -0.11525619 -0.5009034 -0.7847448 -0.5277131 0.15647046 -0.21548459 -0.13802108 0.31263062 -1.0287368 -0.3022481 -0.46416026 -2.3630755 0.9669586 1.0267315 -0.70393056 -0.6997118 0.13150975
202.0 1.2183081 -0.23458557 1.8290799 0.3818375 -1.6083179 0.6639336 0.36368343 -0.37772587 1.0164905 -0.7795469 0.822074 0.8421275 0.75183433 -1.212857 -0.11110284 -0.5410787 -0.116882004 0.86410564 -0.9083437 -0.8232594 -0.6085037 -0.21109861 1.344855 0.38338616 2.6546519 -0.43401068 -0.77637464 0.6800122 0.09829877 0.12273978 -1.0549132 0.2009515
256.0 2.285934 0.97755533 1.3795794 3.3397865 3.3348458 -0.8447793 -0.41353178 1.0451753 -0.5548245 -0.7522243 0.892576 1.6419123 -0.16633873 -1.6693033 -2.2310367 0.5910148 2.781363 -2.575375 -1.2234087 3.0710223 -1.479442 -0.17246932 1.5978796 -0.3356097 1.7352173 -2.4573412 -0.73023546 0.30526802 0.6494816 1.9276139 -0.8733882 3.2607481
218.0 -0.11556693 -0.7871307 3.0876353 0.5447898 -1.8426942 0.7843118 1.2512922 -0.40581134 0.22782828 -1.7953564 1.0920109 1.945894 0.39423147 -0.7325697 0.50577825 -0.21413012 0.6100852 -1.5184205 -0.39441332 -0.637869 -1.6991744 1.6054552 1.4386017 1.468051 3.4108338 -0.36240226 -1.301074 0.9754458 -0.54841566 -0.39970845 -1.6958499 -0.31367764
189.0 0.17401613 0.013974005 0.08305781 1.058565 -1.9627806 -0.050786525 -2.7869182 0.89854676 1.0186099 1.9530675 -0.46432933 1.1584721 3.367388 -1.0555496 1.5957428 0.02639847 -0.756675 -1.5849004 -0.8097024 -0.74089843 0.21041395 1.377161 1.6931888 0.059130672 0.96906966 0.73687094 -0.47953665 2.1609783 0.52694935 0.80817443 -1.1586583 -0.46870488
198.0 -1.7996014 -1.377483 1.282719 -2.1309533 2.7647417 0.02698468 -2.805252 -0.4766449 -0.08545601 1.47165 0.66784567 -1.1706077 -2.0467665 0.14036351 0.5223565 1.649587 0.014950848 0.57992476 -0.33502644 3.6945293 -0.36361438 3.8931727 0.7422576 1.2411886 0.81275576 2.1876137 -1.9863179 -0.40870455 0.60992086 -0.081874095 -2.447769 0.19823742
101.0 -0.15424289 -1.1489077 -0.28969133 1.6593618 -3.379101 0.867545 0.3463665 0.35898843 0.131922 -0.29924563 1.0176027 1.8344206 0.8762026 -0.997142 0.78122395 0.4876438 -0.016192554 0.4376691 -0.8648264 -1.1555623 -1.1478541 0.9743712 0.7325705 -1.1312271 -0.500672 -0.2202735 -3.4479113 0.97339696 1.3506557 -0.048470926 -0.7651099 1.6450366
213.0 0.19284596 0.8784177 -3.1197295 -0.7914279 -1.6696905 0.14606507 2.3154678 0.010165446 -1.0377842 0.4619642 -1.4458389 -0.29559967 0.7348106 4.4569826 0.10464982 -0.9586483 -0.28997457 -0.85194117 -2.5598993 2.7444792 1.2842668 2.1117377 0.2837523 1.3454989 2.758971 0.8410356 0.19506681 0.82203156 2.7191992 -0.012474716 -0.8019951 -1.3213826
329.0 -3.7066464 -1.8891897 0.1798882 -0.55977696 1.7037551 -3.1139677 4.7279425 3.8138795 -3.6046665 2.3269448 -1.8983827 -2.9656584 -1.9903181 -0.94763523 -1.471578 0.32116854 0.9558979 2.3386464 -2.4042706 -4.170929 -0.31678602 -0.5454881 -1.628837 1.3323237 0.7227769 1.8788229 -0.14382073 -0.9987675 -1.5019208 0.4591945 1.2078212 -2.6816483
4.0 -0.97163564 1.5503639 0.3530229 -0.7348109 0.6077314 -5.5284 1.562421 -2.438362 0.03434767 -0.7981492 3.3665502 -1.4123566 -1.611876 0.42501143 2.5753298 -0.9617048 -0.92781657 -0.91556436 1.7025869 -1.0924935 1.0653367 0.654452 3.0451398 1.685802 -0.30891696 -7.103265 0.83178097 -2.1765802 0.90401775 4.4344373 -0.2157524 -1.8682653
128.0 -1.7251056 -2.068769 0.27197507 -2.4616785 2.4306984 0.08353176 -2.6654885 0.05667193 -0.022565456 0.31844443 0.38072586 -0.5099622 -1.8944625 1.1053926 -0.80726326 -0.14627215 -0.08333754 0.25906193 -0.3660104 4.076764 -0.8159056 3.5560603 0.5847591 0.5975499 0.8190704 3.1843443 -1.2603123 -1.021726 0.71184266 -0.25944573 -2.2490065 -0.32242322
318.0 -1.2010084 1.9377192 -0.18464904 -1.3503077 -2.406985 -0.39980176 0.041020606 1.5369046 -2.096288 -0.81617194 -2.558643 -1.311512 -0.30356464 0.34846646 0.95802563 0.7750643 0.28886452 -2.4529722 0.006632378 -1.1735901 2.2190375 2.3195581 2.206644 0.8487801 -1.1134712 -2.5108948 -0.5494448 -0.9941757 -5.3887997 -2.1038349 0.53894776 -2.1099453
26.0 0.22661768 2.3491921 1.8172927 -0.8920272 2.517507 -2.1782699 -0.33081588 0.36212584 1.9089038 2.7375312 0.7464133 -1.4290938 1.5827209 1.7259722 4.321206 -2.4724636 -2.9792387 3.335641 1.1523408 0.38225186 0.53315276 -0.71301705 -1.7564433 -1.1016834 -5.19939 -1.2228141 1.9195094 2.6835334 3.8042135 -0.16337253 3.2067692 -2.3530874
168.0 -2.1677136 -1.2911048 1.6857144 -2.0896363 -1.9665498 1.9901705 -1.3257427 0.40514517 0.11219629 -1.2974908 0.19323273 1.6899956 1.855809 0.6392373 -0.16490498 -1.1894174 0.22472405 -2.3877044 -0.580275 -0.82925475 1.0903487 1.7706401 -0.4193223 2.8223898 0.9269802 -0.8224719 -0.22680987 1.1567194 0.5516509 -0.4355952 -0.7203732 -0.40612382
324.0 4.4115615 -0.62890136 3.6437426 0.57971615 -0.7154012 2.4813912 3.842641 0.034627 1.9865695 -2.129798 -1.7958943 -3.897239 -1.1920204 -1.3279219 -0.022245444 -1.5965109 -1.7320608 -1.5171056 0.9642844 0.14584324 1.9874578 -0.18352248 0.24833684 -3.2901874 1.8147286 0.80155313 -0.6877382 -2.1272604 0.10177795 2.035512 -0.5595571 -2.4721832
320.0 3.4042957 0.022938522 3.8249109 0.51160604 -0.42747363 3.0362074 4.310456 -0.56447434 2.2286563 -2.2289224 -2.103407 -3.448107 -1.1766962 -1.3321835 -0.40672833 -1.8595923 -1.6760355 -0.74961185 0.4395148 0.7808174 1.9161149 -0.34281275 0.33180347 -3.6878047 2.1987998 1.2675488 -0.36163482 -1.8919061 0.97692394 2.2021904 -0.21369316 -2.266537
260.0 0.4720077 -1.1514856 2.5757396 1.6769751 -2.1094987 2.6824126 1.4399552 0.46166536 0.41958013 -2.0611875 1.7342685 1.130703 0.85463226 -0.43449357 0.47320685 -1.9225355 -1.0284246 -2.1378126 0.7065227 -1.3812472 -0.32005712 2.0663543 0.20760375 0.06751126 0.05335106 0.60361123 -1.5449575 1.5048698 1.3397458 -0.28297415 -0.9760799 -1.179706
82.0 -0.30910146 -1.2259591 -4.9906735 -0.80150646 -1.4365239 0.9847471 -2.2578301 -4.2665935 -4.91881 2.4442558 3.0959172 -0.27889422 -0.16788192 -0.4169465 -2.610826 -1.5438462 0.09657735 -0.07742332 3.9425917 0.5508781 -1.908895 -1.445174 -0.41647038 0.13879949 0.18728288 -1.6953573 -2.0710135 2.1945384 0.66516775 1.0593048 2.6064305 1.2531341
80.0 0.40677685 -2.2865057 2.239081 0.84227586 -0.599635 1.6896492 1.8596377 -0.42923465 0.5969119 -2.396727 0.6323563 1.4926713 1.2827585 -0.62897503 -0.04659517 0.83483136 1.4503018 0.43678534 -0.9613949 1.1670501 -0.26298773 2.1501908 0.69422185 0.05924668 0.57731825 -0.12723717 -2.042925 2.074816 -0.79554474 0.5157276 -0.036737856 1.7011844
181.0 -0.65458035 0.46932465 -0.7390526 -3.4703755 1.7093295 2.12089 -0.69450164 -0.13156903 -0.50497127 -0.2369089 1.3304516 -1.0852535 -0.39208862 -0.16341719 -1.3301401 -0.323769 0.4230819 -1.3447136 -2.722915 2.9913406 -1.3166534 -0.9873814 -0.4794921 1.4831126 0.89239854 0.22182621 0.022786997 0.013733303 0.7654373 0.2687065 -0.28933868 0.88263434
262.0 -1.282406 -1.4315307 -1.4518124 2.062681 6.105859 2.5248938 -1.1735394 1.7482944 4.307782 1.471921 1.0921837 -1.6135055 3.026967 1.8731142 0.7235477 -0.98603916 0.91164875 0.09230851 2.973663 -3.987163 1.4139329 -0.55896914 -1.4771006 -5.3327947 1.6782069 -1.3019855 -1.3928965 -2.443238 -4.6376734 -2.0726113 -2.3729231 2.9752266
62.0 -2.016895 -0.5782067 0.3868718 1.0784205 -1.2267417 -0.79454 0.43093607 -3.0138135 -1.5567775 2.4785156 1.3542535 -0.39283022 2.1225777 0.11357886 1.3402668 -2.8692312 1.1026437 -0.6097674 0.43878052 2.8665714 0.3800382 -0.630842 -1.4768605 0.1765685 2.8516805 2.2892036 0.9247765 -4.0506496 -1.1091746 -1.5674475 4.0754385 -0.04892343
50.0 -2.7667274 -0.43854597 -0.17047837 0.80336297 -0.71602815 -0.78726864 -0.25975007 -2.388746 -2.150819 2.3737216 1.2248063 -0.39332193 2.1936517 0.7701604 1.1431255 -2.0797179 1.3270434 -2.3385398 -0.12520824 2.6979666 0.1464694 -0.77681684 -0.9075562 -0.10318399 2.4991999 2.460729 0.10773468 -3.2204013 -0.26676714 -1.2696829 4.1492724 0.13756062
330.0 -2.2358193 -0.9102589 1.5451912 0.0096800495 1.1557449 0.66312826 0.8274121 3.042439 -1.4788643 -0.81974846 0.5156083 -0.38297322 0.124899454 -0.84495264 -0.5975354 -2.3321002 0.6764209 2.6462996 -1.0342444 0.39301386 2.180119 -3.209502 -0.2244468 1.0853213 -0.53888094 0.74013615 -1.2473304 0.22047344 -0.5637597 0.22166316 0.55789876 -1.6669788
300.0 2.904102 -1.2360502 1.5460702 2.16546 -2.9346082 1.7492685 1.0185739 1.6363384 -0.45335588 0.012996633 1.5247662 -0.49972224 -2.3793476 -1.0674552 0.3149306 -1.0002066 -0.7141595 -0.32592678 0.79750323 -0.5744783 -1.0376326 -0.10387241 -0.38154316 -3.186947 -1.3241987 1.2603084 -2.241063 -1.7005866 1.6834173 0.21033601 -1.953441 -2.0694463
286.0 2.4379566 0.5934173 0.99456936 2.6286993 -0.745666 -0.08476131 -2.8633666 1.2876346 -0.21157964 2.5352895 0.5303025 1.1181322 -1.9638586 -1.1597341 -1.1863588 0.9376248 -0.33337876 -0.49367103 -1.0188367 -0.83367354 -1.4877806 -2.179019 0.07940043 0.2468618 1.530701 -0.52285784 -0.19638197 -0.34931293 0.9154402 -3.149 -0.62186843 -0.67350394
38.0 -3.0108604 1.2323962 -0.538504 3.4872117 -0.26822737 -1.8077221 -0.77927256 -1.1460515 3.1567595 1.11929 -1.4652096 -0.83695185 1.200893 0.7360583 -2.4418077 -1.8570796 -1.1055518 4.7531643 0.20687415 -0.30799517 -1.7074782 -1.0783038 3.2718823 0.91643673 -2.1335673 -2.7200677 2.2476726 1.1437194 0.5070042 0.61852014 3.2752843 -1.4372313
222.0 1.8116072 0.4734006 0.73260957 -0.2637542 0.8090846 0.33279222 -0.2394871 1.6714193 0.35558552 1.1421542 1.6236727 0.558665 1.2893072 -1.0541906 -0.14696498 1.3550283 0.66377205 1.1705157 -2.2772195 1.1052318 -0.8410148 0.60000616 1.1763221 1.3046595 1.5646067 0.20013279 -0.40416256 1.4190296 0.20000392 1.3040364 -2.0555427 0.12954691
251.0 -1.5795541 0.5419022 0.056071 -0.3386568 -0.6174872 -0.39366108 -0.94443125 1.4386613 -1.3273851 -0.9422592 1.2975833 -1.0915743 -1.7169315 2.681989 0.3044605 1.3885851 -1.3620046 0.41984865 0.9238452 0.88295716 0.5805536 -0.8777977 0.24196318 0.71652865 3.9457102 0.9639337 2.1070855 0.65790135 0.62000376 -1.0762658 0.5858762 0.58392864
281.0 3.7057428 1.1640383 0.6947371 4.5626626 0.477499 -2.1830213 -3.0320022 2.1482875 -0.7641366 1.211651 1.052754 1.0404494 -1.20089 -1.0510144 -1.3797638 -0.033957846 -0.32782868 -0.59107506 -1.8041888 1.5240761 -1.2400723 -2.4354358 0.8306771 0.65296715 1.8268651 -2.1392293 -0.22946954 -0.25194913 -0.14066808 -2.3506718 -2.2158997 1.2338614
130.0 -1.9710193 -2.193256 -0.507641 -2.1473184 0.7087493 3.4147606 -3.1734896 -0.25992516 -2.6968443 -0.60264033 -1.3604784 -0.68224317 -1.4565966 -0.3711651 -1.2237839 -0.077812925 -4.679562 -0.77709764 -1.0981169 3.0341794 -1.5454769 1.5548313 -3.2448208 -0.7478826 1.860593 -0.42012426 0.795479 1.3675131 0.24434234 0.62717307 1.7246315 -1.0181303
75.0 -2.223768 1.1424786 0.19722496 1.4908409 -1.4980967 0.11254265 -1.4361528 0.5240899 -1.8518113 -1.3599275 -1.6142942 2.8571334 -0.15966251 1.6992787 -1.0239401 -0.1988815 -2.8408346 3.5462015 1.7120421 3.1641457 2.7633257 1.9146947 -0.96888673 -1.8769205 1.1392411 0.6309308 0.58644766 0.9187207 -1.5024214 -1.7332572 0.36782587 -0.12375742
239.0 -0.06511162 0.020302948 0.5932686 1.552181 0.69875777 1.0454625 -0.4091159 0.7956717 -0.56529486 4.5566278 1.4579469 -1.0662944 0.4673211 -1.2769094 0.027018216 3.1707506 -0.28206694 1.0080497 0.70134574 -0.0136323515 0.026107172 2.474754 -0.12049211 0.6931742 2.7714777 -2.7556007 -4.4761405 -0.50499505 1.0712639 -1.430899 -3.2694554 1.6515143
229.0 -3.061458 -1.5370519 -1.2267971 -0.1308228 2.83156 -1.035907 -0.9649551 2.236766 1.1339778 0.9901184 3.9542894 -2.2767272 -0.40445378 3.3853068 -2.1779344 1.3492135 1.8254665 -1.485952 2.0882075 1.2661716 -2.1491067 6.830297 2.715222 1.0507848 -0.7855696 2.7576034 -1.4306563 -2.7894728 -1.7070242 -1.3031034 -2.791524 1.5521398
37.0 -2.504331 1.1036221 -0.3428774 2.3723285 -0.12332861 -0.8979063 -0.051243193 -1.9485506 2.8607626 0.25375888 -0.26632613 -1.709145 -1.1456956 0.80298537 -1.8697433 -1.8917271 -1.4699042 3.1753519 -0.9315981 0.99717224 -1.3509263 -1.522174 1.6264712 1.5826913 -4.7599173 -3.3820572 4.1722865 0.6516224 0.6688039 1.1418811 1.5758483 -2.4702365
149.0 1.5813715 -1.0344831 -0.23948818 1.1748905 -1.7589215 0.36115777 0.9704485 0.89923525 0.32413232 0.41717926 1.8077395 0.73809695 0.24746469 -0.50150436 0.40982583 0.8193727 -1.0834602 0.46855676 -1.3295466 -0.36860922 -2.805621 -0.38968214 -0.37700272 -2.4600995 -0.98949283 0.5609113 -1.7291406 0.21358825 0.80431587 -0.2779583 -0.745909 0.9497597
76.0 -0.5141914 -3.2489054 -0.8996313 -1.6496011 1.9014261 -0.7433344 -2.9809678 -2.88341 -1.4219054 0.0376782 0.24693607 -2.2045724 0.047072552 0.9878766 -0.5510478 -4.0126185 -1.8433521 -1.2438775 -0.27764097 3.3903766 -3.4207087 4.65232 1.5706302 0.8632613 -1.6553175 3.6671386 -1.4336748 -2.1901765 0.86182714 -0.42115194 1.1656909 1.6542437
120.0 -1.3978864 -0.18821742 -0.2048888 -1.8680755 0.60405713 4.0687065 -3.003876 -0.7354251 -2.853588 1.3330351 0.26776737 -0.53511196 -0.10219268 0.10156815 -1.5048971 0.72127193 -2.356832 -0.41741934 -0.94140196 2.650841 1.3830092 0.91224205 -2.778239 -0.23644201 0.21004285 0.42240837 0.029509686 0.679171 -0.5655142 1.239129 1.1039517 -1.9345995
327.0 -2.5867777 -0.11661301 1.452866 -0.45807472 1.292883 -0.8099027 2.1641097 3.3741045 -1.8128091 0.29225615 -0.09184705 -0.9631718 -0.30069125 -1.4692417 -0.6214417 -2.2326345 -0.14845796 2.6723762 -1.3683059 -0.41902703 0.12269405 -3.098116 -0.67000884 1.0133228 -0.79560405 1.2712965 -0.9337794 -0.65326047 -1.0518142 0.5405363 0.94738007 -2.590382
72.0 0.8396664 -2.416808 1.7464933 -0.10321429 -0.3273858 1.7744144 1.5211443 0.10166654 0.9718669 -3.097725 1.2773098 0.92137194 0.9220471 0.38172147 1.2364522 -0.7697397 1.1139873 -0.10499698 0.05376305 1.0250913 -1.224957 1.2393309 0.8561227 0.57059395 0.9491927 0.13240534 -1.0407697 2.3437045 -1.0493478 0.90008533 -0.033593867 -0.89998186
81.0 0.43717572 0.21171449 -0.124303915 -0.8816294 0.45976424 1.2981758 -0.13454854 1.0055867 -1.4208205 -0.64028597 1.1270237 1.0881771 1.3771977 1.99195 -1.0649334 -0.6515036 -0.042527765 -0.79813045 -0.012942088 0.66134435 -1.6872902 -0.622688 0.6427502 2.218236 2.350766 0.53061897 0.7169311 -0.024561271 0.6624632 -0.64187354 -0.58914584 1.4603344
63.0 -1.4265376 -0.27429882 -0.15293045 0.29548872 -0.8645541 -0.2342222 -0.4115189 -2.6357858 -1.4400917 2.6785135 0.7921958 0.15971519 2.5361176 0.20182158 1.3856189 -2.4816747 0.97601485 -1.0177083 0.32811654 2.2835565 1.0330322 -0.7234388 -1.2687975 -0.15728769 2.1543486 2.2925613 0.37223604 -3.2766743 -0.44692567 -1.9075876 4.1332126 -0.019990169
157.0 1.410612 -1.0418115 0.12253116 1.711464 -1.3313268 -0.11293671 1.511642 -0.09562554 -0.2066665 0.75420016 1.4898455 0.97550666 0.30869415 0.08159669 0.70841575 0.908143 -1.6284491 1.1145241 -1.7480397 -1.0050526 -3.6343641 -0.40315187 -0.12765282 -2.2689455 -0.58920205 0.046605993 -1.7551271 0.29782012 0.79796135 -0.8141744 -0.41394538 1.0572786
298.0 3.5614092 -1.2947594 2.077825 1.3939875 -2.8348143 1.8147475 1.5080402 1.304763 -0.56822926 -0.93423855 1.3120649 -0.8083218 -1.8879331 -0.74227995 0.020311275 -1.2586637 -1.3152032 -0.9345899 0.73063457 -0.41560444 -1.6569511 -0.09833866 -0.45551497 -3.136093 -1.3501562 1.1408366 -2.3055456 -1.2410547 1.6311264 1.0245545 -1.4932133 -1.8189839
249.0 2.0798345 -1.6584572 2.8978093 0.59868485 -0.10917046 1.8153584 1.0814154 1.2416533 0.6996987 -2.570479 2.0584958 0.07293979 -0.88431376 0.8941697 -0.93033797 -1.5207592 0.5845709 0.6980619 0.55066943 -0.7905239 -1.8951553 0.6439531 -0.5953626 -0.9839612 -0.49446142 2.0643945 -1.5558287 1.4758023 -0.036696315 -0.8488719 0.23827621 -0.19587138
184.0 0.030945547 1.1465106 0.3226512 -0.20340057 -1.9722303 -0.85959524 -1.1843466 0.55241245 -0.12917581 2.04837 0.8565553 0.2781915 -0.8516829 1.2076201 -0.61871123 -0.68627685 0.5001801 0.26113436 -1.7954459 -0.51962906 -0.38840744 -1.9084134 0.19811319 -1.9937421 1.1918895 1.0564781 -0.5394415 -0.9623626 1.0984373 -1.5982178 -3.5914688 0.1640835
90.0 -0.46321255 -0.4291357 -0.2677078 -1.0519166 1.140621 -0.01707877 -1.7090372 0.4588338 -0.27808887 -0.112751976 0.9668622 1.797025 1.9757124 0.21072356 0.40946892 2.6539433 -1.7256308 0.43499345 0.25869736 1.7911853 1.0216616 -1.4665065 -0.257859 -0.9065013 1.3989211 2.1873474 -0.47964144 0.4048493 -0.20476288 1.6966614 3.6029732 0.18453968
46.0 -1.4670118 -0.099308416 0.24784224 0.5257462 -0.92059845 -1.3758547 0.11828143 -3.9505084 -1.3132892 2.9140358 1.1012082 -0.47643366 1.862716 0.17474706 0.80883557 -2.8369253 2.3380914 -1.4104465 -0.42720032 1.9356625 0.44538862 -1.0863836 -0.6213181 0.4997416 2.2844515 2.5046644 0.16658773 -3.6399736 -0.20431584 -1.0579363 3.886968 0.4757365
283.0 3.2638438 1.6153697 2.0947273 2.8020637 0.80293673 -3.0410812 -3.0140364 2.6436481 0.27640864 0.6549388 0.10049568 -0.5605156 -0.62440366 -2.338378 -1.5561861 -1.1946771 0.6776528 -1.1148738 -2.199552 3.1267624 -1.3764906 -0.5421601 -0.029289378 0.82987607 2.2495847 -2.1393163 0.48643455 -0.1067878 0.06735888 -0.04934066 -2.0046885 2.4608352
1.0 -1.6965859 0.5681799 2.0299597 -0.48785046 0.6537507 -1.65625 -1.8333739 0.67310953 3.43898 2.6926777 0.85238105 -3.1392808 1.4554472 2.0619676 2.1827047 -2.3921325 0.08988877 2.954878 -0.23583186 -0.475594 -1.4669747 -0.9303098 0.98109674 1.5552535 -3.6105866 -4.5991826 2.309491 2.0192304 4.6854653 0.9065919 3.8273377 -2.4736927
96.0 2.4814172 -2.6901608 2.6131966 0.5632435 1.2272243 2.2986236 1.2804488 -1.1948801 0.035667386 -2.4171212 1.0770345 0.04751865 0.36255452 1.7117369 0.6016079 1.189904 1.1271995 0.401222 -0.06841569 2.0499125 -2.380941 1.2408687 1.6295584 0.29780126 -0.56034696 0.26931438 -1.117991 3.5487585 -0.7248924 0.08732646 0.9553812 0.6725133
242.0 -0.06897644 1.2954048 -0.44044468 -0.28052834 -0.42812768 0.85343504 -1.0523877 1.472443 -1.1705923 -0.7531405 -1.0263728 1.3055986 0.29545707 3.5069392 0.96989834 -0.43062732 -1.0528854 -0.26796827 1.5905263 0.91930765 0.93202204 -0.64435285 -0.15563683 1.4436877 3.952034 0.42650938 0.22668149 1.0176694 0.74502337 -1.4647441 -0.66440094 -0.24116036
240.0 2.051512 -0.5963912 0.29119018 1.107802 0.7640675 0.7796194 0.42869133 1.0859779 0.22075349 -0.5376861 0.8968126 0.7953679 1.4915562 0.29431638 0.37051046 -0.39412355 -0.1419359 0.18494369 -1.8192402 0.38966268 -2.0107472 0.6439288 0.94205505 1.1740358 1.9927621 -0.91720366 0.48315132 2.6765163 0.08182846 -1.4546427 0.20366909 0.58023155
136.0 -0.081787266 -0.8750754 0.74553627 -0.7781094 -0.6507687 -1.1445746 -0.86150485 -1.2421309 0.79049855 0.09225213 0.34605482 0.72504264 2.9618669 0.9644373 -0.5150625 0.6525064 -0.12339872 -0.26513103 -1.3112744 -0.13871583 0.1543684 -0.75320774 1.3736541 -0.5566046 -0.17347722 1.9721826 -0.8405822 0.59621584 -0.8017578 1.0054953 1.8021423 0.6332982
271.0 3.109873 0.49517897 0.9892189 5.312928 -0.065104075 -0.5566963 -2.7399595 1.6722099 -0.11114302 1.9374014 -2.4413736 0.827453 1.8188349 -2.2162526 -0.4821987 0.13873437 -0.9219988 -0.66078466 -2.3221946 -0.008302882 0.7448702 -0.3211702 1.1626375 1.6399984 2.0401645 -1.3832824 -0.81664205 -0.0874515 -0.7438723 -0.48431838 -2.8539643 2.076379
302.0 0.15379073 2.130353 -1.9267747 0.24015601 1.4113044 -1.4751122 1.8665954 1.8952157 3.2333033 2.6536922 -3.494358 0.91001475 -0.8692966 -3.4054527 -0.48944458 -0.970574 0.7642177 -3.6556094 3.0886858 0.5091676 0.24064216 2.6313713 -4.399347 -0.09629943 -0.3045203 5.660997 0.4880321 5.4143796 0.38106456 -0.89138776 0.06870953 -1.250182
99.0 1.0815725 -0.936456 2.393118 -0.27529317 -1.2885034 -1.1938709 -0.89900845 0.4983263 0.98592484 0.09046182 -1.5212867 -1.2835755 0.5081021 -1.4683865 0.41886625 -0.01054824 1.0419663 -1.4350017 0.43530867 0.91587174 0.5020637 -0.24799435 1.3724521 -2.1648061 0.02901355 2.9755542 -0.094763465 1.0847257 -0.31517038 2.1393044 0.5498116 -0.40840814
36.0 -3.5132005 1.9573609 -0.43984205 1.7779561 -0.65315783 -0.031337924 -0.4001858 -1.1353565 2.454294 -0.54864025 -1.2980905 -1.6572382 -0.45274687 0.11598947 -2.9953456 -2.935549 -1.2718694 2.0660446 -0.8148428 1.2173442 -1.593377 -1.5926634 2.7552366 0.5106601 -4.0135126 -3.3070374 3.7320468 0.506598 0.44392857 1.2187113 1.5504355 -2.0420015
173.0 -0.45321825 0.392383 0.807802 -1.527951 -0.056070868 0.53505707 -0.14835802 1.1101463 -0.85392004 -0.90230596 -0.11242507 0.91208804 1.4711078 2.819569 -1.3103517 0.40607348 0.26395988 -1.5682383 -0.8521733 -1.6347495 -0.6764148 0.14180452 0.65404755 2.1949766 0.73410076 -0.12745944 0.68341696 0.93219936 -1.4448586 -0.39419082 -0.46167603 0.07525759
129.0 1.2888911 -1.1152282 -0.36254394 0.38495314 -1.1651449 0.61241615 1.4530754 1.2810249 -0.88644326 -0.51670295 0.97843665 1.6317841 0.33205914 -0.123509854 -0.12669079 0.115518376 -0.2994536 0.47813833 -1.0778711 -0.7615543 -2.4800348 -0.45499808 0.622416 -2.5914485 -1.5470731 1.0845554 -2.7368898 -0.43785974 1.3259269 0.68703943 -1.8434573 1.691902
139.0 1.4249115 -2.3912969 0.107554324 0.47943148 -1.7233324 -0.8127905 0.20736171 2.827133 0.34630764 -0.24679947 1.3607594 1.4342589 -0.46524504 -1.8977013 1.1629835 0.08058658 1.5040269 -0.69544125 0.2588794 1.4120829 -4.343995 -0.9422206 -1.7725621 -1.947781 -1.2921032 0.551185 2.1332612 3.3746898 -1.3257302 -2.014281 1.5168817 -0.12822299
53.0 -1.0520453 -1.8580334 -2.7509358 -0.34376138 -1.0062183 0.6779214 -2.9597063 -2.2743604 -2.5778816 0.311803 -1.9696538 -1.5242583 0.8851405 0.96173346 -0.34050468 -2.8505971 -2.79616 -1.5813998 0.5418272 2.5818896 -1.7188791 0.58739704 -0.60098964 -0.6235613 0.8609418 0.9408134 -0.13972534 -0.79009324 1.2044953 0.49589872 4.2488875 1.1582209
192.0 1.8738657 0.90011746 0.48291162 0.6142751 1.8637991 0.7156335 -1.0356851 0.1763945 -1.2090045 1.0026356 1.4657508 2.0118272 1.6224146 -2.2709658 0.6050298 0.29791084 2.2700348 1.2094196 -4.397007 -0.7355423 -1.5168836 1.6559696 3.1162975 0.96593386 2.3546116 0.04774617 -0.033452604 1.0024166 -1.9543198 2.6594896 -1.9741092 0.54414266
2.0 -1.0208168 0.17443657 1.2790599 -0.16642314 0.5456281 -2.1584177 -0.48752514 -0.50196576 2.8292975 2.787369 1.3208135 -2.7771077 0.553846 1.5892534 2.2592258 -2.055248 0.52751315 3.0770035 -0.1024582 -1.4133549 -1.2332536 0.1277934 0.8426053 1.6327492 -3.205442 -5.0454264 2.9227278 0.8765275 3.8149798 1.8337193 3.5573838 -2.4002023
68.0 2.3312254 1.0172968 -0.013078249 -2.0935628 -0.35080448 2.1743076 0.83316183 -1.5806137 1.0173359 -3.624813 0.7658355 1.1665121 -0.16215333 1.9131204 -0.7750368 -2.4990883 1.0129784 -0.12920682 -0.3031794 -0.81520915 -2.3777542 3.1570878 0.9946167 -0.667024 -0.40182564 2.0685163 0.085158244 1.502357 -2.8569443 2.5572634 0.24756153 -1.0366553
40.0 -1.8511492 -0.277346 0.43722007 0.38714612 -1.0336432 -0.7271329 1.0911199 -3.7512648 -1.1137857 2.9778352 1.6861311 -1.0006465 1.0850495 -0.5498283 1.4618404 -3.4230165 2.5396514 -1.3373368 0.36430982 2.9424765 -0.97658265 -0.2861773 -1.3470639 0.80194664 1.8020779 1.4250985 0.043756437 -5.4979854 -0.432356 -1.1108602 3.3318512 0.42942214
151.0 -1.6760308 0.7048484 0.3267525 2.4633567 -1.8434741 -1.0708704 -0.09425488 0.7414014 -1.3785675 -1.201731 -2.1405575 3.3467135 -1.4562867 0.95635045 -1.8787924 1.4321502 -1.9385651 3.590897 2.9672732 1.2147007 3.1823092 0.33112335 0.08879403 -1.3979121 -0.45416394 0.9157337 0.67839706 -0.27054265 -1.0441486 -0.9542351 -1.0737419 1.3080689
59.0 0.15660289 1.2470303 0.8164632 -3.0862386 -2.7820604 -1.0422322 1.3357145 -2.8856952 -2.6303625 2.096712 -0.565227 -0.47894388 1.3412704 -1.4172337 1.1353441 -2.7439384 1.113668 2.4235837 1.2975496 1.3518392 0.4760324 1.8096722 -1.8323467 0.7334735 -0.5839772 -0.23201537 2.6317189 -2.0163221 -0.087740965 -0.30035377 -0.16422594 5.2944527
137.0 -0.3270585 0.32768437 -0.6508213 0.6086102 -2.053373 -0.5274006 -0.5437455 1.3280002 -2.0148175 1.8570153 -0.061419178 2.2992263 0.9902463 -1.072192 1.2682223 0.34806642 2.9499676 -0.4980702 -1.852377 -0.3736078 -2.894014 -1.8786991 1.6028526 -3.105404 -1.3010653 0.7365076 0.49920458 1.8518597 -0.50065315 2.5573993 -1.4924937 -0.27619937
6.0 -1.9531455 0.022548242 -0.6051231 1.0268854 1.3484722 -1.8442897 1.2619264 -1.2218554 4.0134883 1.0375484 -3.305064 -0.1257869 -0.15738274 1.5386149 -1.972333 -0.16179632 -0.3963652 2.3837488 0.4252229 -0.24615243 -0.84408593 -1.3912443 -0.36515298 2.8475258 -3.5856023 -3.2291856 1.1847372 0.78066105 2.0093937 0.5164615 2.920904 -0.64430994
35.0 -3.6045487 1.2776868 -0.23915727 2.9422245 0.30461445 -1.7588602 0.8793191 -1.3446542 3.5266666 1.0006716 -0.50810367 -0.6924311 0.42457327 -0.4685527 -3.2622287 -0.3914309 -0.82999796 3.1737766 -0.3705458 -1.0800248 -0.22096245 -0.35106316 3.5873826 1.4911232 -2.1407049 -3.0752015 2.7292535 0.5252862 2.1377425 0.0657082 3.1779263 -0.21776126
308.0 -0.04775246 1.2855883 -0.8051234 -0.31083223 0.22459954 1.2735153 -1.2405275 1.2311445 2.6780584 0.9729318 0.58727026 1.2938548 0.27617687 3.7458396 -1.4455715 -0.61995053 2.568427 -1.3285196 1.5036427 -0.6486876 -0.095455356 -1.7222558 -2.9291298 -1.6882558 3.5353336 -2.2925692 1.4723607 -1.7563246 -1.1334584 2.175887 -3.6837575 -0.45082417
33.0 2.0371249 2.213958 0.10775449 -1.3940395 2.6862998 -4.8106294 2.220163 -0.63575506 -0.8636052 -0.41155505 1.4145309 1.8893563 -0.44541034 0.08022885 4.749292 -0.61606544 -3.9465053 0.0022568705 1.1236087 -0.50845426 1.8571955 0.73744357 -0.5463814 -0.66894597 -0.8281917 -1.85702 0.7950977 -0.7454088 0.0005738061 1.8522084 -0.24651508 -1.6522275
28.0 -3.5178504 1.4500058 -0.36147022 0.9797951 -0.6426706 -0.17256464 0.5651014 -0.36068082 2.994438 -0.52971053 -0.67267627 -1.6213707 1.0815606 0.016535645 -1.276348 -2.4453804 -1.5990018 2.749664 0.40742075 0.72767925 -1.0043769 -0.60573655 3.4332187 1.7862469 -3.7628665 -2.956384 3.479525 0.30589202 0.8159515 0.24796301 2.3091245 -1.5573672
29.0 1.5521731 2.256063 0.49844766 -1.4277802 1.8399562 -4.433235 1.1611872 0.0028664595 -0.81197214 0.095623754 1.0468149 0.631023 -0.42135748 0.94498956 5.09161 -1.0411763 -2.915434 0.5618235 0.5935362 0.20786345 2.3256009 1.1747483 -1.4309798 -0.9288214 -2.0827956 -0.47081107 -0.67705655 0.85546356 0.7939058 1.8208691 -0.41683805 -1.5880204
51.0 -0.7126024 -1.4963784 -1.0214851 -0.47849855 0.42142767 1.6160433 -2.4496324 -0.20350522 -2.407713 -1.2425414 -0.32375506 0.57582647 1.7979473 1.8194358 -1.3714472 -1.3282162 -3.0511796 -1.5376109 -0.04633164 2.1731038 -1.4571257 1.6730467 -1.2451574 -0.2841089 1.3069791 1.5120819 -0.3639914 0.3379545 -0.23700212 0.23418218 3.2947743 0.6972406
267.0 3.7671878 0.35739976 -1.481491 6.3902454 0.15342446 0.49745598 -5.1407747 2.7100813 -0.05265309 2.3378491 -3.3672602 1.0543536 2.010831 -0.40439993 1.6934698 -1.9932237 -2.7373865 -0.99473315 -2.702505 0.17380245 -0.49473545 -0.21012616 -0.1845474 0.81599766 -0.8114594 -0.5542013 0.20814435 -0.22591458 -0.14310922 -0.49711642 -2.4171548 0.82559043
126.0 1.1192142 -0.59232074 0.13909365 -0.70411 -0.5987219 -0.35118425 -2.322608 2.0525005 0.4824835 0.96848524 -0.3267137 0.5051644 0.75121444 -3.9992766 -0.39610136 2.1045458 1.5559001 0.80847526 -1.3378675 1.0376185 -0.17602006 -1.4804438 2.3266969 -1.0345328 1.5229473 0.4580594 0.040207647 1.3821615 -0.7386351 1.4732561 0.092051 1.0595833
7.0 -1.7508612 0.2558304 -0.31532386 0.46020675 0.2967249 -1.61335 0.38999677 0.2279607 4.060029 0.05828144 -3.0536218 -1.2108972 -0.11113223 1.2218269 -2.1117837 0.5025727 -0.6958646 2.3346245 -0.058611404 0.4557551 -1.804776 -0.86531174 0.9393582 3.294273 -4.145836 -2.7753787 1.2885057 -0.50034153 0.60090685 0.6272732 3.0436213 -0.33803108
170.0 0.79374635 1.6221066 -2.2089486 -2.1777785 -3.5363197 -2.2776392 -1.3926961 -1.7492764 4.690951 -1.7251836 0.7742448 1.5265912 0.13065346 -1.5047865 0.6694244 -0.6191627 -0.20609733 0.87612665 -0.49059913 -1.0016423 0.024060683 0.70020103 2.0341818 -1.635299 0.89764994 0.64702046 0.61307544 1.8366365 -2.1737564 0.8281884 0.33258545 0.069564216
85.0 1.1980115 1.0333661 0.26224002 -1.5535762 -1.2066942 0.5876684 0.7023538 1.3911617 -1.1714838 0.81208277 -0.086276315 -0.6943968 0.83094925 0.3891881 -0.6997766 -2.281682 2.802333 -0.061947476 1.6549866 0.5237859 -0.6467822 -0.74034035 -0.072344236 3.7842238 3.4141088 0.16977139 2.798912 -0.4924113 1.0874114 -0.25715783 -1.8142269 2.888506
106.0 0.03494919 -1.1829948 -2.5710754 -1.1646636 0.7185053 0.7308651 -1.3706484 -1.216081 -3.6660907 0.038781755 1.1463417 0.5338076 -0.396294 -0.66508985 -3.3196664 0.70998675 -2.674804 -0.86043036 1.986986 1.4971627 -0.8057781 1.8343875 -0.88056004 -0.5275634 2.0464735 0.1556225 -0.5067465 1.2403052 -1.071523 2.5976965 1.8606044 -0.31760117
206.0 -1.1298457 -1.5824463 -2.1216922 -1.8761637 3.9028935 2.0733936 -2.6092389 2.769167 -1.3854485 -1.5077164 0.2769602 1.3219229 0.073042 -0.3296464 1.6257834 -2.8260105 -1.6372617 1.2557869 2.3675785 0.13964218 2.5829978 -0.45059893 -0.21686776 -1.6658537 4.246354 -0.35074332 -0.6391018 -1.6118655 0.7094163 -0.662299 -0.8925378 0.68069124
9.0 -1.6146628 -0.8673721 0.4409 -0.19289339 -0.49289265 -2.1405373 0.6610335 1.3424786 1.8663265 0.7809105 -2.1466591 0.36846206 0.7701448 -0.32553467 -1.5269835 -0.31017894 -2.1962035 0.2921795 1.1011456 1.9432193 -2.8012319 -1.5543607 -0.26116714 2.674042 -2.8013048 -2.1576123 0.097226255 -2.4840841 -1.1127545 0.20464927 1.3320638 -2.3056388
224.0 1.2835537 0.2233606 -1.6678731 0.096037135 -0.47989354 -0.9536938 0.38197595 1.5679777 -0.2752633 -0.00314818 -0.7409028 0.39146084 -1.1480145 3.4260132 0.37080574 0.79338455 1.1937839 0.44973424 1.3181303 0.47701868 1.0018754 -1.4146802 1.7253613 2.5996501 3.4361122 0.91979456 1.3961804 0.48427632 0.9985161 -0.9081495 -1.8132142 -0.27190983
132.0 0.43881997 -0.785219 -0.2886226 1.5060016 -2.1898398 -1.4028922 0.06721193 1.819547 -0.51949376 1.4448698 2.0876553 0.9429244 -1.4859397 -1.4550287 0.9219489 1.6300421 0.093866974 0.47010455 -2.0844312 -0.26420134 -1.7757841 -0.52553654 -0.11476495 -1.7702831 -0.17052916 -0.79662406 -2.0313725 0.37149936 0.079676345 -0.95500624 -1.993163 -0.68746394
266.0 3.4976125 -0.117762126 -0.793266 4.146252 0.011913133 -2.503402 -3.2576933 4.7395706 0.46369368 -1.0808733 -0.7910187 0.8905951 -0.7622919 -1.270584 -0.6589776 -2.9363837 -1.0936618 -2.5165515 -3.3051512 1.8650395 -1.6607331 -0.45117122 -1.3204587 2.3481946 -0.2881246 -0.6349148 0.038437318 -2.298288 -0.50988126 -0.6168446 -2.2311537 1.1946676
275.0 -1.4735677 1.7155014 -2.69308 0.62990725 2.170437 2.2662332 1.2600299 2.297501 2.33685 2.9941661 0.5146398 -0.94422096 1.4912345 3.574537 -1.4369626 1.4634004 3.3974087 -1.0568894 2.8226748 -0.04384304 -1.1049618 0.37315536 -2.2419956 -3.909879 1.2096363 -2.3683221 -1.3492514 -1.7495852 -1.5442932 0.92848724 -2.9502397 2.106541
55.0 -1.6199764 -0.9009775 -0.57081616 0.69387454 -1.1827157 -0.744085 1.457269 -4.4688272 -1.367506 2.4995158 1.6774228 -0.7909555 0.84829473 -0.6984337 1.4752401 -2.8736923 2.2449274 -1.0419161 1.1077586 2.731088 -0.3936902 -0.88705176 -0.9831269 1.6106266 1.8446262 1.6572742 1.0598141 -4.2860713 -1.2053422 -1.2723461 3.500345 0.3750298
71.0 -0.3379849 -0.7002532 -0.7698228 1.754795 -1.1372389 -1.913952 -0.885481 -0.9338319 0.8699518 0.20232327 2.2522678 3.729813 3.577174 0.084971786 0.5065748 3.2187302 -0.7911337 -0.93090045 0.092153944 -0.36579764 1.2143273 -1.9052688 -0.20324773 1.2788669 -1.7811838 2.7691233 1.228931 0.365378 -0.4602446 4.9479303 4.0387015 0.53192997
204.0 3.912187 -0.43855298 -0.75374436 1.0808182 0.3071814 3.3099697 0.5835686 1.8068812 0.7402973 -0.18183923 3.0114276 1.047342 0.19303845 -0.39162317 1.0728148 -0.117258385 1.9628541 2.4277604 -3.1151202 -0.12595758 -1.5803808 1.8501744 1.2471429 1.4689461 -0.48338875 0.7016791 1.1175127 2.033841 -0.07675277 -0.5316156 0.16902977 -0.82331127
116.0 -0.928725 0.4600835 0.6028058 2.6369298 -1.4670243 -0.612718 0.97569835 0.15533632 -0.94205976 -0.5887174 -1.6835462 3.2205925 -0.7605863 1.0508828 -2.7969282 0.9127162 -2.4200304 5.001386 1.4825888 1.9599104 3.252813 0.97671497 -0.075302295 -2.231889 -0.8208822 0.369398 1.2914078 0.65801144 -0.96587944 -1.2869097 -1.4160957 0.529656
140.0 0.009123527 -1.8264624 -2.4493756 -0.90205157 0.56758875 2.726605 -2.422766 -0.16075836 -2.9523895 -0.3605016 -0.0042263465 0.1853665 1.1055862 -0.38216212 -1.4990821 -1.3524529 -3.6648073 -0.3732938 0.38863987 2.0287316 -1.0770721 1.8989365 -1.899112 0.28832203 0.38567808 0.04438891 0.06008155 0.33288842 0.43741882 1.7589257 2.7801642 0.337992
287.0 1.7879385 -0.15750873 0.5889929 1.4294058 -1.0518874 0.6656161 1.0188433 -0.07716829 0.31212142 0.8575826 0.1395153 1.3478214 -1.8983587 -0.6157192 0.77192855 2.182831 -0.50215757 -1.1060554 -1.4432006 -0.63872826 -0.1685382 -0.30679697 -0.94116455 -2.0779543 0.8122678 -1.4685682 -0.8020629 0.110931955 0.8637483 -1.3705493 0.03808422 -1.0603036
252.0 -0.04411873 -2.4048545 0.44105083 -0.0068364143 -1.629417 -0.043803353 0.6495602 0.95920587 1.060551 -1.0049288 1.6413952 1.3930817 -0.7811626 -0.42488286 3.3003247 1.7093922 1.1110765 0.7801275 0.56221724 0.7570997 -2.431138 -0.33229646 0.9996803 -1.1077113 0.97453254 0.40477836 -2.3128297 0.49287745 -0.42998955 0.28739214 -0.8092196 -0.68896437
237.0 -1.3591802 -2.4996793 2.0200937 0.8251729 -3.4877913 1.8685477 -0.024182042 1.1787912 1.530135 -1.1715288 1.783475 2.0482552 0.6334563 -1.4769369 1.6955776 -1.3878974 0.82163763 -1.3321347 1.3120954 -0.79410195 -0.8845528 1.0503813 -0.9834225 1.312854 -0.3306377 -0.3585282 -1.5892924 0.8872197 1.410486 -0.703586 -1.24252 -0.47126102
111.0 0.22878659 -1.1281677 0.78043413 -0.22857249 -0.61856836 -1.8387877 -2.0011706 0.8566509 0.6918661 0.62879485 -0.42192104 0.9251805 2.6432264 -1.2272475 1.9156413 1.772691 0.86010754 -0.8143302 -1.6059906 1.2423829 -0.5451356 -2.3340943 1.6358467 -1.2461113 -1.0551841 4.5154724 1.8473699 0.12686135 -0.48450926 2.7855654 3.4954715 0.92023885
254.0 0.15758377 0.15565687 -2.398021 -1.1900973 2.0949886 1.4868109 0.60876447 2.2616317 3.4143329 3.0247195 1.1609777 -0.3239441 2.793092 4.254686 -1.2086691 0.8085249 2.4290926 0.3169256 3.6488853 -1.7897284 -1.191984 -0.3558933 -1.6238179 -3.6269855 1.4543045 -0.90611947 -1.5802863 -1.0742193 -2.5787873 -1.5790447 -3.1653593 1.571675
58.0 1.1069964 0.49495834 1.4018236 -1.5822634 -1.1980251 -1.6836967 2.1350992 -1.5530508 -2.467312 0.9905245 0.2090303 0.42611867 1.5759487 -2.3081663 1.980769 -1.7794865 1.0225768 2.9901466 1.1145926 0.30779088 3.4295063 0.7130406 -2.0994115 1.2639238 -1.087487 -0.008379976 3.3533132 -1.3669833 -1.6923286 -0.16673441 -0.057587538 4.9094954
74.0 -1.0947528 1.867803 -0.52672595 1.8773046 -1.4818476 -1.6136901 0.23210765 1.2261186 -1.2890718 -1.0841217 -2.4052343 2.1737394 -0.58061385 0.8114822 0.8833205 0.5641282 -0.9395926 2.642111 2.42805 1.7028449 3.4493287 0.9679073 0.09665662 -0.8280031 -0.880088 -0.49281836 0.92195296 0.0451816 -2.9047284 -0.9032592 -0.32210362 -0.15830679
41.0 -1.2359682 -1.3610556 -1.9201949 0.8606302 -0.7106006 0.74715483 -1.9484816 -0.9856215 -2.61113 0.5809301 0.20729212 -0.6702865 1.8285338 1.0314449 -0.17848288 -1.3977834 -1.8880723 -0.8838639 0.9337603 1.8426964 0.8224941 -1.4429673 -1.0930513 -0.70691043 1.4998833 0.85819817 -0.8881371 0.85585475 0.17887549 -0.53274304 3.6974933 0.0500893
3.0 -2.849529 -0.27809376 0.9085095 1.1119013 1.5947781 -0.7357629 0.007212091 -2.7252944 2.7200603 0.1488579 -2.0651681 -0.6219676 0.532456 0.9861578 -1.1224914 -1.955093 -1.9034771 2.0515928 -1.3544221 -0.84900856 -0.3905314 -0.8884693 2.1500196 1.412346 -5.5621734 -2.6920807 2.6698265 0.13450284 1.3350188 -0.42041653 2.9887168 -1.3339422
148.0 -1.4865173 -0.69075686 -1.9327861 -2.2651918 0.55045587 3.1315584 -1.9193723 0.94804066 -3.3709912 -0.20512603 -0.0027576315 1.3556286 0.4824131 0.17692623 -0.36969876 1.0074608 -2.3854082 0.07649263 2.431096 0.5200435 -0.8957045 -0.7652431 -0.97063655 -0.9082248 2.0426607 -0.21235771 0.5927668 0.39503905 -1.2237542 0.6539613 2.1620924 -0.6173822
5.0 -2.6872685 -0.7041538 1.0863057 1.6442834 1.2528251 -1.7300107 1.0568966 -2.8175752 2.4288216 0.40112785 -0.27074474 -0.95152223 -0.0023283674 0.69420266 -2.5070646 -1.7694786 -1.4015979 1.6175321 -1.6862334 -0.8470056 -0.056111794 -0.48099893 1.9092721 0.829632 -4.6013827 -2.4936886 3.2989 0.3383897 1.088447 -0.13299091 2.1799047 -1.7214385
66.0 -2.259357 0.83703685 1.5401272 2.207771 -1.9401032 0.37857825 -0.632916 0.44419467 -0.3982307 -1.1524432 -1.5211533 3.4059925 -0.91380006 0.6017948 -2.535024 0.45128614 -2.7495058 3.8349483 1.496511 1.6809576 2.1067522 0.57437235 -0.5750277 -0.5936254 -0.27964798 1.4421506 0.16724253 0.22364126 -0.86409867 -0.9403822 -1.6909481 0.6062606
54.0 1.1349375 0.10572242 1.2588056 -1.8196669 -1.94456 -1.6470348 1.2341824 -0.71682346 -2.294718 0.28032902 -0.2805992 -0.27490842 0.85244876 -1.3320415 1.6396565 -1.8639963 0.9989517 3.136423 2.0047414 0.23184153 3.2600007 0.4485336 -1.9922086 0.64995366 -1.8491231 0.045543056 3.269137 -0.8097642 -1.0788599 0.27600473 -0.07556595 5.065145
20.0 -0.1443038 -1.0675989 0.6045583 -0.6657096 0.22605619 -1.8703256 -0.053214703 -0.014647082 2.2000082 0.2567191 -3.38127 0.12937382 -0.6954268 1.0390639 -0.73326415 1.6148546 -1.7906536 2.2143006 0.7401233 0.14577053 -1.3075894 -0.65288603 -0.32647398 3.1355546 -2.419875 -1.079937 0.15070455 -1.9962062 -1.30447 0.95837986 1.9131361 0.0484849
191.0 0.46595684 -1.0124652 0.3250526 -1.9018004 0.18098491 -0.4548386 -1.1996243 2.6341612 -0.19176945 -0.07312446 -0.13345386 0.22747679 0.74046403 -1.8204663 0.28591534 1.720367 1.6006343 -0.5230438 0.24483566 1.2644635 -2.0021048 -0.23908722 1.8442556 -1.047227 -0.31709874 2.6085284 0.2135943 2.2338276 -0.38514167 1.8815188 1.0896428 0.95580673
272.0 3.741321 -0.048767176 -0.088898435 5.7345514 -0.33219668 0.18362714 -4.760952 2.6061232 -0.6032986 3.3526297 -0.6723019 1.3642895 0.12138564 -1.2892963 0.5893392 -0.11770062 -1.5246288 -0.8827349 -2.1315384 -0.6599198 -2.4583013 -0.5771472 -0.71866053 0.4086907 -1.4026282 -1.8810587 -0.38838425 0.09051083 -0.5852091 -2.4599788 -1.1668359 -0.310325
39.0 -1.9220229 -2.1433449 0.8035957 -0.99358934 2.1385138 -3.587308 -1.9014791 -1.1263272 -0.7673476 -0.06333241 0.5217486 -0.70756835 -2.6865692 1.6571354 -0.047001768 -1.677944 -0.0054151695 2.0877688 1.1841501 3.8868499 0.5088353 5.9774723 2.1367056 1.135168 -3.2216415 2.2415743 -0.80153394 -2.5058131 0.4549709 -1.5635126 -3.5630605 2.416141
60.0 0.27052242 0.8444292 1.7453876 -2.4088767 -1.2644039 -1.9056822 2.303813 -1.2141805 -1.0474988 0.6180638 -0.7145934 1.3572415 0.34614626 -1.4897559 1.7951412 -0.17626293 -0.8644634 2.6300719 -0.60169375 0.57024974 3.0219457 1.3063405 -2.2384028 1.3696196 -2.2094913 -1.2106675 3.050298 0.029898021 0.27762514 -0.3291972 -3.048684 4.239388
57.0 1.371522 -0.152236 1.59583 0.6705247 1.8411118 0.52713954 0.44089502 1.4409537 1.5393875 -2.5498443 2.9038043 2.429137 2.622783 0.46482998 -0.74535155 1.42516 -1.1462293 0.57403153 -0.23004027 -0.6343214 0.049593322 -1.1802611 -1.0091711 0.62136227 -1.4203537 3.0729802 3.2383554 -0.90914416 -0.6620471 3.645853 3.9054282 2.686646
158.0 1.4289019 -2.1082704 0.6204745 -2.0087533 -0.3467454 0.43105665 -2.6761727 2.813492 -1.9520272 0.5436553 0.19858775 0.302721 0.055777002 -2.2983232 0.014777271 3.2228498 -0.075953364 0.7564311 0.6409957 1.379527 -2.9056432 -1.1268435 2.1656225 -1.0485348 0.14615302 1.8042799 2.3324637 0.5679863 -1.8949345 1.8703896 0.76893556 0.124881454
34.0 -2.903505 0.21391548 0.8828435 0.40400198 -0.9624818 -0.7246978 -0.39378268 -2.4483902 2.8754234 0.25570464 -0.44592825 -0.75669926 0.8548798 1.0099912 -1.9909148 -1.5863731 -1.3669116 2.7607493 0.010215747 -1.0015451 0.20514362 -1.3335484 1.3324205 0.4568998 -5.6449814 -2.455435 2.893452 1.1549208 0.5994696 0.8295152 2.3023274 -1.5027835
163.0 -0.2761622 2.3039868 -0.22745697 -0.36138847 3.6955411 0.13375953 1.5577304 1.8511893 0.15112218 1.3781432 -0.07374646 0.9735943 -0.34176466 -3.6033652 -1.399088 0.6261849 -0.9931623 -2.2953815 2.3020551 0.30192822 -1.3727949 1.0758865 -2.695113 1.575276 -1.7859287 4.0967655 1.3226185 2.5299914 -0.38031986 1.0746737 -1.0652331 1.4106965
61.0 -1.0433853 -1.0052776 1.6443851 1.9936318 -0.8723388 -1.3810656 1.6009685 -3.1679056 -1.2011249 2.7559984 1.1539729 -0.1915647 0.74546754 -0.582061 1.0370461 -2.0175984 2.2833962 -0.71861 0.67955476 1.874613 -0.049064748 -0.67476463 -1.1832756 1.0453204 1.651328 1.7270063 0.6210378 -4.556337 -2.4920912 -2.24194 3.6684194 -0.6244042
17.0 -0.64246494 -0.7255626 0.3916781 -0.8391872 0.15950736 -1.8123147 0.44543377 -0.7053781 2.7810836 0.63049173 -3.3816845 0.5764869 -0.33405775 0.95145166 -0.79616684 0.879625 -1.0137906 1.4623531 0.81732464 0.92585146 -1.4072335 -0.7779401 -0.65739673 3.3457289 -2.1027586 -1.7338259 -0.68719906 -1.6211675 -0.033596344 0.9170932 2.060132 -0.13520627
22.0 -1.1981294 1.8857408 0.18955106 -0.19761634 2.9049072 -3.8618355 2.0871565 -0.7500891 0.27822968 0.21978556 1.7132906 2.1695244 -0.7974116 -1.8673563 1.2111257 -1.2076144 -4.572778 1.2760186 2.4206145 -1.3808377 -0.03742063 0.83991176 1.7406482 -0.9877711 -2.0435944 -1.4517215 1.2637495 -2.5774727 -0.091369286 0.21866617 2.3650014 -2.7582974
127.0 0.09462342 -1.0723013 -0.51550114 1.0347825 -0.9423877 -1.0337379 1.175774 1.2170341 -0.96782607 1.1076657 0.6750575 0.45367628 0.39519116 -0.21891312 0.5355968 0.87648886 0.6695624 -0.00087788893 -2.3714066 0.3904217 -2.7772832 -1.6389965 0.5178097 -2.472187 -1.3634934 0.6295069 -0.91965693 1.1126924 -0.5744449 0.56853986 -2.5260928 0.5685607
19.0 -0.33043414 -0.84006417 0.418418 -0.731479 0.5659304 -2.3749373 -0.29014984 0.3671749 2.0473938 0.644235 -2.7353787 0.2590733 -0.060110517 0.57005966 -0.33854213 1.5279901 -1.4261224 1.3230788 0.43829808 0.7023924 -1.6123911 -0.97765326 -0.6540934 3.228642 -1.3590031 -1.1212335 -0.028921634 -1.8157777 -1.3133702 1.1929555 2.0764701 -0.012505287
100.0 0.20755804 -1.3538408 0.6373497 -1.1809205 -1.4988557 -1.3394619 -1.6128236 2.425323 0.2326026 -0.051285863 -0.5595055 0.8109707 1.2892948 -1.3891026 1.515123 1.6313956 2.7286417 -1.1306918 -1.0296857 1.0573273 -2.40741 -1.8515979 1.8153071 -2.1161454 -2.2625568 2.9252627 2.3705626 1.8479675 -1.6377212 2.6314373 1.2685224 0.8858094
108.0 -1.0927937 1.2452861 -0.55855685 2.187111 -2.2018557 -1.5000739 0.6693716 -0.13322186 -1.8593658 -1.3375864 -2.1219783 2.2967324 -1.0868348 1.7838033 -0.41640112 1.0765467 -1.5278826 2.5347497 2.1566107 2.0638387 3.4114726 1.0917364 0.030577919 -0.72050685 -0.3505915 -0.23552474 1.3061967 -0.053410128 -2.015034 -1.340252 0.067259416 0.84650385
186.0 2.46646 -1.1309974 -0.112771116 0.27045414 0.37253404 1.0321479 0.040065218 1.1358234 0.060495224 0.9923849 3.2917755 1.3895537 1.2398195 -0.15106462 0.27293575 1.6575867 0.9470237 0.7899774 -2.446462 0.81205827 -2.2579205 0.9738955 0.6745488 0.40201703 -0.47878247 0.28225544 -0.019785231 0.69883025 -1.1998447 0.79665923 -0.65043586 -1.1704494
105.0 0.14073703 1.4011462 -2.6287405 -1.8168437 1.6345514 -0.035357296 -0.22021659 2.0540984 1.393061 2.3534703 -1.1001922 0.09353595 -0.33298284 -3.799712 -1.8584291 0.2288812 0.18090592 -1.8774422 2.1304796 0.25435305 0.9632554 1.0729119 -1.3961859 0.009707174 0.51888984 2.7784767 -0.33958763 3.5339727 0.51784915 0.5715121 0.21282537 -1.3565196
16.0 -1.8038913 1.5469744 1.6418993 0.29646155 1.7510766 -1.4805908 1.4746614 -0.41171318 1.0067533 1.7481202 1.3727545 0.59277606 0.60312307 -1.5641787 0.54652375 -1.5283905 -3.9879985 3.2898521 1.2810283 -0.34613624 -1.8016639 -0.31709206 0.928987 -0.55566293 -4.327511 -0.93519634 1.7901374 -0.41909438 1.9253743 -1.6868843 2.9840574 -2.1130054
30.0 -2.811531 0.37251666 0.972328 0.25232837 0.16069636 -1.7626494 0.46841568 -2.745915 2.8028805 0.49102277 -0.76082766 -0.39529064 0.21855524 0.91749054 -2.3987398 -1.4926908 -0.8693985 2.766416 -0.28438458 -1.0825151 -0.8793356 -0.42852437 1.4420629 0.8379778 -4.295753 -2.2555592 3.2563176 -0.34387583 0.5770035 0.97905594 2.7144153 -1.1606864
86.0 1.0535253 1.2654994 -0.50489175 -2.9163172 -0.2216899 -2.033339 1.2631985 -1.0442886 -2.3303103 0.1072701 0.22903101 -0.8405935 0.2767454 -0.65734535 2.6642287 -2.7123637 0.37793845 0.867367 1.34011 0.81543064 0.7613784 0.6627823 -0.7618905 0.56070006 -1.1108536 -1.9934847 1.2452976 -0.2928915 0.24582903 1.1051552 0.41568494 2.1064053
10.0 -0.67689407 -0.73312175 0.7498986 -0.550641 -0.00047471363 -2.3266559 0.6234186 1.1238734 1.6840937 0.866754 -1.9676267 0.89727545 0.7010806 0.06808504 -1.6526603 0.07786036 -2.1386466 0.7306817 1.3320633 2.0162282 -2.8029983 -1.5035772 -0.8817745 2.65737 -2.499178 -1.8170199 0.55136096 -2.390812 -0.7101533 0.3472769 1.4333586 -1.4143904
154.0 2.2189305 -0.81988496 -0.61557865 -2.6810246 1.7509794 2.497308 -2.2113519 3.2258844 -1.8817866 0.17541017 1.0687039 0.81306285 -0.14371152 -1.6339903 -2.9685009 2.885802 -2.3327405 1.1494538 0.65780866 -0.97741795 -1.7228423 -0.74041957 1.5521249 -0.0346413 -1.0685344 -0.17232275 2.0491977 -1.4895892 -2.1926105 1.0613499 -0.22137387 0.0066784476
56.0 0.8371977 1.205034 2.3645575 -2.4339712 -0.99529684 -0.9972161 2.4528103 -0.7918126 -1.1494324 0.029848864 -0.35508412 0.72650075 0.6079277 -1.9887576 2.2803793 -0.7703182 -1.0977333 2.8679845 -0.119251356 1.0089072 2.7741895 1.3765724 -2.1197064 0.91770875 -2.1839845 -0.13062409 3.0253594 -0.5707895 -0.3231304 -0.09461605 -1.7711238 4.0123715
12.0 -0.88541144 -0.90884304 0.56785697 -0.5635763 0.0529343 -2.1611109 0.9687082 1.4747071 1.925944 0.5603809 -2.1582198 1.3494139 0.72296673 -0.8380283 -1.377361 0.40531555 -2.1823964 0.4054553 1.4000305 1.4255012 -2.4297292 -1.4500924 -1.0681448 2.726635 -2.223053 -1.8206781 -0.26463386 -1.7486693 -1.1524637 0.5141016 1.6783705 -1.9687338
309.0 0.99007607 0.34786198 0.23179811 -1.0391973 0.4234194 -0.765087 -1.5107167 1.1702157 0.50516534 0.93649745 0.94064015 0.6489676 -0.87097704 2.4106236 -0.6248684 -0.05265951 0.43383196 -0.5804085 0.8042751 -0.39123493 1.2761067 -1.7494769 0.85484457 0.82643515 2.556939 1.0092759 1.2080787 -0.9136488 1.685202 -1.2964365 -2.868907 -0.19280683
102.0 1.3548944 0.21569839 -1.710603 -2.4815984 1.0230455 1.7433345 -0.43244004 0.22157532 -2.1807349 0.088035665 2.3596635 -0.17165765 -0.021675238 -1.9070168 -4.8200054 1.797836 -1.4188964 -0.31392196 0.6633993 -0.16373147 -0.047105167 1.2956868 1.093189 0.86818117 0.16199015 0.14110914 -0.77687967 0.6538322 -0.69634545 3.3613145 0.39563367 0.002260558
303.0 -1.027499 2.166265 -0.2737699 -0.042875458 0.798214 0.44365165 -0.5723689 0.6246198 0.96733236 0.8923119 1.2829137 -0.034312822 -0.5564784 2.0437696 -1.8598219 -0.40227073 1.4479499 -1.7505176 0.37854666 0.6227706 0.23611829 -0.91738355 0.13310191 0.16094436 2.5590541 -0.12094749 0.34618092 -1.0674793 1.7323606 0.027394097 -3.5565436 1.5169047
70.0 1.6792212 -0.33511785 0.047864474 0.540164 -0.10636157 -1.2863733 0.005367255 -0.23134975 2.069605 -0.7731571 1.9879224 1.4720544 2.6793375 0.91965127 -0.82708234 1.8983861 -1.7556387 0.31245136 0.05591365 -0.9883301 -0.3742477 0.42505032 -0.29667956 1.1084044 -0.8596506 2.771356 0.9813061 0.30974808 -0.4445912 3.4818745 2.1485128 1.9014251
295.0 1.1459705 -0.14464118 -0.370511 2.026223 -2.7160995 -0.6844878 0.1399485 1.6080977 -0.67752165 1.945591 1.8026516 1.209327 -1.174258 -0.88746476 0.77095085 1.2796271 -0.05268048 0.15148985 -1.8167702 -0.37259534 -2.1980298 -0.45190027 -0.96886235 -2.1127245 0.07444911 -1.2157083 -1.5648526 0.56117654 0.7804215 -1.3072543 -1.2407058 -0.5897191
243.0 0.5264347 -1.8790355 0.3951672 1.114166 -2.2469757 1.8960568 1.5010194 1.6056353 1.33987 -1.6969703 1.3408833 0.45991915 -0.92646533 -1.34537 2.4157352 0.22480524 0.08023611 -0.14506355 1.0902842 -0.32898822 -2.253639 -0.20183864 -0.78406197 -0.6524473 0.66496754 -0.9962778 -2.4261808 0.90945053 0.11420678 -1.7325158 -0.024296463 0.2897837
23.0 -2.76893 0.12787174 0.2961983 0.9098825 0.85201156 -1.3504103 1.3426285 -2.531656 3.2605538 0.5977842 -0.46225837 -1.5519074 0.4117666 0.718782 -2.150413 -1.7230998 -0.8248247 1.8029898 -0.65378505 -0.09292506 -0.8431116 -1.3562927 1.7937853 1.5867562 -3.8450773 -2.8716145 3.9392598 0.78733164 1.0261376 0.26569763 2.1812267 -1.4125607
93.0 0.9143976 -1.4724787 1.8396149 -1.4864724 -0.46347904 -0.5852363 -1.6930498 2.707704 -0.29606947 -0.12564547 -0.9543684 -0.53141934 0.40774435 -1.250651 1.9771194 1.7275337 2.4458785 -0.45992807 -0.43015698 0.9652721 -2.5421526 -1.0953213 2.646775 -1.3301846 -1.1125505 3.1067493 0.91158974 1.5919513 -0.9107602 1.815969 1.2785594 0.75812894
69.0 1.1969621 -0.6389276 0.7049372 0.7969457 1.5579926 -0.38143575 -0.13693607 0.8993902 1.2374302 -1.093398 2.512411 2.0685835 3.038631 1.0638399 -0.15405065 2.3752463 -1.826333 -0.027655961 0.61332244 -1.2222472 -0.4552576 -0.36036742 -0.86259943 1.7786072 -1.243764 3.170527 1.6980065 0.05867911 -0.3974872 3.5413618 4.046514 1.985028
110.0 -0.8226621 -2.4995778 0.76559913 -0.9440385 -0.36734852 0.12018371 0.52720404 0.8041935 1.2093353 -0.9443886 1.0295813 0.44878677 -0.25213334 -0.96174574 3.473419 2.036272 2.0092244 0.90623325 0.31354645 1.8270397 -1.7996544 -0.17317465 1.1591463 -0.5295563 0.759728 -0.15932463 -1.5568894 1.1450688 -1.4887294 1.7435297 -1.103214 -0.40678737
134.0 0.45731017 -1.2420214 -0.06482521 -0.7543863 1.1715441 1.6013688 0.77472925 0.050062627 -0.39689833 -1.3388631 2.517639 0.9118105 1.8129311 2.1055107 -2.1906977 0.9466147 0.66385883 -0.100379266 -0.990872 -0.27814272 -1.1036956 0.7766905 0.69472003 0.85457957 -0.6655836 1.225493 0.7397268 0.32725564 -0.72864604 1.3235369 0.7305295 1.7886082
326.0 -2.383968 -1.2864522 -1.4812818 -0.8351232 1.0163676 -2.753472 1.9594752 2.162094 -2.231297 1.0088323 -1.4100366 -2.2169497 -0.8015363 0.20663016 -1.7107959 -0.04161276 0.52516025 0.056788158 -2.8108392 -3.5941358 0.53179 0.76890785 0.44963723 1.2438099 -0.15422428 -0.6786412 -0.019850343 -0.0075591374 -1.2450963 -0.14078034 1.7448916 -1.2785902
215.0 0.45443675 -1.0403692 -0.20295972 0.9591936 -0.7669845 -1.0385745 -0.5475447 1.214307 -0.020488087 0.8694844 0.72302115 0.979841 -0.3608836 -0.993901 1.6279366 2.1175303 0.7138463 0.53148806 -1.5742234 0.8855728 -1.3647506 -0.5922008 0.9422189 -1.9296259 -0.081277065 0.4486299 -1.7165242 0.55595094 -0.5187799 1.1871688 -1.4051102 -0.35020587
24.0 -2.9868803 0.28009915 0.14541169 0.31469575 0.47011545 -1.2019608 0.41472894 -1.9567778 3.017165 0.218486 -0.53419906 -0.32928768 0.39795318 1.0119148 -1.5573299 -1.745513 -0.6482772 2.5757232 -1.0112675 -1.1103104 -0.53114784 -1.2017092 1.241243 1.290286 -4.097629 -1.7278615 3.3314872 1.1482987 0.9002637 0.49483272 2.551855 -1.3927745
220.0 0.2633231 0.7235019 -1.9118724 -1.4882475 1.006577 0.94343024 -1.3298538 1.7432711 0.04259128 0.6324794 1.1559477 -0.0112957675 -0.809846 -1.1344312 -1.9056113 -0.02352939 -1.2752945 -1.2423756 0.60491437 -0.31841695 1.3390293 -0.46229708 0.70069206 2.707794 1.8005168 0.7537859 -0.15583205 -0.1380422 1.9312301 0.97748643 -1.6548833 -1.1734776
226.0 0.9756939 0.50242645 -2.0646334 -1.571551 1.0373712 0.7642323 -0.70520717 1.4592453 -0.6213058 1.0344528 0.9841341 0.06815762 0.15198772 -1.1707554 -1.8245606 -0.008921368 -1.1537087 -0.5720677 -0.00025074414 -0.84469426 1.2489175 -1.0211642 1.737682 1.9569204 1.938619 0.05332527 -0.11905953 -0.038004335 2.3178117 1.0167599 -1.19368 -0.72432184
11.0 -0.19153073 -1.1124641 0.55890226 -0.9249887 0.29955614 -2.054304 0.6923675 1.288978 1.6351849 0.49294728 -2.8828263 0.744536 -0.11736232 0.13740692 -1.5431101 0.5437886 -1.9101216 0.71308285 1.3819233 1.1302795 -2.8516824 -1.4423767 -1.0485616 2.9342866 -2.2216382 -1.2669748 0.08663329 -2.240091 -1.2853914 0.3921904 1.0379028 -0.7351484
171.0 2.3983433 -1.1428747 -0.4756146 -1.4731383 1.1164917 2.185883 -2.100619 2.934048 -2.0577776 0.69017434 -0.8029502 2.0341132 -0.75428784 -0.8335394 -1.2710668 3.3361537 -2.2305553 2.591014 2.3201349 -2.73333 -2.6350853 -0.91769946 2.708593 0.14033175 -1.609305 0.75698733 3.5399778 -2.229949 -3.7308688 1.1069415 0.06985783 -0.69138074
73.0 0.9808336 -1.5534955 -0.2777313 -0.31038058 0.51655173 -0.6171199 -0.33115125 0.85181046 0.13499264 -1.5762113 1.8588105 2.5562055 1.819169 -0.1508971 0.16791126 2.6278427 -0.67513674 -0.9130164 0.4318267 0.021349007 1.1507986 0.1821068 -0.732418 0.7731564 0.046121035 2.5864074 2.1602209 0.6398948 -1.6423918 3.3319438 3.7831066 0.519524
138.0 1.4584419 0.90735394 -3.1361558 1.0731094 -1.6818273 -1.7672706 2.0059571 0.69118214 -0.7213442 -0.12072037 -2.5832977 -0.2022309 -0.90440935 2.4350219 0.58078676 1.0196301 1.8114381 0.9829255 0.83404034 2.3646092 1.9347651 0.4999877 2.3534503 0.20725672 0.55732656 0.112559184 0.74835765 0.04416848 -2.9330127 -0.7331267 -0.25905412 -1.4456767
121.0 -2.0406456 -2.0762243 0.62598157 -1.0774152 3.206764 -1.7749069 -2.7545686 -0.5948817 -0.055607256 1.5347782 1.0647725 -1.4849325 -2.0429962 0.6751398 -0.35842854 -2.269041 0.20292978 0.4945471 2.2725465 3.6859763 -1.4590904 6.7346144 2.3178735 1.6005936 -2.1041758 3.1885145 -1.0071276 -2.258823 0.22235754 -1.7221535 -2.977034 0.36209458
49.0 0.7227819 1.0205276 2.388378 -2.5091136 -0.33864707 -2.4305003 2.3782556 -1.0117298 -1.0482211 0.5580672 -1.1146003 1.0646117 0.32001165 -1.1355541 2.1104581 0.21166843 -1.3647218 2.253557 -0.32783845 0.104253225 2.9905038 0.40727317 -1.8008573 0.5435697 -2.2633157 -0.3507603 2.9704988 0.7965622 -0.16121401 0.4220439 -2.036701 2.661184
87.0 -1.7289317 -0.27399305 0.18464461 1.7330045 -1.6617963 -1.7281783 1.0566802 0.37749255 -1.3364064 -1.067712 -1.5781916 2.2676642 -0.93309367 0.91489637 -2.356848 1.0039628 -2.0414996 3.864714 1.7706249 1.8650701 3.183058 0.5752059 -0.6079481 -1.1564198 -0.73703414 0.96830344 1.8954725 0.14343609 -0.4363748 -0.3064797 -1.7566268 2.282994
78.0 -0.35864338 -0.7973552 0.4873017 0.41268775 0.48696545 0.51899284 1.0537103 -1.2013443 -0.6870975 -1.2651169 2.0972366 0.010837668 2.1854208 2.2846522 -1.913222 -0.09938679 -0.13816825 -1.4395945 -0.77791184 -1.0818417 -1.449471 -0.18998808 0.7061153 1.1119014 -0.92244726 1.1676128 0.2661477 -0.10289107 -1.0543647 1.5495316 2.077136 1.0851494
312.0 3.077922 0.64867544 -0.35896102 -1.9365742 0.089765586 -1.8616258 1.3449626 1.9990509 -2.8262455 1.5983664 -2.2079227 -1.9532019 -0.628761 -0.17729616 -1.2703681 -0.92076904 3.0270898 0.84897554 0.30940264 0.42595392 2.238154 2.235532 2.551945 -3.45748 -1.3085938 -2.4090874 0.59667647 2.853465 -1.8126605 -3.0897002 2.6941574 -1.3229355
113.0 -0.14858817 -1.5643204 -0.065568626 -1.4545801 -0.99815995 -0.22012872 0.8768343 -0.28135648 1.0154521 -0.5766846 0.6934355 1.1419693 -0.67863995 -1.8368347 0.9994989 1.5801102 1.2947214 0.47286615 0.22009875 1.4464322 -0.36245298 0.021346452 1.260757 -0.4348376 0.6924597 -0.7179949 -1.1613386 1.2769372 -0.33970264 0.5174592 -0.8379377 -0.29287478
21.0 0.037004225 -0.7429546 -0.25490317 -0.6256718 0.46468174 -2.5335238 -0.2303841 1.0933657 2.2014024 -0.44426325 -3.0785549 0.34758928 -0.89263284 0.7834418 -0.59713566 1.653079 -1.8403732 1.4511472 1.4169391 -0.11027297 -2.3945065 -1.1646917 -0.18893418 3.2879112 -1.3433723 -1.0678563 0.92475253 -2.073867 -2.0014756 1.850295 1.7574164 0.04790147
31.0 1.5762434 1.7098604 0.4258546 -1.2845342 2.6565113 -4.5167866 2.2403347 -0.6791827 0.22034587 1.0513372 1.2017907 1.6528463 -0.22489266 0.68897665 3.3388612 -0.6872408 -3.478854 0.61001354 1.0346763 -0.59596187 0.7229363 1.3528297 -0.48295054 -0.39698297 -1.2292664 -1.5812427 0.8013399 -0.961862 0.5294351 1.1652471 -0.05716479 -2.4015808
98.0 -0.41317648 -2.148027 -3.2084656 -1.4215324 0.9348122 0.577256 -0.4556522 -5.2781305 -2.2419796 1.8379184 2.1079981 -1.1024932 -0.23410925 0.2179843 0.0270002 -2.8834062 0.65860134 0.40637612 1.3297261 -0.32633823 -1.7898757 -1.9324962 1.049021 0.85657704 -0.33508757 -0.059883084 0.13959156 -1.0735742 0.115657054 -1.1475594 0.58005285 2.354665
145.0 0.48985642 -1.1018897 -2.0742 -2.0109694 0.97183985 2.1022637 -1.0566556 0.8822742 -2.5600374 0.71611357 1.5702419 -0.33160564 -0.4633421 -1.0666296 -2.371501 1.2036897 -1.6265992 0.11458168 1.1437914 -0.41891468 -0.72386515 0.5501088 -0.93733686 0.06429078 1.250535 -0.43955827 -0.14904214 1.5285292 -0.17076455 1.1746733 1.8701774 -0.39318925
304.0 0.5151871 0.23812957 0.09214125 -0.6896585 0.6400799 0.40024412 -1.001071 1.2885269 0.10071607 -0.03393926 0.62038434 0.38329273 -0.40980396 2.013721 -0.47987318 -0.27735496 -0.0026853906 -0.5870463 0.14286864 -0.45672944 -0.30981472 -1.2993282 1.4816986 2.366341 2.6197457 0.53682023 0.7626111 0.23225616 1.6125371 -1.0602864 -2.2034533 -0.017937046
104.0 0.74056935 1.0515791 0.47873408 -1.4865494 -1.5859134 1.4790981 0.33818316 -0.0821613 -2.889484 1.9294771 -0.29740283 -1.5953857 1.8212966 -1.1763145 -0.10479328 -3.1488197 2.099623 0.6728678 2.522224 1.1425308 -1.0358099 1.0452477 -1.1784258 2.0842311 0.069404624 -1.2334254 2.7666605 -1.5220518 -0.7890214 -0.4304671 0.7738306 3.6661248
79.0 -0.31828037 -0.5033789 0.7465704 0.3975492 1.5276985 0.24081077 0.36960825 -0.48977023 -0.024188068 -0.22069225 1.7154113 0.3163852 2.1988397 2.1258805 -2.6175842 0.53954005 -0.06935705 -1.2178864 -1.1413554 -0.68981576 -1.2040753 -0.09177553 0.6277745 0.37535238 -0.44194552 2.1606152 0.60408574 -0.22289887 -0.30433062 1.4311404 2.4482546 0.9579683
290.0 0.61642456 0.87303376 0.6730225 -0.3884154 -0.11208806 -0.3368066 -0.8924758 1.0961118 0.9711509 0.41129485 0.19017206 0.8741555 -0.66561276 1.3553308 -1.4021326 -0.27120245 0.39013502 -0.396442 0.40059745 -0.46662563 0.61514354 -1.8919711 1.2503202 1.361631 2.4127393 1.0419823 1.0395665 -0.4469172 1.1705856 -1.1969616 -2.7610655 -0.29544348
124.0 0.7045386 2.0513005 -1.3276424 0.7422215 -1.0811803 -0.6007707 0.6275285 0.27421013 -0.86306196 -0.7844468 -2.7163105 0.6075994 -0.16617642 1.6821278 0.5731981 0.4748967 0.6074835 0.24129456 0.5118753 2.6662395 1.0738097 0.80317336 2.6986597 -0.6604582 0.40122196 -0.4763723 0.30514437 -0.31551698 -3.1094518 -1.1160481 0.32398778 -1.338035
164.0 1.5157477 -0.569498 -0.63452244 -1.9779049 1.5258158 1.3433571 -1.4954087 2.219601 -0.7647052 -0.61934066 1.4909909 0.5302689 0.41266555 -0.4101499 -2.4972122 1.8900952 -1.6916258 1.5384518 0.34926727 -1.4801366 -0.9867879 0.43441662 1.4306 0.8503392 -0.34868878 0.45975703 1.6044189 -0.37479863 -1.821956 1.2040162 0.25729063 0.70130855
285.0 0.30371362 0.5884352 2.3797789 -0.88555557 1.3502127 -0.68206763 -2.3462143 1.1977051 0.9139571 2.1764247 -1.2661389 -1.5527415 -0.50642234 -2.1696858 0.8202633 0.71510285 1.9285167 0.038773503 -0.7008091 2.1801372 -0.6523423 1.8147105 -0.3939414 -1.7125679 1.4662747 -1.3033979 0.2518746 2.6062512 -0.10528433 1.0246468 -0.050503574 0.28958082
27.0 -1.7062142 0.20086704 -0.2637996 1.0022465 0.35767266 -0.5534719 0.93567884 -0.84219444 2.6902237 0.37211943 -0.6060586 -0.8430935 0.53166187 1.1325325 -1.0188413 -1.0459847 -0.28075352 2.5403123 -0.23710634 0.14555514 -0.6249036 -0.8449416 1.0882369 1.4441905 -3.989141 -2.1897385 2.57941 0.60301596 0.49326336 -0.31757942 2.4192173 -1.3244671
259.0 0.8161147 0.369064 1.4410118 2.056151 -1.6692251 1.2800012 0.5479473 0.7549822 -1.4314326 -0.10751837 -0.008500897 -0.14401636 -2.4605556 0.4648342 1.4894494 -0.44286415 -1.1499659 -0.58507013 -0.21305457 -2.0284216 -4.30828 -0.51840776 -0.49528417 -1.2659066 0.20166557 0.7271155 -0.8344994 -0.06973786 0.59291786 -0.22261369 -1.1851221 -0.263634
155.0 2.2845867 -0.6433762 0.033953317 -1.0282056 1.0660356 1.6532722 -0.9601855 2.1608512 -0.9294686 -0.8851759 0.29901975 1.3641428 0.107904606 -0.066721804 -2.0191956 1.7454078 -1.3157929 1.598887 1.2717537 -0.64621663 -2.2486262 -0.43194515 1.6893622 0.33256352 -1.4006149 0.29274523 1.9707041 -1.5123101 -2.5970948 1.1236916 -0.46951336 0.3761525
122.0 -1.6085685 1.8738414 1.1299632 1.1742642 3.916109 0.1255459 2.0529454 1.391351 -0.70246226 0.46749115 0.32463855 0.8009201 -1.2562982 -3.3566072 0.014894419 0.6873479 -0.7947521 -2.3965268 3.2166214 -0.21494564 -1.9570738 0.43363947 -1.357159 1.2472541 -2.155014 2.3160014 1.9857471 1.1111647 -0.81212 1.8275417 -0.9105276 1.9198036
97.0 1.8270528 0.6724991 1.5664406 -0.8526812 -1.3677349 1.4094565 0.526928 0.9103501 -2.297522 1.603628 -0.85033435 -1.6561056 2.6005974 -1.2844102 0.97303456 -2.8832698 2.024425 0.88949454 2.750873 0.6280228 0.1876011 0.6641557 -0.93996185 3.7345002 -0.4249669 -1.5291038 3.8087962 -0.91108316 -1.3669263 -0.42972714 0.059171785 3.8876648
190.0 2.4346437 -0.20264012 -0.17548987 1.5502456 -1.0045267 0.7304288 -0.3343471 0.9982339 0.5252764 -0.5231144 1.3390908 1.1228436 -2.1908166 -0.4094847 2.0439463 0.21611986 0.7054983 0.822354 -0.91243505 -0.09810695 -1.7445532 0.43189824 -0.08131252 -0.20074193 -0.30567288 -1.2441499 -0.23770402 0.789843 0.29820704 -1.6011894 -0.10494429 -0.02104763
208.0 -1.934139 -1.4558183 -0.11513124 -2.0789926 0.5795048 1.9322487 -1.4115957 -1.0428976 -0.11100152 0.6951529 -0.7627084 -1.4615481 -1.575447 0.18778147 -0.24422997 0.35333663 -0.68862426 -0.31819358 -1.7712498 2.0306122 0.07003744 0.124413006 -2.1819909 -0.35020554 0.7087681 -0.3225682 -0.090619504 0.56618136 -0.5000065 -0.19249868 -0.5345869 -0.92278785
210.0 0.0514458 -2.1237333 0.7924883 -0.50399977 0.296893 -0.3953913 -0.41287306 0.71152365 0.37745795 -0.12723722 0.4475239 1.0918738 -0.04275457 -0.6814917 1.9726981 3.2164679 1.6577792 0.5841071 -0.50386536 1.8842806 -0.9536804 -0.13460252 2.478275 -0.98058975 0.42125866 0.56902486 -1.2612776 0.56260735 -0.9993683 1.9807011 -1.1854842 -0.14507616
89.0 -0.23852687 -1.3802975 -0.7597712 -0.9948366 -2.4443226 0.5862956 0.7019634 0.11594925 0.72985363 -0.6730103 0.4503104 0.6918635 -1.5691092 -2.460101 -0.39653707 0.23647402 0.72901255 -0.14431232 0.6551485 -0.5272707 0.26348248 0.124838516 0.89650375 0.34015125 1.072722 -1.2991824 -1.735711 1.2208842 -0.17964178 -1.7962453 -0.63124615 -0.79784566
103.0 0.38663653 -1.7467704 0.3995421 -0.96471524 0.5844146 0.06395019 -0.096844226 0.5587372 0.89704335 0.33547667 0.52952605 1.3223119 -0.14287789 0.004346108 2.987956 2.9508734 2.350319 1.2147629 0.3116161 1.7265735 -1.6561303 0.06948082 1.5517097 -0.9743938 -0.6412981 1.112146 -0.86905324 0.42571294 -1.1938213 2.4827106 -1.3692116 -0.3389478
48.0 -0.02002403 0.77982074 0.0017781534 -1.1604187 -0.15500176 -2.707148 1.4431224 -0.092196524 -1.3221425 -0.6507968 -0.23112035 1.1765695 -0.9076217 0.81483406 0.6363616 -0.17747761 -0.25125083 1.8159066 0.3629428 0.6522432 2.9533565 0.13829295 -1.3599417 0.15684247 -2.0458133 -0.21914393 2.5387993 0.012401399 -0.09283758 0.24613537 -1.398126 2.5720515
328.0 -1.30217 -0.72595346 0.75708634 -0.12643449 1.6933428 -0.48361528 0.9474491 4.086649 -3.2697854 0.5771142 0.12686765 -0.303832 0.21532163 -1.3384922 -0.57962567 -2.2855446 -0.09328589 2.4922817 -0.96648705 -0.088483304 0.67794335 -3.4060814 -0.91429317 0.9666768 -1.1380899 0.6724324 -0.22572094 -0.24056205 -0.58720505 0.07384519 0.42960507 -1.6869856
77.0 0.9767272 -1.0009016 -0.15264112 -0.60394996 1.1875279 -0.010276285 -0.7141483 0.7829559 0.5394222 -1.1452196 0.89282244 1.5684046 1.8799021 0.14326459 0.023268983 1.8689475 -0.8864485 -0.12368341 -0.38438034 -0.06738899 0.15118054 -0.6883822 -0.33938003 0.5912423 -0.06819015 1.7929021 1.0380555 0.9028079 -1.1565655 1.9422725 2.790158 1.0783973
64.0 -0.2688752 -0.59635484 0.4852013 -1.3856192 -1.46465 -1.9533342 0.85864174 -1.1372675 -0.641804 -0.4490502 -1.3377998 0.8822003 0.077936865 -0.8462555 0.49027535 -1.10996 -0.041802797 2.7861392 -0.24362436 0.39914632 2.329199 0.035994086 -1.5033848 0.86725914 -1.916177 -0.37704024 3.2069068 -0.7583535 -0.3334537 0.11526069 -1.2022879 4.5518875
319.0 1.3934493 0.21920918 -0.23792799 -1.2394004 0.6355479 -2.6850634 2.6050553 2.2734652 -2.620015 1.533514 -2.077198 -2.2430856 -0.7190036 -0.13299087 -1.2733204 -0.43600532 1.3529215 0.7924653 -0.67613786 -1.2658176 1.7210379 1.5762409 1.4418707 -1.7608505 -0.8651226 -1.7254266 0.47134548 1.9266026 -1.4024602 -1.6716864 1.7975411 -1.9474835
236.0 0.10528545 2.2542472 -0.42780998 0.8091148 -0.9958307 -0.630225 1.0170087 0.962258 -0.22295871 -0.7751133 -1.5922059 -0.28110498 -0.61785406 0.5686357 -0.086289436 0.3240957 0.8806053 0.88606626 1.3363773 1.3800519 1.0185709 1.3768917 1.5380907 -0.29231945 -0.09816508 -1.369143 0.059334584 -0.7053897 -3.2062364 -1.2519413 1.0164859 -0.69237727
317.0 0.654741 -0.20434842 -0.91848975 -1.9606243 1.7654656 -2.7921069 2.7749202 4.040084 -3.752113 0.544157 -1.6459148 -1.9001179 -0.83889043 0.11268259 -1.6397374 -0.6496613 0.27093437 0.57883376 -2.1215584 -1.4704491 2.4340918 0.96784854 1.6180671 -0.1670872 -2.6388397 -1.9135619 -0.78364396 1.2989668 -1.4032091 -2.0124166 0.72167915 -2.6121104
214.0 -0.07769611 0.56607634 0.6127206 -0.9821286 -1.514567 -0.18385711 0.23380114 0.9501066 -0.78872055 0.0024695722 -1.9813379 -0.96540517 0.006098399 0.40198812 -0.14286524 0.60739577 0.5113136 -0.61857337 -0.11466486 -0.9762497 1.0787357 0.373042 0.88757044 0.53276646 -0.9857542 -1.580883 0.056656975 0.33823222 -2.8311906 -1.4625996 0.41659272 -0.98328274
43.0 -0.89269626 -0.53179085 -0.25087568 -0.09246728 0.00029677467 -1.732863 -0.7632481 -0.9631232 -0.0272925 0.8131173 -0.3986562 0.25132897 1.7936509 0.81885725 -0.5025843 -0.08539103 -0.15337668 -1.807401 -0.71971005 0.012029103 1.5796702 -1.0162244 0.75018877 -0.13337475 -0.0061069457 1.6613532 -0.64218 -0.684279 -0.2945225 -0.16504358 2.2222388 -0.232414
84.0 0.25915697 -0.5517943 -0.011823555 -0.3948205 -0.1083781 -0.09653471 0.18443416 -0.044192526 0.28800607 -0.8235821 0.5908709 0.32193205 1.3321506 0.61548597 -1.0173512 0.3500209 -0.7271615 -0.15844534 -0.4412038 -0.1664671 -0.94425255 0.19979061 0.344184 0.3145783 -0.7423222 0.4818624 0.3347759 0.2315347 -0.27443337 0.98602164 0.60743207 1.8398395
44.0 -0.9733295 -0.28112036 -0.38068223 0.22234222 -0.29994184 -1.4631464 -0.7498188 -0.78848326 0.36110792 1.0969877 0.2296956 0.26279864 1.8884853 0.74319136 -0.37126395 -0.076295 -0.55368006 -1.4825985 -0.59749913 0.3587682 1.151525 -1.1555873 -0.47160083 -0.5448549 -0.0206578 1.8309627 -0.5583825 -0.92633826 -0.2645882 0.0124174645 1.946707 -0.013309933
289.0 -0.35048068 0.32676554 -0.64608943 1.5589957 -1.5365702 -0.59319496 0.7258451 1.1953506 -0.634067 1.1841427 -0.2806851 0.22045343 -0.92242837 0.03752729 0.21200766 -0.29826987 -0.29629612 0.75921583 -1.9790295 -0.5196846 -1.3401855 -0.4605657 -0.65899366 -1.8554146 -0.9167475 0.31683868 -0.410857 -0.15952234 0.697464 -0.5741358 -2.20763 0.71311635
294.0 0.30922118 0.62167263 -0.21817349 -0.25248614 0.4090643 0.3016987 -0.1902032 1.1965634 -0.006119825 -0.031350147 -0.013661538 1.061157 -0.2936255 1.7017211 -0.39255896 -0.33208308 0.26834348 -0.8412439 -0.09913794 -0.38371834 0.25098944 -1.3801906 0.744921 2.443539 3.2075253 0.19579627 0.69894546 0.19225591 1.2400256 -0.62380296 -2.8485143 0.15551989
207.0 0.87685275 0.6050051 -2.5448546 -1.847524 0.60319334 1.4304036 -0.16425589 0.92975205 -1.0738748 0.7867922 2.3320708 -0.4772587 -0.852642 -3.9199252 -2.3057184 0.68432134 -2.4616601 -0.5424136 0.2895629 -0.6488476 1.6642408 -0.33500397 1.2356778 0.7400923 0.42278218 -0.18011138 -0.08887459 0.046432275 1.2661656 2.3681526 -0.715143 -1.3853528
209.0 0.2609392 0.19662713 -1.9597931 -1.4792577 1.1954064 1.4973141 -0.89946544 1.0087132 -1.3085506 1.851543 1.3986789 0.22730172 -0.09803915 -2.2276 -1.1390308 1.5272173 -1.1148994 0.84180564 0.4919627 0.5829705 0.9741825 0.63229877 0.3466061 1.3969382 1.795241 -0.31043205 -1.7550926 -0.40301108 1.7567091 1.083971 -0.13419753 0.1745577
156.0 0.32098567 -1.1625457 0.8342413 -0.8357715 -0.022898193 -0.32012606 0.02434587 0.6426841 0.7191971 0.020201527 0.24783657 0.9378284 0.3987831 -0.55358005 2.1390522 2.4327433 1.2257845 1.4348303 -0.06581976 1.9239801 -0.8518593 -0.07336495 1.8360708 -1.365706 0.7779651 0.49893284 -1.0911978 0.85571593 -0.90879357 1.7093239 -0.6266793 -0.45593074
234.0 1.4585314 -0.11572954 0.031181213 1.9827888 -1.292816 0.18600927 -0.19714162 0.23919658 0.016903304 1.2112479 1.7829603 0.98605275 -0.9406602 -0.8111138 0.8117197 0.5658959 -0.38306487 0.19804263 -1.2038199 -0.81678164 -1.6000937 -0.22258039 -0.72549427 -1.8605762 -0.25002456 -1.0201739 -1.8124048 0.11237564 0.015035637 -1.2509215 -0.95668626 -0.12903436
291.0 0.57902896 0.2130759 -0.08543707 -0.21508825 0.42319548 -0.47999665 0.013554571 0.80612075 0.070903406 -0.3340413 0.1585213 0.687768 -0.5992857 1.7666229 0.0050372765 -0.70567805 -0.12249016 -0.29617614 0.4089411 -0.018273717 -0.11607532 -1.0678493 1.1511308 2.5420926 2.0937142 1.0011184 0.6905766 0.06626358 1.2456515 -1.1055375 -2.0818834 0.012061626
160.0 -0.5884267 -2.1911185 -2.3605444 -2.2865438 0.6556369 0.49574205 -1.690514 -0.48193052 -2.4223406 1.2476953 1.0233176 -0.01520727 -1.7952724 -1.7196984 -2.311305 1.3344446 -1.9539016 0.06486852 1.8863842 -0.342426 -0.7541949 -0.039667897 -1.9754938 -0.539979 1.7893565 -2.1344457 -1.668248 2.3993056 0.058492143 1.3007133 1.3033657 -0.7408786
228.0 -0.08871507 1.6715164 -0.6548627 0.96353114 -1.1076432 -0.34255373 0.62186795 0.5236337 -0.26478097 -0.5545544 -1.8601235 -0.14731799 -0.7924255 0.7978945 0.31294924 0.25491813 0.7330462 0.43796027 1.2825607 1.5720873 1.1874651 1.4772545 1.0522267 -0.15876758 -0.36558858 -1.5720487 0.17998262 -0.7562925 -3.0405724 -1.5258355 0.63634926 -0.7276577
115.0 1.115523 -1.5339624 0.7600786 -0.88049483 0.73056144 -0.58842266 0.56587857 0.28570217 0.85891163 -0.12740004 0.031237464 1.1222465 0.34676847 -0.31699005 2.5382566 2.2671533 1.9954009 0.947323 -0.49188167 1.6335062 -1.290608 -0.48130283 1.6404582 -1.1208369 0.004540101 0.66254336 -1.1732714 1.3858079 -1.4341149 2.5742412 -1.4202961 -0.41774222
195.0 0.49105912 1.0436164 -2.8573496 -1.9883039 1.003465 0.7425384 -0.7566273 1.197773 -1.3117687 1.8643702 1.3435998 0.17370197 -0.84948504 -4.3662214 -2.314193 0.41841388 -1.7322903 -0.72613263 0.2069572 -1.1428608 1.7350739 0.03923651 0.7221248 0.91826844 0.078585066 -0.08487575 -0.36756647 -0.62976843 0.88793844 2.1167448 -0.96846765 -1.0947338
107.0 0.44995567 -0.40433303 -0.6828706 -1.0406022 0.742685 3.597434 -0.2873848 0.20328234 -1.5566132 -0.03003124 2.1530569 -0.37112388 0.70991117 -0.8773109 -3.0261369 1.3388729 -1.4546127 0.13828711 -0.62325966 -0.8619362 0.0035171814 1.4530944 0.5986732 1.2443353 -0.14425771 0.38996232 0.9929551 0.7599127 -0.64765257 2.4506686 0.77404535 -0.30486873
32.0 1.5330044 1.8129053 0.95953923 -1.1001073 2.0307183 -3.5510235 1.2631668 0.6526613 0.029044516 2.2794318 0.6781369 0.981842 0.67943114 0.9576022 3.434594 -0.675471 -3.2603297 1.6478893 0.9051776 0.613564 0.40257186 0.62960887 -2.2532103 -0.34994948 -1.5651181 -0.69916105 0.008999225 0.33912823 1.2407678 0.6117905 0.053376276 -2.0884995
18.0 0.00727183 -1.1681784 -0.037032977 -0.8250358 1.1431371 -2.0507915 0.031111823 0.9462929 1.9782745 -0.0714888 -3.3948247 0.8255232 -1.017189 0.4119845 -0.85855085 1.5753603 -1.5809976 1.2820804 1.5610274 0.73983026 -2.675431 -1.2749449 -0.6641127 3.339627 -1.3706917 -0.9251903 0.62639254 -2.2724936 -1.8821892 1.2646402 1.3996104 -0.3601461
