2375 32
320 -2.4978318 -1.4769032 8.050202 -4.4571104 -2.4560108 -0.70125264 5.661705 -8.586677 1.20389 -8.248959 5.776423 9.197962 -3.1532586 2.133756 -1.8102205 1.7242117 -13.991393 6.461457 12.835975 -9.005089 11.012154 -7.194037 0.6457796 0.7783906 5.670139 9.990501 2.0683298 3.9293487 -2.5314894 -0.69290286 6.082399 -1.7587196
432 3.2161705 1.976967 5.6961384 1.2981164 2.9978018 -3.5825682 0.040784273 0.7412413 -1.5958214 -4.597027 -1.8625516 3.1052241 3.3579016 -10.129683 8.527615 8.314215 2.6789165 2.6094935 5.8896394 -5.1648664 7.5597615 -10.767151 3.023466 12.232318 2.6445417 -5.655996 6.463576 -4.405048 -6.2266455 5.402632 13.120115 17.095211
2083 -8.203911 10.073406 2.2231853 1.4358822 -3.9659784 -2.100778 0.54757047 2.5082831 -2.8212876 4.84999 -8.808229 7.250526 13.852406 2.3291779 14.35678 3.7783554 1.1014127 -4.7043905 2.4132452 0.71068394 1.1094779 -9.1534395 3.703494 3.5469804 -0.3719825 2.320976 12.173485 -6.755027 -7.9795322 9.868977 10.808115 7.56375
374 -1.9289356 12.058342 -2.4432943 0.0065666437 -6.811441 -2.1420953 -4.1900067 -0.7049377 -5.173775 -3.8065798 -9.683917 -1.5926888 9.348347 1.8621167 -4.376237 -0.38236699 -1.950302 0.66140187 4.315918 -7.2236185 1.1728613 -2.4718623 10.359863 3.8395884 0.1388022 13.245553 6.6831746 -0.5649732 4.8378916 13.254219 11.087496 7.129844
115 -3.3550181 17.069159 -4.0808263 -0.24642512 -2.1595736 1.4388865 -9.650219 1.181471 -6.068731 -6.0967317 -6.132355 1.4095712 12.821126 -3.5150084 -0.39920565 4.040608 -0.19520496 1.2085222 9.774801 -6.1278667 1.1132314 -0.39645687 8.779146 0.85112906 -1.6512027 12.138552 6.3359747 -0.27560508 3.5112927 10.85333 7.2921886 6.8792567
1710 9.082493 7.5287476 3.88064 2.0396254 2.4419825 -10.681892 3.4195683 1.73782 -5.205681 -3.6604543 1.2197686 2.41492 -8.349615 0.6904936 1.866169 2.5882025 -9.412038 -1.1128968 1.2637024 3.2080843 6.791273 -0.018664913 9.755454 14.415493 -11.364431 -9.898373 -2.9087546 8.151048 -8.18769 7.186468 -0.31326705 -2.2346523
1301 1.0721184 -9.1037655 -15.334766 -2.1456664 1.0587142 8.970823 -3.3065882 -10.115888 -2.213554 -11.301367 -3.060283 15.258169 5.8612247 0.8075655 -11.831023 0.051968265 -7.207598 -15.941496 8.588534 3.4558268 5.127163 -0.27605233 3.9114113 6.1249866 -5.8761964 -0.5420865 -7.388284 0.5983762 -7.9258595 -0.32575995 -3.576266 6.847802
245 8.697663 6.5832963 0.5096341 4.934311 -1.5713581 13.563882 -2.144541 -3.064804 -3.3159146 16.294277 -10.155286 2.4806876 0.20793504 -0.88291305 -10.888577 -4.5473895 3.4220896 8.442891 -6.4243073 -5.666884 -10.119605 1.2233863 5.6772137 11.816752 -0.21748824 0.42696476 3.7130694 6.164586 -2.46542 -1.0194273 0.80322284 1.7746254
67 7.133093 3.7490497 -1.9465241 0.49212378 4.644728 -1.9291099 1.4138205 -3.1729186 -2.3434587 -2.9087608 -0.6720874 -3.366408 3.9849644 3.6724043 -6.713717 1.7923211 -3.3485506 -4.960847 -7.86364 -2.5909052 -2.309365 -0.3954741 -5.395514 -2.9719572 4.1717825 -4.258136 6.639773 1.1130743 3.9396117 2.869766 -9.673621 1.4363253
90 5.7517514 3.2708673 -2.655891 -2.5983016 6.5680666 -0.5056968 2.0766017 -1.7886462 -3.9253075 0.5048595 0.4162802 -0.7872967 5.333726 -0.17597122 -8.395619 2.5298154 -5.458573 -1.6328596 -8.74984 -0.31604615 -1.6187527 0.8843804 -4.4660416 -5.4940143 5.440101 -5.154281 2.0284548 -0.5856749 2.016439 3.5503852 -9.041577 2.2025611
173 5.531529 -1.8292211 9.237227 -7.286412 -4.6035233 -3.767603 -4.5766907 1.6474729 -5.6404595 -11.660695 0.940168 11.301901 -1.1295542 8.6711855 12.390165 -11.613498 2.2165995 7.41146 6.1089554 4.5292015 -11.5958605 -3.8412697 -7.3757553 8.162879 -5.362953 2.728363 6.3120046 -2.6834257 7.4291005 -1.2598027 -2.1657636 0.4432604
1100 2.9135504 0.20499948 -2.9494116 0.38682532 -0.9091862 3.4871867 2.6401472 4.632619 -0.22599308 -2.3324375 0.789701 0.2680579 -2.6732469 2.1151166 -7.3930144 3.0135686 1.3774515 -1.348096 -3.5759406 -4.461052 2.0285506 0.7507007 -10.777163 -6.3773766 6.754586 -8.560689 4.287052 -5.983668 1.281051 -4.5478687 -12.826106 -0.16772357
932 4.361221 3.3999171 -1.0543076 0.05859583 4.2436438 -1.2992654 0.23593774 3.8928154 -0.46124706 -2.2623584 1.0513127 -0.093790285 -2.7487464 3.2705796 -10.248027 1.9787227 0.36270493 -2.1552432 -3.181602 2.1129818 -0.10569166 1.3488928 -5.3351245 -6.5103984 5.135822 -6.3812184 4.3342156 -4.1576138 2.604239 1.3122447 -7.397293 -3.063535
175 3.7111678 3.016242 -2.664452 -0.8800161 3.4748008 -1.0688843 -0.76278424 4.443719 0.09542694 -3.387439 0.6338959 -1.2553163 -2.657122 2.4765925 -9.1389265 3.3265917 1.0304068 -1.7185751 -3.4354656 1.274269 0.82424957 1.4263195 -5.766931 -5.7053776 4.548279 -6.4397607 5.8174024 -2.4484696 1.4162384 2.6042545 -7.799708 -3.5247092
205 7.5061493 1.3803254 0.54537416 -0.007040957 1.2769312 -1.079417 -3.7692542 4.4551225 -1.4005375 -3.9204953 1.6235974 -3.227859 -3.9966788 1.1981723 -12.003976 2.935925 -0.2809741 -1.3104793 -3.5453842 -1.3757212 1.5553257 3.1027799 -6.0512037 -5.6097794 4.4626493 -4.9891243 2.2934027 -1.8930682 1.3447201 2.136057 -8.953674 0.53926045
191 4.08619 2.6192017 -2.5537658 -0.45163158 3.3209686 -2.0410633 -0.6046515 3.8703842 -0.006643646 -2.9150536 0.35315543 -0.40865916 -2.8051858 2.5988827 -9.239701 2.7584293 0.7580454 -1.0360081 -3.9287019 1.1393116 0.5417395 1.4411614 -6.405561 -6.0220494 4.6578617 -5.6121325 4.97845 -2.5301716 0.72135216 2.0639553 -7.9622073 -2.9803526
341 2.0178957 -8.781923 8.081382 -2.0206335 -7.4085646 8.310477 -5.279181 4.62663 -2.3564594 -6.1228886 -0.69262516 -4.2559943 -5.474487 -7.9003263 -2.0464993 -5.8829956 0.09919624 0.38265556 -0.9921543 3.4404418 5.6234694 2.352085 2.2653942 3.0316155 5.7278605 -2.9281049 1.3082399 -1.5363743 14.723261 0.0418212 -9.906173 -0.19245346
1334 3.4135702 -9.995342 -13.46249 0.0578125 1.7334054 9.633155 -3.2572012 -9.816306 -1.6227615 -12.307146 -1.792632 14.434591 6.9006953 1.3591913 -11.939071 -0.8587221 -7.7259455 -16.267714 6.6218224 3.3500588 3.2792006 0.6666454 4.1055474 5.742444 -9.4667845 3.2521136 -5.9514914 -0.19247012 -6.715483 -0.60997254 -5.7284007 7.7681894
948 4.3727536 3.1675317 -3.4124908 -0.5529639 6.01683 -0.18994588 -2.4632318 3.901869 -0.7639405 -2.0837474 2.4717295 -1.5583893 0.3484303 1.8194678 -7.638814 3.4021091 0.34035495 -2.3692524 -4.5377736 1.2772918 -1.9983908 0.640432 -8.264655 -5.3864703 1.6069319 -5.476445 5.3290324 0.6001232 1.9166232 4.1164427 -4.562207 -3.703108
1359 3.1611233 -10.2851095 -13.404382 0.00849492 2.2883894 9.35754 -3.6067162 -9.958667 -1.7571306 -12.035346 -1.7158427 14.449321 7.13863 0.6819203 -11.888032 -0.7098042 -7.3947234 -16.134005 6.576932 3.001859 2.947468 0.7814728 3.9545896 6.077093 -9.086527 3.2283444 -5.7916145 -0.14777158 -6.8741336 -0.8109921 -6.331273 7.551071
517 3.8846934 2.9381933 -4.0461316 -0.927479 5.603824 -0.37279266 -2.926896 3.4009964 -1.0067242 -2.1182945 2.3124542 -1.5316898 -0.16893743 2.2730844 -7.343923 3.8945625 0.29928866 -2.4104805 -4.4608507 1.0228916 -2.2914014 0.8672026 -8.369461 -6.0094585 1.6572005 -5.293511 5.135792 0.27441663 1.7453029 4.0959353 -4.393811 -3.765307
1191 -2.0843935 -2.2793422 5.3500977 11.503987 -1.7731459 17.013973 -0.12110612 -5.560568 -0.6941622 10.632741 -17.389622 3.1402338 -1.9393761 -0.49015453 -4.714909 1.7174017 -8.935452 0.28993466 -2.2337198 1.562676 -3.5795145 0.68291265 -0.019934554 1.3644704 4.801131 3.8265886 -6.177675 3.4316103 -9.282859 -6.399357 -0.48439053 7.060687
204 9.346271 0.5508208 -1.4742886 3.3854 0.9350002 3.4701529 -1.3147775 3.226524 -3.9525557 -2.9220264 1.3211027 1.9038124 5.102167 2.6153014 -10.659182 -0.21234798 1.2877254 -0.8728572 -7.7678003 6.5733085 0.59391445 1.1325102 -7.7542467 -2.2409346 4.7247906 -4.2731476 4.7543697 -0.22961761 -1.0646149 0.9972724 -4.878886 1.2675303
1193 3.3696504 -3.027401 -0.72883105 -7.6691036 0.366972 0.5158453 -1.1153857 -1.8438754 -4.001801 10.419047 -0.14789206 0.24332045 5.1197195 -5.7502484 -9.304784 6.1460843 -6.054679 4.7248645 -3.6015756 -7.9779377 -4.688447 -10.731448 -0.4864468 10.679 -3.933425 -7.3790846 7.184035 2.991734 -1.9727287 -16.5354 3.1662676 10.408848
176 4.6064086 3.0935977 -3.8096356 -0.07288713 6.0349846 0.0009378164 -2.0516067 2.8105361 -1.3629668 -1.9093534 1.904228 -1.235889 -0.27982828 2.3454115 -7.792016 3.1854343 0.61402476 -2.35675 -4.66857 1.0870953 -1.0592637 0.0027822403 -6.7621408 -5.3272853 2.699091 -5.667808 5.1422305 -0.7964465 1.8152101 3.5366538 -5.689901 -4.0309505
174 4.207285 3.1395366 -3.7045512 -0.11763108 6.2263284 0.31245735 -1.6490693 2.9966123 -1.4101884 -2.1083183 2.394854 -1.7942104 -0.18773258 2.4377134 -7.747177 3.4944305 1.1794097 -2.4390972 -4.339451 1.0385464 -0.6922625 -0.25751466 -6.3381996 -5.244259 2.8951564 -5.792917 4.778227 -0.8937322 1.7114428 3.4413068 -5.7439766 -4.136956
923 4.6456103 2.8824575 -3.981033 -0.06970594 6.2825155 0.2757326 -1.9976332 2.413442 -1.6042314 -2.1541395 2.4800227 -1.8414476 -0.09251881 2.4498272 -7.3395333 2.9493392 1.0717027 -1.9167705 -4.506935 0.8487222 -1.3216143 0.044968933 -6.651161 -5.1043596 3.12734 -5.78489 5.073352 -0.9751314 1.6572626 3.3533907 -5.6855736 -4.5200562
111 4.356098 2.7504 -3.9269729 -0.09053604 6.566789 0.3333118 -2.0628726 2.6798582 -1.394139 -2.177908 2.3099747 -1.8716768 -0.42316052 2.4957688 -7.701965 3.0132682 1.0163664 -1.8667402 -4.608403 1.2266003 -0.86937904 -0.38017297 -6.81984 -5.4854097 2.9877458 -5.6762614 4.944866 -1.2604349 2.102078 3.504109 -5.698413 -4.100422
922 4.8095307 2.8701131 -3.2062206 0.60915357 6.6380424 -0.8705156 -1.6889839 2.2581065 -1.1466144 -1.7925756 2.075112 -0.6285807 -0.6175421 2.6989992 -8.029216 3.2632163 1.0264231 -1.6514261 -4.2783184 0.9027316 -1.1637233 -0.5291446 -7.5948443 -5.531323 2.918524 -5.053051 4.128994 -1.2349074 1.6739802 3.3775032 -5.882527 -3.7496436
190 4.984341 2.4286256 -3.4905825 0.73733455 5.8723807 -0.64180726 -1.6766253 2.486257 -0.81685174 -1.9475355 1.9986278 -1.2370555 -0.43959314 2.5868986 -8.139563 2.7554524 1.1831416 -1.6900867 -4.703678 0.8391865 -1.161366 -0.4059452 -7.5749745 -5.637298 2.6881077 -4.6965156 4.5556607 -1.2656031 1.2583165 3.6972988 -5.978452 -3.8955915
194 4.729763 2.1292796 -3.287984 0.59782183 6.235342 -0.33656922 -1.6337206 2.313348 -1.3251038 -1.7732191 2.186489 -0.39865232 -0.33968636 2.941309 -7.710455 3.023332 0.9995999 -1.8043393 -4.6313534 1.13522 -0.7776578 -0.12590201 -7.325499 -5.8144364 3.2916367 -4.909579 4.710461 -1.3143079 1.4874506 3.3305483 -6.1646495 -3.6832075
182 4.87908 2.6205924 -3.1438744 0.72769386 5.9208994 -0.7395971 -1.5459871 2.4899156 -1.454435 -1.2472451 2.1012592 -0.8226847 -0.19450478 2.7827384 -7.872525 3.219988 1.2888838 -1.6488819 -4.422502 0.8891712 -0.58285224 -0.34209266 -7.444863 -5.7610273 2.852014 -5.1739945 4.4506717 -0.8369476 1.5870117 3.4229634 -5.9529696 -3.8178408
936 4.9375243 2.4900253 -3.4430518 0.5189315 6.247929 -0.71462685 -1.8800354 2.4415998 -1.3165601 -1.7560236 2.0610783 -0.58746624 -0.50839615 2.8321242 -7.6588 2.6689696 1.033217 -1.8143804 -4.5835896 1.2385191 -0.60694736 -0.20978509 -7.2363243 -5.919118 2.7241836 -4.8569913 4.590721 -1.2400196 1.3822794 3.6846821 -6.228209 -3.5546107
185 4.965049 2.389716 -3.5086071 0.6984504 6.3112216 -0.72998124 -1.6041175 2.2732902 -1.1216041 -1.5491643 2.470245 -0.9829487 -0.5370147 2.9677582 -8.050917 3.2454472 1.3468807 -1.703268 -4.388339 0.7833347 -1.0240406 -0.28998297 -6.933515 -5.768446 2.8318334 -4.899463 4.7100873 -1.1978532 1.3337854 3.3604593 -6.078033 -3.9752104
935 4.6615705 2.2257178 -3.4236717 1.3706533 6.4454856 -1.0087565 -1.9270859 2.2103775 -0.88328964 -1.2667464 2.266494 -1.2366722 -0.73252016 2.9175622 -8.319321 3.2271955 1.120292 -1.6462102 -4.5059114 0.6549321 -0.47299865 -0.034907673 -7.464035 -5.673397 3.33755 -4.944282 4.518373 -0.87832713 1.5049626 3.5932724 -6.1299453 -3.3765717
1 -6.190615 -5.7169228 1.1897432 -2.8974657 -6.564385 -0.343951 0.935254 1.0641692 0.0516381 -1.6435355 2.3904448 0.6159157 3.8629296 -11.340305 4.095844 -1.9889183 0.77730703 -2.84773 3.2220292 2.6538804 0.9331586 5.2965465 1.649353 3.0626926 6.7861447 -5.05671 -0.18769543 -2.085666 13.123508 7.941257 -6.377712 -3.0325675
189 4.5259333 2.4273155 -3.89089 1.1204295 6.4273577 -0.8999664 -1.2948241 2.0691128 -1.0144581 -1.3186228 2.3849797 -0.89453906 -0.5620481 3.0150158 -8.291022 3.2539515 1.3753746 -1.8290479 -4.6689277 0.96672434 -0.30861878 0.12472157 -7.226895 -5.7254705 2.9732797 -4.9075775 4.610504 -0.8003892 1.3066227 3.595766 -5.432597 -3.314578
931 5.1984167 2.292038 -3.584847 0.5192475 6.2737412 -0.6450765 -2.009156 2.1486132 -1.2833043 -1.6283622 2.0317335 -1.0293301 -0.3826713 2.6200871 -8.2427435 3.0141125 0.6250342 -1.6410787 -4.789042 0.75478995 -0.6479552 -0.21725374 -6.954949 -5.848614 3.1893005 -4.809114 4.436231 -0.9475229 1.1983088 3.3924384 -5.881315 -3.769586
222 5.06495 2.8096085 -1.5720325 0.62029094 2.2288375 -1.4650756 -0.43107393 5.3468823 -0.27642414 -3.641093 0.26245406 0.5204001 -1.0433533 2.4493098 -9.0654745 3.3276138 -0.13794437 -1.2797678 -3.5421064 0.17677432 1.2223831 2.7664924 -7.0087547 -6.0018687 4.897501 -5.828614 4.3036137 -4.0002427 0.08176304 2.2770379 -9.322919 -0.73404944
179 5.155682 2.048378 -3.7580009 0.7383791 6.34456 -0.54472345 -1.7423427 1.9834797 -0.85365534 -1.4731816 2.348912 -0.8244631 -0.4190877 2.8795974 -8.199545 3.025018 1.2909131 -1.7258089 -4.8646293 0.87981844 -0.87318677 -0.44290388 -7.208573 -5.6009417 2.8454902 -4.8193526 4.461207 -0.96512514 1.2458795 3.195591 -6.1911025 -3.7268429
274 8.728419 -0.46410364 -0.5526616 2.058036 1.7841483 -0.28866857 -0.9848004 2.6840985 -2.0274615 -4.1303096 0.2468385 -0.46101338 5.311688 1.1562842 -7.882997 0.5591609 -0.20748773 -0.009569284 -7.5315566 6.8930655 2.1134984 3.4788644 -6.6617036 -3.3615048 4.1763067 -5.8900156 5.94334 -0.9948694 -1.9223279 0.7774989 -4.451286 -0.2400482
28 5.8796797 0.112629205 -0.3989781 0.0525372 0.07698964 -5.2959943 4.293049 4.5616565 -4.385844 -1.305908 -2.5975606 -2.6280706 -0.808667 -0.14767148 -8.543884 2.814105 -0.027154963 -2.8203142 -3.0422578 0.69331396 1.4931844 4.140459 -5.8527193 -6.7575526 1.8202227 -9.380254 3.512848 -3.5171368 -2.9634356 -1.3961803 -9.389099 -0.6156708
475 1.7432121 4.924377 -0.4340586 -9.015655 2.7211177 -9.142848 -0.1818448 3.7558398 -1.000328 6.4077516 -3.7538412 7.1428437 6.198662 0.09007106 -6.494678 18.399853 10.060105 -4.9082084 -0.22454154 -9.195795 0.61789066 -3.444322 1.1390752 4.231793 1.5093179 -9.41126 5.187284 -3.7837658 -12.946784 5.8861694 7.572144 4.4942846
1224 6.046276 2.529585 6.393539 5.0455956 -6.846767 -9.03506 -6.1315665 -1.9650704 -3.837867 -0.9660344 -4.550806 -4.028669 2.4776418 7.353834 10.968007 1.9104141 -4.7072525 12.33842 9.195664 2.0073771 3.671048 -2.3985763 4.9552574 6.9420033 -22.757309 2.5811052 -10.746378 3.0867317 5.1611896 3.5456507 1.0537282 8.028184
203 5.815507 2.500392 -1.9885473 2.1406536 5.4395094 0.27137396 -1.6584814 3.041284 -1.7429756 -2.6723015 1.8200238 -0.66996086 1.1882132 1.3880002 -8.097987 3.7191954 -0.5759278 -2.5140839 -4.556879 -0.1292276 -0.12909088 1.3053975 -8.482587 -6.048507 1.7169788 -4.3466687 3.5348186 -2.716688 0.6958054 4.1192336 -6.7194424 -1.3092974
198 3.585369 0.49832055 0.309446 2.1110127 0.332108 -3.3945315 1.9963003 5.185637 -2.045102 -4.2603664 -2.192972 -2.1620884 -1.7251363 2.292876 -8.918602 2.6513352 0.4911203 -3.0230296 -4.916341 3.8105078 5.1120944 4.33938 -5.5142455 -6.224499 3.7373874 -5.373451 6.1169024 -2.3236408 -0.5310761 -0.9144218 -8.268246 1.6397055
2166 2.3083763 -1.9412676 10.454905 3.6225758 -1.922181 -8.675093 -4.797997 -7.368109 4.2276883 3.7863479 -3.3319054 8.305606 3.8794768 -5.4544234 8.021189 0.58684176 4.286578 0.6136519 2.537661 -5.4004397 2.7421682 -0.15489909 -4.5323625 4.921215 -0.44982192 4.5237274 6.644217 -3.9882371 -11.619404 13.721463 7.548315 13.855195
966 6.2189913 2.2766252 -2.4009683 1.8333158 4.9688783 -0.08267728 -1.6738911 3.5339255 -1.7988193 -2.2657788 2.305123 -0.09398632 1.5329518 2.2868812 -7.5417886 3.482958 0.25840694 -2.2745473 -4.3464866 0.080935605 -0.18878989 0.8317099 -7.8757625 -5.850595 2.6457148 -4.9020844 3.7916534 -1.9484326 1.0039066 3.5471447 -7.418899 -0.8748215
206 6.694409 1.0092626 -2.3747795 4.8994846 3.2310452 2.7889068 0.96603656 3.583473 -4.472719 -0.7108322 1.9760135 -0.10874405 3.9046164 3.360028 -10.904844 3.5333698 0.4365489 -3.123611 -4.9729404 1.9313248 -0.2043724 0.01694863 -7.0801177 -3.1518376 2.0828965 -3.5538588 1.3060123 0.7285535 0.7144563 3.098512 -6.7634196 0.43017107
143 -8.62136 -1.2792783 1.6169084 0.76049197 7.088595 5.6428533 -4.1128006 -0.83033043 -0.7561148 8.621389 -8.94025 -1.5579339 -15.028989 6.9488106 4.472148 -5.458885 3.5328238 -14.613284 3.7022278 -10.726389 0.32093525 5.1954665 10.404758 3.83459 -0.82154083 -0.44430083 -0.6272536 9.483421 -5.4006314 -10.901751 -2.976418 5.909265
98 -3.6028943 -4.06881 2.609584 -0.85707873 -9.16284 3.0137825 -0.12672028 3.9000766 -0.9041066 0.6824014 1.9013369 1.3900644 -2.2372656 -7.108185 3.4036946 -1.3315704 3.2353926 -1.8197567 3.1191397 -0.9728238 0.7397391 3.7014697 0.3579323 2.2209601 7.427385 -6.6951075 -0.018047879 -3.32272 14.817965 4.3138604 -4.7449603 -0.044178788
287 -3.3632047 -0.0034367016 -0.108592376 -6.971574 -3.9184034 7.8122244 5.410892 11.737038 -3.7901502 -7.4629936 2.9798138 -7.3434315 0.41165426 -7.2685103 -2.9736426 -1.1345689 -6.348809 -7.776308 -9.36616 0.67800957 0.7843486 2.9077215 -3.5625284 2.8229315 5.0227194 -8.82186 6.7654924 3.0666 11.412839 0.9979172 -1.6704794 -10.122755
2244 3.4379053 7.673283 7.842857 1.0104939 -3.9240005 1.5078257 1.422334 0.9065184 8.431916 -4.4157157 5.0600576 -0.32700822 -5.146415 3.0054488 7.1062045 7.1884117 -12.151352 -5.2419558 0.30883688 6.781178 -3.8165433 1.167673 5.785526 7.8453155 -1.6746067 -6.1194243 -0.0035204065 6.115783 -13.8445215 11.903294 5.7077184 -4.374792
917 6.2606425 0.3670669 -0.8181849 3.3697646 3.875074 -1.8071617 1.1781247 3.789495 -2.8493474 -2.3465846 0.98331624 -3.035482 3.3834527 2.2617931 -7.3339996 4.1903496 -1.0786794 -2.4806726 -4.8616323 2.0073395 1.7198656 1.9896194 -5.9087176 -5.0953236 1.7206433 -5.0433683 3.1092784 -0.8210644 0.34983954 3.8590214 -6.4239235 -0.71832824
349 -7.9199686 -4.4650207 7.0435834 -5.4969673 5.7910447 2.7661202 -2.5936353 -4.121952 7.4433126 -7.7041626 13.076651 -1.2310785 1.140671 -8.194516 7.8047028 0.62846076 -5.773401 1.25132 -1.2623863 2.4400709 6.4076953 -7.439681 0.29769254 0.33408737 3.4114156 7.620018 -1.9466934 -1.2443414 2.5460598 -1.1708162 2.7557528 0.023717081
399 5.8768864 0.22076228 2.8152509 6.548522 4.098964 10.716859 0.44670758 -0.40118238 2.961583 11.925806 -11.28803 4.5737114 6.0108056 1.5936258 -11.614457 -5.734511 7.2062445 6.200864 -1.7536384 -6.4807806 -3.2684486 1.6481283 -0.72278684 11.524859 1.9890641 -0.43969718 -1.1828221 9.542836 0.9394808 -9.301758 0.5647989 -2.7626672
561 1.0214533 5.203938 -4.5571146 -1.7916962 -3.6131856 0.44881767 5.6536727 5.9891615 9.60006 -3.457658 -9.856448 -2.58974 1.7243297 -2.6362486 0.30114478 -17.61051 -9.704707 -4.115109 -2.4756417 -9.551744 -3.8215778 -6.2872615 0.15100543 9.0875 -2.016158 3.2006936 -4.1882935 10.027525 -8.831367 -6.854271 3.753064 0.17574653
1109 -6.4913974 1.1349492 -0.21866065 0.6310089 -2.6168406 4.973153 -2.1178467 -6.758302 2.2130837 -3.6242685 7.5638227 -3.5090406 -0.13752894 -3.593021 7.895616 -5.002081 -8.661676 2.4276764 -3.397698 1.4187477 -6.906862 -1.8474469 -1.8740737 -0.7980015 0.8889111 10.314318 -2.0607345 0.5010457 4.978652 2.193983 0.9807039 -0.06548414
295 -4.3893857 -4.8744106 1.6620826 -3.3615234 -8.586795 1.4510437 2.4077184 1.6184272 -1.4896213 -0.025922017 1.2161118 0.99932235 -1.0540125 -9.571452 0.87062544 -2.3860695 3.2792294 0.8093859 5.3233275 -0.65997577 1.1440119 3.9694068 0.3521893 0.7464788 5.04118 -4.734532 0.26536852 -2.6383717 12.21401 2.1477864 -5.8145704 -2.117593
243 9.626246 8.671483 -5.976474 1.0602294 -7.725443 -0.25054306 -3.4099205 -6.816473 -3.7269666 -6.249491 -4.459666 6.1466985 -4.406914 -4.0496435 3.9566138 10.225138 -5.144137 -7.986832 -1.3614688 2.768461 -0.05401403 8.292905 1.9152832 -9.343949 -8.576726 -3.8660593 -4.2177076 6.270305 -2.269827 -1.489975 -4.7707176 -9.2099285
10 -1.7817411 -5.4957085 0.97479707 4.4904838 3.4375887 1.879503 6.8745956 1.2057018 -7.2537866 -1.7834538 3.3555849 0.21719748 -8.097517 7.556582 4.571147 5.605696 -2.4606247 -3.7339394 2.153779 -6.734692 2.6291752 3.469848 2.3862815 0.5087991 -9.930819 4.507739 1.3103105 7.934591 2.5989616 -4.400589 7.8875046 3.3869798
52 -1.2728932 -6.6109138 1.0338931 -5.8219805 -0.3286707 4.137183 4.5135927 10.671112 3.3745346 0.087178364 0.21673183 1.4805691 -0.82889515 -4.643311 4.1886835 1.5636231 0.7361504 -0.16008984 1.31734 2.902882 -0.12041926 0.74162054 5.333918 -4.1149364 -0.7260848 -4.083483 4.75235 0.4918157 8.203907 1.3856392 -7.5687013 -5.23253
241 -5.0840235 -3.0986362 -2.9020493 4.1551394 5.1456532 0.28089842 5.033149 -0.6567293 -1.5497967 4.470763 -0.057989575 -2.4772499 -6.2928247 6.2037544 5.3387885 3.1334107 -1.7116724 -5.9292765 2.72572 -4.206515 2.5948749 5.1727653 4.1339836 -3.6694598 -11.360032 -0.50003034 5.232552 4.582867 5.6628885 -3.9287694 7.91803 5.7214265
264 0.2448826 -9.956671 3.2911844 -5.538065 -1.9440464 -0.8351342 -4.936947 9.0778055 8.726357 0.12866503 -6.438111 0.6372919 1.8019679 0.16288148 -0.39068875 0.8784128 4.846852 -0.47576612 10.90091 0.7712106 6.532031 0.3649517 7.1615925 -0.18832524 1.817368 -9.372832 3.4803753 -7.91342 1.6977092 5.1853256 -2.4765255 -5.19505
49 -1.5032059 -8.313347 5.054256 -6.373995 -2.647198 1.1462736 4.157076 6.1122823 8.075359 -2.6846116 1.9367915 -1.7473147 -2.073648 -5.5396724 1.5800937 -0.3366331 1.5436013 -4.2821937 3.6592622 0.8041626 -2.0680397 -4.2664275 3.7251236 1.7820246 2.442791 -4.475255 3.0049138 -0.6792636 6.3156824 1.9936941 -5.297351 -5.6654897
308 -2.9512355 -7.096247 6.2890153 0.12066801 -5.5297713 -0.36034825 5.068754 0.8835367 2.8915699 -1.662839 1.6207817 2.921089 0.49105072 -9.565586 0.5638633 2.440315 1.4197252 0.058505088 7.1737323 -3.2486556 6.619836 3.7982035 1.5303285 3.1508338 4.6857414 -4.996423 0.8769032 -5.90123 10.116663 3.4267554 -4.357602 -0.7843885
762 -6.169322 -8.552884 -9.563976 -6.2704225 -7.615411 4.3720613 4.472351 -8.394751 -6.3933325 -10.646703 -5.5289917 -5.8290887 5.350046 1.7639749 7.5149364 9.5318575 -0.30459264 18.090368 -2.1453981 4.768728 6.3760896 -3.9932046 1.5165997 -2.8094516 -4.114757 11.537169 5.19412 3.1646347 -5.7384796 3.3473213 -0.97796124 -0.5430632
244 -0.80094826 -10.741768 4.910244 -5.6260552 -2.2991323 2.7293508 -0.46883875 2.281452 6.1440926 0.8923887 -4.438125 3.1932552 0.052348327 -1.9842895 0.6984594 3.022924 2.4442143 -2.980831 2.564336 2.4746344 -2.6197371 -3.887838 2.451895 -3.0462787 -1.1398908 -0.7143975 5.447338 -3.864694 10.038668 5.170977 -4.0088463 -4.3298793
91 -4.432869 -3.159843 9.679141 -7.1667457 -1.5627297 1.2363499 6.2129097 8.788092 2.9896555 -2.9319503 1.8412313 2.72581 -4.038645 -4.022616 1.0597517 -4.0337677 -5.1244383 -7.0158825 4.180094 2.768359 -0.6433154 -1.7071838 5.6509356 -4.1187153 5.691567 -2.451126 2.2480628 -5.61496 9.955756 -1.2402107 -3.249534 -2.2780325
50 1.6812524 -10.582862 2.19943 -3.9882774 -1.9311341 3.3649993 -2.4633482 5.192764 3.881365 -1.9305893 -2.8296428 2.064778 -3.1936662 -5.764826 0.5756085 3.205859 -0.69022775 -2.932721 0.47773284 3.459884 -5.318921 -1.7006611 2.0809112 -1.5874295 -2.4697258 -3.4237225 -0.42064807 -6.7069125 10.331772 5.021221 -3.301666 -4.148236
409 6.7358184 -1.4516652 -3.7103386 1.5557122 15.057385 -1.3955083 -3.0362782 -2.6763077 -0.005501831 5.181925 -10.491122 2.1672368 -8.049773 5.4076514 7.6325827 -0.78671753 -5.3019466 -5.158637 1.9234879 -5.441591 -2.3297894 9.479625 10.240654 -10.06913 -10.028598 -1.6358186 1.3703458 9.311716 3.7367804 -8.608961 7.216259 -1.2465225
515 7.692061 -4.027734 0.45213702 2.116845 -5.7230086 13.913009 -7.164907 -1.2131947 5.614677 -1.8539438 0.076046534 9.668594 -0.83629125 -4.6642184 -8.505418 -10.294654 0.6120402 -2.3870707 -14.31908 14.682039 3.3641615 -0.64838994 -3.209776 5.9767137 2.4485857 -1.7455922 1.8681437 -2.2474303 -3.0640283 -7.270102 -3.105056 3.4893093
1033 5.6935644 5.402162 -1.4541663 6.140502 -12.167315 3.4869897 -6.3893175 -0.6879202 2.0741403 9.988622 -3.631963 5.730644 6.0522475 -0.4381113 -10.919972 -11.48955 -2.593597 3.762521 0.24137527 -1.8916061 -2.823094 11.718952 4.346768 3.58501 -2.8924305 3.9938583 -11.454391 1.091471 -1.8124461 -4.7349477 0.17833029 0.45791748
57 1.1016684 -9.284477 3.3285475 -5.3665175 -4.103912 2.4029026 2.2384808 6.0561023 6.5808806 -3.0820072 -2.2713585 1.578525 -2.898718 -3.732398 -1.5963691 2.2564697 1.3171707 0.24537396 2.3832812 2.8304274 -3.5321136 -1.8974066 4.5934563 0.0149337705 0.54287404 -1.2818701 1.0743315 -2.6964219 6.98082 3.8488867 -4.6185646 -4.3480887
254 6.379468 6.504519 0.9693834 5.528728 0.04563705 4.0440717 -7.9378815 3.1377344 7.489426 4.209574 3.5459995 4.113335 2.379128 1.6970674 -16.8167 -10.636007 -0.8431258 -6.504112 -1.0988884 -3.3234172 -2.2619376 6.7282124 -2.609351 3.0769317 4.1454782 3.2353346 -5.7535224 9.247444 -0.49980697 -2.651591 -2.236739 5.492173
45 5.3774137 -0.54537374 3.2273731 1.8605139 5.8404307 -4.4117002 4.132301 2.0868998 1.3099427 -1.5730703 -6.8821287 -6.3913217 5.18999 10.65228 7.2789345 1.2371218 3.8867445 -6.85963 -11.751453 -1.7542667 4.8687725 5.7406683 2.2819989 -2.4078257 -6.179981 -3.6877785 3.2262137 4.1064367 10.116085 -5.0805073 -4.296924 0.048306957
340 -9.53684 8.004474 -0.01374752 1.373075 -12.797636 -1.8791748 -3.9589524 0.69774336 1.1333 9.415643 12.992751 -9.811341 -7.4798403 -4.0730486 1.6072114 5.744124 5.0252614 6.532576 -2.3862088 -0.31701335 4.5269713 -5.957176 -0.9262502 -6.8004403 5.28982 5.281462 0.6835555 7.251254 -1.7458286 -2.946529 4.500842 0.14436693
919 -1.5856442 6.5819464 -4.1181293 -2.1619623 -4.8051677 -0.340706 3.6273923 8.697979 8.324097 -1.8315532 -9.922991 -2.011542 0.32471666 -4.4934916 -0.1829091 -17.017962 -8.643723 -4.1006417 -3.0165107 -9.332304 -4.041817 -5.9113054 -1.275772 8.036725 -1.1289722 3.368297 -2.8237343 6.3468914 -12.2396345 -7.017839 3.9001706 -0.7556483
66 6.627044 14.059685 3.1278632 -6.1075997 0.03283259 1.0312034 -2.6496797 -2.2237508 11.501325 -2.3408828 1.8294334 3.7816103 1.4669679 0.3706717 -10.076147 2.2992485 0.84240365 -4.6736207 -8.090275 -1.4574442 -2.1196737 6.320068 3.0158846 1.9687735 1.2974193 -1.5861654 8.822399 3.509744 1.7226233 1.3715423 -15.575478 1.9305203
48 1.3041736 -11.292732 3.4028714 -5.1362624 -2.4789796 4.1621003 1.7955557 4.9437966 4.6709743 -1.9698702 -2.7256696 2.3424997 -2.3546124 -2.094093 0.21325257 2.1920147 1.7166336 -0.8420814 0.761141 1.4631573 -1.896039 -1.7290336 4.084664 -0.48561522 -0.4866002 -1.6169426 1.45837 -4.341838 7.9064827 5.2468596 -3.9828026 -5.143172
51 -1.2230252 -8.261006 1.4438819 -5.7369275 -4.3625274 2.2716687 1.8829381 8.781295 4.2744102 1.1775825 -1.437034 -0.1658496 -2.180031 -2.593276 -1.6704171 2.2088132 0.47260785 -0.16059576 1.4162608 1.918195 -1.4113027 1.9776833 5.9632277 -0.91336715 -2.8487074 -3.2962787 3.4761434 -1.4859737 8.965195 2.4270563 -3.4091177 -4.5940175
68 3.6701207 -11.495527 10.132674 -8.269517 1.5261106 1.704448 2.056576 10.143125 6.1967053 -4.386405 -8.887331 -4.1074862 1.5467112 3.0056577 1.2529286 -1.7039849 4.8149066 -5.3728776 -7.9874554 2.9187725 -2.203813 -0.77034247 -2.9396725 -1.3067968 1.9668283 -5.6753144 -6.4436 -4.1290946 8.425273 7.467903 -4.647717 -4.2809305
160 -10.0089035 4.0994854 0.49632445 13.810417 4.6858335 -4.2197075 1.4435937 4.4666452 3.6608253 -0.17937775 -4.6776423 -1.4313315 4.9693174 -1.1454653 0.59539104 9.167068 1.0994693 -5.5225716 4.6010137 9.7239485 5.2593775 -0.75115794 8.783967 0.2233357 4.377892 8.345645 -3.4235468 7.16056 3.5371704 11.0345955 6.411559 -1.221189
253 1.2430824 3.779516 -1.0641284 12.118556 -1.2433196 3.127527 0.5809906 -1.822878 4.753516 10.07275 -0.14070317 9.532646 1.320553 -0.5348718 -9.50671 -3.6976252 -2.3348534 -7.95905 -1.3044502 2.6544354 7.518732 8.6403885 5.43538 3.730579 -1.2433153 0.0846974 -5.3261867 8.646857 1.4058073 -4.901769 3.6059313 12.768888
417 -4.3249626 -3.1615636 1.3098619 4.069662 1.6034073 8.176717 -10.115146 0.08460715 -11.410026 7.508311 -1.0502394 1.4540752 1.7609923 5.1858983 2.3255181 6.875629 -8.993725 6.680441 -0.41236874 -1.0672107 2.375423 8.068837 7.4309387 -3.3295648 0.07709105 6.6816397 10.359327 -2.8875315 -4.180498 -1.5458381 0.05995579 7.134585
1732 8.751219 6.619583 -6.152034 1.1439371 -7.067676 0.30320695 -1.4561008 -8.015259 -4.394382 -4.5227494 -4.2583404 6.749301 -4.956412 -2.6278915 3.1813376 9.450457 -6.662695 -8.48801 -1.6857322 3.1829653 -0.5561414 9.152497 2.073654 -9.557864 -8.531139 -4.700064 -2.3582447 5.0666337 -2.0326955 -1.0179545 -5.0984616 -9.952972
79 1.141987 -8.911946 3.860621 -9.098509 0.015687352 0.14646678 1.4100051 8.2989435 4.4473176 0.6020602 -5.931248 -1.6200984 -1.9864908 -0.25658283 -3.333702 -2.1811323 5.738077 -3.0368524 -3.5536647 4.5810056 -0.31852123 -1.341146 0.74351287 -3.8963668 -2.4018183 -5.5138874 -1.8629545 -2.5040784 8.691673 2.9679146 -8.193339 -5.7375593
1123 -6.442702 1.0876756 0.7722661 -2.397963 -3.2741065 4.8922806 -1.1595016 -5.3517237 2.5119035 -3.803635 8.576764 -2.175589 1.4274104 -2.888999 5.1604104 -2.452316 -5.1763797 2.2617977 -1.4309466 2.0498283 -6.4220376 -3.5253909 -3.2774813 -1.1950098 -0.997019 8.798159 -1.6203201 -0.3112626 4.7944703 0.42174676 0.55263835 0.5475599
119 -12.206512 12.742604 0.16725397 3.8785794 5.977965 -9.616194 5.5843225 -2.57819 3.7552776 5.1376395 -0.5719989 7.31099 -3.4838245 6.9519672 0.18193936 5.148003 -10.660558 1.616515 7.4923697 0.6591616 10.462843 -4.457436 -0.7644248 0.33063844 -18.228035 1.756308 10.36647 -1.5190248 7.523046 4.0088615 7.8978653 -0.7730352
317 5.280024 3.1055968 -0.010569119 -11.322978 -8.547568 -1.3307914 -1.3101586 -2.604654 -8.677483 -9.555068 3.506311 10.808831 -7.184395 9.685844 2.497911 0.3044055 -8.208067 4.5801115 4.3457813 -5.9119616 0.33880982 -9.100152 2.5746455 0.9753412 2.8088212 3.5129921 -0.5252743 5.3297267 -2.0172412 -11.89377 3.2358184 -6.884325
94 -1.3234314 -7.5222907 3.1099122 -2.0650146 -2.3383315 -0.8880947 2.5499942 7.1970286 5.2221413 -2.0201192 -2.4163737 0.1753686 -1.4259329 -6.1608157 1.3051697 -2.2166798 3.7669654 0.08701145 4.618004 0.17847273 -3.1256583 1.647528 3.4895284 -0.6909714 2.6007464 -2.0454001 -1.1497936 -5.9018345 9.751129 1.3177226 -6.719175 -0.91065586
687 -4.168974 -0.5428584 2.7113357 -0.2985058 -0.680967 1.7729647 -0.13989276 -3.0615532 1.5225378 -4.4021897 10.843739 -2.8277702 4.031803 -4.0369816 5.48853 -1.4066039 -7.092318 4.7468667 -2.3037918 1.6877731 -5.88075 -2.6765647 -2.4168887 -0.5274668 1.9206673 9.502817 -1.8210938 -0.61472213 2.5296943 0.18897203 1.2772237 2.9003904
262 -2.040703 -8.2453985 1.5670872 -3.673575 -3.730419 0.8912811 3.99025 8.300394 5.3658285 2.392447 -2.2545679 1.3462158 -2.6998448 -3.2867687 -0.31378633 2.140129 2.049224 -0.3010194 2.1372137 3.2254114 -1.5672792 0.9553249 6.6083636 -2.3769474 -2.1752262 -1.5583309 3.0917363 -0.7186422 7.1748238 1.5204974 -4.487018 -2.1099122
169 -6.30369 -5.935524 -5.915723 -7.0685554 -1.8608124 5.4548335 -0.260999 1.483948 -0.9798229 -3.7959783 -2.3171268 -3.7883325 -2.4085166 6.9068933 -2.4915411 -7.5885367 -1.1768469 2.9097009 -2.5654354 -0.90912604 -0.7148492 2.766042 16.504002 10.102114 4.819186 3.765508 -15.3099 -3.547611 -3.5824118 -9.399203 7.2535143 6.5354295
1424 4.4585595 3.6319413 5.1760073 8.264376 0.9546231 -0.7648352 -8.9534445 -7.5736923 4.163988 -6.281951 -11.809094 -4.8635144 -14.553099 1.3064175 -6.3790154 -3.664744 2.0757587 -6.769809 9.143155 -10.48101 -8.385629 0.22183219 -1.9278255 8.1153 6.406692 2.1214967 -8.58657 6.350592 -3.8702993 -5.430845 11.917463 -9.628413
2105 -8.686171 4.131668 2.8162982 -4.997126 -4.768265 -1.8650165 -5.689197 -1.1291329 -3.062984 -0.8446613 -11.58221 -4.21675 1.7340518 -5.9642386 4.585412 6.748107 6.983621 -1.07304 0.693307 1.3479724 7.6051087 -4.7707443 7.577335 0.87045985 -6.4356036 3.6560402 0.26206785 -11.940065 -7.015223 5.4535427 15.622788 5.4862504
154 -6.9282274 -3.534889 1.088052 -4.5674458 -4.620722 -0.77080095 1.8061128 1.5712997 -2.8314073 -0.96305126 3.0852776 -0.4668937 -3.0704386 -7.232992 2.1758695 -4.3263497 2.6071894 -3.03302 3.2154996 -1.4097979 -0.514258 1.7250607 1.6681108 2.7851498 6.166006 -4.349218 -1.2871733 -3.3771694 11.216063 -0.46236092 -6.5472674 -0.55679667
75 -2.8157003 -7.5939784 5.2653356 -4.241207 -2.7005372 0.75463086 0.47808284 7.764341 5.150991 -2.1802151 1.2619183 2.6472328 -2.5262287 -7.621227 4.5145717 -0.257486 1.0396094 -4.9468255 4.596071 3.404932 -0.7250397 -2.7847803 2.6477146 0.12372884 1.2415924 -2.049488 1.3844954 2.0446017 5.7319946 1.5064404 -5.073019 -7.5864277
1244 2.2460856 1.4326329 -7.2452593 -1.4711945 -1.2094198 -5.6622343 4.9332776 5.1598296 -5.085472 -6.6590414 0.835447 -3.8029578 -4.9041247 2.8085563 -7.1469936 -0.7109725 -4.593532 -4.8811936 -5.498304 3.3838954 2.4491756 1.4810475 -1.7013717 -4.9003267 0.9044633 -6.5107007 -1.8329254 -2.541466 -1.2993517 -0.89745265 -3.0604255 -7.418998
266 0.26391575 -2.1635191 3.1950328 -6.7270813 -6.166085 2.7207782 0.18665211 7.1855407 10.535606 0.44414046 -0.7335965 3.677292 0.058264937 -5.4548626 -1.4194137 -0.9488557 4.594944 -3.831211 0.35521263 -0.5192356 0.24282426 1.110016 7.6352215 0.8937089 -4.553024 0.022288468 -0.20489398 -1.6324438 7.049648 2.8574674 -9.7880335 -2.1624541
112 5.254427 -1.0918776 6.890478 -6.479737 1.8942087 2.9250023 -2.1166956 -3.4595997 0.9729781 -7.725773 -2.364348 -0.04333187 3.5880086 4.6355357 0.18174681 -5.9406266 3.0487285 -2.5571854 -16.958033 5.857056 0.5865043 7.8406405 -5.135614 3.5182433 0.55850923 -2.1782336 -0.45921713 -4.8825183 -4.2422104 -3.2828994 1.4242014 2.5411377
698 -12.739486 8.952313 -9.910726 4.613999 7.964121 -6.6547103 3.028773 -2.2777343 7.901492 7.463108 -2.2516408 0.5724576 11.029383 3.4573176 6.257351 10.270689 -5.009676 -1.1807344 0.42205173 -8.229153 0.91990256 -5.2573 7.4057083 6.2806015 2.1600738 0.11695937 -1.3775169 -3.0465362 5.2212334 10.841957 7.643788 -3.1419802
1201 -3.35545 -1.4013882 -1.6739883 6.6935234 -4.7722464 14.587036 6.381016 -2.8579242 -1.6301259 2.4948978 3.7536051 12.0491705 -4.493063 0.440011 -9.062736 -3.8729274 -5.214993 -1.2376298 -7.561876 5.8661933 5.157994 -1.6767712 -2.1184628 6.4818263 -4.492885 4.8807817 -5.8611608 -2.32014 1.3305179 -3.776532 4.6774173 3.5725403
422 2.593371 -10.597486 7.7303176 -8.586046 -0.5060724 -0.8525335 2.0252295 11.48471 5.7644095 3.35902 -8.184618 -4.340911 3.498272 -0.50630444 0.11637741 -3.117005 7.064873 -3.8440864 -7.868026 3.2965925 -0.85095525 3.8743079 -2.4156806 -3.3447876 -4.041703 -7.7848787 -4.456457 -2.9375172 6.8274693 5.2154593 -6.1855454 -3.4895742
313 4.2587404 -0.36911422 1.522765 5.0354433 7.0572767 -0.104815684 5.846188 -1.2135218 -2.003124 2.5955043 3.1022508 -0.7353062 -2.4167316 0.8340034 5.0891075 3.161016 0.03421173 -4.487429 -2.1025884 -0.3942585 1.4504443 4.5453863 3.0328634 -8.916282 -8.4374695 2.2317867 2.6033733 7.510243 8.53459 0.45688015 5.37735 6.757235
738 -10.403208 5.566483 3.1113021 5.0144615 -5.4154935 -7.203008 -2.2401345 -0.9675112 -2.64802 5.4092674 -6.2876143 -4.4405713 4.9709363 -14.036968 -3.034147 8.8269615 4.260353 -4.7342567 5.2349195 5.667713 1.8337146 -11.631165 4.8821526 5.256942 7.218756 2.166053 3.0233178 0.25922194 3.2976403 15.937385 -1.2624329 -6.6155767
1050 1.6137826 3.124176 0.70943314 5.4482646 -0.48549193 4.957311 -5.7234282 4.3379483 7.785036 6.662004 3.599171 5.6004934 6.176251 1.9508917 -10.935937 -10.796501 -2.1736827 -5.0662575 0.8750787 -1.2512382 -1.2308106 6.032257 1.8188025 5.660812 1.7453045 4.122818 -3.076632 7.0508547 -2.8452659 -3.077784 1.2623645 6.7942348
1192 -3.68059 -0.28520232 -3.7096598 6.8163924 -5.731263 13.332257 5.2662997 -4.143681 -2.8207986 2.2795794 2.8634443 11.181993 -4.0211062 -0.23429671 -8.6159315 -3.367259 -5.5990524 -0.21395953 -7.3984995 5.690002 6.594676 -1.9139272 -3.2316787 5.3226595 -5.793587 5.066271 -5.3642054 -1.5186703 -0.42641807 -4.5198717 4.5495987 4.2069736
449 10.255453 6.5805945 9.862518 -5.410396 -2.1610055 5.7180805 -2.5607023 -6.024399 -2.8806314 -0.24765913 9.201185 2.692829 2.360648 11.384148 0.8556801 -2.6564162 2.9294488 -1.610102 9.9157 -0.9723535 -2.8390782 -6.7377014 7.121477 -5.6829667 3.2151785 -4.7094126 -5.1910853 -11.468828 6.8489637 -2.6602907 8.744522 -0.46408418
1602 -3.5682685 -5.8674064 -0.42165723 -6.1320796 1.1547664 9.483732 -11.458919 -4.245851 6.832061 0.6174849 -12.333557 -2.0314116 8.043669 3.2392402 -1.4109138 1.2019439 -9.395917 4.738141 0.60289395 -14.380835 -7.184931 10.825436 -2.1027424 4.0646515 0.31908056 4.5017524 -4.7957573 1.2458403 -10.613422 -6.4844913 0.92827725 -11.2368145
41 5.7578816 5.735498 7.106485 -0.69039875 -0.6233972 -2.4332108 2.5798023 -4.527507 4.0540676 -1.9046196 -6.0893407 -8.75968 6.6445093 6.7194266 4.239453 -1.0682379 3.714671 -7.3693485 -6.42313 1.0402207 1.5059668 2.5895038 -1.2978489 -5.7586813 -5.199595 -2.5943813 -0.45433542 2.5550528 -0.76253057 -0.19094957 -6.1033397 -6.292388
44 4.4555345 3.299195 8.211914 -0.4338159 1.624255 -2.979594 4.3353796 -3.6879232 6.323318 -1.8854939 -2.4338627 -9.713524 8.45465 7.2311363 2.3920758 -2.050761 3.7926228 -7.9894834 -6.086849 -0.7204269 1.6551912 0.071576074 -2.8602734 -0.731525 -1.9390923 -4.6202083 0.85656273 2.4104247 0.50823057 -1.3290645 -6.723887 -3.831352
1214 -3.770944 0.1245835 -3.5609176 6.5774717 -5.2276015 13.714392 5.099602 -4.509575 -2.3038473 2.108278 3.4998128 11.600674 -4.057603 -0.5131041 -8.303209 -3.742432 -5.7037697 -0.73901236 -7.5747027 5.473301 6.390075 -1.6714483 -3.0196033 5.7766666 -5.2654395 5.3640256 -5.416669 -1.1667124 -0.9506235 -4.075913 4.05586 3.9899282
0 -6.6687202 -4.728671 2.6269999 -2.1406472 -6.7242317 2.6494546 0.6690549 3.732896 -0.30326694 -2.3252048 1.5729797 0.99156004 -1.1012716 -7.858607 4.9078574 -2.856607 2.184257 -0.8717251 3.930921 0.7293892 1.1913251 5.011601 -0.7317472 1.7816756 3.410648 -2.6691015 -0.05185225 -1.3522496 11.229183 3.2254398 -5.1347265 -4.3912606
447 1.8663484 -2.6576412 -5.6149755 7.1364093 -4.7716823 10.639143 -7.8045897 -2.8284328 6.632019 4.1551194 4.7071652 10.832181 -0.53419024 -3.4501932 -5.945816 -6.8183813 -3.5450494 -2.7881718 -9.794451 5.9545226 4.638726 -7.651338 -1.2308006 7.271476 -0.44656196 3.4012184 -5.337059 -2.0826154 -3.3871922 -4.355419 0.8290268 3.6094828
1300 -5.0169373 -1.5518801 3.9532306 -2.168037 -0.42726293 4.163606 0.82084006 -1.8714311 2.771295 -4.1680675 10.903212 -3.1398199 4.969135 -5.320168 7.4782 0.6044785 -5.361177 2.110843 -1.3614488 2.4783747 -3.0576274 -3.9306133 -2.1349497 -1.1398414 -0.30451766 6.846291 -1.4582143 0.9831808 2.534009 -0.65152436 -1.1123505 1.3527433
70 6.972885 -13.623493 5.493226 -4.6276665 -2.548633 4.1985598 -1.8031449 7.6683426 5.4677844 -7.1890674 -3.7386236 3.6975503 -2.6928542 -1.3376015 1.2863238 -7.042118 4.170414 0.63788724 -0.20255075 7.968191 -1.874096 -1.1256403 0.65638465 1.1404358 3.1558244 -2.6410227 2.1529253 -1.5872389 4.805169 0.6957506 -4.2741747 2.9306982
130 -2.942977 -3.4357188 1.002803 2.3242767 -4.0399117 -2.3586516 0.33772177 -1.554312 -3.278266 -1.9920967 0.22653149 2.0156846 -2.8889558 -7.713631 0.98019487 -0.15517414 4.000844 1.9250237 3.293774 -0.41954142 1.3720449 5.436315 2.6403441 3.8323026 5.88477 -2.2102196 0.28530702 -4.824326 8.780769 0.8548686 -6.429476 -1.8533494
177 2.439673 1.7624873 7.0869174 -4.4261684 0.7839526 2.877929 -6.346849 1.6275933 -2.6628678 -0.7307099 -3.016872 -13.271423 -4.9043646 -0.21547844 -6.391494 -3.0464654 3.26034 -1.0837219 -8.101041 -1.3415195 4.3080754 0.17864332 -2.448236 -0.06652597 -1.1025409 -3.2030988 -4.2388678 1.5869994 4.5723395 0.7711014 -0.13909422 -5.4264855
25 -6.11979 -5.901949 13.286476 -2.8368025 1.7063701 8.540193 1.0195136 3.2537127 2.895331 -7.9992223 7.2239103 0.11228341 -1.1081812 -5.1579137 11.643295 5.4728827 -8.359297 -4.158971 2.2013898 1.6078368 6.800348 -1.1853294 0.75009286 -0.5458828 0.98779345 -0.08945563 3.3078754 0.16019608 7.6209245 -2.7465308 -5.7306724 -9.977373
82 3.3125637 -2.1220865 6.468209 3.8219492 3.5277066 -0.34470174 5.137857 9.759692 1.6588227 -1.5374898 2.3013818 -13.167064 4.4973197 -0.13476579 4.7232604 7.100692 -2.0675018 9.100217 1.5823818 -1.3215874 -6.4982557 1.3897548 8.976957 -3.5734193 -8.397305 3.70905 2.6201677 -4.2976747 -3.1756313 -10.035527 4.5176487 -10.90957
378 0.61074376 -0.8730802 1.1383463 5.8257937 7.5414205 0.45078516 6.5541964 -4.5539365 -2.9517279 0.29358727 6.2669926 2.4350889 -6.6015606 -0.12727663 5.8134785 4.374705 1.2185321 -1.3161983 6.008124 -5.7791867 -0.09995028 -0.28822145 -4.6306505 -6.079875 -6.080363 3.7457726 4.32753 8.687594 2.7220957 0.26636225 4.665849 2.4855971
385 -3.6870325 3.35558 6.279603 2.3684175 -3.5631247 0.6468419 3.7915795 -0.67568547 -1.2447678 -0.35487777 1.5864483 -1.1279016 -4.6554985 -4.3660865 -3.0758572 -0.4188418 -2.251432 -2.9130654 5.1858754 4.473362 -2.0405657 1.4112077 7.297667 3.6267297 4.365049 -7.488881 -3.55735 -12.353885 11.803866 -3.402302 -4.8284755 -0.8326894
1326 10.917159 -6.103898 -9.073579 6.0078206 -3.260734 -0.1855677 -4.4732485 -4.617935 4.2179184 6.023765 0.9057639 6.941815 -0.8709628 -0.9778451 3.0182157 -5.4413476 0.05486208 2.5158827 -3.5852177 -0.40526113 -2.1739593 -3.797986 9.325076 1.0211977 12.971452 -2.3376434 -1.2979712 0.4360099 -9.787663 -7.461352 -2.6963751 -2.023961
2136 -12.055941 7.1293063 -4.7364397 -5.612579 -5.926696 -8.838729 -5.383014 0.3139429 -2.4162183 4.8157644 2.5082564 -4.1467876 -1.8003211 -0.24359323 -5.4857707 9.368744 0.8986556 -3.9765592 4.3900466 6.20122 3.2611969 -5.4195495 4.7601905 -3.5934215 -3.1059496 1.7564976 2.5238137 -0.38906392 -2.536124 14.490832 7.49213 7.004765
149 -2.9968493 -9.610311 3.8067503 -5.4064527 -0.10581278 -2.0343902 0.4958928 7.21843 5.3366385 0.956403 -0.8605456 2.7705839 -4.214516 -2.7426286 1.6110412 -2.9088788 -1.2231492 -4.008099 1.9611244 1.5999775 -0.9689359 -1.6597838 3.8833096 1.0367296 0.9782458 -2.931654 0.29929775 -2.3004332 5.566658 4.8002176 -4.0469894 0.19139442
216 -4.211799 -3.03292 -9.225558 3.8418 -5.09403 5.318511 -1.2719356 5.9073296 4.403264 -6.826316 -1.2683809 4.51737 -7.550824 -1.274191 1.3937342 -0.039118305 2.8820624 12.194982 -2.472795 -2.143428 2.8845372 3.745731 -7.0808377 8.981651 -5.993851 5.6350965 7.0879626 5.648833 -5.6566157 -4.3169994 2.4357631 -0.6115075
301 -1.4684706 -6.592806 0.0871591 -5.36947 -4.0877438 0.3282271 1.4901375 7.8357906 4.2257366 -0.1568379 0.5643695 -0.8310085 -2.361003 -6.107438 0.46899658 0.12721682 3.2157066 -1.078264 1.8429596 0.41835487 -1.1778843 0.512696 4.578002 -2.4025028 -0.9640942 -3.1020977 1.9854848 -3.530717 8.956873 2.211315 -4.5040755 -4.3643255
1248 1.8592894 -2.650348 -4.7296243 7.062362 -5.059668 10.030414 -6.719501 -3.5429661 5.85141 3.888041 4.6493216 10.893805 -0.8714443 -3.515556 -6.3094373 -6.717438 -3.056543 -2.9935708 -9.090226 6.776446 4.4107213 -7.201073 -0.6170452 6.687407 -1.2390286 4.350563 -4.7784066 -1.593259 -3.958202 -5.328092 0.8308615 3.6608698
1041 5.368516 3.6280522 -5.932127 -5.72256 -6.837741 -1.6809133 7.1462564 -8.375699 -8.965532 5.4243984 -1.372453 -1.1153898 -1.0996768 -1.2109563 -9.54578 -6.423339 -6.5141377 1.8422393 -7.37901 0.0054122997 -13.317091 -0.9899867 5.872082 3.7286806 -2.465577 0.88813454 4.983256 3.3779883 -1.1934491 -4.210903 1.2666192 3.1554136
1360 10.018871 -6.077892 -8.962482 5.9823356 -3.2775419 0.14964046 -3.8650103 -4.8500075 4.0936894 6.3153715 1.1812068 7.0515895 -1.1266738 -1.3325968 2.9649255 -5.617277 -0.04925295 2.3190672 -3.2208967 -1.0966848 -2.4487631 -3.844574 9.201559 0.8871019 13.232066 -1.7784458 -1.532633 -0.009561548 -9.9486685 -7.4118443 -2.7523496 -2.0402484
209 3.9819982 1.4715959 5.8060565 -5.4654694 -0.46719685 1.1120886 -1.3027412 -1.9816201 0.21678591 -3.59399 -5.8551326 -2.1282816 5.033328 1.5898052 -1.0821744 -3.1507735 3.7713404 -0.7863119 -16.653034 7.7005377 -0.10046253 4.1049886 -2.8834143 3.3448234 1.6715492 -2.8564453 -1.302952 -2.1691425 -2.5712137 -3.1229687 -0.58613664 2.7168112
904 -1.3429866 2.6468375 0.24124844 -8.327639 0.2931176 2.3496592 -5.3326516 3.0811718 2.1159143 -5.674187 5.908727 7.096116 -9.381265 6.243822 4.71892 -8.974885 -2.7799282 19.02305 4.515614 -8.437605 4.801743 3.2260106 -6.591802 6.074601 0.14997703 1.6801449 12.553258 2.7249782 -0.006998951 -1.1780914 6.8035545 2.654933
40 7.327316 3.2080617 6.0026774 0.07947186 1.4463005 -3.8888862 2.0301511 -2.8650455 2.451435 -2.6227212 -8.65048 -6.892506 5.420359 5.9098616 3.9571745 -0.19404018 2.9988866 -5.75982 -8.969112 0.31527418 0.26569998 5.1725755 0.18103944 -3.0799932 -5.452984 -2.0049822 -2.9452097 3.7607183 0.8320647 -0.8081516 -6.7073216 -6.709977
509 -3.7433836 -11.813084 -4.3876266 4.298516 -7.230539 2.0551205 7.6274915 7.9605246 2.7275937 2.821221 -5.9487405 -2.5040016 -5.5492125 -3.7275422 8.079277 5.997716 -2.8598146 -12.600424 0.07611085 -2.7459018 3.6391327 8.952325 11.938597 -5.3386574 -3.91893 -0.86984724 3.271524 10.409488 7.0343575 -2.155135 4.5463233 0.023150256
151 0.9105144 -9.120493 -10.040414 10.092557 -4.590308 -1.0126342 -4.8128996 3.1818688 -1.1978481 -5.253687 -8.420999 -3.5933046 -9.701059 10.015184 3.4372113 -0.14260234 -3.515741 -12.34575 4.14803 -8.520553 -0.7125329 2.012422 3.3362079 -1.3750176 -3.7950363 2.3117466 5.386484 2.3418193 8.987568 2.714485 7.281988 5.670002
1320 -0.48495173 -1.5621978 -4.4130144 0.19484556 0.85501266 -5.2210736 4.5251517 5.3905087 -0.67660934 -5.256389 1.6524556 -4.7693777 -1.5947541 3.2708619 -8.027644 -2.215894 -3.3493197 -3.5662282 -6.2907257 1.8601323 3.429264 1.3010231 -4.500198 -5.1697154 4.4591427 -2.4321458 0.76192313 -3.510633 -0.68665266 0.6667299 -2.3279235 -4.1828694
905 5.5862346 9.644028 -9.333882 5.826042 -13.367607 -0.65008354 -4.9012146 -6.9942827 -5.086971 -6.744518 1.7475067 -5.3657165 -1.0222756 7.4895115 3.5204408 -2.4389582 2.045702 1.0552222 -7.0014677 -2.2899199 0.5293788 7.4243865 -2.9103572 7.909863 0.70274895 -8.335631 7.80105 -3.4508903 2.0749154 -4.5679812 5.9953837 9.497933
1696 2.6855707 2.777601 1.1681448 1.2707982 -10.884903 15.02039 8.074108 4.9501424 2.9451733 4.9437394 -1.5556779 10.833996 -5.9071827 8.278674 -2.4779494 -7.1245265 -0.7135855 -0.24960083 4.260508 -7.805469 3.0208788 -1.8847926 -2.1987717 4.534792 -7.0966477 -0.44081917 -0.63670784 4.421799 -12.031899 -7.0120454 -1.7033057 9.761926
1336 -1.6055669 -8.862502 2.0657136 -8.142449 2.3099933 -2.3733902 -9.920712 4.467407 -7.4636383 -0.07826284 -4.3817244 13.95643 2.6033635 -5.69694 -6.268769 7.381615 -6.1884 -0.7482269 7.7617683 -0.43284452 -2.3954237 -0.405901 -0.62145555 -3.74408 2.1448917 4.3594947 1.8869066 5.734977 0.01261975 -13.147048 2.2321243 4.641747
1555 2.8434274 -6.4450264 0.96040624 -7.9836226 1.7097411 3.5164642 12.514013 4.0209618 -4.8853955 -4.5828075 -10.579754 1.6776586 -0.3405508 -7.0369987 -4.243453 -12.479336 -5.4697666 3.0695717 2.2598486 -14.946644 2.787501 8.8046665 3.4738417 0.09440943 0.7593678 4.390648 -1.9838904 2.3987465 -12.506355 -5.9530554 2.6901548 3.652462
431 6.1583056 0.7065315 2.8150477 -9.966105 -1.4641298 11.379834 -1.2828894 -0.20155612 -2.028624 -8.874686 -0.4085256 2.9177058 4.3493767 -2.2962615 -4.5150247 -3.3160055 6.984709 -3.4039817 -7.450816 7.554789 -0.35028353 9.999729 -0.69110364 -3.1163936 9.181 -2.4016426 8.912631 4.4881444 -4.9113393 -4.6791105 5.96263 -1.6437703
891 9.772857 6.684925 -1.1642554 -10.130747 -3.459815 3.317796 -1.9985653 -3.6304066 -4.2681026 -3.1098926 -0.17500417 -1.0687342 4.684732 0.4573296 -3.2617652 -6.167699 2.054347 7.54278 -14.909857 5.915548 -6.178313 3.5760038 -0.68135893 7.3082395 -0.17034137 -6.850089 7.8341637 -1.945863 -0.5688409 -4.7207828 0.29433227 5.255582
710 0.04798388 4.370618 0.17692001 2.0124195 0.6009131 4.6287494 -2.413353 0.79636806 1.2620726 1.9953324 -1.2325538 -5.5169 1.3513764 2.6719804 1.6494484 -6.415728 -1.917946 5.6302214 11.120212 6.7521515 -1.8312409 -2.776341 -2.6059878 -5.43888 -1.7076212 -5.1889224 0.35164633 2.92768 2.0040698 -0.7027137 3.0018182 2.138605
1240 -0.28173897 0.019447075 -5.3111258 -0.48059225 2.2544978 -2.5686736 3.0302935 3.8263369 -2.495614 -4.6558957 3.1990783 -6.16973 0.00787166 2.132402 -6.2715344 -1.5088603 -2.6682239 -3.8874574 -7.5733695 1.6301837 1.7991596 0.43420517 -4.608764 -3.3621032 3.3388994 -3.0106423 0.6255378 -1.3175852 0.24031873 2.158069 -0.08953795 -5.500053
1242 0.12565088 -0.23955506 -5.687637 -0.42434338 2.480042 -2.6959453 3.2639856 3.6349926 -2.1992686 -4.961667 3.5835319 -6.3559117 0.5062192 2.2898898 -6.467276 -1.9709154 -2.83887 -4.1418505 -7.7772818 1.2296661 1.975988 0.7062578 -3.934779 -2.728919 3.6303825 -3.319707 0.94573253 -1.313839 0.4834773 1.6694045 -0.3741516 -5.7991447
469 -0.19893119 -3.5217419 -6.448654 7.0093637 1.9836524 -5.522378 0.39526802 9.1236315 -4.8608932 -0.9537459 -3.3356116 -0.16778968 -0.21286274 7.8908596 0.15673427 6.1924505 1.8807364 -12.016766 5.4900417 -5.0194173 -7.8834515 3.8145401 5.5602207 2.6727526 -4.8227654 -2.5199769 6.983738 6.6273737 10.179044 -14.102617 1.330481 5.4849343
100 -3.9262762 -2.5213902 3.9574144 -0.49474683 -4.9188385 -0.5468765 3.4653552 -3.8593102 -3.3109822 -1.6798764 1.3399495 2.0655982 -2.1191688 -6.438967 -0.8404055 0.52667135 4.9475803 2.013168 4.3854465 0.46650186 1.3912877 5.9289227 1.5484679 2.1624136 6.011291 -1.9623585 1.4177673 -5.499721 7.122157 2.0165603 -4.766654 -1.9068586
383 -3.8123229 -1.721719 1.8445134 1.1839278 -4.6966696 0.37808785 1.3980453 -2.3462892 -2.5589354 -1.777043 1.2799778 0.8767001 -2.614089 -6.754939 1.1916746 0.9833245 4.5436373 1.1432053 3.3896277 0.6665902 1.1331625 3.6587577 1.4830855 3.2698872 5.616186 -3.4960458 0.5461194 -4.8118496 8.278981 1.2919748 -5.791883 -1.8102957
33 11.118927 3.5532012 -4.985354 1.421765 -2.7067037 -4.508044 8.666481 -3.6897168 0.93774194 2.9523535 0.74000615 9.979803 2.8290532 -5.87847 9.455681 -3.4989681 -1.9247985 5.9873385 -3.9321318 -1.0265983 14.853489 -7.540306 -0.96150464 4.8743978 -9.484569 -10.746397 3.2942576 3.1538117 1.1095748 11.919012 6.089064 -4.5834684
688 -2.918965 -2.3799672 2.315244 -0.57544434 -1.9925109 -10.32971 -10.598422 -1.7163696 -7.3636694 4.2165656 -0.8252504 9.380996 -12.510664 4.985875 6.045447 1.6851382 0.45810106 6.7463284 -0.56112427 9.622872 2.2224894 -4.5800047 -3.6929724 10.655033 -3.013373 -3.817101 5.7933674 7.0991964 -4.1398926 9.21348 -4.715034 -1.7685072
333 -0.35900018 -0.29934308 -5.7039857 -0.7514824 2.6183019 -2.1303666 2.9570885 3.771497 -2.9700854 -4.8527746 2.789841 -6.206106 0.49425498 2.4517772 -6.448601 -1.7585845 -3.102633 -3.8474903 -7.287819 1.6114354 1.4480219 0.94860905 -4.1958227 -3.3471353 3.8523195 -3.0976799 1.2044098 -1.349834 0.77388537 1.9193996 -0.5599438 -5.2181764
448 0.11815823 -0.2985607 -5.447889 -0.81831616 2.1177127 -2.7068017 3.8165095 4.036551 -2.507837 -5.0963907 3.339577 -5.816677 0.73097676 2.192851 -6.7106256 -2.3054974 -2.9722328 -3.9819248 -7.7511644 1.5089699 1.5537245 0.49686992 -4.3266273 -2.617994 3.725558 -3.203445 0.81904364 -1.6778883 0.27095464 2.0150805 -0.024456404 -5.449306
116 -6.877372 0.38559452 -0.17787397 -1.7833406 -4.256299 3.4308414 -2.3619223 -8.894277 3.4725513 -2.8746185 6.6217194 -2.9469678 -0.12157797 -3.5005798 7.0721684 -4.697872 -1.799973 -2.0360575 -1.57927 2.0099323 -4.5956016 -4.9131613 -5.1564016 -1.1873192 -1.6268041 6.235611 -2.4167905 0.15219301 4.496227 0.69245964 1.2544684 -0.6872451
54 -3.1594868 -2.1217024 0.74064505 1.9043527 5.9732313 1.5614464 2.7960136 -1.6934928 -4.2895427 0.704709 2.4623303 -1.4515336 -3.065002 3.1004553 3.7218533 1.5966616 -2.1881757 -3.8782485 1.3067619 -1.5566899 1.5181454 0.92097443 -0.8188351 -3.5011668 -11.881378 3.2681491 0.46719322 4.853308 5.00702 -2.804983 7.5158157 0.20796049
1264 -3.4307916 10.287318 4.4351697 5.5593095 -6.9629087 4.9496493 -2.6769423 2.4736133 2.0306392 7.0438414 4.2595716 8.32004 -2.0461023 -3.9944248 -2.7185488 -4.4885874 -6.6128526 -8.92922 4.47954 -3.2012157 -2.5500438 7.5139513 -3.8513384 5.257586 1.2952163 -5.376336 -6.5254135 2.8071475 -4.014915 -6.744639 2.6440287 4.1563287
908 -2.9427183 4.4316936 -7.6489415 1.5813837 -6.74904 -2.9123914 -1.643731 13.146065 -12.255848 1.4661592 1.3688415 4.8001733 -1.1901956 -6.9178042 -0.7846682 -8.220399 -7.4682665 -0.72053885 2.2817686 -0.42957196 -1.5002798 -7.187835 0.11505573 1.8788157 -8.309269 4.7143383 2.4693296 -4.2538257 -14.558257 -1.291979 4.9893255 -3.6412375
768 0.7209188 5.947998 2.2300067 -0.17027602 4.877315 -17.507006 -6.841994 2.4336712 -4.7926188 5.9445443 -2.84502 -6.3951893 6.3425393 -1.9072535 4.3027987 -0.7824779 1.608335 -2.3578959 8.9297085 -6.815837 0.72926164 -0.61808735 12.752579 -1.343778 0.6653624 0.431511 1.9281788 -5.492052 -8.743833 12.935301 -5.058312 0.726885
31 -2.589256 -5.8161364 5.031116 -6.458913 -3.8747444 0.41378176 11.122112 -5.3535204 -2.3351948 -1.5835824 1.2629048 1.5783136 2.2652602 -1.0564468 -7.6238003 -4.4351826 -1.1319091 1.3111378 5.483799 -1.0323035 2.5013297 1.8246387 1.2183498 -0.30733934 -0.1735426 4.1456933 3.1060438 0.9792736 -3.2973192 -0.94253844 4.02222 -2.6818044
316 7.681988 -0.4179282 -4.101308 -1.8334702 -4.316047 2.1391091 4.731392 -2.56845 4.7112308 -7.1565423 7.8017125 12.299657 -0.3094874 0.205659 5.7137117 -0.27276078 -6.5157666 -3.7432828 -2.241333 0.99286395 -2.0300426 -2.4408498 14.407342 -4.0442343 14.845918 4.8193417 2.844699 0.21596459 -3.3002672 -2.4829528 4.121946 -12.844674
1441 11.836169 3.5293243 4.059643 10.14874 -13.550188 6.65644 -3.9373477 0.60454077 -6.257347 9.657657 -7.033148 11.690159 -1.348372 5.4190006 0.06531294 2.2446222 -5.2073293 5.8541427 0.019287538 -1.4691974 1.2649858 12.993712 6.107195 -1.8636262 -8.34773 0.8623471 -5.0009656 0.3824951 -2.4716544 -1.5341386 -0.03595635 -4.224206
368 -6.2904043 -7.2248707 4.4519753 -4.5146756 -5.327248 2.504841 13.990564 -8.40619 0.65727395 0.017142868 -4.762372 1.4610138 3.3083603 -7.571135 -12.378757 3.3557923 1.6097541 8.565978 11.026476 -1.9574606 4.3469296 -3.718085 -3.9224977 1.1044233 0.809542 -0.45280188 1.308654 -0.893821 6.859998 -12.822482 0.94933146 -5.2721887
288 1.8540236 -2.1316175 -1.1866277 -8.596384 -2.6439307 7.964231 3.8219717 2.431412 -1.9766481 -11.000412 -0.82341737 3.2361782 1.541962 -6.3601203 7.822732 3.6183999 -2.2616363 -13.473182 -0.3898677 5.6162086 -0.5618774 2.4860845 10.457998 -3.5679326 4.405304 -3.014149 -1.0940889 7.932058 1.7822336 0.3575554 3.227731 -12.454751
1414 0.41341823 -10.129265 6.354173 3.16342 -5.2883873 -4.068903 0.80321985 -7.8317733 -6.8192596 -0.23775223 -0.7906918 -2.7819486 -3.721213 3.6103613 -8.494679 -2.0422277 1.7201842 -5.481417 2.3434126 -3.9289136 -11.2996235 0.9042196 2.1559453 3.8569524 3.0131655 12.647254 2.3137093 2.0119257 -8.511003 1.4081134 0.6521699 -9.415234
473 3.0660243 3.5803418 3.089919 7.78712 3.5286157 6.4495425 -0.23091023 -3.7888296 5.0566306 7.140161 -16.345768 5.860103 -1.4854336 -1.9197334 -1.9445504 -12.474733 1.5007398 9.558067 -1.9015003 -1.9778193 5.373165 4.703205 2.451574 -2.4953978 2.4441779 5.7251205 -8.106413 -2.447192 -2.0393138 -4.97818 1.7323313 3.3253894
503 -2.757457 -0.46595037 -4.857038 5.59805 -7.843128 9.420773 3.2096224 5.091337 11.250963 3.0381043 -12.104636 10.950561 0.37231198 4.0944133 -2.1525826 -0.31111524 5.021459 9.001704 -3.0421085 -2.296655 -1.5430983 0.11818935 -4.6844897 3.37758 2.3619502 4.9076066 2.2165277 -0.19790268 -5.4233847 -13.022752 5.8461146 -3.2451339
1207 2.9272008 3.6418176 2.8107166 7.9960155 3.2142315 6.201385 0.33324277 -4.294715 3.8953304 6.6555877 -16.654451 5.3504815 -1.6855845 -2.0210085 -1.3399687 -12.76017 1.4158009 9.298439 -1.9412627 -1.9031656 4.91033 3.7272878 1.9582745 -2.2989008 1.956664 5.986188 -8.061282 -2.809093 -2.0835443 -4.87496 2.1342967 3.6251085
1442 0.16764921 -0.7944859 -5.280299 1.0147465 2.5071416 -4.2266994 4.0615764 3.1365519 -2.4764612 -4.1636705 2.9767911 -5.082703 0.57186973 2.5217314 -7.3061485 -1.8061867 -2.5408957 -3.8924956 -7.97463 1.9322302 2.509164 0.22049904 -5.1914196 -3.874726 3.5784833 -2.078032 0.7009036 -2.0183 -0.18811923 1.9050549 -1.0142868 -4.2046146
1564 -2.8378239 -0.42651117 -4.728173 5.3197575 -7.1392508 10.047302 2.9085877 5.245284 11.162768 2.4767373 -12.525257 10.643307 0.76901424 4.1630573 -2.0815866 -0.19532108 5.8214993 8.529175 -2.306279 -2.225983 -1.5172874 -0.21787322 -4.4683757 3.455011 2.417035 4.5945997 2.3659744 -0.35827687 -5.4157953 -13.001011 5.9180207 -3.4203393
238 -5.7984915 -0.34561524 -0.25526986 -3.282852 -7.104241 3.479271 -2.353085 -6.89189 3.8401484 -0.97378534 9.550083 -4.807626 -2.9804263 -4.7688146 5.4650617 -2.0363088 0.0148971705 0.8211846 -2.464172 2.9706228 -2.974221 -4.912364 -5.2434473 -3.4041944 -1.2487075 4.071623 -2.1482224 0.26043233 1.4845515 -1.6168 1.227782 -0.01981906
60 -2.949125 -5.874421 4.339702 -6.642075 -3.1133404 1.0977142 11.438852 -5.1377316 -2.2591946 -1.2897843 1.4603279 1.622087 2.1875288 -1.4968108 -7.631958 -4.4517903 -1.4766183 1.4416951 5.366503 -0.9178812 2.4323246 2.1225069 1.6281365 -0.33173028 -0.7904256 3.9355114 3.103671 0.45797265 -3.8000035 -1.0241454 3.2831025 -2.5603452
420 1.7579576 1.4800144 -4.5740304 7.1649766 0.79647005 0.9136731 -3.023933 0.109135605 2.5041902 2.607666 1.7846998 -2.4742699 -0.93521595 2.7526226 1.1244057 -6.6538887 -1.5252488 2.623779 9.524786 4.9491897 0.78634274 -5.8933597 3.0301645 -1.862762 5.4963794 -5.031141 5.2953877 2.3524005 -0.07295832 -4.0101776 1.7306831 -0.35171673
460 -0.66374326 -0.44745326 -0.51259434 4.9801254 7.601914 0.6084199 6.0241327 -3.844483 -2.5848172 1.096005 4.633081 0.68709683 -6.9173746 -1.5056245 6.3765073 5.088353 3.3621535 -1.2281325 3.4119718 -2.8729777 -2.8068707 0.464244 -3.98857 -4.4958434 -8.08149 2.1577468 2.7568836 8.401455 3.815229 0.059281345 4.4301434 3.337989
636 -3.766263 0.16822422 1.6723512 2.1503642 4.8779416 2.9685805 1.0913395 0.40685588 -0.27134806 -4.3607078 9.165936 -1.825287 2.0041018 -4.5703235 4.8930182 -2.6562283 -8.1503525 4.1190915 -3.1428847 0.5406037 -4.972084 -2.0137637 -1.7094771 -0.51697433 3.370159 8.828947 -6.400451 0.38576773 3.1476355 0.90203255 0.12842356 -1.9365644
296 -2.300596 -5.7307715 4.8592973 -6.5745063 -3.1002915 0.20352802 11.563526 -5.375227 -2.8533735 -0.7251178 1.058241 2.2049792 2.3749273 -1.2523146 -7.7233415 -4.7572956 -1.3380139 1.7413526 5.1215014 -0.898772 2.1276512 1.4325191 1.5956267 -0.24127941 -0.39063877 4.0323334 3.5748231 0.7243145 -3.74178 -1.2327602 3.6006663 -3.1329434
144 -4.5335565 -13.568189 2.9263618 2.8986 2.9425876 -0.8652788 -0.9799951 -5.6716523 -8.992403 8.912046 -0.22883448 -1.5724821 -3.701656 5.924124 2.0477622 1.5084196 -3.9342194 -16.519133 -1.4170864 -4.3108006 -3.9779828 2.2250974 4.433491 -0.20572472 -2.8673067 3.6866987 7.325208 10.132506 1.4472035 -6.2134433 10.352793 -3.9491339
311 1.958266 -2.397239 -6.657076 4.8714967 1.7735454 4.3441257 -8.230021 -4.1230316 -8.055029 7.051212 10.496745 1.758149 -5.0755424 2.1862063 6.014093 -0.88773966 2.0205343 -2.685225 -6.940957 -5.773971 -2.7290237 4.874124 10.167712 7.7580605 6.928376 -1.7167472 -3.8671534 -0.09657561 -13.377402 -9.989669 -4.998804 3.1486127
1502 0.65959203 -0.21009709 -4.8856554 1.0272672 2.0908208 -3.7837229 4.302274 2.7899013 -2.1157746 -4.2532415 3.046141 -4.5754275 0.27731377 2.7758794 -7.118935 -1.8776666 -3.163357 -3.17886 -8.091524 1.8773843 2.4681938 0.45560592 -5.2224174 -3.6352737 3.716658 -2.1411738 0.5027271 -1.6422803 0.042842127 1.973851 -1.3544213 -4.913674
495 -10.709412 -3.5531178 -3.0569177 -5.781245 -10.588726 6.6723475 -0.7693222 -1.3200177 1.7173997 -4.794899 3.775754 -6.676362 -4.72384 -9.665772 6.438457 -6.4423475 -1.1338855 -1.8868446 -1.0330062 2.5165784 -6.9218183 -3.580563 -3.7006476 -1.0104649 1.415781 0.45971516 -1.158323 -6.1745887 15.007674 0.23264621 -5.110614 -5.4127927
53 -5.4583545 3.4264245 0.4992716 3.2889664 6.864944 -1.9346217 4.2060695 -0.66475433 -1.3931768 3.4912884 2.8892324 0.5146002 -4.695897 2.739735 2.6364064 4.0724373 -0.56263715 -1.373013 3.379236 -3.9728365 2.4410858 0.48171625 -3.623586 -3.644481 -13.812543 2.5772576 1.2857376 3.329277 4.9208746 1.1777743 5.658147 0.41765934
430 -3.619382 -4.1077104 -11.175969 9.498939 4.0919304 -0.61079186 -2.9998481 11.159494 -0.4861393 0.7027446 3.2211287 -3.8818617 3.062814 5.685411 -6.493734 -3.3915799 -12.287854 -1.1614937 7.8526793 -4.8764243 -0.67860764 -13.146148 4.381293 11.664939 3.0697029 -1.5452272 4.1343284 3.2127445 -3.2969255 -12.650983 -2.7396228 1.625826
1160 11.646373 14.825455 0.45340237 -1.8419234 1.8894566 7.832109 -7.445482 11.211673 11.5831585 -1.7582397 -11.7266445 6.528307 0.956697 -6.6913905 -4.4692273 -4.789503 1.9897465 -0.34197637 -3.7999964 -8.64554 2.6205726 -4.4251614 4.5058584 -2.8234832 1.3328813 3.3743756 -7.2755656 5.011798 -1.3270322 -5.6847925 -10.540318 -1.1914253
178 3.3357794 0.8794261 6.6684775 -3.4238274 1.6663703 -0.035736237 -5.3103595 0.4583018 -1.0269848 0.41610092 -2.4516952 -11.162439 -4.715651 1.162001 -5.675775 -1.6326014 3.8057609 -0.23850559 -8.587058 -1.1605877 3.2210202 -0.30145305 -3.6783965 -1.1009523 -1.0087048 -2.7239537 -5.99862 1.8507056 3.3471148 -1.2642262 -0.20592311 -3.6559992
881 -4.569176 3.4472682 -5.821728 1.4491986 -17.089972 0.09473213 3.099413 -4.825882 0.29106283 5.8603415 -6.7503877 0.2098781 4.1304393 2.122576 -0.87839395 -0.27525064 -13.493173 -11.120549 5.4306693 2.1868713 -6.584836 9.652352 8.153187 -1.8557717 0.28866085 -3.1499937 -7.2221947 8.177805 -8.909837 -6.746849 -8.904732 1.1821891
1537 6.482595 -5.462018 -3.73122 5.923017 -5.45915 -7.045023 0.37906194 -7.223837 3.6385918 2.802243 2.1108024 7.3043394 -6.4318485 -4.7908936 2.791066 -0.73852444 -5.3354745 -7.434948 -6.8865614 3.1555803 -4.7187223 1.5998954 9.722949 -5.441198 1.3159916 8.255531 2.4823725 0.21023743 -13.322672 1.6931775 -0.20034474 -10.287485
74 -0.3933114 -7.3379836 3.335438 -5.0883846 -4.913126 0.8131387 3.3921258 7.040085 4.08378 -1.2065009 -1.2157193 0.04236409 -1.9377856 -3.6324022 1.4068617 -2.1084323 2.6583078 -0.38770092 2.6763537 2.0971072 -1.2966884 -0.50988215 4.8741245 -2.376277 0.55188024 -0.6935963 0.53283083 -1.5496438 6.727951 1.8458469 -1.8534093 -2.9232407
234 5.381683 -3.5690756 10.0764265 -2.505496 1.0552036 -0.29569677 -2.5400276 2.2650397 -0.9325711 0.22990951 -4.9824896 -10.699392 -2.2394605 -4.217001 -5.5462494 -1.4134272 2.752035 -3.2778971 -7.8870645 -1.7589447 1.2106576 2.5468752 -5.3625174 -1.0046109 -5.05613 -3.5119722 -8.227929 0.28713608 1.7545853 -0.57491815 -0.5249692 -1.1651009
1274 2.3370583 1.4618562 -3.8760655 2.7382004 3.643501 -1.9907095 3.5245874 -5.35783 9.099694 1.2681016 -7.8970146 8.383893 -2.0843458 -4.4051094 6.9442844 -7.244238 -1.379711 -1.5563444 -0.025489239 -2.9432812 -8.8805685 -3.100774 7.276135 -1.8292264 7.414938 3.2215858 1.9724377 -6.269117 -11.527673 -9.514344 1.6580906 -7.2507215
267 -3.5452797 -3.9991276 -1.02032 3.1175344 7.054918 2.4039145 3.9078333 -1.8958577 -5.4117646 4.6386485 2.8900795 -2.4587986 -2.2386978 3.7941206 6.058172 0.37308547 1.1003174 0.6952806 2.541193 -2.2751257 1.9719126 5.2039914 -0.6210092 -4.467292 -9.542989 -0.19712664 1.4595717 0.1174698 1.1334693 1.4279445 6.1054463 3.9821184
363 2.0022104 1.5374224 -4.04985 3.5414202 3.095486 -2.2229326 3.4893703 -5.4489374 8.71568 1.5828105 -7.4363804 8.168384 -1.5880574 -4.4731326 6.881619 -7.3553867 -1.9744107 -1.4127411 0.31723392 -3.1017494 -9.126614 -3.8130639 6.290954 -0.85099244 7.716924 2.9116347 1.8481053 -6.049913 -12.147203 -9.344953 1.8081036 -7.9699244
27 2.1128287 2.774845 5.0440598 -4.6528506 0.96115947 -2.3503888 1.2623281 -2.7603087 -0.7365437 2.4280257 -5.0634995 -4.4586926 6.789438 -0.21949786 3.0147805 0.30528623 2.3210938 -2.6911778 -9.733085 4.634306 2.3447857 7.985684 -0.76975095 -4.8288407 -2.2859204 -4.6278453 -10.250098 4.1974854 -0.6321881 2.0503347 -6.871134 -6.105932
7 5.0560684 7.782623 0.33438525 0.31634504 -8.064207 -7.966342 -3.9057178 -2.7006679 0.24433827 -11.6082115 -9.143115 4.7745523 -2.5072432 -2.3934774 10.751764 -0.33426484 3.6338472 3.304651 3.9497504 4.066506 0.8494598 3.4050853 -3.3463328 -8.4034195 -4.7835717 6.464862 -1.4311497 7.52276 -1.4516835 -2.4846468 -2.5185006 -2.9559958
392 -4.0340037 -1.0002413 3.1543581 0.7960606 -5.176523 -1.004499 2.1984904 -1.0846618 -0.77544767 -2.4076614 0.66813534 -0.042000283 -2.888098 -6.318925 1.4061561 0.68141425 4.107174 1.3441768 2.4730163 2.294906 1.9070816 1.8704768 2.9090638 2.5343375 5.671842 -2.5534234 -0.4913052 -5.246138 8.946223 -0.1583725 -5.152973 -1.5011675
24 -6.4185157 -4.1101737 9.890341 -8.541249 5.8818464 8.776949 -1.6374574 5.0698752 4.662612 -5.7300477 9.488604 0.05709245 2.2181537 -8.183841 9.048695 2.4990792 -8.60043 -3.133274 -0.16838458 4.9862614 2.3306012 -1.2204722 2.231028 -0.21729288 1.3966122 0.76479197 -3.69661 5.4982853 3.9709394 0.64036685 -4.066829 -6.724939
401 -3.323651 -1.2425414 4.4563484 0.9955431 -6.08929 -2.2320173 0.9370773 -1.0772502 -1.7862216 -2.4204133 -0.8702065 -0.35366517 -4.0013447 -6.4551044 1.686044 -0.30396387 3.481323 2.781219 4.196985 1.8450067 -0.65600777 4.2504897 1.861193 3.292416 4.845738 -2.1221015 0.0701128 -3.8119502 6.5749702 1.160338 -7.6767573 -2.9046838
343 -5.688379 -0.7381826 -2.5295231 -1.2381296 2.854633 2.5677133 7.8917994 9.65385 -2.0714147 -0.72167027 -3.7609544 8.593338 0.39294523 -1.6446959 4.24132 3.0233715 2.169311 5.7194695 2.2416432 6.2985573 -2.3960512 1.2228749 6.260424 -1.2003809 -1.0585619 5.064455 5.7128754 4.2851043 -2.1210024 1.3076596 -9.113612 4.7432504
195 -2.6781409 -0.9008047 -6.0573707 -1.1571225 -9.679152 -3.584477 -3.2922893 -0.9904971 -0.16634144 4.820771 -1.0890962 -5.2097034 1.3783102 2.8094912 -1.5998095 2.6563942 -1.5151631 3.1047454 -4.68914 0.29718006 11.716627 -7.763139 8.893617 -6.1238346 1.5864308 10.066109 4.55016 5.2404585 -0.8055169 14.225305 5.2196 5.1259403
56 -1.8538417 -4.1987076 0.19877128 0.82616425 5.589256 0.8466476 1.0655769 -2.020723 -4.8097715 0.84615016 3.8843591 -2.6478567 -2.9987156 2.2454627 3.9037523 1.9351735 -0.9648891 -4.0204277 1.7066367 -2.5136456 1.3970189 1.6405485 -0.1519207 -4.5298386 -9.63601 2.2854557 0.7209988 4.9183145 3.976783 -2.3434515 7.043337 -0.088074416
302 4.2269936 -1.530095 3.6458375 5.2014356 -1.8451868 -2.5448854 1.1922034 2.3557422 -2.593059 0.039792474 2.5878072 -3.5963428 -0.7559242 2.8986776 1.8240985 -6.327917 0.9166855 5.037469 8.731613 4.2693076 -3.2241683 0.059630252 -0.2704609 -5.778109 5.4125094 0.5770639 1.1832955 3.14537 -1.9941335 -0.2180753 0.34671357 2.1040137
155 -7.814649 0.2189189 4.7327237 -4.6630163 -6.8194165 7.640766 3.00068 3.8492165 -2.4166985 -3.1606953 -0.14365724 -1.9608454 -2.1502016 -3.3250988 4.472691 0.06246034 1.2016454 -2.0055041 0.98032075 1.2535731 1.4713527 -2.3061657 -4.358819 2.1193378 6.8881807 -8.693335 -1.9639972 -4.004969 10.401957 -3.2904446 -7.9404664 -2.1994417
634 -5.473206 0.79125714 6.607746 -1.3366739 3.6229458 4.4496393 3.3734763 -0.11425274 1.5351297 -3.091498 9.734702 2.5729337 2.3771243 -4.263116 3.445647 0.949931 -8.180343 1.9412963 0.30292544 -3.0228493 -0.20955332 -6.836812 -3.6320531 -1.3274604 1.047176 9.21006 -3.7038012 -0.13435766 1.8447866 0.918476 -2.082684 -4.5808916
136 5.4612417 3.486055 -2.664262 -1.2401247 -4.2707353 4.217184 4.875826 1.6905183 -3.2375011 1.1372064 8.496023 1.0237184 5.884325 7.4141583 -2.443807 0.2974363 9.565811 -4.4390693 4.851599 -4.3975496 -7.03627 -7.2952337 1.5279298 -6.968993 -3.0334747 2.0624824 -10.851696 -4.783791 3.7768655 -0.57136804 2.0352664 -2.1646996
477 -3.5160446 -2.1583192 1.3021816 0.740356 -3.6458964 -1.1030775 1.6614188 -2.787823 -2.8049815 -1.7573174 1.912836 1.0058278 -2.7257986 -6.7521567 1.2908036 0.5271709 4.953254 1.5289065 3.0743246 -0.1597393 1.6650909 3.8163528 1.9459735 2.83614 4.8762918 -2.9114609 0.7478628 -5.125482 8.880573 0.35527974 -5.8118367 -1.3980578
272 6.916562 -5.7071323 -5.175432 2.3889446 2.228846 8.189417 -2.9520636 -4.753007 -0.30293748 8.782216 5.036116 0.64189273 0.6264596 1.2528677 9.168764 -4.6483808 4.177008 -2.3783386 -5.6848497 -10.972698 -1.36833 -1.5898019 2.1440327 -5.521365 4.684786 -2.5333204 -0.13888608 -2.4273384 -8.229586 -11.614781 -12.899209 0.78324
1805 -8.541085 -4.5048027 -1.3033404 -3.0482836 4.6623917 0.101112425 -7.5726905 11.341199 1.1251489 5.4336696 1.7706969 -5.466164 5.6488776 12.758593 -2.4769623 -7.6867127 -9.753839 3.326047 1.1704901 1.7605547 1.0186863 -2.6121843 6.5182457 6.58653 7.738362 0.13137469 -5.1949296 3.5268314 -8.696352 -5.690007 -0.5459335 11.498496
1171 -3.4096224 5.1057057 5.9003916 1.8535008 -1.7164547 -10.91487 1.5253301 -0.9716976 -2.6136193 -1.9225296 2.0993516 7.3881307 -1.1111865 4.3250537 9.613108 0.8782566 9.890811 0.58491737 -0.73419094 -2.1771061 -1.4150982 -12.7261715 -4.7076244 10.705121 3.2794557 3.6942747 3.2787776 -6.219278 -7.4021444 5.237158 -2.5628765 6.686182
8 -4.9662075 -4.493942 -1.5099833 -1.7716211 0.58576363 0.622237 -8.843892 -8.584719 -6.48363 9.038932 -6.2716603 0.13172215 5.7282705 0.06408616 -3.6392488 -1.0982711 -8.737243 -9.031812 1.1755185 -5.4022636 0.16669507 -1.8625402 -4.3106556 -2.5314064 0.65224636 -0.024121454 3.0733912 6.0576434 -1.6023092 -7.492275 -1.5219893 10.385232
1103 -4.3722916 2.7783287 8.382385 -4.1455045 -2.901637 -0.78595835 4.42397 -4.5248537 -1.8873888 -4.256554 -5.568691 -4.766522 -0.549712 -4.556042 -1.762914 2.5355306 8.860895 -2.6564445 -10.3938875 3.8982599 -0.96266645 4.4531746 -0.62256277 6.3053236 5.0863614 -4.8912835 -4.57977 -7.86577 10.517373 0.13261205 -14.448437 -1.9289023
289 -6.1216803 3.8446956 -7.9291563 13.5387535 6.119463 -1.6777061 -20.502687 6.439038 -2.2691352 -2.6531694 0.46927035 6.7557397 2.0362182 4.086905 7.4823775 3.0172265 7.2847414 -2.0317748 2.5545523 9.472968 1.1687872 3.0127695 2.1293764 1.1208911 2.8308675 6.7568 -1.6188745 -1.3753979 4.1265154 8.501775 4.05232 -5.5646167
26 0.6866389 -3.4294314 1.3428286 1.5655916 5.981787 2.7743917 1.7678647 1.2071873 -4.0405707 3.9258046 5.04854 -0.78491414 -1.5158921 3.2628782 4.620933 2.1377842 0.6934361 0.15339679 2.2802153 -5.367651 2.2509408 3.9626677 1.3661243 -4.747317 -10.394422 2.999005 -0.34377837 4.397899 1.9800051 2.10981 7.7275457 3.443615
258 -2.8139794 -1.9263622 -15.934696 5.709004 -5.103977 4.770878 4.0761313 9.796648 4.364244 -6.3659577 -2.7514353 -2.4171429 -2.321028 -2.2976408 2.1217833 -1.0078821 -0.07981453 0.29074806 1.4226424 -2.913946 5.416932 4.894752 -0.024355521 3.0516367 -2.0326128 -0.84651387 0.06349676 10.757556 -6.740413 -0.7430674 6.789985 1.4059103
1154 -6.5566897 6.9121413 4.8026843 2.9386218 1.3989103 -2.3947406 -6.96586 -1.9211738 1.7573307 13.768685 -9.001718 3.9491365 1.3951517 -9.465228 -3.4615502 -7.378678 -6.779702 -3.927389 2.3357878 -7.424013 -1.1391898 6.9064994 -2.3061905 3.1910737 0.9164636 -0.15889978 -4.392221 7.6347766 -2.2181058 -10.607392 2.6894739 0.14213772
17 -4.0896053 -2.294703 5.327362 -3.2486107 -7.9100237 -17.499535 -0.24118719 -7.805014 13.061036 4.9799666 -0.31130674 -3.3787622 -6.3455596 5.005382 -1.6113724 -5.2343254 4.7736683 2.69197 -0.4696029 8.002772 0.5292742 3.4637618 1.5325338 2.1605852 -0.30542284 -6.084125 0.6813863 -5.045102 -1.1560477 -6.523141 8.576561 -0.16492264
303 0.7178954 -0.6731902 0.319241 5.1514754 1.1897242 0.86960554 -3.398818 0.06654799 -2.4826412 0.9011653 -2.0329676 -7.071932 6.8388658 -3.8930635 1.538552 -6.721506 -3.050742 3.5496404 5.5808983 5.810112 0.039471332 1.3294518 0.15152828 -6.7678776 1.0390556 0.80655736 2.9682517 1.3669267 1.7215106 -3.582147 7.1575317 -1.7593899
471 -2.6708293 -12.084507 10.497997 -12.031639 -5.9600334 1.9321795 13.272049 5.578563 2.1659348 -0.39498734 -1.6816757 1.3278638 2.2109265 -2.1929393 -6.707769 -5.395856 -0.791835 1.4148264 10.200211 3.4273467 4.107415 3.6228068 2.2284396 -6.3564296 -3.2372751 -0.51981825 1.5365553 -0.1542786 5.1070004 4.837188 2.6941593 -4.5018153
1156 3.9626355 5.129073 -4.794089 -4.17352 -1.7102288 3.367171 6.3815737 6.0469065 -4.71118 -8.06449 0.15342318 -3.1026027 1.7972676 -3.4455922 -4.6263638 -0.72953683 -6.7934933 -6.46206 -11.324134 -0.6846804 -1.1140418 2.470265 -6.13301 1.3141679 6.1353326 -6.6483145 5.3757544 8.064143 -2.5657542 0.61496925 4.3987727 -8.115612
1493 -2.508223 9.518956 2.4278495 -3.0700104 5.9544034 2.3949597 -2.1077816 -2.4335003 0.6625481 1.1650783 -20.72539 -0.0068580094 -5.444033 0.96737164 -7.000637 2.3122444 -6.6546583 -2.8165128 -6.8268914 -1.3579432 -7.479618 4.7999806 1.3949906 -1.1163962 16.120197 -3.792826 3.506227 0.37657622 -5.537329 -1.6071404 -12.44318 4.30132
16 2.5498872 -2.6188793 1.06501 3.1354983 -5.6899304 -14.880332 3.873227 -10.43279 12.023831 1.3473482 -2.178063 0.005779152 -6.404114 6.7924514 -4.002009 -1.4655912 14.433946 3.7000077 4.9001107 6.0202622 -2.1491764 5.9583464 2.382658 3.0467634 -9.204989 -2.8867683 4.964742 -4.456621 0.27924603 -2.3309722 4.3171954 -0.82749313
99 1.6939025 -9.665232 3.0296674 -3.1194427 -0.28712383 1.5357893 -0.973075 6.4219704 4.9266043 -1.3917831 -0.86405504 1.176389 -0.17853571 -2.388934 0.16953425 -0.8745494 0.8827254 -0.40382242 1.7715778 2.691223 -0.6401609 -0.50781494 1.7710421 -0.38231885 -0.9335983 -2.2675807 1.39143 -2.2908006 6.7633114 5.9075327 -4.26191 -1.168154
428 3.221369 1.2011894 1.2258059 4.4984603 0.62612593 -0.31871453 0.39128727 2.196009 -4.8712335 -1.0289093 3.2186065 -1.3782078 0.6861731 -3.6336102 2.47678 -4.1140866 2.0732787 2.177417 9.391781 6.2519526 -2.2553406 -2.6401665 -0.86930376 -4.158462 -0.3802545 -2.228153 1.5771425 -0.12969057 -4.2056394 -2.8463008 2.3663893 4.7910004
2247 6.739778 5.171534 -1.6307979 2.2502053 -3.401416 -5.6511083 -1.9791961 -2.7847567 6.4723372 5.4380083 5.9945703 5.058782 0.31700125 -6.2940154 4.344824 -3.6288106 -0.7856002 0.258918 0.35461104 -5.5282454 4.714745 -5.115178 -4.656998 1.9552673 -11.417737 -6.5785685 3.9246094 -1.8126336 1.9258773 4.07517 8.469153 -10.4030695
291 -4.374345 -2.6784286 0.24090543 3.472369 -1.5877184 -2.7354116 -2.8636067 -4.6080594 -0.7877966 -5.5111785 5.477594 -5.382124 2.1393452 -2.4463627 9.9426565 -4.278746 -6.776027 1.3851719 -3.9021842 3.5617628 -5.4681506 0.71465844 -4.3109174 1.1786816 3.754796 6.4526486 -3.1057935 2.5449002 0.7315642 2.6158571 -1.604517 2.2615843
1304 -1.3524158 -0.17561935 4.817586 -8.502904 3.3629038 -0.4814071 0.7373193 -1.955978 -0.49715996 -1.4814923 -1.3029999 -1.8998564 5.96375 6.8257365 -0.58376604 1.787306 2.457751 -3.8819714 -14.756522 -4.967751 1.5556763 5.6849084 -2.2233653 5.0615315 -3.5781264 -1.120226 -5.705286 -8.334079 -4.040936 2.896204 0.19695129 0.014004828
974 -4.3801436 -4.201212 -2.1439648 -1.3973987 0.004985131 0.19620122 -9.470251 -7.935254 -5.7032204 7.8935213 -6.6929774 0.39885652 5.432115 -0.5922138 -3.8752806 -1.187484 -8.7709675 -6.930473 1.0292565 -4.872744 0.5242758 -1.6625173 -4.9949365 -2.0545225 0.73715216 -0.24953334 2.1783936 5.0821285 -1.7372065 -7.3825855 -3.088225 11.528033
193 -1.4485813 -1.9500465 -9.96915 -1.3007518 -4.7235374 -1.6012037 9.296525 -4.944683 8.98194 -5.343951 -5.108369 4.3846273 -8.037671 5.8592787 -0.17633557 1.0492531 3.6937423 2.1098344 -4.4546666 -2.8099701 -2.259907 0.6842027 -6.5116487 1.1263599 4.181698 -0.82654375 -4.6850805 5.00719 3.057634 5.8054996 6.163378 5.4863296
1621 1.4481854 -4.9367833 -2.5648875 -0.91405386 7.1404023 0.5726045 -7.307948 2.30187 4.4547963 0.7031974 -10.646595 2.0630555 -4.106744 -0.57453007 -5.590457 -2.2600372 2.299233 -1.9685696 14.837867 -4.5605826 12.115987 -1.7692066 9.800568 0.83490604 2.1086938 -8.320789 0.6555136 -3.0022619 -5.3705387 -1.643711 2.169835 -5.662777
1153 -6.4035125 7.403019 5.001792 2.9023058 1.129149 -2.1529267 -7.008059 -2.0755875 1.6748176 13.476695 -8.649323 4.162493 1.7670509 -9.470117 -3.3535087 -7.001036 -7.5117636 -4.609998 2.7898664 -7.286761 -1.0414304 6.3799186 -2.200565 2.891053 1.3388798 -0.8408821 -4.395403 7.3446875 -1.4896538 -10.560102 2.277476 0.036262657
380 -2.095558 -7.504104 4.212023 -4.660311 -4.1183167 -0.9765286 1.466713 5.926448 5.571098 0.5356657 -1.030871 1.2878758 -0.37430125 -4.1437593 0.31393242 -1.026031 1.5942768 -0.91750044 4.8234277 3.2275052 -0.24665917 0.12334237 3.519853 -1.2367545 0.21104242 -2.009172 0.9361894 -1.7523788 4.5562787 3.514729 -2.4055367 -1.4994365
83 -2.4868972 -5.4360766 2.5783308 -6.213145 -5.3793864 1.4203514 1.3764664 9.133184 4.280343 0.5104037 0.30127528 -1.9900595 -2.616671 -5.947267 0.74682844 -3.7634501 1.6895939 -2.7002373 3.022561 -0.5279001 -0.6377579 -2.1584055 4.3285594 0.18750806 3.5251014 -3.416464 1.5622276 -0.36561957 5.073093 3.1883435 -2.218194 -2.2089062
332 8.66692 3.478657 4.089112 2.223916 2.4650757 0.8942564 0.08052666 -4.832781 -3.2692351 1.1004416 4.7045274 -3.2478404 -1.3943725 4.4245987 1.8155195 -6.2530565 -0.80853784 -1.1138681 7.5544496 3.655991 -3.9105198 -5.439107 5.3109426 -10.909787 0.5409382 -0.97931445 -0.52871513 -4.7449822 3.5541747 -3.2180295 7.6831527 3.1864834
181 -1.0637517 2.9447548 2.8403175 -4.0108957 3.61452 2.9415085 -0.5693696 1.2342087 0.4004543 0.06319017 -5.082976 -9.5139265 -1.0209197 0.76755726 -1.712472 -1.3565989 4.614396 -2.205431 -9.026708 1.7084296 0.26134697 0.30043834 -3.1379752 -0.97710335 -3.0134916 -3.539685 -3.364451 0.6508673 1.0027913 -0.28443617 1.2002479 -6.1020737
1263 -2.0880766 3.6552656 4.412592 6.86067 -2.030072 -3.3371396 -2.8048966 3.9486434 -1.6598946 3.7061431 3.1979082 5.89737 6.511395 -3.2435503 -4.063318 -5.9872084 -0.8337855 -8.032694 1.6720088 -3.2375886 -1.0952133 7.5840564 0.5718488 6.757814 2.3553593 1.2626947 -9.56249 0.11812906 0.48474497 -10.389096 2.5695107 4.417688
55 -0.40215692 -2.650075 -1.5735741 1.4394733 7.0045166 -0.112267815 1.658504 -1.5054897 -3.8888981 1.0651492 3.8196037 -0.5792215 -2.4525902 2.8227668 3.9210656 1.2455481 0.42630315 -1.1983813 2.845441 -2.7252421 1.2382419 3.013096 -0.0859525 -4.582681 -10.366659 2.004208 -1.3094095 4.4531546 2.9593537 -0.15508571 5.645183 2.4355721
12 -0.40384644 -1.6984662 -1.3309804 0.8834854 7.0338306 -0.18516135 1.7702761 -1.2295637 -3.0071886 0.64473736 4.037944 -0.65421313 -2.2960649 3.2901235 3.8432326 0.60328496 0.1914105 -1.151971 2.44012 -3.0960944 1.4453462 2.9303658 0.13079028 -4.3493056 -9.7773285 2.1491077 -1.0481259 4.1576095 3.1208394 -0.24196137 6.0801153 3.1197634
981 0.72292125 -10.006685 -1.2660887 1.0217569 3.5653996 -6.648792 -2.5491831 1.504783 0.54201335 5.800045 6.278909 3.3316376 -11.570479 0.6561402 -9.721357 1.3652996 1.1856796 -1.1976644 -3.3026686 -4.0710845 -8.214463 -2.2503002 7.7886887 2.3335216 -7.263413 7.8218865 -1.2213341 -12.887789 -5.8259597 2.3066897 8.629119 -9.075764
390 -10.635979 -7.732017 -9.000069 2.651205 2.8136551 -0.24152921 4.1493545 -6.2584414 4.455321 7.2441564 2.7685926 -6.217169 1.0602295 -0.094381884 4.829065 -8.240546 0.25899842 -1.7227173 -0.5794612 4.016739 0.0957304 5.047713 -4.1829486 0.6268055 -9.101497 -5.0897646 8.21547 -1.247016 -2.8297231 2.5905213 -1.1291845 2.620276
1539 1.1824081 3.2110295 2.7507305 -6.5992904 -2.776682 -1.4186816 -4.5075407 3.424194 0.40667078 2.7092185 -1.1720518 0.20618817 5.5886455 6.0977845 -4.094271 -6.456694 9.892511 -10.178461 -11.916247 -1.5824383 -0.33567947 0.5030166 -6.487887 -3.69841 -1.825995 3.1262262 -10.550108 2.9019802 0.8153535 -2.334986 0.48080143 2.357038
394 -2.3078249 1.8421061 10.2542 -0.07784017 1.3639389 5.738671 15.235454 -3.7656052 -3.0830934 4.4494934 -14.20107 7.487542 -1.2587758 1.5899801 -5.527373 -6.8172355 -1.3922671 8.685174 5.08307 -0.98099643 5.382146 1.2209028 3.793758 0.049559716 -0.9667404 6.4678435 -5.097423 2.6146908 -4.6984625 -6.9789195 7.6407676 -8.142818
461 -2.5310574 -6.7054996 2.4642396 -4.742703 -6.1889634 -1.6689191 2.398837 7.701519 5.26891 1.3481107 -0.6002617 0.414937 -0.038028385 -4.9424877 -0.041975863 -0.70658004 1.2284547 -0.036975548 4.838042 2.0572212 -0.59787744 -0.28401157 3.856976 -2.1268082 -0.3603739 -1.701388 0.84558666 -1.4353027 5.727893 2.4075773 -1.7009925 -2.5953
690 0.7698038 3.935771 -0.98505265 3.0195746 0.12793075 2.508565 -1.0990442 -0.057362057 0.24547529 2.4903195 0.72893983 -2.8255675 0.14041995 1.9665285 2.124277 -5.1368823 0.58091843 2.8542633 8.977218 6.052652 -2.1249592 -4.1332607 -0.33689582 -5.6580644 3.0312533 -3.739222 3.0688143 4.0351963 1.6354697 -1.9143872 2.4834437 0.40923637
80 1.4388016 -8.607221 1.0361987 -3.665543 -0.52067083 0.69270223 0.07221357 7.9867616 4.388693 2.128703 -1.2695388 2.7209778 -0.47412083 -2.0266585 0.40259263 -2.8783264 1.2692292 -0.7224291 2.122365 1.2109756 -0.56623584 -0.05780837 2.402175 -2.2295606 -1.338489 -3.1832995 0.04120397 -1.9548987 5.9323363 5.8430114 -4.8461785 -1.3394347
219 -0.4971813 -4.61462 -5.474395 9.813773 -1.5295614 10.034679 2.6434069 4.0359097 -1.2246051 4.048526 -6.806829 5.91642 -2.5395398 0.2785585 -3.7670038 3.1968825 4.461737 11.652633 -2.7938166 -1.9954008 -0.88357556 4.5113773 -2.7138853 13.150215 -0.65315086 3.0934567 -2.9659624 10.439036 -3.4198093 1.6122252 5.8004723 3.0726054
257 2.4954202 0.49252477 6.0617433 -3.3604338 6.3178763 -0.45064148 4.440778 -2.7870018 1.7448186 4.733363 -2.7850084 -7.8340254 8.828495 0.06880662 0.63345325 0.39803642 1.6829482 -0.7041775 -9.868839 1.4232711 4.588812 4.285282 -0.26758182 -4.7715344 1.1395249 -5.6597424 -8.181205 1.7584203 -2.0936623 -1.3666761 -3.8935251 -2.1429207
5 -3.6008477 -2.1998858 -0.21559614 3.8115335 -2.128741 -0.18921083 -1.5056716 -4.522587 -0.5358813 -5.562459 6.3841367 -6.0251217 1.2205335 -0.87656325 9.382571 -3.7915304 -6.2995315 1.7519041 -4.1936083 2.5347366 -5.8204203 1.0473301 -3.4971843 0.09208158 3.5604086 6.465466 -3.4586658 0.7000423 1.6962645 3.0140438 -0.84129834 2.5758781
1330 5.441396 -2.054836 5.996083 8.811745 -1.0310329 6.933325 1.018436 -7.674235 4.628422 3.325711 -4.533186 9.134484 1.7113556 6.099013 -4.313687 -3.6948915 -4.5885906 9.976218 -0.72687197 3.4210644 5.560122 -4.440771 1.246266 5.001535 2.536795 7.4237046 -2.1626625 3.954607 -0.6180467 -1.5820919 -1.6493895 4.0248475
893 0.20406291 -3.1680787 1.7410488 10.220084 0.8865826 2.213586 -6.214595 5.0941525 16.857605 1.2034184 2.0536761 -7.3954077 -7.233725 5.5290203 3.0112624 13.428523 2.8995528 -1.945872 -4.8632884 -7.7074213 -4.0788713 -10.074899 1.9437325 -4.3582067 2.48959 7.878958 -4.258783 -5.919676 -2.1201942 2.901595 -2.0760703 1.3300992
540 1.4756467 -8.084206 -3.442161 7.118732 -4.5437274 -8.382752 6.8253093 3.1692429 1.1033248 2.8244743 -3.046534 -2.306917 -1.7397685 -10.345364 0.829032 3.496083 -5.466597 -5.1681347 -7.2459335 -2.0201516 6.7325745 0.97830343 13.001784 -6.135276 -0.072693415 10.924835 4.1041155 7.5489144 -6.5955906 -0.54507697 1.0928658 3.207278
1296 -2.6571038 3.2652295 4.651938 6.995282 -2.357551 -3.0691953 -2.8274097 3.2263942 -1.8458263 3.6891177 3.1970947 5.888183 6.9339447 -3.1142714 -3.8174777 -5.785306 -1.2588725 -7.807029 1.3404269 -2.604671 -0.9026957 7.690367 -0.1861601 6.569221 1.6372033 1.6949662 -9.465435 -0.4483971 0.84646696 -10.305678 2.1995986 4.6976724
1124 -5.639853 -0.6262696 -0.2758612 -2.060278 -3.5024123 1.7271924 -0.64078957 -2.536938 0.3193647 -3.2515378 9.515936 -3.7182572 4.1235676 -5.0264425 3.8120823 -0.63290226 -2.8532968 2.0994601 -1.9080347 3.1132314 -3.3961618 -3.1737676 -4.453385 -1.3632044 -0.29176316 5.4606147 -2.311286 -0.31641632 3.0714438 0.08426268 -0.4891322 3.0406811
450 1.5935107 1.2386442 1.2608654 3.2798116 0.6347299 -0.23222509 -1.3148658 0.7810056 -2.5250413 1.0666085 1.0398121 -3.995845 -0.50892794 0.07227806 1.069718 -7.2756534 0.4198189 3.0295866 8.868605 5.675327 -2.6614697 -2.9919715 -1.7827783 -5.4296703 -1.5488315 -1.0160044 -0.09887574 0.7187354 -0.21551564 -0.076723225 1.2597674 2.0236976
212 -0.89705586 2.6666949 4.904211 -6.795114 2.4112391 -2.511453 2.5101018 -0.23760484 0.29625267 -0.22277468 -5.2878604 -3.2592747 5.2915454 3.269969 -0.1705336 4.029257 5.2889004 -4.0952373 -14.511969 0.17855005 0.35135475 1.59788 -1.534598 3.1917992 -2.4912565 -2.54905 -5.78403 -3.328109 -1.3481077 0.7392483 -0.92128986 3.4174387
744 -3.8269844 6.659288 -0.26256382 3.7073624 -4.0984006 -7.0602465 -2.62466 1.4208009 -7.440696 -1.8123195 -9.330459 -0.031305563 1.5212315 -10.978283 -0.8948385 9.527569 -2.1420062 1.0630533 1.4056313 0.58843213 -0.33289018 -16.005058 -3.6539752 0.48681286 3.2202013 3.2120578 -0.60972315 -10.328157 -3.0530565 12.31318 2.2004426 -1.2857097
954 -0.5420187 2.7230508 2.8239214 -5.164161 3.2629027 1.2034278 0.19029188 1.8846452 0.9038804 1.5802212 -4.578892 -8.181834 0.974441 2.9364672 -0.2386144 -0.54990304 5.2959194 -2.0319564 -9.347957 1.824836 0.26101542 0.2561437 -2.2707317 0.15440857 -2.2065332 -6.0532713 -3.0756767 1.3684459 1.4632784 -1.8500006 1.5633359 -5.900503
1392 7.17386 -1.2481441 -2.5032077 -6.9524593 -4.298145 3.8588645 0.7117883 5.5200853 2.1183507 3.3594637 3.8180952 4.463304 0.8493166 10.770005 1.200894 -4.3301663 -14.17891 2.354175 1.1926045 -10.772144 2.22166 -13.087603 -2.288442 -1.5171088 -1.3568034 -2.2599196 -0.695287 6.5359454 -10.585265 -7.9110994 3.9223983 4.7497993
468 -3.6672902 -4.7589097 0.08070901 -0.9387458 -4.658889 -1.0823454 -1.3061818 -4.8320346 1.8523848 -6.5902605 10.0827055 -4.463969 3.9654975 -1.9633512 6.888919 0.887276 -1.974238 0.556977 -1.8859906 5.636824 -4.2660174 -1.6572845 -3.8807483 -0.26678956 0.35792807 4.7961745 -1.3138837 0.4981991 0.19072367 0.54530144 0.22220883 4.888779
578 4.0620246 4.1246486 -4.069978 3.1728275 5.679805 -2.1121788 1.3818152 -2.5532258 4.6262465 6.530672 -1.3127975 1.8190258 -1.577633 0.8897361 0.13307934 0.4508571 -3.4691758 -4.988631 -7.6343822 0.092063084 4.779223 7.398755 10.854955 -5.0928617 -0.7495098 -1.7644784 5.593544 8.465618 12.172015 -3.089267 7.7490044 7.2336535
58 0.016393414 -2.3548586 -1.6482425 1.5548099 6.5217667 -0.3986514 1.287055 -1.8326491 -3.000004 0.6884062 3.5071645 -0.58303493 -2.54318 2.7226658 3.6484187 0.5243298 0.47483617 -1.2635568 2.1149337 -3.3040743 1.8672628 2.7011113 -0.47708195 -4.5668178 -9.757117 2.2620723 -0.85784376 3.6593986 3.7339976 0.2427417 5.2075505 2.7023873
1516 1.01413 2.5888445 0.32266036 3.6795921 0.76432663 2.0707743 -1.1957474 -0.7646611 -1.234782 2.3027618 2.2463896 -3.268239 1.1429812 0.39753586 2.7413614 -5.3584094 0.97031933 1.3902882 8.297255 5.3885713 -1.9350195 -3.9591496 0.7280325 -5.001182 2.5474124 -1.8731825 2.9925723 3.602532 0.02935197 -1.8360735 2.4970233 -0.6391862
1250 -6.796699 0.42338452 -2.9544356 1.5875503 0.69845307 0.83013755 5.34454 -2.8858256 4.3071575 0.3597247 -0.7329595 -8.779264 -1.1086127 -3.556085 6.0077214 -2.9016507 -7.333235 -1.7916278 5.9749403 4.661667 -5.5191464 11.361211 -1.6879455 1.3097513 -10.276384 -11.587315 9.152751 -2.8375127 0.79977304 4.4925084 -2.6499617 3.400825
180 -0.4845479 3.1480904 3.1314833 -5.9640145 3.800097 1.5712417 -1.584263 1.0201565 -0.6200402 -0.5750206 -3.544863 -7.5585656 -0.59225273 4.603473 0.055670545 -2.8965898 5.966003 -1.8067565 -9.168505 3.4487858 -0.7237358 0.12933642 -2.8766208 -0.06920072 -1.5250555 -4.5422177 -2.8555498 0.8265373 1.458513 -1.7475123 1.6030852 -5.7065005
271 -6.325059 -6.121339 -9.738266 1.543672 -3.2740052 4.1688747 1.8185449 3.7848077 -1.1249884 -6.271986 -3.9085336 -5.035997 -4.5353937 -0.31815198 0.16532083 4.6145706 -0.03757486 9.82027 -2.1144822 -3.4534352 3.5134099 1.982247 -3.671499 7.064629 -1.3635745 1.7038472 -2.3006573 3.5842562 -6.247338 -0.97898424 3.2174573 1.3601435
952 -0.8201672 2.9354105 2.821935 -4.5642347 3.1762319 0.60017914 -0.28400242 2.0404403 0.69003004 1.3882909 -4.7101574 -8.4257 0.6589644 2.7542956 -0.1338109 -0.6710245 6.173434 -1.6478806 -9.310723 1.7280266 0.50679094 0.30464402 -2.4909673 0.25534517 -1.96998 -5.53862 -3.1760347 1.0577329 1.5828587 -2.2379186 1.9402727 -6.211505
86 7.138782 -0.10284914 1.3516109 5.8698664 -12.497711 5.2417207 6.0101013 2.0025923 -8.170851 -1.7624643 2.637236 -6.9664445 6.819797 -0.55685073 -5.2475667 2.4030924 4.980831 -7.8436303 1.1027685 -5.345837 -6.604481 -5.2285767 7.663163 1.3171437 2.736281 5.9361844 -11.188012 -2.3398557 -7.7046857 -0.9739493 2.317273 -1.1252545
1471 0.36505947 -1.290143 7.93764 -2.3916318 10.891425 -1.6923821 -2.938919 -1.7755536 -3.9557667 7.461053 -9.469745 -0.7795169 2.3481967 -9.393882 -0.07286129 -6.4637036 -4.4788575 -4.312312 3.109936 -9.534889 -8.33442 -8.261257 0.8532434 1.5285361 0.1369172 -2.6886039 -2.0806105 -6.4855433 -3.0879827 -21.626991 -4.594706 -0.28126162
953 -0.6636058 3.0998087 2.8719923 -4.46174 3.0690703 0.98856425 -0.038057107 1.916271 0.9308478 1.7424858 -4.462286 -8.737878 0.5297 2.4874868 -0.5464117 -0.99988335 5.765404 -2.0386198 -9.673841 1.9010053 0.17370698 0.29401058 -2.1973755 0.14945342 -1.4090346 -5.737966 -3.1788244 1.1941864 1.310356 -1.9680753 1.5935783 -5.8354497
421 -1.2555451 0.46850246 5.261074 -5.9175935 2.5411713 1.1762373 0.60996914 -3.4936206 0.33563328 -3.080444 -1.4882632 -3.9476945 4.654866 5.7206693 -0.13424478 -0.9124458 0.23225556 -4.3902144 -15.671566 -4.3107615 0.883692 7.2582145 -3.123834 4.4276934 -5.468746 1.016248 -5.631018 -7.3997283 -2.5114176 1.9882952 -1.8641989 -1.8138851
926 -0.7396244 3.4913297 2.7096987 -5.513717 3.3535 1.143383 -0.9492544 2.318568 -0.19085334 1.0544703 -3.6290898 -8.419731 0.37590465 4.074356 -0.20263909 -1.0504047 5.8285065 -1.5213095 -9.4764185 1.5034724 0.3380866 -0.63841903 -1.6346666 -0.1856487 -0.7723111 -4.6710815 -3.687279 0.8901663 1.3535818 -1.154792 1.1207305 -5.658521
350 -1.1828606 -8.938793 1.1853474 -3.1179402 -3.8110166 -0.7567708 2.7022953 7.0880957 4.902413 2.9518564 -1.0139065 -0.2496674 0.11838367 -3.3151245 1.241753 0.084056556 0.62370014 -2.50678 3.9707146 1.2092587 0.5250958 2.2065656 4.7894177 -4.4249687 -2.5139227 -2.0543218 -0.30298877 1.6547668 5.3884544 2.0144022 -1.3596787 -0.4373408
1912 4.6626616 -1.9241452 -3.1404064 13.561133 -8.555146 7.763444 -6.131614 2.6480672 0.4131868 7.107634 -12.326256 4.603622 -5.5394425 7.917824 -4.032746 -4.799867 4.0322948 8.889361 -1.3272424 -3.1048338 1.7042031 6.4047256 2.5353012 -3.3499556 2.1059673 6.1169987 2.770846 -8.624329 -3.6670828 -6.2098856 4.802862 4.0362563
1291 -2.455949 -2.653812 -10.424807 -1.8024641 -3.2522457 5.3096395 -5.4573393 -9.991741 -4.9943256 -8.221211 0.33560252 6.444246 -1.554753 4.8077254 -5.366931 -0.3209958 0.24847642 -10.213998 12.220326 4.668294 5.9003506 0.5230877 -0.45398256 5.7764697 -0.6334136 -7.796809 -5.510992 2.7354481 -5.72985 2.4248352 -0.64514214 3.197151
13 -0.26944354 -2.145235 -2.0768144 1.6444033 6.4718733 0.080803454 1.5301782 -1.4422382 -3.0470505 0.63545555 2.506547 -0.433946 -2.8679736 3.121621 3.361474 0.87953764 0.40795326 -1.5441785 2.3462744 -2.550426 1.369382 2.2891393 -0.47766477 -4.704073 -10.319526 2.1966312 -1.5497689 4.2188673 3.2487497 -0.4757541 5.5011606 2.352638
338 -6.189485 -0.67968094 -1.6071512 -2.6383655 -3.7365475 3.2158797 -1.6877863 -6.763179 3.6113067 -3.3078518 6.2792544 -3.4623814 -0.6730325 -3.019051 5.53599 -2.8402743 -0.8195998 -0.37746158 -1.2085161 3.327359 -4.363402 -5.482005 -4.1367803 -1.9801717 -2.467092 4.625209 -1.1548188 -1.700019 3.9627304 -0.43678185 -0.4699519 -1.0208809
351 8.25071 3.4081035 1.7051138 -0.54233646 17.396358 9.570115 -5.574834 -3.2236936 2.608645 0.17833164 -0.8913835 2.5045886 -1.5483887 -3.1979163 -4.457366 -2.7811122 7.362234 0.25569233 -5.3406644 -17.902815 -10.156358 11.292705 -3.6990707 2.0227914 10.101256 1.3806257 5.092694 1.1639134 -7.5042267 -3.543901 -0.5079288 -7.6430206
939 -0.60007524 3.3114045 2.414076 -5.9645724 3.0995133 1.1476539 -0.35870606 2.4148786 0.3847481 1.0733299 -4.218459 -8.014267 0.35690317 3.9810522 0.020398863 -1.2480501 5.9559884 -1.4197736 -9.311947 1.809756 0.26842695 -0.7640428 -1.6635338 -0.29615086 -0.8634069 -5.079924 -3.0406082 1.540156 0.86447036 -1.2270622 1.3276734 -6.054816
662 -4.914161 -0.5954106 4.844184 -0.8457708 -6.028652 0.4501697 4.5900774 -2.0913715 -2.2190998 -2.6113236 -0.5523078 -0.9749338 -3.4057145 -4.804557 -1.2159746 0.86602217 3.1721134 3.4937665 3.4618495 3.2932043 0.6085758 2.4023788 2.425108 2.4080243 4.9820538 -1.5318402 0.6577951 -5.107445 6.033484 0.29083315 -5.8426867 -2.951325
280 -1.2674327 -2.3099275 0.48596162 1.7295256 5.849068 0.21092281 3.194904 0.0600615 -2.9316623 1.9857335 3.8258348 -1.5326788 -2.5716043 2.54955 4.057237 0.82313097 0.95431656 -0.6470741 1.9063286 -3.1737607 2.316074 2.6903327 -1.0186455 -4.2949963 -9.7958975 2.2261412 -0.9545809 4.5326185 2.518807 0.29464227 6.3992214 2.212059
1259 -2.4003832 -2.9101717 -10.93313 -2.3590863 -2.8245258 4.682471 -4.9126377 -10.355448 -5.120127 -7.8215823 0.34562415 6.8006988 -1.9726875 4.8629766 -4.933147 -0.33175966 0.5301048 -10.395785 12.948537 4.0683603 6.32542 0.61740434 0.123622306 4.3427734 -0.48172802 -7.9176087 -4.6773324 2.8653064 -5.452443 2.0333571 -0.11464848 3.595247
294 -3.2345867 -3.0876 5.620923 -5.504447 -3.1576054 0.90607893 9.4629545 -3.6240735 -1.6139812 -1.0882865 -1.0068474 2.4976506 1.7003875 -0.402626 -6.064898 -0.85165143 -2.0629618 4.3639984 6.1601424 1.5843326 4.447947 0.25242364 -0.2025791 -2.4716408 -1.3996602 2.2642462 0.7513999 -0.6895037 -0.55384266 0.17471768 3.072172 -3.2671888
309 0.6921143 -4.3310804 1.394755 4.296974 6.0195694 -4.228754 -0.6002903 -1.915559 -4.917746 2.5623147 3.2679248 -4.7045116 -2.1735709 4.842816 6.6885858 -0.65398914 2.7481353 1.8057855 2.6695302 -2.9327807 4.394976 -0.07722342 1.2032075 -0.8820323 -13.47252 3.407647 -5.171884 5.3125668 7.0297685 1.6567166 3.4292724 1.676755
39 11.489689 6.094458 3.390432 0.72893685 7.1148267 -4.4496064 2.7428405 -7.0454354 0.7603175 0.9832446 0.20101275 -6.4540854 11.593964 2.0805578 -1.1509252 3.4606225 0.21713461 -2.2674804 -2.3754318 -0.97328484 2.732561 3.0425346 6.946626 -4.3391924 0.88842314 -5.1477456 3.4906728 3.4977934 0.48753223 4.1988535 -9.969792 -2.6405756
186 -0.2467929 3.9869485 2.9315732 -5.3567643 2.774626 1.4249431 -0.5977671 2.055244 0.10309188 0.908026 -4.203678 -8.051777 -0.30986568 3.827478 0.07861515 -1.8104715 5.926417 -1.582694 -9.343167 1.9062408 0.14488079 -0.6960537 -1.5717384 -0.2760556 -1.3275136 -4.750796 -3.2419393 1.019843 1.8182069 -1.0217881 1.3851889 -5.97113
925 -0.699322 3.1449533 2.84102 -5.8039083 2.9283242 1.3529055 -0.6266209 2.492 0.08442431 0.91751254 -3.9023085 -8.334681 -0.08846904 3.9844973 0.07267342 -1.0390708 5.2082815 -1.5561143 -9.306648 1.7426369 -0.14075701 -0.7865771 -1.836016 -0.11631421 -1.0924149 -5.0953455 -3.1862695 1.2035782 0.99672323 -1.6963215 0.8745629 -5.4718328
32 -2.775602 -2.569862 5.9383397 -5.1667967 -3.7912567 0.24979003 9.189077 -3.4221919 -0.70179874 -0.96970606 -1.1658548 2.5969179 2.1108537 -0.5314063 -6.600681 -0.9097988 -2.0089154 4.7817 6.3120365 0.7543478 4.3970366 0.73454046 -0.23768449 -1.589651 -1.1264329 2.1387532 0.366389 -0.74467367 -0.41587636 0.21133423 3.8283029 -3.0654097
59 -3.180199 -3.2081928 5.3389807 -5.948771 -2.8871553 0.34712595 9.621302 -3.3906078 -1.281018 -1.3032591 -0.84357363 2.360267 1.3167492 -0.08808367 -6.2128835 -0.98725015 -2.1189167 3.5714178 5.949691 1.3992436 4.175217 0.45057425 -0.21308628 -2.6299577 -1.5257666 2.0015495 0.48040137 -0.016236495 0.11161226 0.4321622 3.9366596 -3.2433548
416 0.70842093 -3.676059 0.37604323 5.947159 0.74052703 9.559697 -6.0383444 -3.2932549 -8.849828 9.48371 -0.8449699 1.9134911 -1.5606245 1.749121 2.4023767 6.2018785 -1.6022538 2.6918688 0.2785026 -2.8519952 -0.8937769 5.2259483 5.7688737 -4.9877863 -0.08014537 2.6415687 5.723715 -1.9439132 -2.4225476 -2.9961467 1.6135304 4.329864
14 -1.7495861 -6.77831 0.5196833 2.5266354 -13.8787565 -10.940689 4.6343455 2.4171693 -6.4968476 5.869576 1.8522187 6.0368485 4.0927277 -2.065853 6.5791545 9.797177 -2.0890994 0.40887836 -8.724957 -3.38876 -3.832177 -6.3475165 -10.099427 4.793497 -1.3135656 -0.2118465 -8.001587 6.1155963 8.7214365 3.782425 1.4022977 -3.380174
1496 0.61885256 9.247404 -8.871428 0.45814 -6.4966245 -5.519049 7.2971883 -1.6704447 -14.30343 1.1338356 -0.5864534 0.75459146 -4.5006547 -2.813449 -2.8979971 -3.7226448 -3.4878805 0.79434234 -4.750302 2.8470898 -6.377797 -2.214005 4.960599 2.0637383 -5.976894 1.6669539 -5.8720517 2.3737683 -5.283738 -9.826602 -0.27072114 -2.189738
924 -0.54898864 3.4897792 2.9733012 -5.8842416 2.9348466 1.000096 -1.259561 2.4087512 0.22508135 1.351964 -4.0411716 -8.054705 -0.028591013 3.844557 -0.01718287 -1.8699459 5.7051945 -0.9036469 -9.6673565 1.8687761 -0.320911 -0.55954736 -1.9126207 0.08633503 -1.2626547 -4.716535 -3.3117645 1.348234 1.8616815 -1.5882329 1.11419 -6.25894
307 -2.776376 -2.9907444 5.8130336 -5.2534614 -3.1737514 0.6762074 9.450275 -3.527859 -0.8156793 -1.1876136 -1.3333675 2.805584 2.0191462 -0.67915994 -5.8925643 -1.5044105 -1.463159 4.6470304 5.774154 1.746807 4.6154532 0.498301 -0.15041713 -1.6325113 -1.5429273 2.1955905 0.51731473 -0.5520043 -0.5855913 0.09467334 3.45002 -3.5794873
1315 -2.197333 -2.6414664 -11.358414 -1.5971942 -3.1126034 4.616081 -5.3067737 -9.742105 -5.0597115 -7.444857 0.24063271 7.2272606 -1.7888111 4.3775873 -4.981511 -0.49173704 0.7028815 -10.112503 12.813098 4.0088058 6.11054 0.08846206 -0.43382376 4.987256 -0.023952864 -7.9289403 -4.932297 2.9654715 -5.6314692 2.4591508 0.40875039 3.6094925
912 -0.06693927 2.4931388 4.879039 -4.197407 1.455915 -1.0999194 2.1940122 -1.0613476 -0.5898158 -0.7001949 -4.9128294 -4.412092 3.8960626 3.3555574 0.5596828 0.816512 2.954712 -3.2856324 -15.379957 2.0427012 -1.3015394 1.685343 -1.8075837 3.010564 -1.6228704 -1.4583465 -5.886322 -2.4682364 -0.043026432 -0.55345446 -3.1242015 2.0464458
188 0.01673752 1.8303095 3.8589942 -5.1335373 3.6761827 0.5044202 0.15473536 0.5453691 0.79002994 1.1181195 -4.3880467 -6.3417687 0.72421175 4.5889454 -0.06790129 -2.1806824 7.4675374 -1.5179293 -9.783128 2.37627 0.7266244 0.9143894 -2.825306 -1.9179804 -0.2443169 -3.2625203 -2.9681776 1.404592 0.18425387 -2.35106 1.7991216 -5.3653646
937 -0.9563848 3.097384 2.3776336 -5.5610604 3.001915 1.0433666 -1.1472371 2.3301797 0.45191082 0.77365166 -4.140933 -8.507145 0.23548804 3.7577198 -0.24105294 -1.5442436 6.037127 -1.2867591 -9.486761 2.0110836 0.43743148 -0.3835774 -2.0300035 -0.034513824 -1.3234131 -4.7380767 -2.759929 0.87275434 1.6278788 -0.7810769 1.2074599 -5.7080536
442 2.5362287 -4.5421495 -0.06935776 7.1216965 0.98228055 9.090766 -4.89832 -3.3628395 -5.2840853 8.893017 0.9566492 1.1850349 -3.15492 3.2171574 4.091293 5.623302 -1.8127567 3.5600417 0.8748925 -2.6603713 -0.7662728 5.374103 7.508314 -4.909269 -0.28654665 0.95787394 5.474056 -3.8663447 -3.493444 -2.9739923 -1.1181527 4.193552
1273 -5.9554734 -1.3336079 0.8031253 -5.4912305 2.9911704 3.298804 -11.288215 -0.7736773 -1.8361801 -0.15606558 -4.424328 -1.4393541 6.1591463 7.1596575 -6.1270614 5.460441 -5.596126 2.7909465 -5.541475 -7.7460923 2.0778763 6.661451 -1.4797318 2.7495186 -1.6704724 5.517095 11.436454 -7.3177114 -6.5469794 7.2878847 -9.521818 -10.084583
418 1.9532197 1.4343417 0.6628002 3.7240775 0.46317476 1.1978049 -0.9480629 -0.07027288 -1.9222687 1.4166298 2.3092637 -4.040856 1.437163 0.46737093 1.8680004 -6.3524923 1.123497 1.6883365 7.9412956 4.933426 -1.8281622 -3.2268853 -0.24402435 -5.6830683 1.7830042 -1.5719161 1.7900538 1.8947458 -0.44360828 -1.7650259 1.7424862 -1.0917318
406 -0.9220344 -0.6781516 0.43287703 -6.692918 7.4551854 -3.1270866 1.6556807 -6.7395277 3.4252923 1.5721707 2.9454553 4.1212 5.2339272 7.635756 5.169862 1.4733875 -7.8301473 3.710762 -0.12359232 1.5743902 0.13538282 6.378606 -1.5122167 -0.48817492 2.354987 -6.1734395 -2.6201274 14.500497 4.074379 -5.157146 -10.820158 -5.325191
223 -4.914975 -2.4434938 -8.25402 5.4780736 -5.396182 5.7065277 -0.22761321 3.9640448 3.8988292 -4.169343 -1.5136708 2.8930078 -5.680732 -2.7464728 -0.7841924 4.261602 1.7211175 4.351565 -4.4729514 -3.5050523 3.54589 1.5481839 -5.5468473 8.61175 -3.1978695 2.8010404 1.1589966 2.880179 -5.4089775 -4.0915456 4.8501906 -0.90821147
942 -0.48951548 2.7991512 2.8197742 -3.0502076 3.5323727 -1.2616314 -0.10874213 0.9530268 1.0486321 1.6720865 -4.2001305 -6.866961 -0.45286143 4.8332424 -1.1534375 -1.492238 5.9683924 -0.40308657 -9.430633 2.2022047 -0.09471932 -1.2024773 -3.307713 -0.8439756 -0.3068658 -3.1144242 -3.2571986 0.04203563 0.6168047 -0.8984518 -0.33547002 -4.3630276
